4185 64
481 0.005891066 -1.2888173 0.274041 0.22226 0.24040926 0.17322952 0.94729596 0.58609706 1.2494063 0.474545 -0.062539764 0.34282553 -0.71111375 -0.7666629 -1.0330447 0.018534848 -0.48400804 0.6941776 0.1059211 -0.6102592 0.24423698 0.17120238 -0.72779775 0.34084442 -0.14215206 0.3249509 -0.59832704 0.20899929 -0.10954782 -1.1356891 0.3885635 0.072288506 0.50575495 -0.13995956 -0.25892234 -0.2782034 -0.5191324 -0.018419798 -0.3528982 -1.0584123 -0.04833107 0.012431391 -0.04023186 0.9771516 0.26581347 0.6452106 -0.51201165 -0.16874388 -0.7216945 -0.5980939 -0.5477826 0.07366815 0.7784815 0.22452731 -0.68665737 -0.70708454 -0.11717095 -0.06534006 -0.5410923 -0.85234463 0.024354292 0.52386665 -0.7988693 0.954869
601 -0.0048960694 -1.4221228 0.14015621 0.23508717 0.2971135 0.13888384 1.2541845 0.60146254 1.2356015 0.3250189 0.013425261 0.44175395 -0.6965135 -0.82833076 -1.0309591 -0.1423097 -0.44495034 0.7945085 0.22125645 -0.71340567 0.23121138 0.23603253 -0.82207274 0.33645034 -0.216979 0.29130042 -0.64133745 0.26125473 -0.055153314 -1.1707506 0.47492182 0.12396506 0.4888833 -0.2556837 -0.20882542 -0.22473407 -0.5151979 -0.118429154 -0.25956324 -1.1169733 -0.08464872 0.034856997 -0.013877586 1.0598798 0.23635699 0.6616935 -0.3932557 -0.18065129 -0.67949307 -0.72959566 -0.661729 -0.015170551 0.75476646 0.26440212 -0.61290044 -0.691698 -0.04699529 -0.024592701 -0.5423949 -0.91711 0.1494672 0.6236036 -0.8856319 0.9026143
138 -0.38634348 -0.3003843 0.50012916 -0.82067186 0.4497911 0.09960125 0.10392982 0.31332842 0.30919376 1.2176083 -0.07553047 0.81746083 0.4418315 -0.34429735 0.22928287 0.15684435 0.1512385 0.60577035 -0.22384135 -0.54332805 -0.12282258 0.47068372 -0.1593731 0.37955454 -0.3824748 0.0010232996 0.1165288 0.07324308 -0.5086392 0.012644831 0.6367237 -0.17745288 -0.18753217 -0.27197218 -0.10555009 -0.25735626 -0.5951133 0.0011265763 0.19450508 -0.62047416 -0.25561038 0.11867976 0.22280742 0.5122678 -0.20834406 -0.010491945 0.010835124 0.076222755 -0.45635024 0.13698062 -0.60599786 -0.35797048 -0.4024562 0.6925638 -0.052982207 0.34940657 -0.35500428 0.019063149 -0.789901 0.7008509 -0.22439702 0.08114165 -0.023233144 -0.49491638
442 0.1770613 -0.0024541467 -0.48710352 -0.54712355 0.8122202 0.21309236 0.13511351 -0.056550488 -0.3031299 0.4866811 0.24837944 -0.2940996 0.60394526 -1.1563686 0.01801915 -0.29976606 -0.10568552 0.8129012 0.16686513 0.529452 0.3505763 0.36370897 -2.031732 1.172488 -0.7402896 -0.283181 0.15761535 0.581535 -1.0091143 -0.33120704 -0.2565698 0.12961067 0.06411076 0.85038996 -0.045064744 -0.21086359 0.23603696 -0.27823445 -0.6452484 -1.2528981 -0.7456243 -0.029506888 0.67201614 0.57984763 -0.3184826 0.7703004 0.23393032 -0.0612952 0.007552483 -0.34774357 -0.09743151 -0.2845318 0.21969713 -0.31686074 -0.7588482 -0.40722346 0.6636993 -0.07660793 -0.6970241 0.033207 0.1443279 0.3499516 0.21530442 -0.49664485
835 0.1282677 0.028182803 -0.54888624 -0.48465458 0.8237969 0.29837406 0.18594232 -0.042711243 -0.23865908 0.46661997 0.25958923 -0.3813439 0.6585021 -1.2439581 -0.06609608 -0.22727075 -0.08169931 0.8898215 0.06212066 0.48210075 0.33387497 0.5078907 -2.1380534 1.265926 -0.7193092 -0.25884014 0.208899 0.57542264 -1.0413805 -0.395085 -0.19913909 0.22908275 0.113415316 0.904002 -0.03756573 -0.24020386 0.24713644 -0.2637656 -0.65780044 -1.291236 -0.7206302 0.12393569 0.70155424 0.6681371 -0.35947803 0.68686014 0.2544297 -0.047582243 0.06427473 -0.41190633 -0.06952892 -0.32435662 0.21407276 -0.32125264 -0.8567372 -0.4551897 0.70660394 -0.16055714 -0.657884 0.048025843 0.1887292 0.37193963 0.3238934 -0.43263656
665 -0.0988121 -0.44205713 0.5045182 -0.503531 0.15438518 0.61660516 -0.35590234 0.3812351 0.12569976 -0.33196017 -0.5188695 0.17930907 0.076223865 -0.045371424 -0.2636802 -0.1773355 -0.15372363 0.44748062 -0.19678053 -0.39898834 -0.32828668 -0.009304056 -0.047218688 0.96195704 -0.063505165 0.38300195 0.6258659 0.9722422 0.22392224 0.27505803 0.2574405 -0.529654 -0.23575643 0.17098665 0.19460236 0.06696956 -0.17638579 -0.5498174 0.10941539 -0.5304799 0.31381717 -0.12978315 0.49085382 0.69849706 -0.2139449 0.83708197 0.055210125 -0.34659192 -0.07229515 1.1610976 -0.43238246 0.25841296 0.8992563 0.5088431 -0.7805595 0.3401263 0.09976913 0.24320503 -0.2708926 -0.48792472 0.3309776 0.37351832 0.50885373 -0.21272796
635 -0.2212435 -0.13103369 -0.63419336 -1.1767386 -0.3341695 0.30713362 -0.5762132 -0.37059796 0.38401583 0.91534585 0.57642543 1.0301124 -0.35517958 -0.5933141 -0.62880045 -0.10333293 0.7237978 0.38151792 0.028799357 0.0098450165 0.38232625 0.30403 -0.6748148 0.069160104 -1.2621459 -0.18808077 -0.67100054 -0.042208824 0.11461837 -0.47956845 0.2900313 0.102644876 -0.059358694 0.74867016 0.18436778 0.66540056 -0.3526133 -0.021200007 0.38167053 -0.36662263 0.63289773 -0.30123726 0.35648972 0.030789439 0.8916342 0.6626622 0.5046497 -0.14956224 0.58914226 -0.003234924 -0.9555381 0.48819974 0.71143717 -0.21983463 -0.5469241 0.73865986 -0.23577435 -0.55160254 -0.92253923 -0.8888881 0.26317203 0.6033942 0.5874997 -0.2095844
679 -0.3152618 -0.17726031 -0.65882516 -1.1289684 -0.29215288 0.29280704 -0.7163491 -0.42945665 0.39622208 0.97953236 0.43944094 1.0385848 -0.255747 -0.6371471 -0.72592163 -0.080440156 0.6716523 0.52535135 0.0860365 -0.08626515 0.53063923 0.32479396 -0.7176425 0.26119202 -1.3532184 -0.15944879 -0.64530677 -0.012475764 0.1605699 -0.42117712 0.38048223 0.078578636 -0.013248922 0.6761967 0.29376572 0.7051745 -0.38738745 -0.06199653 0.60894406 -0.33745775 0.7149661 -0.23402141 0.30579302 0.010412302 0.9622823 0.7063251 0.48006946 -0.24856642 0.73634946 -0.15580256 -0.99159807 0.47888932 0.8675085 -0.17561422 -0.669286 0.83258915 -0.2593426 -0.7480188 -0.9341472 -0.95289713 0.46139973 0.5501959 0.7386026 -0.13909309
27 -0.3585528 -0.30968708 0.5478447 -0.80442256 0.47080043 0.18122166 0.116949365 0.2581926 0.447968 1.1985909 -0.021285867 0.76189107 0.44738466 -0.4592944 0.16753389 0.088328436 0.14314772 0.6191273 -0.28377193 -0.48258927 -0.17092413 0.563406 -0.2558352 0.3226234 -0.37375042 0.038993448 0.09852344 0.11316027 -0.5474125 0.14526638 0.6880242 -0.27232766 -0.19569138 -0.34212393 0.03062592 -0.33792958 -0.5997677 -0.022128865 0.18611403 -0.67092085 -0.32018366 0.19912289 0.1320823 0.4570753 -0.26867306 0.008960243 0.07909307 -0.019974615 -0.62952965 0.0583683 -0.5576096 -0.36501825 -0.3025558 0.7713657 -0.0057962495 0.47562864 -0.42344493 0.0038614739 -0.77514046 0.7493508 -0.24298353 -0.0050712046 -0.10752102 -0.5177012
10 0.35185656 -0.084684275 -0.12237063 -1.0454633 0.9482091 0.024492528 0.37085107 0.7286449 0.1930787 0.8890886 -0.12970379 1.0234095 -0.25951427 0.55175036 -0.94725364 0.4610109 0.8912351 1.210426 -0.3699651 -0.99467325 -0.49455398 -0.004100422 -0.4848409 0.932637 -0.44034818 -0.2146372 0.59536564 -0.5143712 -0.6328816 0.31210685 -0.25514546 -1.5488371 -0.50632495 -0.026452897 0.22135831 0.09381987 0.57449853 -0.48673582 -0.39464432 -0.88165855 -0.3637785 -0.28184307 -0.12576976 0.38779682 0.11424375 -0.04469527 -0.09664778 -0.11737834 1.1029986 -0.37852997 -0.4969594 0.02509311 -0.09038623 0.42140016 -0.041181922 0.34936503 -0.17043611 0.27584103 -0.1875412 0.10401149 0.20081574 0.24558112 0.5539642 -0.35149038
796 -0.59685636 -0.3171664 -0.23971158 -0.5536294 0.281947 0.9882499 0.30685085 -0.26329386 0.5685038 0.9223329 0.24908862 0.60102254 -0.09954652 0.7616079 -0.19421856 -0.15167198 -0.57219994 1.0611653 -0.28803274 -0.6710943 0.65003794 -0.18683983 -0.75648314 0.838976 0.34285918 0.76822835 0.61240214 0.5057786 -0.41290745 -0.16367175 -0.36904445 0.6606851 0.39065328 -0.63214624 1.4736128 -0.2257478 -0.13864595 0.54292035 0.699353 -0.8535 -0.44105843 -0.08486032 0.41055262 0.53752244 -0.39624554 0.73458743 0.48922578 -0.6958582 -0.14874953 0.24872082 -0.551852 -0.53723246 0.65186137 -0.030390384 -0.7846808 -0.55718976 -0.31133375 0.57018554 0.019009568 -0.8037026 0.86369574 0.2892346 -0.107191145 0.19959415
506 -0.5641193 -0.72627556 -0.1569498 -0.41385698 -0.28554416 0.05004888 -0.7419468 -0.32622528 0.97107726 -0.063054524 0.1748261 0.026411613 -0.18210737 -0.053346716 -0.6286982 -0.00012823519 -0.4517408 1.0656956 -0.31641752 -0.6542921 0.33226126 -0.75919724 0.16574885 0.091945454 -0.2586306 0.25499025 0.39120546 1.2255584 0.13624 0.563071 0.48776788 -0.74657595 -0.2512268 0.75944406 0.32183474 -0.5680761 0.26433733 -0.08331825 0.93029183 -0.27040303 -1.1517822 0.5699637 0.021335306 0.5726289 0.13511516 0.62541664 0.2981022 0.94496197 -0.2490929 0.9218132 0.14337915 0.13179547 0.5143694 0.048233498 -1.4456054 0.18214963 -0.6866783 -0.22724415 -0.7748884 -0.029532095 1.0091238 -0.033251196 0.10208204 0.20549433
269 1.0167135 -0.032261156 -0.3992523 -0.18007587 0.036141343 -0.7339002 0.49681425 0.17317612 0.6777106 0.44539732 -0.5602962 -0.09403506 0.9816739 0.20838252 0.7185782 0.7588009 0.11863705 0.0037166777 -0.07463467 -0.08364481 -0.8798819 -0.079410784 -1.1300794 0.9427139 -0.42975608 -0.69892144 0.062222544 0.44190118 -0.6675947 0.14410861 0.4174117 -0.15289144 0.25502416 -0.12670825 0.7072668 -0.23898509 -0.19402091 -0.9329379 0.18598713 -0.9208466 -0.6495419 0.31646943 0.22363824 0.17234081 0.68275046 0.5838631 0.36883202 0.12899397 -0.6177332 -0.4863227 -0.37439612 0.33808488 -0.024047421 -0.00087692094 -0.8050703 0.5030815 0.2785431 -0.57985896 -0.45293692 -0.25441244 -0.22909863 1.1369586 0.4359482 -0.06952791
507 -0.5474194 -0.713561 -0.10829777 -0.2920508 -0.29221764 0.03240119 -0.8611886 -0.19353315 0.91772497 -0.024560055 0.1517391 0.05127834 -0.16308898 0.04171811 -0.51040703 -0.13734104 -0.37917608 0.9386001 -0.31529564 -0.55181986 0.4046912 -0.5821186 0.23705629 0.24404895 -0.36560178 0.226304 0.45607728 1.1306566 0.05063276 0.5159183 0.39147234 -0.64935535 -0.2614005 0.7603418 0.3413169 -0.4663448 0.320831 -0.07392602 0.91986597 -0.22264954 -1.0427876 0.37735975 -0.1151174 0.5421475 0.046700325 0.6404038 0.21826091 0.81037116 -0.26223022 0.9552408 0.124843135 0.20810738 0.54029727 0.11403702 -1.3826017 0.20662747 -0.5668053 -0.29455134 -0.7604753 -0.026942058 1.1108208 -0.11314219 0.06529786 0.106997654
3420 -0.5091462 -0.35056674 -0.24477938 -0.48885408 0.19841723 0.75391376 0.36524004 -0.118379146 0.57910657 0.80227345 0.244584 0.75633997 -0.059205886 0.69993436 -0.085952625 -0.07375453 -0.4825109 0.9174923 -0.33835346 -0.79163796 0.628372 -0.13574892 -0.5033189 0.76751876 0.23049018 0.63347274 0.63282555 0.30920747 -0.338011 -0.2219675 -0.47623003 0.44086 0.35458538 -0.51611525 1.4930705 -0.22798282 0.0559544 0.49490893 0.75314105 -0.875474 -0.37525806 -0.1767703 0.41880757 0.34888342 -0.3555733 0.7054536 0.42417222 -0.45112783 -0.25473338 0.36746192 -0.4716144 -0.6280078 0.6367078 0.0659386 -0.6512292 -0.5870189 -0.3047352 0.24796827 -0.111930594 -0.6458724 0.87436634 0.22386429 0.044815235 0.14431946
223 0.06492071 -1.4274089 0.09458147 -1.0395392 0.31626993 1.4401858 1.7125533 0.09147027 -0.34455353 -0.22308311 0.8891239 -0.4452399 -0.04673183 -0.87544006 0.24974163 -0.26607803 0.6214546 1.0518434 -0.2929167 -1.143377 -0.50244236 0.68732136 -1.058838 0.4912751 -0.918309 0.40607354 0.5952051 -0.4287353 -0.2430337 0.27052543 0.3819969 -0.7135486 -0.2915142 -0.04769239 0.38132277 0.07585505 -0.037861302 -0.777775 0.6095524 0.62943757 -0.17824765 -0.80187887 0.6511514 -0.191422 0.83866656 -0.007181286 0.48363483 -0.34059724 -0.18141322 -0.59979206 0.26725975 0.034605738 0.021011505 0.7448275 0.0006216914 -0.29480353 -0.32932758 -0.40962315 -0.8890954 -0.08535847 0.80334586 1.4122088 -0.2697449 0.18122113
750 0.9727298 0.009793713 -0.4354228 -0.0255427 -0.059468742 -0.58369684 0.27401784 0.11803625 0.55481744 0.4128741 -0.61934495 -0.15717962 0.92849743 0.36634928 0.7170396 0.75652915 0.054179378 0.107100844 0.078269936 0.050979305 -0.8229716 0.041766625 -1.069397 0.933304 -0.73593926 -0.90462244 0.16238032 0.39404103 -0.65290886 0.05421127 0.5717955 -0.14923388 0.17599678 -0.07860901 0.6042089 -0.16814642 -0.13498962 -0.9125163 0.32712936 -0.8900113 -0.6921353 0.24262309 0.15037186 0.1199292 0.5617388 0.5604596 0.5238058 0.05864625 -0.58722305 -0.53141385 -0.39680147 0.34839576 0.0456745 -0.043708954 -0.8521067 0.47557873 0.20466764 -0.56286013 -0.39303613 -0.2668978 -0.21736872 0.8846075 0.35482642 0.031231929
676 0.010695545 -1.1471547 -0.107110746 -0.8302517 0.41803038 1.1624371 1.6441263 -0.044688184 -0.28780085 -0.26757437 0.65955174 -0.02578652 -0.27181762 -0.8516699 0.110758185 -0.46392944 0.6455422 0.86497647 -0.29620913 -1.053884 -0.39145973 0.7751272 -0.9072045 0.46127492 -0.7023367 0.45861676 0.21935146 -0.3052245 -0.11685261 0.013653959 0.27719605 -0.45954233 -0.26550382 -0.22326745 0.48781103 -0.0033735961 -0.0020212226 -0.76722497 0.6079438 0.33378407 -0.10251703 -0.8126644 0.6282891 -0.12649895 0.53907627 0.2815509 0.3572654 -0.093729675 -0.43245563 -0.6451897 0.52076554 -0.043761704 0.05721789 0.47883296 -0.036840472 -0.23899953 -0.333679 -0.43545675 -0.98772144 -0.1414828 0.4859011 1.1241611 -0.36052766 0.21753636
147 -0.19554588 -0.005521353 0.34023368 -0.21736036 0.5642201 0.062475625 0.6886093 0.79403526 0.7803196 0.8843556 0.16623448 -0.33077887 0.26545528 -0.12149221 -0.07527117 -0.55543846 -0.022398796 0.7569521 0.2193065 -0.2346312 -0.774261 0.6133142 0.08959522 0.63975966 -0.46447453 -0.17774528 -0.23720086 -0.05585703 -0.3765735 -0.21440372 0.78686726 0.36544532 -0.5868071 0.6805405 -0.3330943 0.1558698 0.1368618 0.6238079 0.10652928 -0.12005946 0.33636886 -0.043123018 -0.51461047 -0.04870011 -0.25441873 0.7830097 -0.45090795 0.6717574 -0.3752126 0.32401255 -0.80427414 -0.5909793 0.12893757 0.61422753 -0.5530189 0.3316285 -0.7726568 0.13513528 -0.31884852 -0.2798391 0.41502276 0.46760944 0.34128365 -0.4494712
1442 -0.19701332 0.6068346 -0.8796811 -0.3808378 -0.4344532 -0.6713561 -0.9683413 0.5973895 -0.7340948 0.82357645 0.5556835 0.31715477 -0.356825 0.40814593 -0.512717 0.59722096 -0.3480251 1.2608881 0.11402824 -0.08287829 -0.5265192 -1.0614791 -1.0800201 0.27798426 -1.355969 0.30327916 0.69378644 -0.3874701 -0.2590417 -0.78690577 0.06703185 -0.20013277 0.21370883 0.32177022 0.37400362 -0.70925426 -0.1962803 -0.20339614 1.3761483 0.7733017 -0.21480711 -0.08990634 -0.37568325 0.2713369 -0.16001597 -0.15872127 -0.2626147 -0.54470795 0.044500556 1.3491985 -1.0144444 0.6546831 -0.102346845 0.7251064 -0.911083 0.023887133 0.12127295 0.7648585 -1.5136648 -0.53504103 0.70916706 1.0902764 -0.1457 -0.17099482
355 -0.42251924 -0.32973912 0.67858255 -0.53555375 0.684632 0.47197467 0.8158 -0.32131788 0.9707349 0.26982352 -0.026146008 -0.21434401 0.68162423 1.3618262 -0.3341159 -0.35409376 -0.18267347 1.011138 -0.14561372 -0.47591925 -0.05129504 -0.7141432 -0.60578305 0.43281057 -1.427206 -1.3787171 -0.42131257 -0.31077105 -1.3102062 0.047022734 1.366799 -0.8350543 0.2633338 0.5215289 0.78783596 -0.4713913 -0.16090661 -0.62255263 0.95665824 0.33493802 -0.52119315 0.30158412 0.38398522 0.48577026 0.5531265 0.09887708 -0.62104964 0.31769806 0.0790352 0.6952644 -0.057727434 -0.32572323 0.6607227 -0.38282523 0.00522918 0.16618578 -0.50140494 -0.26516187 -0.6432166 -0.16801521 -0.08705383 1.2564129 0.029454777 -0.02128583
3237 -0.25202107 0.71308553 -0.46374443 -0.54247844 -0.42681536 -0.7491138 -0.8166076 -0.052301902 -0.18663839 1.0291898 0.40109017 0.3196915 -0.25130698 0.13238056 -0.89554715 0.85144544 -0.4363876 1.1804931 0.15512308 0.104391895 -0.98063457 -0.9256787 -0.7981965 0.25621906 -1.4180791 0.2826285 0.8768315 -0.6146498 -0.5203884 -0.51573855 -0.06880358 -0.14804699 0.31362414 0.14441139 0.36334074 -0.93810654 -0.32507843 -0.58743936 1.5294971 0.64363104 -0.41770753 -0.38234496 -0.9068786 0.5358222 -0.37032378 -0.17600752 -0.25400734 -0.3982208 0.20694044 0.9674608 -1.1809721 0.44150224 -0.18331213 0.38600236 -0.96232927 -0.26355386 0.43528876 0.35761052 -1.4124547 -0.18307726 1.057425 1.1207117 -0.06583432 -0.41004434
178 0.3807786 -0.7373272 -0.9239353 -0.7660236 1.130067 -0.45783815 0.43074408 0.5026119 0.90289795 0.20646 0.09176178 0.3157173 0.21389006 -0.009523996 0.015033297 -0.23241335 0.24170211 1.1368843 0.19675258 0.52215284 0.060773246 -0.18874232 -0.09153083 -0.051150445 -0.76138246 0.47209302 1.0120037 -0.1836672 -1.0251148 -0.632079 0.40292898 -0.87517995 0.46558195 0.57031274 0.08702248 0.3571303 -0.22994925 -0.72776806 0.05616987 0.13301362 0.48484662 0.14447899 -0.027023321 -0.7402461 0.4188609 -0.1030255 0.00450419 -0.7162952 -0.110612005 0.29027548 0.7600046 0.62534785 0.2695025 0.45841488 -0.7425266 -0.28764978 -0.25116563 -0.06796554 -0.17124066 -0.2546061 0.44478154 -0.080457166 -0.16350995 0.06623225
53 0.3182031 -0.13324207 -0.08774552 -1.1414098 1.0100467 0.010183612 0.39340857 0.7805156 0.21475554 0.7937924 -0.033313762 1.0435194 -0.2667681 0.5368017 -0.9533874 0.4641347 0.92872715 1.1595274 -0.39905915 -0.96965945 -0.53175795 -0.061701447 -0.58839446 0.942753 -0.40478668 -0.17737724 0.6713478 -0.50889355 -0.6429897 0.26467177 -0.36006117 -1.5478957 -0.3800375 0.032160293 0.10872248 0.034532715 0.52998435 -0.48394123 -0.40925363 -1.0426773 -0.3431401 -0.3114634 -0.13162827 0.33748645 0.04396786 -0.09447886 -0.16361347 -0.21393576 1.1925035 -0.4216456 -0.57822603 0.06716086 -0.07009441 0.49022076 -0.047911108 0.34223047 -0.31519315 0.22767441 -0.110060014 0.083781764 0.23905885 0.27924788 0.5151461 -0.3702028
537 -0.13717748 -0.3095841 0.37546524 -0.54436445 0.030569077 0.61894786 -0.2816189 0.48402283 0.09332049 -0.22391562 -0.50201535 0.27724937 0.12919311 -0.18157792 -0.20903873 -0.2126705 -0.038404603 0.3203928 -0.13697354 -0.28914267 -0.3791699 -0.07177013 -0.0060509597 0.8913513 0.13647094 0.40512487 0.7628897 1.0766227 0.06667671 0.10101234 0.29279673 -0.50178224 -0.12481336 0.31014302 0.09739422 0.2404239 -0.25569806 -0.6157397 0.21382548 -0.5795734 0.44357914 -0.23934703 0.5136077 0.60068816 -0.07070808 0.9714315 0.107305326 -0.37135014 0.11561808 1.2485706 -0.5291278 0.24364828 0.8172155 0.5447923 -0.5914943 0.3161194 0.07305765 0.16954823 -0.36077166 -0.4070556 0.5087201 0.44030038 0.474865 -0.30949834
602 0.10316578 -1.4660884 0.20412171 0.23972906 0.24689771 0.09644554 1.21285 0.64119005 1.2928103 0.36327872 0.07411359 0.49741846 -0.7885933 -0.89208716 -0.9074243 -0.05589654 -0.4639795 0.8182296 0.1826332 -0.7207706 0.2163519 0.15346146 -0.89238876 0.32498932 -0.2553024 0.2724976 -0.68723726 0.36047953 -0.12710144 -1.199346 0.4691694 0.07520658 0.59147495 -0.3088218 -0.19180694 -0.18925622 -0.55806077 -0.093858175 -0.18467186 -1.2041053 -0.060145456 -0.01902765 0.0004798543 1.0946764 0.19327955 0.7663103 -0.45363823 -0.21322335 -0.77432024 -0.6724233 -0.5896786 0.016271846 0.81435734 0.18753332 -0.6741302 -0.71346426 -0.053514667 -0.024789063 -0.5149501 -0.90998906 0.23632614 0.6858328 -0.95472527 0.9489206
426 -0.2370545 -0.10358472 0.2084599 -0.80043656 0.43499956 -0.03596599 0.05217488 0.32468987 0.0853993 0.80010605 -0.5780624 0.6796575 -0.077977166 -0.10403584 -0.11706125 0.24960409 0.63923264 0.96304137 0.37295812 -0.7561352 -0.09226112 -0.1634848 -0.5307406 0.4290376 -0.034980837 -0.6661463 0.23650655 -0.11911268 -0.5915339 0.25244558 0.17312287 -0.4585152 -0.3703943 0.39582893 0.5014049 0.16246052 -0.33743945 0.13167702 -0.14641844 -0.7261187 -0.08462623 -0.36160553 0.035170894 0.55094254 0.115409285 -0.31846565 -0.29877445 0.22861294 0.29147297 -0.23339128 -0.20487283 -0.46544215 0.078346744 0.2767759 -0.18283252 0.21889035 -0.030635308 -0.0515291 -0.7653229 0.28498152 0.01640957 -0.051934987 0.3966925 -0.61559075
264 -0.3651155 -0.32068184 0.4183974 -0.7286786 0.4397214 0.13245934 -0.058958407 0.40047535 0.43360004 1.3030218 -0.016767077 0.83238906 0.36731663 -0.4707092 0.123759136 0.10846759 0.12868364 0.6222884 -0.2798526 -0.661628 -0.10324012 0.45981947 -0.12695171 0.33807835 -0.4130234 0.02086089 0.09133813 0.20434804 -0.5102689 -0.09093553 0.6272151 -0.20898466 -0.27102327 -0.33147606 -0.015240717 -0.26447776 -0.62593997 0.039234493 0.2905593 -0.6367527 -0.2949168 0.119859435 0.1870345 0.5119103 -0.3563233 -0.07260236 -0.0063600186 0.020887217 -0.44783723 0.2563393 -0.65365076 -0.3440784 -0.39582264 0.72555894 -0.2090549 0.45237714 -0.445609 -0.1709309 -0.7561958 0.7653082 -0.27472174 0.18115684 -0.077444926 -0.63901776
803 0.3342908 -1.3392465 -0.3330077 -0.28374743 1.1927874 -0.32254168 0.36621737 0.3422655 0.61158824 0.11063991 0.34898356 -0.1050811 0.48716125 -0.14241382 -0.11075559 -0.2774534 -0.14289495 0.75316024 1.1034644 -0.6176201 -0.26291507 0.36265978 0.3410195 -0.19315402 -1.0639073 -0.20495835 0.03127988 -0.5042231 -0.6785792 0.5064835 0.37769896 0.32997823 -0.15451975 0.72070295 0.25622177 -1.2520201 -0.28961387 -0.98357916 -0.4952745 -0.069319114 -0.5830005 -0.13929677 1.0218483 0.98239285 -0.82038355 0.6172105 -0.26621333 -0.032332588 0.4383414 0.27666607 -0.054760687 0.83941066 -0.40101725 0.32858333 -0.29670784 0.79664695 -0.5632269 1.2840083 -1.8620888 0.6476395 1.0631113 0.19528943 -0.124454744 0.91079724
354 -0.28424472 -0.035182655 0.3595557 -0.74874085 0.6400243 -0.09065477 -0.08264747 0.49773732 0.39082432 1.3152885 0.25773126 0.2878741 0.33743456 -0.40210512 0.16689691 -0.05525897 -0.13951057 0.4014041 0.13098617 -0.46812516 -0.28053486 0.27143067 0.18533862 0.38662702 -0.28594664 0.06365456 -0.16490571 0.19548693 -0.40897352 -0.050695475 0.49238425 -0.09171857 -0.21383244 0.254779 -0.113008246 0.09812145 -0.40566242 0.15311652 -0.12256787 -0.62141967 0.20087466 0.37509608 0.20816588 0.14076033 -0.49212447 0.291607 0.042283233 -0.08700084 -0.3459349 0.091104 -0.77896416 -0.7392848 -0.00393171 0.651153 0.16324675 0.3795127 -0.49545777 0.051860362 -0.78169703 0.64122915 -0.22740397 0.42304718 -0.18015848 -0.42384875
1596 -0.56360745 -0.06666767 0.3917617 -0.50524855 0.6280808 0.4863475 0.57439077 -0.3845971 0.48306474 0.061844617 -0.0037554696 -0.19001715 0.8571034 1.3866613 -0.38160667 -0.35343596 -0.15242268 0.82661515 0.099510126 -0.6334572 0.028939834 -0.6083664 -0.6653062 0.5737281 -1.4337401 -1.3124199 -0.52759814 -0.49081343 -1.3785142 -0.24526528 0.8831619 -0.8223703 0.2697187 0.56167597 0.6987237 -0.47465557 -0.20875423 -0.45631585 0.9776218 -0.01019329 -0.26602554 0.16284059 0.22277454 0.5414163 0.43500248 0.19250944 -0.7034669 0.12041815 0.15669858 0.3308352 0.020587873 -0.5778088 0.52181894 -0.51454854 -0.09390188 0.17878664 -0.66682804 -0.41779006 -0.4957781 -0.15686926 -0.16749096 1.2214628 0.053645413 0.12587404
61 -0.13742124 -0.21887031 0.1655313 -0.9896498 0.75495964 0.037896834 0.14076693 0.22317484 0.27597392 0.904087 -0.24212532 0.7431509 -0.31663963 0.22216477 -0.5182768 0.40325534 0.7183524 0.90834236 -0.083152995 -0.9646066 -0.103114024 -0.06906089 -0.3689702 0.67391896 -0.10312047 -0.48139632 0.54062265 -0.30953962 -0.5695203 0.2951435 -0.15917797 -0.91750073 -0.66789407 0.4300297 0.43487242 0.09344123 -0.11424042 -0.22987442 -0.14051563 -0.9228901 -0.22379056 -0.092020325 -0.10625249 0.6323444 0.07617082 -0.2588786 -0.1843118 0.25276348 0.42679563 -0.6885284 -0.24519543 -0.24792713 0.016355887 0.44138208 -0.36179683 0.43798122 -0.07035333 0.17334878 -0.5940197 0.33078584 -0.1267385 -0.16159578 0.4823175 -0.56685174
139 -0.06889615 -0.15825437 -0.7802586 -1.6802962 0.12106345 0.6800444 0.97436273 -0.046192758 1.0228465 0.9345056 0.057604544 1.4703885 0.7830613 0.34061918 0.014939693 -0.56345046 -0.7486152 0.862364 0.10611813 0.24424037 0.09913654 -1.5887296 -0.5126374 1.032264 1.0653692 -0.2730316 -0.99802744 -0.29686344 -0.7927748 0.3506011 0.35199666 -0.26218873 -0.42528284 -0.15543357 -0.19185273 -0.13532558 -0.60327905 -0.7319373 1.479645 0.48045245 0.10139389 0.35261932 -0.3487348 -0.89768517 -0.5171381 0.85146916 -0.28207466 -0.1638436 -0.24054733 0.5152236 0.100029826 -0.075755 1.5267104 -0.8215625 -0.717894 0.07684915 -0.88552403 0.067802966 -0.795838 -0.17387131 -0.1344042 0.836468 0.33146694 0.2539433
1574 -0.46274444 -0.20963685 -0.59135723 -1.058733 -0.35408697 0.32081074 -0.8013554 -0.42469788 0.3157917 1.0562971 0.4441037 1.0980924 -0.3968347 -0.59609044 -0.66125345 -0.16114232 0.5182637 0.73877907 -0.026441798 0.025863094 0.487463 0.32028583 -0.67807716 0.35815108 -1.3183006 -0.26273048 -0.6375089 -0.12809369 0.2046228 -0.29651523 0.3351612 0.07408342 -0.0011854372 0.59981203 0.3414377 0.64154124 -0.3679569 -0.10362679 0.5928457 -0.35458604 0.62781894 -0.17614157 0.14903663 0.12500377 1.1064112 0.782225 0.30020264 -0.410137 0.7144541 -0.15226054 -0.97548753 0.44515568 0.8406996 -0.23576203 -0.8162146 1.0338197 -0.35415122 -0.72616225 -0.8718055 -1.0655509 0.48978806 0.5940976 0.7507904 -0.20332101
2475 -0.063792236 -0.07627856 -0.80374354 -1.1581908 -0.019887967 0.27697363 0.4171911 0.9039023 0.6377515 0.7118924 -0.7199281 -0.33790797 0.7466388 -0.92930543 -0.5366679 0.1882664 1.2802413 1.6203729 0.03135922 -0.90396035 0.3385966 -0.32905465 -0.7269046 0.6752322 -0.62837684 0.4433139 0.4667116 0.6280188 0.24439342 -0.909641 0.28215617 0.346677 -0.7327373 -0.021081721 -0.51675934 -0.45040676 -0.18535489 -0.44659027 0.5122322 -0.059340663 0.7866408 -0.3263444 -2.2028625 0.44954738 -1.4153526 0.19302313 0.26454252 -0.0147550255 0.4830187 1.1069324 -0.6322896 0.7803347 0.04018011 -0.9630772 0.5257379 0.4791865 0.40299848 -0.40933788 -1.3861649 -0.042950537 0.31027243 0.8974301 0.05019763 0.05514802
509 -0.50674856 -0.82209516 -0.21283577 -0.3167069 -0.42124304 0.13570964 -0.8415896 -0.3200302 1.0490433 -0.20335726 0.20605516 0.054457515 -0.20989126 0.18045533 -0.5219208 -0.014424118 -0.3837485 1.1583941 -0.3582172 -0.75394297 0.37191498 -0.7594917 0.24996547 0.2783959 -0.37494805 0.18016914 0.37947372 1.3492235 -0.0008750229 0.4899472 0.5851657 -0.71927303 -0.37711108 0.7183751 0.3139821 -0.57042927 0.31983542 -0.053869653 0.9965288 -0.4772034 -1.1374116 0.42713878 -0.089420035 0.73481476 0.004257412 0.74324954 0.2358318 1.0529193 -0.31656262 0.98984385 0.10044207 0.036645338 0.5911069 0.068065815 -1.575285 0.28782803 -0.7215208 -0.19148548 -0.8691775 -0.066879205 1.2171311 -0.12954167 0.03514042 0.22968832
508 -0.562476 -0.86918056 -0.21757019 -0.3625401 -0.33837655 0.14880489 -0.94523484 -0.17922762 0.95119697 -0.08780151 0.12251487 -0.09196441 -0.051507816 0.08003777 -0.48333693 -0.059054177 -0.46149966 1.136805 -0.36583668 -0.7932322 0.40185654 -0.8058295 0.28839877 0.289387 -0.2009835 0.22065257 0.265705 1.2841203 0.08393215 0.44942018 0.56265044 -0.6818345 -0.32536608 0.7035423 0.34648582 -0.42013365 0.30135053 -0.04254433 1.017057 -0.38775674 -1.2070488 0.6081139 0.009494126 0.65197545 0.07738677 0.82452595 0.21636356 0.8698943 -0.2965882 1.0487067 0.047184825 0.044962037 0.7067026 0.07321173 -1.5636792 0.24461685 -0.77237594 -0.25922135 -0.8867051 -0.06041563 1.237185 -0.040201306 -0.005752873 0.32959306
1175 0.14218783 0.13610545 -0.43304104 -0.6703562 0.93424016 0.27235964 0.19226046 0.08194959 -0.2516144 0.46278483 0.35983822 -0.40588123 0.5932627 -1.2756633 -0.08583959 -0.27899826 -0.2135858 0.89865273 0.047122225 0.5640434 0.40570232 0.51552594 -2.243198 1.4495373 -0.81599283 -0.2261068 0.14288919 0.545559 -1.1476117 -0.4115057 -0.35195643 0.23283878 0.073259406 0.7845402 0.12327863 -0.13718395 0.32976553 -0.29665908 -0.61610794 -1.3642975 -0.78886336 0.017940301 0.6988119 0.6326675 -0.3443533 0.73793435 0.13971606 -0.1524355 0.055672985 -0.35710415 0.020803083 -0.4016416 0.28585464 -0.16537896 -0.83417904 -0.4909011 0.6983959 -0.10195619 -0.7280503 0.15714382 0.12128314 0.41633815 0.07446237 -0.33322424
0 0.3585657 -1.1720912 -0.38959497 -0.7349687 -0.16531898 -0.06729158 -0.49268126 0.7802289 -0.32553 0.048563216 0.63461405 -0.35420147 2.0529923 -0.17058256 -0.4069237 -0.0191108 0.9248773 0.5223692 1.8415731 -0.6686266 -0.2553607 -0.7814518 0.03868309 1.0488349 -0.98664653 -0.005919585 0.6895812 0.15361337 -0.26461482 -0.7107232 -0.29796997 0.46768683 -0.15558372 0.75463474 0.19791459 -0.59603596 0.096546836 0.6788615 0.15184177 -0.32623392 -0.59529686 -0.20906593 0.15321481 0.33050406 0.44990396 -0.0328259 0.062679596 0.7699205 -0.37725753 0.22660765 -1.3624536 -0.22475456 -0.1814475 -0.4257907 -1.4103371 0.61434966 -0.26028052 0.25366312 -1.4104799 1.016182 0.022071423 0.5154848 -0.5340823 1.2357768
2672 -0.157395 0.33866194 -0.8786383 -1.3168442 -0.03150215 0.1591573 0.3119864 1.2808282 1.055685 0.43298104 -0.5716329 -0.33616573 0.6579293 -1.1913359 -0.32912016 0.31976724 1.6263336 1.6708559 -0.09656502 -0.556389 0.43980867 -0.43442118 -0.547575 0.7997776 -0.63059217 0.5395299 0.34905368 0.5651834 0.065384395 -0.5686146 0.79775876 0.49393088 -0.7540096 0.08126995 -0.35317746 -0.47685272 -0.16526645 -0.4515398 0.69443846 0.17937188 0.91643906 -0.55364585 -1.8985888 0.75490856 -1.44298 0.35472816 0.42664167 -0.1371125 0.43903524 1.327604 -0.56841046 0.7064312 -0.25730562 -0.876024 0.27480748 0.33217487 0.5308983 -0.59903914 -1.2312796 0.03345432 0.17430457 1.1159995 -0.027860057 0.009044386
260 0.43597266 -0.6371629 -0.9761426 -0.9632061 1.1904409 -0.01888817 0.34381512 0.60864097 0.86014456 -0.010856012 -0.10753463 0.21271792 0.14725827 0.19233198 0.19679625 -0.49741948 0.32705113 1.0873473 0.36049008 0.13807195 0.16818096 -0.17720428 -0.23568308 -0.2555431 -0.7599993 0.66395843 1.3075081 -0.14241758 -1.019582 -0.6891736 0.6542598 -1.0021043 0.45576617 0.54006976 -0.051334847 0.2879001 -0.13415553 -0.72824705 0.23690376 0.044843756 0.4421463 0.2113581 -0.17934962 -0.6139631 0.329542 -0.3267827 0.08480519 -0.68239695 -0.18238482 0.037774812 0.62091744 0.544325 0.3992385 0.54559875 -0.81655073 -0.49384043 -0.09088515 0.112937994 -0.43522695 0.06798054 0.27367976 -0.14774178 -0.117496915 -0.013656164
153 -0.14578806 -0.25684536 -0.7470714 -1.6722028 0.09004907 0.61046 0.7642771 -0.050213013 1.2415991 1.058067 0.06858006 1.5200027 0.61357695 0.25860098 -0.010754955 -0.5554314 -0.725305 1.025304 0.045984242 0.3977176 0.110264376 -1.6093224 -0.59814996 0.9482464 1.0166502 -0.21144556 -0.88906324 -0.13904831 -0.70533144 0.35751927 0.6027692 -0.46177635 -0.46560547 -0.21337992 -0.2726067 -0.07324218 -0.64584416 -0.87333804 1.5592072 0.5666155 0.31915668 0.38256675 -0.26942727 -0.89499617 -0.45012978 0.86358607 -0.22015677 0.07089902 -0.18388261 0.63293743 0.011882354 -0.22109091 1.5220168 -0.9056909 -0.5782763 0.006328178 -0.8518372 -0.013165897 -0.7564262 -0.11944352 -0.060830023 0.7359658 0.331778 0.23448381
545 -0.33462086 -0.4828057 -1.2800802 -0.9669285 1.1544896 0.5497775 -0.05614276 -0.4133312 -0.4878828 -0.108738735 0.86009496 0.89975405 0.10293501 0.483932 -0.25580645 -0.09356072 -0.22790329 0.28730085 -1.0135171 -0.6707596 -0.39721623 0.5526081 -0.015967887 0.68160874 0.5602392 0.63809854 0.10809262 0.377167 -1.2331342 -0.3943799 0.58649856 0.020662952 0.23860492 1.7305354 0.26914236 -0.15011843 -0.43971473 -0.082133695 0.76770365 -0.9662664 -1.3195728 0.1367437 -1.045916 0.18058291 0.36146465 0.43996558 -0.29405326 -0.4385095 0.36245498 0.036097493 -0.5852587 -0.19882731 0.2377203 0.6397068 -1.582415 0.48892033 0.8006089 1.0124388 -0.5842975 -0.26669037 0.475526 -0.9954307 -0.43399516 1.059986
1716 0.15651277 -1.7903985 -0.28548056 -1.1161672 0.30821455 1.3239925 1.8213972 0.29393008 -0.14687592 0.077181175 1.0491623 -0.48109773 -0.105192885 -1.003127 0.20578107 -0.051611215 0.8802462 0.9351751 -0.28904954 -1.1537056 -0.51430863 0.47630554 -1.0406451 0.48541862 -1.0153215 0.13911925 0.56646806 -0.30664104 -0.12851436 0.33252844 0.4698004 -0.81430453 -0.14688212 -0.19395566 0.3741177 0.23950341 -0.018176666 -0.7516877 0.2781302 0.612979 -0.13650797 -0.7102699 0.4470399 -0.14198604 0.99394226 -0.27064645 0.44856796 -0.21038657 0.028311681 -0.42950106 -0.22038798 -0.27879256 0.15138844 0.80207956 0.34294975 -0.3636658 -0.13278112 -0.13431689 -0.36232403 0.09073964 0.7965899 1.0854967 -0.12968107 0.26165128
407 -0.5493108 -0.36704835 0.18126662 -0.5467469 0.93058527 0.36609724 0.3557416 0.33185714 0.29463002 0.8038492 -0.25738728 1.0008011 -0.06927948 -0.32076004 -0.16484365 0.39241037 0.0872512 0.3110715 -0.32612967 -0.5051193 -0.01019607 0.5045348 -0.09084583 0.10174315 -0.3582713 -0.11717937 0.48352852 -0.1153816 -0.4367212 0.26337942 0.62534314 -0.5514722 -0.3176766 -0.19907884 0.15139467 -0.25399852 -0.7554047 -0.48334613 0.46313953 -0.6519119 -0.88213015 0.100205295 0.19433202 0.122685775 -0.23863664 -0.013986085 -0.15681194 0.23594734 -0.3584614 -0.10057841 -0.8673598 -0.045758672 -0.3219766 0.5317091 -0.68040746 0.38191456 -0.40326998 0.0013992125 -0.7984016 1.1106743 -0.09633307 -0.43821767 0.07731792 -0.8589562
1180 0.3510108 -1.2882094 -0.29977262 -0.3366677 1.367458 -0.41514927 0.4601236 0.28628278 0.81097317 0.026238037 0.14974792 -0.056185402 0.49257368 -0.29876342 -0.16482466 -0.22786799 -0.10405879 0.8219466 1.1587658 -0.51687247 -0.25145802 0.41788778 0.1685152 -0.1162609 -1.07379 -0.1747876 0.03618523 -0.5575159 -0.7184639 0.47776675 0.32204682 0.25359076 -0.19118038 0.7764431 0.27665743 -1.3009571 -0.3182949 -1.118344 -0.63625777 -0.008552314 -0.6664918 -0.11481322 1.0878452 0.8806554 -0.69333047 0.69419754 -0.110087454 -0.11479296 0.30910233 0.31701368 -0.037708197 0.7098784 -0.51341385 0.3126996 -0.26778597 0.7568577 -0.4759114 1.4589189 -1.8222518 0.673977 1.0326817 0.07557181 -0.20613211 0.86176443
1 0.45710087 -1.2244912 -0.4446193 -0.8121571 -0.2743086 -0.12211323 -0.42060763 0.5782196 -0.1729183 0.106693536 0.22174697 -0.5874109 1.8766245 -0.056575 -0.19718814 0.0010497954 1.0043665 0.67379224 1.6888133 -0.56034344 -0.3574401 -0.87037873 0.021717137 0.80669206 -1.0440295 -0.12004807 0.4519368 0.04980284 -0.25054088 -0.5173367 -0.24545904 0.42761764 -0.041082866 0.61514586 0.14459223 -0.34104156 0.16282794 0.71854264 0.0836954 -0.3258128 -0.25241253 -0.33340636 0.22528972 0.45051473 0.5929294 -0.0027119587 -0.053164516 0.91577315 -0.09090908 0.27612254 -1.0470318 -0.37112698 0.22932313 -0.7061383 -1.290833 0.3265478 -0.08882565 0.41017908 -1.3159999 0.7815578 0.03687297 0.5087571 -0.51274 0.46580282
1052 -0.10336816 -0.38594925 -0.9408728 -0.40290758 0.87660015 -0.2446593 0.46815696 0.9440262 0.9117888 -0.05507938 -0.5645811 -0.43629125 -0.027935984 0.6852415 -0.18535486 1.0187955 -0.74043876 0.9764836 1.1843606 -0.34109154 0.09463476 0.9597735 -0.6268008 0.6880168 -1.2512192 1.2792463 -0.48205307 1.2437576 0.82413685 -0.15506731 0.41434637 -1.5669034 0.26668927 0.46204126 0.81847405 0.5622599 0.09235172 -0.18421018 0.45595676 0.89844006 0.16128288 -0.4379539 -1.1177429 -0.108375326 0.9424982 1.4939591 -1.1210717 -0.34154296 -0.43190965 0.31248373 -0.81285757 0.6588659 -0.35397214 -0.18614301 -0.47739825 0.569409 -0.26313353 -0.383744 0.23201115 -0.16499972 -0.2822581 0.14217375 0.36527497 -0.09719234
702 0.3250889 -0.74149793 0.20180982 0.09534128 0.27029124 1.0077964 -0.07644656 -0.28271937 -0.52267694 1.5030937 -0.11921753 -0.23540436 0.33368692 0.5764973 -0.7189544 -0.2708602 -0.21018367 0.37649518 0.23282436 -0.19641823 -0.16889161 0.65539044 -0.6492624 0.3843497 -0.7200418 0.14321433 -0.048930272 -0.0980461 -1.7346643 0.6039111 -0.2283436 -0.41549984 -0.10980971 0.73199236 0.6827308 -0.38053322 0.033823375 -0.6790579 -0.16254547 -0.57134545 0.82713807 1.2248157 -0.44932285 0.090499245 0.61497176 0.58701843 0.044328254 0.0746101 -0.026262823 0.13273606 -0.63081837 -0.088176645 0.4031552 0.023765717 -0.04031101 -0.6979786 -0.29515162 -0.046618454 -0.25861943 0.64856833 0.37833646 0.79424393 -0.29592392 0.16753972
1637 0.7358669 -0.56351745 -0.30825377 0.34022248 1.707347 -0.2900973 -0.38936517 0.47670758 1.9426872 0.96715957 -0.5949134 -0.3082296 -0.2872659 -0.113302015 -0.80300075 0.3829419 0.08515653 2.102442 0.2076789 -0.44086784 0.17644003 0.30879533 0.17379546 0.50517076 -0.02917607 -0.81404155 -0.7737008 1.258143 0.22042827 0.44993728 0.22917508 -0.83170134 0.47547266 0.058107235 0.040811267 0.81112766 -1.1043227 -0.35622412 0.3006022 -0.7422552 -0.41593674 -0.9799108 0.51333547 0.41765454 0.5029643 0.02948748 0.1421879 -0.060068544 -1.202801 1.1928935 -0.7549371 0.095023334 -0.19348285 -0.44117185 -0.8113449 0.34259084 -0.3430082 -0.28834894 1.5685506 -0.15204722 0.11165952 0.48849043 -0.34910858 -0.28587842
2757 -0.15380391 -0.5448371 -0.93825233 -0.1812326 0.69728637 -0.24832308 0.4667507 0.8612178 0.84263104 0.13661636 -0.50180864 -0.41028538 0.13893633 0.79348016 -0.23965366 0.8318744 -0.78836644 0.69264024 1.13962 -0.48945615 0.15006235 0.89185846 -0.40871435 0.8357964 -1.1513674 1.0718797 -0.2934301 0.909969 0.860503 0.0010843406 0.15616024 -1.4050782 0.37381497 0.83437806 0.8699188 0.5807189 0.23856619 -0.35782441 0.5673206 0.90113634 -0.09039122 -0.41002417 -1.0347453 -0.22131321 1.240616 1.3027153 -1.3526151 -0.2476034 -0.33104512 0.46116838 -0.4440803 0.5338942 -0.40240806 -0.23914528 -0.5062396 0.52370626 -0.243508 -0.45424977 -0.049420886 -0.04505406 -0.13667545 0.070807874 0.46741152 -0.14232686
74 -0.32772782 -2.3094063 -0.54051405 0.060576033 1.3069962 0.12563536 0.92245054 0.3081023 0.3358125 -0.030803492 0.77657056 0.17348811 -0.5673424 0.020734163 0.29176256 1.4327693 0.01209358 1.3893594 0.17422315 -0.205345 -0.5422907 -0.46200624 -0.9723231 1.212245 0.64543813 1.3389283 -1.0421888 -0.0514874 -0.35218447 1.1511507 0.9782618 -0.032988213 0.5318253 -0.45359522 1.2405301 0.9735275 -0.07618715 -0.070795394 -0.650144 -0.76345813 -0.073235616 1.5249969 -0.78132534 0.99300194 0.61579835 0.66209686 -0.5497874 -0.45524356 -0.5450041 -1.018975 0.52275157 0.51874244 0.538203 -0.28560853 -1.0184366 -0.10594952 -0.22116473 -0.09137997 -0.313014 -0.049324255 0.66344446 -0.12862764 0.25951642 0.48091063
1258 0.10892536 -0.46091375 0.69246864 -0.05434929 0.7625613 0.3439045 -0.53246886 -0.2508215 1.1881549 -0.012920196 1.0503725 0.4162668 1.117521 -0.16894963 -0.1645741 0.73431575 0.8932194 1.6754272 -0.42498568 0.28157094 -0.21231052 -1.4916179 -0.51420385 0.8888535 -0.15274978 -0.5149049 0.33490515 -0.12614128 0.23546576 0.5807222 0.43964177 -0.84708613 1.3227835 -0.039353948 -0.058227126 0.95002514 0.43088675 -1.4280642 -0.06644749 -0.3646273 0.17547268 0.015791757 0.09585299 0.47700348 0.022052694 0.8076285 0.2623846 -0.38150135 -0.519171 -0.3320063 -0.17152631 -0.5856791 -0.3058508 0.26428914 0.30730638 0.43736243 -0.28737155 0.43956017 -0.52389914 -0.36100334 0.13176727 0.6160235 -0.9655688 0.32272175
3886 0.0042051487 -0.11896341 0.57439405 -0.47506833 0.5033991 0.58381015 0.74329257 -0.23789832 0.67705953 0.49758294 -0.010357124 -0.3238156 0.5244345 1.1656162 -0.3709989 -0.2813639 -0.10440155 0.5613145 -0.14513054 -0.4262766 -0.20587884 -0.75420296 -0.38554215 0.24211104 -1.1132785 -1.1933433 -0.09942454 -0.43691474 -1.5371118 0.5114212 1.2004864 -0.5837147 0.48344585 0.5035462 0.60706013 -0.39852557 -0.03640348 -0.6782303 0.69664514 0.26124245 -0.5445159 0.019003844 0.559608 0.14390695 0.29468432 0.26776436 -0.8686031 0.2764247 0.44254616 0.8854034 -0.029967938 0.060674097 0.3202455 -0.35879925 -0.022258637 0.24369892 -0.1755954 -0.12632363 -1.0555602 0.08359087 0.0860584 1.0952095 0.18734846 -0.095381886
3248 0.9642746 0.663186 -0.39860147 0.58053493 0.6637769 1.3789849 0.75671196 0.1932869 1.3249902 0.6299732 0.57927656 0.060757224 -0.72536767 0.940516 -0.7993918 0.70620316 0.1416686 1.1830626 0.9476782 -0.02008974 0.23416512 -0.42179656 -0.28253704 1.1343182 -0.012554853 -0.35275412 0.30086893 0.45989347 0.03529656 0.5572641 0.9605885 -0.17031085 -0.041767027 0.539754 -0.13377789 -0.0009879236 -1.1804107 -0.4243598 -1.1915586 0.2244019 -0.77043504 0.5047534 0.20502397 0.82570463 -0.2811535 1.5008299 1.187817 0.7132464 -0.0063971635 0.64587885 -0.39895827 0.097125806 -0.44411868 -0.51174456 -0.11727259 -0.11850247 -0.4420367 -0.70467466 -0.91896963 0.15892528 0.54998523 1.1062515 0.7026479 0.8756221
276 -0.6294288 -0.94151616 0.09971291 -0.87493247 0.5079641 0.7450944 -0.8786857 0.999106 0.78198403 0.54001737 0.20912358 0.12699912 -0.19943462 -0.6540027 0.36607924 -0.13528074 0.1088919 0.8126083 0.55405164 -0.21810862 -0.23474501 -0.08285804 -0.11255271 0.4003746 -0.2579226 -0.23424293 -0.45107567 -0.2456071 -0.91296816 0.5086489 0.13545357 -0.162201 0.09507413 0.36773485 -0.11810367 -0.43985957 -0.11738316 0.45170572 -0.3426139 -0.78964514 -0.35829142 0.7655229 0.5530037 0.27831343 -0.024102584 1.3205315 0.10345735 0.4326181 -1.0632372 -0.2734894 0.4329511 -0.42012587 -0.40367648 -0.053468768 0.16552755 -0.115081646 0.07888133 -0.47355378 -0.97607255 -0.9431019 -0.30899036 1.0986571 -0.055184565 -0.81504625
94 -0.43662056 -2.1522856 -0.5110758 0.16873708 1.3908913 -0.20924649 0.7146392 0.37775788 -0.0044411113 -0.053031083 0.73228884 0.07762793 -0.23654579 -0.2362934 0.10788866 1.3710966 0.044133518 1.5261604 -0.0036287326 -0.040781163 -0.64368737 -0.44681096 -1.1192477 1.24525 0.59851027 1.2578636 -0.994619 -0.2293613 -0.19504786 1.1268067 0.96089834 -0.037001826 0.6343783 -0.47466022 1.2483708 0.9317613 0.12863876 -0.15269226 -0.4173272 -1.0079877 0.16908436 1.2463541 -0.6574092 0.7508575 0.39986753 0.47154248 -0.4093006 -0.25799203 -0.5491671 -0.8569931 0.5484871 0.7569908 0.6018825 -0.50637287 -0.96666497 -0.038072925 -0.36066467 -0.005812952 -0.37025315 -0.006252662 0.7030787 0.02181604 0.59382254 0.24093531
997 0.13015251 -0.26336178 0.56599486 0.6649724 1.088202 1.5711148 0.3928232 0.015324847 1.7157898 1.0209173 -0.3391081 -1.0887667 0.39591202 -0.54783916 -0.3279104 -0.5757325 -0.73745203 1.582225 -0.6141725 -1.5728108 0.08545754 -0.497539 -0.073822066 -0.18609306 -0.52965146 0.7408508 -0.50146866 -0.5344993 -0.7742326 0.46736518 0.50473815 -0.8794846 0.72950506 0.00942808 -0.18632843 1.2391696 -0.98020536 -1.8293195 0.23207921 -0.6110956 -0.70640486 -0.87730354 0.27560592 0.7455505 0.4840671 -0.4220677 0.035444114 -0.25647125 0.07672052 0.34517547 0.113203265 0.4638157 0.027546758 0.75723284 -0.24445093 0.6099021 0.1692002 -0.46804908 -0.460156 0.043451026 0.9385286 1.1835399 -0.40322497 0.09910873
336 -0.04823292 -0.15418178 -0.28521448 -0.18360908 1.3668411 -0.29415634 0.53614795 0.4134434 1.9650813 0.48816553 0.76384383 -0.5112087 0.39290917 -0.63335323 -0.86498195 -0.7455226 1.1479336 1.3632522 0.20056327 -0.034862116 0.109186396 -0.42935616 -0.27293608 0.93423873 0.2431983 0.67967176 -0.10533319 0.44845742 -0.6683245 0.6449179 1.2308421 -0.6005743 -0.34194285 -0.52801245 1.4827111 0.02522112 -0.7278417 -0.3831865 0.47185302 -0.57209057 -1.186509 -0.77203727 0.17603566 -0.39855257 -0.13652223 -0.4510637 0.16380021 -0.050002623 -0.13535652 1.1282531 -0.7964697 0.6796853 -1.3199073 -0.47464666 0.20429774 0.7144238 -0.123191305 0.08071368 -0.845848 -0.8542319 0.08797416 0.27361938 -0.3543011 0.3328089
1835 0.6908723 -0.81284946 -0.10915986 0.53708756 1.5582242 -0.33411762 -0.17361915 0.6633043 1.7127302 1.0676059 -0.41130632 -0.46239984 -0.48989072 -0.2672636 -0.81279904 0.29209945 -0.14831115 2.0391076 0.0964011 -0.188663 0.20527454 0.26305196 0.25477335 0.42893383 -0.22738634 -0.6481375 -0.7759674 1.1774565 0.15367079 -0.010470913 0.18703976 -0.3336357 0.35311064 0.13877371 -0.08929531 0.72032684 -0.9705591 -0.53838664 0.36518955 -0.77852875 -0.50372684 -0.9000952 0.5258744 0.22838782 0.59815085 -0.027061457 0.1383177 -0.1348418 -1.1952618 1.2757906 -0.96255916 0.20354383 -0.18744886 -0.41508967 -0.82502407 0.21716934 -0.42114878 -0.14202254 1.58262 -0.21683465 0.16680513 0.36189216 -0.3925655 -0.21278884
2460 0.29688007 -0.2611566 0.51350886 -1.2432473 1.5019165 0.09308378 0.025313845 1.2008959 1.1351483 -0.06320875 -0.7129027 -0.38593972 -0.494555 1.2281256 -1.2840002 0.12061152 0.7059186 0.38772124 0.78463143 0.7660088 -1.3565857 0.74408424 -1.2292479 0.49137622 -0.32510853 0.09255417 0.9287949 0.4911696 -0.99917114 -0.07898475 -0.9524004 -0.01894277 0.9264521 0.07033675 -0.028853184 0.08185198 -0.38802198 -1.1995836 0.32606572 -0.66828144 -0.57317185 0.41544777 0.88027686 -0.18810125 0.2639247 -0.26892 -0.26362464 -0.41943228 0.939562 0.11160683 -0.22974521 0.75694484 0.19466694 0.28422084 -0.6073624 -0.45681834 -0.94799507 -0.57728153 -1.0401689 -0.11688614 0.8720719 0.38580528 -0.6676852 0.6646097
368 0.41529417 -0.371642 -0.5019799 -0.73711026 0.8917903 -0.049075954 0.5138197 1.051731 -0.26552173 0.57896286 0.14372367 1.1414167 -0.39634645 0.46251497 -0.84042484 0.47668976 0.85575336 0.96868867 -0.41281214 -1.0195444 -0.4783742 -0.3792741 -0.37609765 0.7418104 -0.7051902 0.16799495 0.14244619 -0.37868506 -0.5369258 0.37946945 0.07144238 -1.3192904 -0.09814396 -0.10090286 0.052183636 0.4065576 0.873344 -0.2007522 -0.19560613 -0.8733601 -0.48433155 -0.71909714 0.038343925 0.3498454 0.050585553 -0.096855015 -0.34305078 -0.07527548 1.2663709 0.2527521 -0.82570916 0.29101112 -0.044247992 0.29453397 -0.059949357 0.30314556 -0.60659057 0.39112014 -0.17444074 0.15298755 0.09386302 0.1304496 0.39404222 -0.22324783
9812 -0.4040826 -0.45098886 0.062016457 -0.5288641 0.4282531 0.9714365 0.09936053 -0.33043754 0.28469753 0.6241873 -0.022593832 0.6274415 -0.080613695 0.83793044 -0.21811555 -0.09830262 -0.57582563 0.9533995 0.06418903 -0.5752513 0.4121674 -0.029722806 -0.8269561 0.63670635 0.06253028 0.38876253 0.37305218 0.25995716 -0.3121833 -0.1173207 -0.45509768 0.6619209 0.16724113 -0.65731204 1.1884782 0.030181453 -0.18125722 0.24179569 0.58113724 -0.23896945 -0.4991247 -0.5953814 0.10464324 0.42857724 -0.16912457 0.7009271 0.4471323 -0.5115655 -0.30464163 0.52601206 -0.44030273 -0.6020531 0.8981737 -0.029920453 -0.609359 -0.46349958 -0.29887342 0.65998834 -0.08385065 -0.7974371 0.83306426 0.36434865 -0.14703213 -0.20806044
915 0.3302068 0.0153997075 0.2253805 -0.64757127 0.9863413 0.45558208 0.16719358 0.49888167 -0.2927565 0.63566655 0.2605952 -0.21751763 0.3744854 -0.33932373 0.37862656 0.6445506 0.4988228 1.0686927 0.09405974 -0.17110734 -0.026436113 -0.043096274 -0.6628967 -0.03689671 0.39811325 -0.21145634 -0.18921171 -0.7831133 -0.2518144 -0.25511402 -0.6361422 -0.87327594 0.01953216 0.4383218 -0.11135096 -0.026093718 -0.27317476 0.260656 1.3703073 -0.06433924 0.29477516 -0.36972767 0.41599062 0.75167537 0.14653884 0.7604062 0.58070666 0.3359407 0.33104935 0.28887975 -0.05396147 0.05700642 0.575468 -0.05477199 -0.6227646 0.8961854 0.6852241 -0.59471345 -0.45574734 -0.487662 0.14970139 -0.13597694 0.27300802 0.080522396
564 -0.41870663 -0.67775154 -0.0114884935 -0.5909685 0.38535985 1.7248483 0.64615494 0.44943464 2.1126738 0.46191952 -0.1783645 0.8033167 0.7150384 -0.026680555 1.0678365 -0.56853986 0.17139392 1.237065 -0.9236228 -1.0853395 -0.5923054 -0.5508689 -0.7470298 0.085848965 -0.9605188 -0.31922272 0.0047556483 0.33143705 -0.04190105 1.094654 0.053829473 -0.14472604 -0.07192399 0.97530586 -0.20688038 0.002128034 -0.33982962 -1.0128495 0.61713284 -0.4251244 -0.2664654 0.15015066 0.6803348 -0.40324295 -0.22406864 -0.42853406 0.47819102 -0.6208558 0.41720518 0.5298626 -0.884235 0.44105482 -1.1042919 0.5101831 -0.27630588 0.98116726 0.74622214 0.07084169 0.19071136 -0.82321495 0.71364784 1.2405016 -1.0492163 0.60353726
546 -0.3220361 -0.4402674 -1.306955 -1.0533469 1.1680324 0.54333997 -0.03344654 -0.36142743 -0.61057717 -0.052435964 0.84920526 1.0958401 0.08229519 0.5901836 -0.23754957 -0.16533524 -0.1914256 0.18511929 -1.035046 -0.6636517 -0.48166853 0.55174094 -0.016193362 0.68370056 0.59556687 0.5125727 0.38289022 0.19445594 -1.2974291 -0.32931015 0.55199337 -0.004269506 0.32029817 1.7822486 0.39872023 -0.19598916 -0.39105237 -0.019781187 0.84924215 -1.0272605 -1.4002022 -0.07534811 -1.1497872 0.21888658 0.3259574 0.47117352 -0.31078658 -0.4393983 0.32002196 0.071891606 -0.5390302 -0.12114607 0.3053761 0.7860543 -1.596645 0.6679596 0.68174624 0.90719026 -0.6667505 -0.31925696 0.6047463 -0.8882778 -0.37296316 1.0809153
108 -0.37333545 -0.22459295 -0.39434865 -0.10746452 1.2859825 0.7844529 0.2722073 1.1172806 0.82663673 0.8813452 1.2473258 -0.52503157 0.763535 -0.0059276763 0.41816616 -0.24383593 0.3821346 1.6153195 -0.62237316 -0.46205473 -0.78606325 -0.6065423 -0.029849287 0.09213014 0.29480043 0.4709051 0.5736136 0.5377315 -1.5815015 -0.46941537 0.47790328 -0.10167371 -0.85361385 -0.47069877 0.10946218 -0.28720942 -1.259377 -0.4390853 -0.65415025 0.778778 -0.28318036 -0.097366504 -0.28871474 -0.068852395 1.4162422 1.0288806 1.057822 0.1582781 1.1776942 -0.5924293 -0.91806126 0.69880587 -0.451972 0.032473892 -0.61941975 -0.07095279 0.7846154 -0.7074088 -0.7395215 -0.5155072 0.5703628 0.7068711 0.21165147 -0.20895427
943 0.36138615 -0.84575135 -1.068612 -0.7714235 0.95045877 -0.55334073 0.2972956 0.6119803 0.8831981 0.38275936 -0.2109061 0.20366776 0.30930868 -0.25825006 0.24728972 -0.20599474 0.32437223 1.4103013 0.40804532 0.42914307 0.30609265 -0.20922437 -0.05661088 -0.13910149 -0.67360157 0.23549101 0.8411386 0.08090355 -0.9546239 -0.77683175 0.35990852 -0.7860631 0.71429443 0.4222253 0.3519316 0.39097252 0.24141088 -0.85955065 -0.05970954 0.46778142 0.5284892 -0.031379238 -0.028364154 -0.98566556 0.44687614 -0.056819215 0.20917208 -0.5923998 -0.31247237 0.66226363 0.4166778 0.56547827 0.5253644 0.524749 -0.59478855 -0.04841725 -0.30571026 0.020974884 0.046437185 0.19254696 0.763803 -0.06704754 0.1331927 -0.043582655
976 0.031287014 -0.88904893 -0.8783795 -1.1085716 0.6592059 -0.24557613 0.060119767 0.52376467 0.5166852 0.42355698 -0.1452931 0.43346193 0.01698384 0.40445355 0.0734639 -0.3841335 0.43949053 0.87170076 0.3098293 0.18105282 -0.052855715 -0.3429057 -0.28443325 0.20840095 -1.1274658 0.41976026 0.8281463 -0.33570653 -1.0734156 -0.90537375 0.5456694 -0.39217284 0.31160325 0.5933513 -0.09160284 0.22534776 0.038922414 -0.90698445 0.18277632 0.1031639 0.49892744 -0.3203998 0.4969097 -0.79842234 -0.07435464 -0.39465204 -0.03181387 -0.6430464 -0.4926818 0.016161636 0.2958831 0.53154695 0.12712757 0.32912886 -1.0721077 -0.27205503 0.037272863 0.14977004 -0.38703075 -0.3494264 0.46483248 -0.69150466 -0.52750623 -0.071995795
2347 -0.46199048 1.211588 -0.5184404 -0.45275372 -0.12277195 0.68514836 0.083402075 0.22661316 0.23742461 -0.23228297 0.5214714 0.7113203 0.06950416 -0.6622531 -1.2471144 1.0601069 0.12700759 1.9054213 -0.037168078 -1.5491564 -1.4421316 -0.900989 -0.36685875 1.1591622 -1.6132275 -0.32383606 0.16534832 0.70055187 -0.63123375 -0.041821983 -0.27422708 0.29922938 1.0635312 -0.08096014 -1.4182727 -0.3655736 -0.7383276 -0.71717083 -0.64541334 -0.49738535 0.19529736 1.0852286 0.46273854 -0.47285306 0.2996357 0.76434183 0.8841841 0.7787133 0.014205709 -0.32820934 0.2395897 -0.32574022 -0.61676824 -0.15831375 -1.6653314 0.23758548 0.51449 0.4386788 -0.6121009 0.2999993 0.9147862 0.1401602 -0.29059702 0.41322464
96 -0.2662365 -0.6364352 0.43930787 -0.26644343 0.042799044 0.23484129 0.26173168 0.38660958 0.38672605 1.3671559 0.11472543 0.75444335 0.67258656 -0.14888157 0.3156358 0.3159002 -0.07839913 0.88502043 -0.33845362 -0.79266304 -0.07459641 0.54733825 -0.38466093 0.6095129 -0.0012433869 -0.34531856 0.013334403 -0.029680815 -0.81348866 -0.22531287 0.64147615 0.026925912 0.011357271 -0.6150503 -0.16446659 0.080242895 -0.27510968 -0.15453155 0.46951154 -0.67787004 -0.19292855 0.17653611 0.5959632 1.0369356 -0.16182914 0.18454133 -0.039828554 0.49728823 -0.30688596 0.15541057 -0.64406866 -0.116761774 -0.5034459 0.17491941 -0.082822695 0.36432895 -0.4483178 0.22062147 -0.5835653 0.51786745 0.0022502462 -0.5015089 -0.32432607 -0.51123035
2960 0.63291997 0.18048462 0.082938515 -0.77921796 0.19559015 -0.24731487 0.026655355 0.33922514 1.2785378 0.43928614 -0.7215601 -0.09082989 0.3069819 0.6030599 -1.2062294 -0.18504027 -0.3738099 1.4395785 0.64870405 -1.3367022 -0.5265675 0.11848733 -2.1488163 0.5340081 0.13083027 0.2653293 -0.5955789 0.33879983 -0.939723 1.0263437 -0.047755137 -0.8474373 0.20004115 -0.7211792 -0.009809218 -0.50391537 -1.3174276 -0.932104 -0.2955627 -1.0404223 0.06454161 0.058083866 1.0512309 -0.5272866 0.87294453 0.67780495 0.7080451 0.5359243 -0.27683946 1.2014607 -0.20312163 -0.19859837 -1.1095132 -0.40183187 -1.0091494 0.16690162 0.16764688 0.79700667 0.34673363 -0.28312907 -0.29052532 -0.68718916 0.41786873 0.54291195
662 0.5175389 0.79440224 0.81661344 -1.6285404 0.6186229 -0.6025652 0.27719772 0.31209883 1.1018157 -0.12738816 1.0423063 -0.7636935 0.32679123 0.10981466 -0.5378086 0.33595556 -0.22231713 0.913152 0.14414276 -0.55643576 -0.47435462 -0.0010534015 -0.5149361 0.39748678 -0.55561686 0.4153974 0.2233534 0.547269 -0.5946232 -0.15197313 0.9020755 -0.55571413 1.1179718 0.22800618 0.33310738 -1.8811352 -0.7107602 -0.27749458 0.29716292 0.020915084 0.49716252 0.4974543 0.7784022 -0.20608345 1.564143 0.0876957 1.1271273 0.6563704 -0.6626447 1.000551 1.2042744 0.25431395 0.13519338 -0.007963427 -0.20576827 0.3097074 0.072331786 1.3096902 -0.4121268 -0.2651381 0.8994386 0.81646794 -0.06713278 0.369845
8880 -0.43511072 -0.38157853 0.2112126 -0.8376983 0.17923468 0.18291491 0.0852033 0.24411419 0.2939788 1.1483315 -0.25123343 0.43654487 0.6325406 -0.4134262 -0.14189808 0.087990254 0.29788154 0.8382698 -0.40030834 -0.19074306 -0.19013098 0.32374656 0.015706014 0.30257255 -0.34227085 0.16900992 -0.3505693 0.45687196 -0.48242196 -0.27282885 0.21053573 -0.08938318 -0.1412806 -0.30289456 -0.101586476 -0.3423319 -0.34805223 0.018790081 0.39896423 -0.2967781 -0.09484518 0.15381266 0.30648673 0.5926032 -0.26252925 -0.06260032 0.20074385 -0.33580914 -0.35942122 0.13666062 -0.4274445 -0.457924 -0.43759423 0.87812674 0.011966314 0.6411034 -0.42317915 -0.26102424 -0.8656325 0.49822873 -0.546043 0.07787461 -0.16415055 -0.683187
1900 0.4073661 -0.13838634 -0.45117322 -0.90782225 0.5226702 0.88835704 0.06824745 0.21386877 2.0255249 0.025165632 0.8890545 0.5754061 0.44728222 -0.066855825 -0.8435146 0.3627016 -0.28270784 1.4861515 1.1179568 1.393577 0.25649518 -0.2732847 -0.9352426 1.694482 -0.94292074 0.9040064 0.12577629 0.2733492 -0.20202368 0.28219724 0.22624882 -1.182322 0.41396922 -0.10784431 -1.0923371 0.40269676 -0.62052214 0.5206743 0.11739899 0.34418434 1.0005734 -1.3857187 1.3550999 -0.30212334 0.29148385 -0.28200328 0.27433127 0.54547167 -0.20273605 0.2871959 -0.20018822 0.8286045 -0.112663575 -0.50367904 0.25658804 0.69901776 0.44198525 -0.528893 -0.52452224 -0.23658627 0.3948582 0.3411064 0.0034305807 0.12749729
998 0.21984021 -0.12681656 0.56316316 0.7677976 1.1363026 1.5205325 0.27994457 0.062940806 1.6076661 1.033181 -0.27878594 -1.0568867 0.22566408 -0.5950419 -0.32561046 -0.4195515 -1.0451993 1.494352 -0.56760645 -1.5262129 0.30936113 -0.5896343 -0.009812796 0.044798173 -0.39625344 0.7571769 -0.71799266 -0.51893735 -0.7662945 0.6161706 0.16783936 -0.7594573 0.6018067 -0.22534019 -0.05270506 1.1800007 -0.7612237 -1.5847815 0.20366424 -0.7739339 -0.8700655 -0.93289405 0.122250035 0.75362426 0.39102274 -0.29728055 -0.21259013 -0.32754314 -0.18420328 0.34335724 0.13324055 0.44021168 0.29712734 0.7129016 -0.29433453 0.52486074 0.2160751 -0.6177139 -0.5747706 -0.013939007 0.8822757 1.0322428 -0.57358885 0.24064119
4944 -0.44286364 -0.3444164 0.61971503 -0.606683 0.7322728 0.5450778 0.96875554 -0.19332905 0.952486 0.23060125 0.03370949 -0.27816868 0.6449671 1.4558481 -0.35967797 -0.3092483 -0.23200417 0.9158815 -0.17997214 -0.46700242 -0.025969569 -0.9082294 -0.56970394 0.4071676 -1.2550007 -1.4416722 -0.42910427 -0.4063693 -1.4395386 0.094529316 1.37077 -0.7517359 0.30917835 0.54205173 0.9135645 -0.43742636 -0.027113773 -0.6449645 0.940889 0.27723932 -0.5038334 0.2559384 0.47920132 0.41937166 0.39544722 0.23761465 -0.8731245 0.3372746 0.070146374 0.7897781 -0.0833519 -0.27571452 0.5276775 -0.32065734 -0.01482639 0.19919914 -0.4442167 -0.26356962 -0.75978607 -0.13714518 0.04538719 1.117483 0.086015336 -0.018976323
3641 0.29654244 -0.09994477 -0.041590437 -1.2408239 0.9319909 0.04779582 0.3203023 0.9350453 0.31610683 0.96390617 -0.15396582 1.1498733 -0.10681273 0.8211631 -0.9131206 0.3004125 0.98207676 1.1639479 -0.35242245 -0.91089714 -0.54041433 -0.25396475 -0.58178955 0.93525106 -0.2110181 -0.44696364 0.7110371 -0.5733083 -0.58091134 0.42704666 -0.43227082 -1.4594004 -0.59810144 0.1709728 0.40518376 0.08039121 0.4347875 -0.6979074 -0.36985064 -0.7614925 -0.2684746 -0.35716736 -0.17987303 0.6338082 0.1917451 -0.018854605 -0.29413885 -0.06160991 1.1492954 -0.35486886 -0.46038738 -0.1458788 -0.07327262 0.62938285 -0.031739533 0.32839403 -0.3119737 0.32163295 -0.12589416 0.005604264 0.24370438 0.58310324 0.6521336 -0.42585644
755 -0.57559294 -0.8798876 0.35016614 -0.6604552 0.47850963 1.6176676 0.76645887 0.35508418 2.1219163 0.4079442 -0.08070343 0.9768426 0.4199692 -0.1407175 1.186489 -0.6221823 0.467663 1.2143354 -1.0108285 -0.92249495 -0.6826624 -0.28079268 -0.51923376 0.0013876002 -0.92874 0.007272017 -0.22218427 0.40663138 -0.06560362 1.06859 -0.20396096 -0.14512461 -0.18042232 0.61180794 0.010588371 0.09527271 -0.49392992 -1.3095764 0.4649716 -0.6843314 -0.22013354 0.3727502 0.682382 -0.24764417 -0.12085565 -0.11003186 0.34306413 -0.5757525 0.60986924 0.7727261 -0.74712926 0.53547025 -0.78224725 0.80510026 -0.33091316 0.8599108 0.7381729 0.11105279 0.32535872 -0.6746169 0.803219 1.2505305 -1.0715884 0.7767578
181 -0.55902827 -0.35099515 0.185079 -1.1907866 0.4171315 0.5349186 0.5223783 0.2966758 0.15445256 1.3283299 -0.44498858 0.34427845 0.48377067 0.69415814 -0.052026644 -0.027479097 -0.061114974 2.0177314 -0.59284824 -0.8259914 -0.9124075 -0.19433504 -0.8973405 0.28574115 -0.29911166 1.7141908 -0.59064645 0.37960213 -0.1428015 -0.8579273 0.9339268 -0.8114405 -0.14136901 0.39499488 0.40677935 1.059774 -0.26122177 -0.78719145 -0.8799823 0.076942675 -0.7142904 0.2616364 -0.09424791 0.003956104 0.8210584 -0.22478142 0.7274126 0.1554855 1.128577 -1.4694791 0.5386991 -0.08274102 -0.53161347 -0.0003666897 0.13990873 0.5895455 0.2923057 -0.5663529 -1.7516302 -0.7319266 0.76718193 1.2861612 -0.19098113 0.20255642
5295 0.92756915 -0.34368014 -0.45475107 -0.09128209 -0.11243226 -0.73282975 0.72179997 0.007739647 0.3189143 0.4816704 -0.31285545 -0.016470216 0.81540734 0.29705885 0.7043079 0.6091257 0.113276124 -0.255005 0.025913792 -0.34014744 -0.6847881 0.062392358 -0.6716913 0.9791956 -0.2681099 -0.48750255 -0.22147982 0.4375462 -0.6251079 0.13779464 0.26511917 -0.14161883 0.51099837 0.18313079 0.3283509 -0.42386624 0.03146933 -0.86095756 -0.033492826 -1.0508758 -0.5684383 0.13932315 0.13816589 0.046930417 0.39801115 0.54463613 0.012772741 -0.06045515 -0.56206346 -0.19874531 -0.26212513 0.31604525 0.11006627 -0.2366882 -0.7094524 0.25635314 0.32808545 -0.38493064 -0.45498765 -0.18245356 -0.27184343 1.2582263 0.31538683 -0.41658506
3514 0.3343135 -0.078882456 -0.005949395 -1.2182238 1.0026509 0.11883828 0.18036789 0.7438272 0.35523835 1.0419445 -0.062139824 1.1290845 -0.040154904 0.764858 -0.9283001 0.4564218 0.90850055 1.1737626 -0.29636207 -1.0013592 -0.5158103 -0.1900478 -0.6815587 0.990424 -0.40909484 -0.37865227 0.81507385 -0.51833004 -0.5845986 0.28902072 -0.27608207 -1.5214359 -0.55100477 0.2659713 0.29836413 0.04864689 0.53764087 -0.58664143 -0.16219336 -0.7692703 -0.32573807 -0.25556335 -0.2294805 0.5192475 0.16679037 -0.24969715 -0.22557668 -0.31007504 1.1329824 -0.41015697 -0.25074172 -0.17457731 -0.14589953 0.55527264 0.049211387 0.48353234 -0.320715 0.26545623 -0.13520102 0.046411946 0.23435636 0.6193928 0.50510013 -0.5149721
834 -0.010391061 -0.18757242 0.7578208 -0.8363431 0.23192401 0.12880813 0.04415074 0.1817974 0.3512698 1.3868059 0.019324536 0.77139467 0.762979 -0.28045943 0.018279605 0.26416034 0.37856665 0.88489 -0.030206598 -0.54484653 -0.004308036 0.50593513 -0.2558446 0.2575649 -0.3089604 -0.24440478 0.25667053 0.095479876 -0.23751135 0.162492 0.93506664 -0.54242814 0.11909996 -0.11383657 0.018927183 -0.30232418 -0.78502303 0.012506152 0.25972742 -0.812175 -0.28171024 -0.14740603 0.3086909 1.1961224 -0.31265852 0.036800355 -0.3052672 0.011107308 -0.17538105 0.2054406 -0.58726114 -0.5136333 -0.79794204 0.67712957 -0.2922165 0.2364417 -0.5746716 -0.1308135 -0.9563579 0.9685872 0.013189633 -0.06107048 0.11913383 -0.19021866
188 -0.22467488 0.15905644 0.40957487 -0.19760883 0.63571125 -0.06812943 0.6589594 0.8171322 0.8287271 0.9390429 0.24930407 -0.18056871 0.19192497 -0.24002163 -0.21210921 -0.4865112 0.11036873 0.79680824 0.19850557 -0.46535438 -0.756208 0.7076809 0.2659012 0.645165 -0.5920119 -0.03725092 -0.30565792 -0.107583284 -0.509526 -0.13843074 0.88796973 0.32118416 -0.44867286 0.5531644 -0.48667437 -0.008543524 0.14536336 0.6116666 0.3549328 -0.14455277 0.2829428 0.07490087 -0.45190102 0.103744626 -0.41411635 0.8820215 -0.5518427 0.6750581 -0.5167832 0.24853659 -0.7625278 -0.6132133 0.08829015 0.5413008 -0.66310924 0.31803596 -0.919455 0.047486026 -0.26649863 -0.22382024 0.50204575 0.5055223 0.30861294 -0.458618
633 -0.56663704 -0.026119212 0.2015285 -0.31973788 0.6311638 0.023496568 0.81096035 0.7340747 0.99531573 0.84689605 0.1827295 -0.16528898 0.13091876 -0.033325993 0.10954711 -0.42322817 -0.007827045 0.8134563 -0.01325919 -0.14624141 -0.54020107 0.39688092 0.011191898 1.2668685 -0.64356476 0.10988488 -0.6038009 0.062475313 -0.26258385 -0.2668119 0.70299417 0.4261815 -0.5956796 0.751306 -0.2587016 -0.1021735 0.29175404 0.8486871 0.033346757 -0.21986417 0.62151176 -0.05836757 -0.8811227 0.35187417 -0.11278137 0.66991186 -0.22794858 0.665126 -0.27962172 0.14203294 -0.65320283 -0.33349594 0.015492106 0.68785995 -0.7452912 0.40444422 -0.8948307 0.22281648 -0.255952 0.0020933005 0.37997344 0.38857958 0.714164 -0.58314276
2571 -0.065663576 -0.91473913 0.43331262 -0.25123918 0.6462334 0.62171125 -0.59021944 0.1706822 0.23132843 -0.11179723 -0.8263159 -0.1022605 0.1625324 -0.057574246 -0.29121345 0.30592117 -0.5529422 0.4952342 -0.12124524 0.1375596 -0.21933696 0.19862041 -0.023055742 0.80223054 -0.36497834 0.26778588 0.7787077 0.55550647 0.2551803 0.110691994 -0.30231842 -0.08939356 -0.21550247 0.035677407 0.33451557 0.2744327 -0.21833251 -0.23097034 -0.034827307 -0.42422283 0.2897092 -0.5083344 0.06838629 0.24802907 -0.1390269 0.9596062 0.26038438 -0.21148446 -0.3374921 1.0920653 -0.13480382 0.2834467 1.0840789 0.3699163 -0.5028839 0.42995268 -0.03127213 0.57950115 -0.79240364 -0.76247764 0.39175975 0.31126708 0.30176187 -0.6002271
1879 0.56096137 0.8565127 0.9606644 -1.8225496 0.97348714 -0.7046842 0.41947746 0.11817966 1.2558762 -0.07465526 1.0789709 -0.6553015 0.26614508 -0.12054837 -0.6343644 0.2608904 -0.06936389 1.1331781 0.36641875 -0.4833751 -0.65575266 -0.0795895 -0.648716 0.38788942 -0.42596164 0.6211049 0.3658345 0.5351397 -0.48315087 -0.10912945 0.9158295 -0.5659648 1.1915265 0.21925339 0.48210686 -1.8099262 -0.8684844 -0.52457535 0.16814753 0.04037213 0.46573952 0.532456 0.9630982 -0.3145514 1.7692137 0.34119207 1.0799536 0.77367026 -0.8731424 0.65727425 1.0630387 0.12105173 0.113151014 -0.046554383 -0.13880213 0.19195054 0.3868556 1.2248678 -0.42909557 0.15758859 0.831586 0.89172816 -0.053722333 0.61196077
632 0.29136103 -0.53098017 -1.1509635 -1.0565871 1.1190993 -0.34277856 0.3950434 0.51039886 0.9237604 0.22722982 0.16085225 -0.18701537 0.10571354 -0.056215033 -0.12622236 -0.15813102 0.20951578 0.9284722 0.09334129 0.4016472 -0.13415822 -0.20179872 0.14188208 -0.13345186 -0.54423916 0.48982242 1.3240864 -0.22375788 -1.0229428 -0.48289147 0.33768988 -0.943611 0.428338 0.5793817 -0.055605013 0.5067681 -0.19242749 -0.79568356 -0.057922266 -0.06250762 0.4435569 0.20877004 -0.068657 -0.9039116 0.1534153 -0.15347412 0.12215448 -0.9206891 -0.3841482 0.3535052 0.7424189 0.4560899 0.20614699 0.20973668 -0.79733884 -0.28107253 -0.45122382 -0.17294334 -0.74151313 -0.38676488 0.17237578 -0.01619288 -0.73193634 -0.01156774
2612 0.2458208 -0.19144818 0.5125745 -1.2189124 1.663514 0.14609203 0.19066975 1.0397388 1.1298237 -0.0375569 -0.52955717 -0.4558538 -0.6607842 1.3079791 -1.3567955 0.15742765 0.61345726 0.50337535 0.8140838 0.69588786 -1.4454714 0.72612995 -1.32346 0.65569514 -0.37686202 0.06934109 0.9153013 0.45089602 -0.96781635 -0.034654487 -1.1166325 -0.12374593 0.87952346 -0.10323703 -0.06948313 0.07091004 -0.4160234 -1.2433612 0.24969673 -0.7985129 -0.6661193 0.60303336 0.88335085 -0.1044942 0.26581848 -0.16652863 -0.393655 -0.52085793 0.9407723 0.121965244 -0.1960662 0.77197367 0.26624694 0.4157594 -0.6936009 -0.4525606 -0.86535656 -0.58143246 -0.9969165 -0.041905515 0.8585399 0.22619551 -0.7713189 0.82837856
3305 0.054497678 -0.94876087 -1.1286503 -0.9016672 0.8450015 -0.5101738 0.42426136 0.4185359 0.6343608 0.4904619 -0.12925601 0.027849697 0.096799485 0.34043664 0.15222967 -0.2827815 0.18045753 1.2275335 0.4366153 0.3449513 0.0029953672 -0.5572724 -0.09932443 -0.05579545 -0.7346605 0.43014973 1.1430277 -0.16718842 -1.2211279 -0.969189 0.62375623 -1.0123782 0.20482165 0.45133397 -0.07846334 0.14763281 -0.29093942 -0.6194708 0.19649369 0.24568638 0.29392594 0.17183112 0.16043502 -0.5806081 0.33717412 -0.3051095 0.06501022 -1.0139875 -0.29849184 0.18462326 0.37687892 0.4725095 0.45610192 0.52479285 -0.5358923 -0.2139489 -0.081935026 0.13490008 -0.60304016 -0.30206966 0.42546594 -0.10449591 -0.29594186 0.031352133
3304 0.20198543 -0.8532537 -0.9830525 -1.0269549 1.0085126 -0.29701754 0.54062486 0.49906197 0.7698293 0.32565612 -0.03288206 0.27471274 0.12448322 0.17072299 0.13712989 -0.29963097 0.33497617 1.2448965 0.28968427 0.26071 -0.025601486 -0.3052461 -0.18879753 -0.024755819 -0.7744232 0.5342391 1.1205341 -0.16069762 -1.1458691 -0.8702541 0.4764857 -0.8743949 0.3517709 0.6534971 -0.09428883 0.31602168 -0.18923822 -0.73919827 0.1852566 0.21263398 0.38638344 0.2177813 0.11077968 -0.7515225 0.39511293 -0.3271601 0.018676655 -0.9242279 -0.19212398 0.09209736 0.65095115 0.6225032 0.22317861 0.4069583 -0.7311554 -0.20792277 -0.14338526 0.067793146 -0.29341003 -0.34749395 0.6039401 -0.28449512 -0.28194538 0.06444829
2542 0.5321751 0.04185648 -0.46991143 -0.9997157 0.46966195 1.0317227 0.23724724 0.1226877 2.0611093 -0.054564934 0.861019 0.88683975 0.367744 -0.08571692 -0.81927794 0.6326276 -0.43740448 1.2660762 1.1348804 1.4294488 0.09575244 -0.3686872 -0.964394 1.6985846 -0.94057274 1.0303978 0.07939851 0.19016701 -0.3878144 0.3080131 0.032953218 -1.0418764 0.36957586 -0.0325912 -0.8414047 0.33740994 -0.5585246 0.4968246 0.056381796 0.23873691 0.9579882 -1.3050205 1.465163 -0.2545083 0.18238516 -0.16004902 -0.03399036 0.47364712 -0.42754823 0.19574659 -0.274431 0.80276847 -0.21785659 -0.40062284 0.2995758 0.8261027 0.48210332 -0.22733995 -0.6057689 -0.19828571 0.18730806 0.20747745 -0.3087856 0.27980646
2097 0.26646367 -0.86448 -0.85327154 -0.96827745 0.92978 -0.4152289 0.4602766 0.67894256 0.7752701 0.23213746 -0.025184263 0.35027072 0.1242755 0.20500796 0.1614678 -0.33758044 0.2529547 1.1229737 0.343434 0.29410633 0.004201506 -0.30431518 -0.24036089 -0.085972294 -0.86305285 0.47933084 1.0695436 -0.20938192 -1.0940924 -0.8808925 0.45691514 -0.81093717 0.26264435 0.45648178 -0.017223112 0.38985315 -0.2496248 -0.9394724 0.15317653 0.12744729 0.4019034 0.06086384 0.077937506 -0.7910333 0.35642096 -0.12632763 0.02512171 -0.86602616 -0.13727073 0.08643955 0.5848866 0.5911659 0.24250227 0.5056407 -0.7817501 -0.29662445 -0.12816103 0.042447284 -0.41732958 -0.27211085 0.5367628 -0.23674355 -0.38357052 0.07981194
4477 0.43894905 -0.073448814 0.46172956 -0.63524884 1.0254605 0.38440296 0.3534801 0.3090519 -0.3995356 0.72839445 0.16793717 -0.21980312 0.13528545 -0.42502373 0.40046737 0.5765195 0.4743604 1.2432377 0.09742709 -0.2708519 0.09463578 -0.024397518 -0.5668817 -0.15150505 0.017877234 0.066560805 -0.14552724 -0.8263831 -0.0020107485 -0.16542417 -0.5755414 -0.68809307 0.0019364931 0.69378364 0.06872059 -0.24949327 -0.30103981 0.25919026 1.0303891 -0.10215526 0.13105565 -0.36241993 0.413127 0.7610984 0.24562746 0.6315539 0.5487908 0.21568362 0.3469516 0.1660591 0.16634923 0.18029682 0.6918066 0.19742039 -0.6490586 0.9141896 0.6410395 -0.40526515 -0.24440953 -0.6587273 -0.010197199 -0.15206878 -0.12684965 0.086764656
369 0.38254753 -0.16946381 -0.121834405 -1.106166 0.9253543 0.0072475453 0.62659645 0.8331037 0.022217195 0.75976497 -0.1315639 0.99818087 -0.33219606 0.51705426 -1.0512806 0.6083822 0.81730026 0.9723237 -0.28571686 -1.0756054 -0.6916876 -0.18838161 -0.49030405 1.048589 -0.5032459 -0.0841624 0.41961917 -0.48885325 -0.6192239 0.2506224 -0.41896704 -1.4934186 -0.23412989 -0.16296001 0.18236816 0.19886918 0.6488396 -0.36933562 -0.41422093 -0.9690946 -0.5332602 -0.21864018 -0.13441588 0.4058562 0.053885482 -0.01378448 -0.2957047 -0.2358363 1.2115171 -0.18159069 -0.5705574 -0.05338956 0.03390229 0.5380268 -0.07656327 0.14183944 -0.38318685 0.33739963 -0.14461361 -0.029397313 0.25635117 0.09382989 0.3521203 -0.16023389
3306 0.14244086 -0.90818477 -0.954378 -1.0796946 1.0479777 -0.38740292 0.4758722 0.56433976 0.6910148 0.30499044 -0.17247716 0.26863128 0.11563961 0.2882867 0.21286269 -0.35640255 0.22920567 1.2150792 0.33718535 0.3814584 -0.021681279 -0.2950102 -0.17357267 -0.012183505 -0.7905743 0.5355093 1.1479745 -0.16092107 -1.2014339 -0.8966205 0.50639176 -0.8192697 0.33968273 0.514094 -0.08639883 0.41056967 -0.3255034 -0.8319952 0.13019754 0.0650858 0.5150291 0.203171 0.11959097 -0.75911784 0.36542022 -0.21162023 0.04752706 -0.88242185 -0.30411857 0.16771625 0.5949516 0.5782679 0.2909077 0.5892177 -0.72318876 -0.28945982 -0.19852196 0.10792607 -0.43029115 -0.25956082 0.48830783 -0.23001604 -0.2514971 0.06534834
1732 -0.533061 -0.21289317 -0.36737505 0.15910408 1.4475597 0.77546877 0.5823306 0.93838066 0.6560681 0.66141486 1.3298568 -0.60337263 0.64188373 0.14664385 0.55675226 0.08708852 0.15708052 1.6050769 -0.5080446 -0.4685836 -0.84863704 -0.52213675 -0.29828277 0.04629654 0.42250654 0.16909206 0.558573 0.45480314 -1.5917683 -0.4702741 0.357038 0.2372061 -1.0245402 -0.3910641 0.21990393 -0.45665556 -1.0430242 -0.32595593 -0.26312646 0.8431547 -0.34958178 0.21736485 -0.227437 0.12210701 1.2801267 0.940335 1.067113 0.06465524 1.0698537 -0.45799696 -0.9683533 0.8124206 -0.23099568 0.3600139 -0.59074795 -0.0015698941 0.9646448 -0.62716925 -0.82082665 -0.3830565 0.2511228 0.59761244 0.16305323 0.22618869
3302 0.24860947 -0.880052 -0.92601925 -1.0603094 1.0427316 -0.38129157 0.5055961 0.6492394 0.81279695 0.25376183 0.017339617 0.31868878 0.09243619 0.097525336 0.14067861 -0.30307934 0.2954769 1.1353655 0.30932793 0.28882122 -0.10797065 -0.2512177 -0.12709442 0.015252302 -0.89363736 0.5982883 1.1102164 -0.23671511 -1.2591158 -0.80855507 0.48704112 -0.79522455 0.3717117 0.5306431 -0.16431822 0.2991895 -0.19568223 -0.83622146 0.13267462 0.17185153 0.39605078 0.08798905 0.11144657 -0.7690269 0.36825117 -0.26556447 -0.06980585 -0.8924475 -0.25884816 0.1366467 0.61038 0.6119914 0.33193755 0.44140226 -0.78540605 -0.27269813 -0.14726515 -0.06919384 -0.40140048 -0.24253076 0.57204545 -0.27845436 -0.29523152 0.034927987
548 -0.32568276 -0.3845017 0.3953562 -1.2054478 0.38675156 0.5052135 0.43399894 0.3003522 0.026531953 1.1981874 -0.5012522 0.27629107 0.5289885 0.70336425 -0.060114514 -0.118944675 -0.15328035 1.9153217 -0.50836515 -0.97190475 -0.80204064 -0.18914092 -0.89309007 0.06454527 -0.33141804 1.5624036 -0.53619033 0.47993928 0.024905628 -0.84579414 0.85122424 -0.6824339 -0.24648605 0.3585114 0.45118135 1.186825 -0.106465556 -0.7203502 -0.7097936 -0.06000613 -0.87735116 0.3968217 0.035682503 0.14276437 0.75750476 -0.34759548 0.5204459 0.228862 1.0871282 -1.2485471 0.47719324 -0.037728872 -0.40738308 0.18036094 0.05513302 0.60007167 0.23793729 -0.68701226 -1.8350997 -0.65959466 0.63278496 1.2950475 -0.2931906 0.057899173
136 -0.71864605 -0.48523945 0.18991382 -1.445111 0.9701807 0.30965316 -0.07375384 0.41076577 -0.1319992 0.20295258 -1.2440462 0.46652752 0.7482597 -0.6806415 0.442102 -0.39588478 -0.43655002 0.9403536 1.0146383 -0.60687536 -0.8314827 -0.36778304 -0.8810831 0.45800823 -0.6803401 -0.029763686 -0.3354168 0.25244755 -1.0232937 -0.50680566 -0.29319313 -0.510334 0.18373992 -0.2395865 -0.15603356 0.065477125 0.08083322 0.058877815 -0.3265398 0.13890384 0.2634191 -0.32615596 -0.80065733 0.3963765 0.10894888 0.63374335 1.276987 -0.13482334 0.32606548 0.17199808 -1.172841 0.338101 -1.1518925 -0.4491467 -0.76912045 -0.50368303 0.24666096 -0.0459241 -0.6693979 -0.36078396 -0.5720603 0.9278346 0.036882695 0.13438961
2195 0.15718524 -0.9473644 -0.9958957 -0.9871204 0.9467474 -0.35143498 0.37690482 0.6829391 0.7682285 0.41624454 0.05855345 0.28282315 0.106531925 0.28528625 0.12856667 -0.31602353 0.2783795 1.1448672 0.3724948 0.40024313 -0.08821885 -0.30733022 -0.23053423 -0.0920376 -0.7373901 0.6153506 1.1698308 -0.106961206 -1.1944652 -0.8080964 0.4689738 -0.8398026 0.29154417 0.5223156 -0.12328446 0.37142247 -0.3192633 -0.79549515 0.1731583 0.07039447 0.35651618 0.14166181 0.23345655 -0.8476564 0.40054226 -0.20952326 0.029118014 -0.9765238 -0.25298193 0.14824964 0.6395909 0.5650836 0.28952515 0.6037654 -0.6534801 -0.23371756 -0.172563 0.03137902 -0.36118606 -0.23572555 0.5277358 -0.13467972 -0.3496033 0.025942208
338 -0.8164934 -0.2691188 0.5350285 -0.16180256 0.84678274 -0.01617716 0.44765115 1.165957 1.1337653 0.4155272 0.33645394 -0.4096983 -0.8121381 0.47134334 0.4351487 -0.040416196 0.23763746 1.1668932 -0.15654975 0.0034984022 0.2179898 0.12648393 -0.3908739 1.7246017 -1.0207428 0.4665569 -1.109032 0.69865596 -0.17652972 -0.20265426 0.2827184 -0.091731496 -0.107432805 0.9289156 0.06742654 -0.46787426 -0.011544242 0.4745846 -0.22881962 -0.3535701 1.3481467 -0.16780755 -0.83418554 0.64742 0.31276703 0.064492695 0.58230186 0.71333426 -0.33687058 -0.011748524 -0.19919525 0.4056377 0.28174198 0.5188553 -0.49938205 0.15404636 -0.6548706 0.20675479 -0.39112884 -0.07286277 0.055710062 -0.1543868 0.8698362 -0.5923913
404 -0.5074538 0.15480104 -0.67237073 -1.1134715 -0.29851118 0.67884326 0.61174035 0.8861247 0.5854907 1.0766051 -0.53810006 0.13001357 0.4209888 0.017811604 -0.48238406 0.09220552 1.1981472 1.2928139 -0.9162867 0.6550389 -0.5117479 0.006874365 -0.31961608 1.4291922 -0.35954404 0.3226909 -0.77419925 1.0532064 -1.1706673 -0.27629852 -0.053117804 0.45541093 0.4396513 -0.016053865 -0.09913532 -0.33067477 -0.011317487 0.04477937 0.6903977 0.57955134 -0.25255045 -0.23973633 0.5482049 0.2631648 -0.35275856 0.009246338 0.12089882 -0.6625672 -0.13939925 -0.17345168 0.07567288 0.6912937 -0.12614876 1.7480798 -0.27988738 0.29078874 0.01749393 -0.29056326 -0.5007612 0.43578854 -0.95409334 -0.039949965 -0.45240536 -0.8891841
3303 0.21403418 -0.8413565 -0.91211486 -1.1371027 1.059176 -0.36682355 0.42265826 0.6260778 0.7691075 0.34564573 -0.09239886 0.2415993 0.2211069 0.20549268 0.28575104 -0.30946139 0.15064172 1.1935803 0.2747626 0.31177297 -0.07448949 -0.3093565 -0.17619264 -0.018604536 -0.79620355 0.6149736 1.1911148 -0.22949198 -1.1833563 -0.8384348 0.38936687 -0.9250727 0.37012097 0.56814873 -0.0004938574 0.38459152 -0.23998728 -0.803884 0.021069728 0.032709632 0.3601044 0.1755239 0.149173 -0.8457168 0.4180211 -0.21504222 0.01363395 -0.8517764 -0.22929876 0.13591716 0.6037186 0.65386236 0.3703545 0.46868628 -0.726751 -0.31123018 -0.14927809 -0.006110761 -0.388175 -0.34885952 0.6614946 -0.24847469 -0.17480223 0.039733674
9224 -0.56925416 -0.3314408 -0.3040256 -0.57297283 0.56153023 0.8173612 0.42328405 -0.34106544 0.77590466 0.86237425 -0.037216682 0.66553766 -0.01513515 1.1289896 -0.198913 -0.112470984 -0.5318639 0.7925116 -0.45571586 -0.54263276 0.6395196 0.0263177 -0.8694727 0.6028961 0.24853052 0.6195992 0.71979886 0.5535467 -0.45437855 -0.29164526 -0.4359416 0.7445156 0.27122194 -0.69966376 1.5166353 -0.055770382 -0.082801685 0.6394456 0.7593243 -1.0581093 -0.6235091 -0.042677898 0.1282077 0.34920382 -0.13717669 0.81693405 0.4650546 -0.6899822 -0.24145861 0.31548014 -0.4822557 -0.4682682 0.7524325 -0.036427777 -0.8474064 -0.5883401 -0.1687413 0.48858425 -0.03328579 -0.70253295 0.9953893 0.3331539 -0.023338182 0.34115753
154 -0.14222741 -0.19230142 -0.7914206 -1.8864871 0.34326738 0.68101597 1.2384505 0.115691796 0.68267494 1.0097423 -0.02342462 1.5931458 1.1578298 0.11460959 -0.1527298 -0.5003081 -0.7474284 0.64291817 0.23085424 -0.04289673 -0.044321746 -1.1738474 -0.36974466 1.4156164 1.0881644 -0.34341404 -0.99254495 -0.19599463 -0.94290453 0.56711197 0.27348378 -0.19711761 -0.46313402 -0.042770665 -0.2076756 -0.2745509 -0.7813178 -0.86964506 1.1674565 0.7863268 0.142528 0.036510915 -0.4226181 -1.030736 -0.40946496 0.8286329 0.017693464 -0.30120838 -0.07085679 0.4689354 0.33500683 0.21289001 1.3886781 -0.91797924 -0.48898712 0.052448086 -0.6674549 0.10196999 -0.71943444 -0.3298024 -0.08933454 0.86316633 0.06871912 0.07159148
309 -0.583609 -0.5892735 -0.20389967 -1.3937597 0.30467862 1.097845 -0.14061669 1.3241103 0.5272414 0.35313034 1.3811344 0.7927568 -0.6461305 0.0035585575 -0.52221394 -0.0869903 -0.68519646 1.3969874 0.15581028 0.10918826 -0.24763873 -0.19925027 -0.65573865 0.52120596 -0.17958446 -0.51336324 -0.11885647 0.5581572 -0.2878454 -0.51772535 0.27671832 0.41679236 1.0760024 0.030659704 0.8615758 0.26270178 0.59287894 0.18637617 1.8108178 -0.75767446 -1.3748006 0.07367276 -1.0240722 -0.9302943 0.2019755 -0.60163695 -0.19065353 0.80082023 -0.49128917 0.10161354 -1.106247 0.909453 0.97538424 0.028278422 -0.46869132 -0.124918565 0.3847826 0.8923869 -0.3299395 -0.066563696 -0.17055188 0.40764388 0.66626614 -0.06445816
83 -0.5492202 -0.6828305 0.719438 -0.8021456 0.30890456 0.69424814 0.17511478 -0.47736675 1.0629894 0.3938348 0.42536712 0.7470808 0.14063388 -0.9328766 -0.40253615 0.46017712 -0.27465248 1.0404255 -0.31011733 0.22756879 0.55438316 0.83153313 -0.25729644 0.0028692912 0.58549076 -0.8258493 0.47546026 0.8773508 -0.27973667 0.07644215 -0.65294033 0.010229151 -0.22777055 0.9442325 -0.52792066 -0.70774543 0.028400939 -0.64204055 0.77240056 -0.58083624 0.026474629 -1.8128123 0.31864575 -0.12688889 0.36521178 0.22227879 -0.07032139 -0.2917439 -0.8445591 -0.49533576 -0.6947153 0.63061416 -1.0791883 -0.16701782 -1.0993588 0.6006423 -0.8460534 0.5555071 -0.42640546 0.83551645 1.1575983 1.6366692 0.58963615 0.47045526
900 -0.4360064 -0.040225808 0.6869424 -1.6593004 1.730157 -0.15377632 -0.7734438 -0.09715298 -0.02746246 1.2466929 -0.13733076 0.98415196 0.49490792 -0.44605052 -1.3384887 0.3855692 0.74797267 0.38432 0.26921248 0.939471 0.35421574 0.047180735 -1.1269052 0.32480383 -0.09408076 0.09096555 -0.045706622 -0.27946594 -0.40239075 0.21876448 0.0017491007 1.0518088 0.14210367 0.11071452 0.10037299 -0.19549644 0.05896678 -0.4983887 1.5696857 -0.714537 -1.5488936 0.20845877 0.31427148 -1.0570394 0.9815341 0.84309757 0.3364584 0.004129494 -0.5756887 0.34415814 -0.12272803 0.11726774 0.24434967 0.33253068 -1.24482 -0.99230725 -0.65417147 0.6353351 -0.89122266 0.58591187 1.0281042 0.46841788 0.69125336 0.599715
7008 -0.124050535 -0.3817117 0.38403872 -0.5412772 0.0835314 0.45484674 -0.26451302 0.1436023 0.12455996 -0.14094171 -0.52823335 0.008157098 0.08933804 0.0639816 -0.40889016 0.017928155 -0.35778898 0.594661 -0.15076093 -0.34850353 -0.5591284 0.12545769 -0.070747875 1.4111044 -0.19126333 0.2910104 0.59542143 0.73758405 0.37315056 0.08483285 0.30781686 -0.41074657 -0.30607054 0.31702518 0.17513579 -0.047199614 -0.2664334 -0.497782 0.17214438 -0.5085156 0.10361864 -0.4121988 0.52755976 0.8436169 -0.1337302 0.8746553 0.102285996 -0.40727353 -0.16682371 0.9695006 -0.005206066 0.59805876 1.4454013 0.35802755 -0.64033264 0.296921 0.088715844 0.36193252 -0.6075308 -0.34770608 0.11031761 0.3072459 0.51168686 -0.40039977
1634 1.0258074 -0.76975346 -0.790696 -1.743471 -0.6744284 1.1027218 0.25763142 0.81133026 -0.8744829 0.48082957 0.502034 -0.12489133 -0.47747052 0.09410127 -0.7959015 -0.4254614 0.12561327 1.1919519 -1.0813699 0.3075656 0.02262862 -0.21705253 0.323813 0.55192137 -0.34413263 -0.25220188 1.1596808 -1.0057176 0.4516245 0.017305128 0.21427645 0.55115396 0.03196311 0.9103967 0.999989 0.15236577 -1.2561679 -1.3812146 0.5798899 -0.970306 0.065131076 0.13197182 -0.6576754 -0.043755636 0.01353908 0.37209156 -0.86845934 1.0049161 -0.13784204 -0.19461036 -0.008147733 -0.20349213 0.18116327 0.53875464 -0.89837164 0.64364684 -0.40527967 0.31855592 -1.1386806 -0.4374031 0.83314466 1.0970938 0.33735695 -0.20064422
4749 -0.06113883 -0.6592161 0.1606001 -0.625815 0.3539331 0.45463455 -0.35108495 0.25812358 -0.028827688 -0.17728534 -0.31535068 0.14729944 0.15202625 -0.13691156 -0.4437455 0.09663992 -0.30007112 0.4772527 -0.2871485 -0.4334921 -0.41933572 0.297302 0.2081771 1.3571243 -0.31177083 0.29760578 0.9841257 0.57738787 0.40884364 0.2683423 0.35336342 -0.59304106 -0.22813907 0.104232155 0.12215291 -0.6088994 -0.20661657 -0.6079846 0.09537014 -0.52981275 0.24803571 -0.3933428 0.306614 0.57668704 -0.29002702 0.86018413 0.22786468 -0.33169413 -0.2222133 0.94901264 -0.12948036 0.14523648 1.4712371 0.11248898 -0.7895109 0.24097228 0.06903275 -0.06780296 -0.27415797 -0.6770718 0.28197876 0.16780993 0.4289749 -0.31408185
913 0.07238153 -0.7949723 -0.39801943 -1.0858645 -0.9483336 -0.1198181 -0.020259513 0.7185522 0.117191724 0.47672287 0.8671371 0.49274594 0.21461442 -0.74544096 -0.7106846 0.39196384 0.14499572 1.229662 -0.496127 -0.5009538 -0.4029253 -0.446795 0.20434175 0.61193556 -0.3108053 -0.11928766 0.38262382 -0.03392433 -0.52265495 -0.66547436 -0.80676544 -0.5323079 -1.3979478 0.17967369 -0.2997591 -0.34185922 -0.78849393 -0.14093204 0.11288383 -0.3494131 0.03926773 1.2566402 0.21203484 0.23270075 0.63392514 0.96168417 -0.7419181 -0.4046836 -1.1645969 0.88953876 0.21377783 0.661265 0.19215138 -0.59624743 -1.7432556 -0.18793583 0.97388667 0.8627434 -0.8602618 0.71044147 0.060068294 0.10136786 0.27306384 0.99103147
8074 -0.053129125 -0.6292477 0.41525525 -0.5461812 0.32249445 0.48067468 -0.3640195 0.1701931 0.24323808 -0.11449604 -0.29822254 0.14877294 -0.0143317785 0.037165765 -0.4804315 0.070509665 -0.26616776 0.4040127 -0.35963398 -0.3757055 -0.3487564 -0.01917902 0.2068902 1.0170377 -0.26429433 0.6432728 0.93452936 0.83103114 0.26743653 0.23250055 0.3774803 -0.5211746 -0.25336727 0.09361503 0.42209795 -0.2721547 0.007886184 -0.5729382 0.07858703 -0.663561 0.23977315 -0.1783211 0.4288915 0.7663071 -0.29228646 0.83102345 0.3253436 -0.3404345 -0.02898473 0.9359619 -0.30978057 0.3822078 1.3988416 0.23601899 -0.81880474 0.3996673 0.17665315 0.065876976 -0.52196777 -0.48880285 0.42914858 0.2762065 0.30713752 -0.34773493
681 -1.4263943 0.14365332 -0.7370901 -1.0333815 0.33921203 -0.8823403 -0.7510552 1.1553032 -0.5815438 1.5917777 -0.23930325 0.6520386 1.6225344 0.5530831 -1.2578396 0.8560431 1.0615185 1.3064765 0.51886874 -0.46235177 -0.034136083 0.1912883 -0.049814336 0.48741826 -0.068688385 -0.6151483 0.4505157 0.9156811 0.4278277 0.2990606 0.23094648 0.8174876 -0.42504597 0.6681037 0.08892528 0.64856523 0.08058946 0.12043616 -0.3842725 0.045755975 -0.31795585 0.26169208 -0.34562758 0.4718619 -0.26944408 0.20024817 0.00013233193 -0.34988862 0.17802705 -0.48236623 0.5582728 0.48388034 0.06366203 0.24701501 -2.1895998 -0.5641218 0.28825444 0.3927603 -0.6548322 -0.31178424 0.6943276 1.386829 1.0275724 -0.9109849
386 -0.28376326 0.38711858 0.2524777 -0.64980036 0.82155627 0.24853714 0.53831047 0.6726906 0.9093577 1.3186039 0.367527 -0.47049984 -0.0690765 -0.06677714 0.0017687627 -0.3777447 0.08457484 0.41584712 0.16872752 -0.40163758 -0.63134634 0.55448216 0.1836335 0.5325025 -0.60157037 -0.09363551 -0.013786898 0.10898446 -0.16262992 0.2848375 0.8566082 0.10593448 -0.47242472 0.6105085 -0.6154882 0.20285267 -0.097340286 0.3800021 0.05710369 -0.37080258 0.2736875 0.5576169 -0.49028116 -0.38478413 -0.25979054 0.7460376 -0.59922856 0.8278832 -0.495244 0.27212185 -1.0615449 -0.54822564 0.31835717 0.7749743 -0.35681707 0.21826434 -0.70920813 0.06663049 -0.43802613 -0.11496639 0.6425262 0.49363145 0.45877877 -0.31185472
1244 0.33542472 -0.10165173 -0.07473081 0.14440021 0.018227983 0.12485025 0.08277381 -0.3135975 0.0062544313 0.76043844 0.47461274 0.39417937 0.8108617 0.058042802 -0.34488773 0.65017617 0.5365322 0.817736 1.0015187 -1.0772045 -0.4582293 -0.6020744 -0.28497553 -0.32610422 -0.39889863 0.6561034 0.5334508 0.95049304 -0.9536491 0.7659676 0.0442665 0.12187689 0.47054642 0.31864274 0.29530966 -0.4385645 0.028417751 0.20748904 0.75062937 -0.3590705 0.8811466 -0.03881225 0.091990724 0.39383063 0.30292273 0.26171532 0.07608328 0.53658503 0.277163 -0.0268098 0.059631802 0.03000465 1.1146439 -0.4526328 -0.5748632 -0.5123255 -0.47410288 0.41247836 -0.17981288 -0.42635962 0.034878723 -0.032693103 -0.033686895 -0.5056997
1819 -0.44419992 -0.2377478 0.5324232 -0.82352257 0.5354939 0.06747591 0.0839888 0.38434294 0.37920165 1.4475621 -0.13744654 0.7501097 0.6718851 -0.4092786 0.27033612 0.23269811 0.11090241 0.8372787 -0.22926238 -0.7185856 -0.08326838 0.40239847 -0.20249 0.17454706 -0.16701135 0.13863991 -0.13810064 0.06731715 -0.58513206 0.12114027 0.8577358 -0.20642447 -0.04095166 -0.18123576 0.070354834 0.0985667 -0.78496265 -0.26240918 0.06996452 -0.93797517 -0.6086801 0.104930736 0.34197307 0.9069533 -0.45049456 0.12073591 -0.31257862 0.10202178 -0.09517975 0.082513995 -0.39101702 -0.322548 -0.6189693 0.87454104 -0.17499891 0.24807829 -0.23534724 0.14321768 -0.9181223 0.7696781 -0.20786524 0.007826904 -0.035133958 -0.4382451
2449 0.48684627 -0.5539913 -0.59016776 -0.5619173 1.9076914 -0.19061482 -0.8956743 -0.30898097 1.1833521 0.5558569 -0.2363887 0.65627646 -0.24400558 -0.2656379 -0.8623296 -0.72285044 0.939861 0.58601445 0.40590236 0.277479 0.2747956 -0.54907835 -0.5724226 0.8700001 -0.52880746 -1.1640558 -0.046326462 0.8636195 0.14353336 -0.38119838 -0.5135244 0.3826731 0.6536562 -0.6611261 0.005864604 -1.6633339 0.6114051 -0.32735845 0.5757781 0.25536406 -0.3054366 0.5928381 -0.16159885 0.08661799 -0.16099103 0.37638322 -1.3966272 -0.61313474 -0.3627524 0.50515735 -1.0527792 -0.97828823 0.028987028 1.2073073 -1.0702385 0.8954208 0.5336519 0.77524227 -2.5268395 0.47910762 0.18589956 0.56070197 0.66079384 0.106444195
3137 -0.3305442 -0.63186926 0.2452342 -0.4371711 -0.016135314 0.45944428 -0.6850979 0.080257386 0.30470052 -0.22220854 0.02218782 0.060102284 -0.10408371 0.34183627 -0.20664138 -0.30831885 -0.14895761 0.53159904 -0.17234465 -0.34677398 -0.34277755 -0.1411568 -0.14672434 1.3168815 -0.44435418 -0.05000104 0.57443845 1.1533629 0.083300784 0.16427065 0.4333015 -0.51466125 -0.7213819 0.37808996 0.09479901 -0.10797112 0.13674834 -0.43102002 0.12178384 -0.356882 -0.34304133 -0.26225838 0.38826212 0.6909607 -0.48987886 0.94587135 0.1430955 0.014416377 -0.1400438 1.1221269 0.066676125 0.42915797 0.97407943 0.14528169 -0.61105394 0.3802724 0.15657954 -0.24712762 -0.356243 -0.6912592 0.7637676 0.17297828 0.17825127 -0.15305963
1860 0.35794148 -1.0601377 -0.5037745 -0.06833455 0.90901977 -0.019193823 0.45392036 -0.009859337 0.8245952 0.09011237 0.6362984 -0.18698916 0.37909663 -0.026127186 -0.12431024 -0.17847884 -0.56555617 0.50626403 0.98321 -0.41199622 -0.15349656 0.09806518 0.26682457 0.14715071 -0.8906821 -0.341518 -0.20951992 -0.69422567 -0.54252017 0.87165874 0.13056079 0.10162253 0.20028374 0.361598 0.31791317 -1.2187961 -0.34105507 -0.7381244 -0.4468322 -0.31850666 -0.05181103 0.116885714 1.2321723 0.65074706 -0.783644 0.63185555 -0.31111085 0.052798558 0.62354547 -0.03032441 -0.30529863 0.77371293 -0.15567467 0.5519149 -0.2239135 0.8321584 -0.23406115 0.8616447 -1.6301507 0.5285779 0.6367 0.18469666 0.19602507 0.9327921
4533 -0.24101056 -0.45657334 0.22220248 -0.67563987 0.49366918 0.48733437 -0.45919237 0.06893595 -0.24366319 -0.38850754 -0.30135313 0.015130618 -0.06878793 0.22019932 -0.14780979 -0.2151902 -0.32547608 0.32731897 -0.033774834 -0.41073084 -0.5258315 0.07934333 -0.3060782 0.80095977 -0.073362075 0.32279453 0.54598397 0.80057603 0.16159359 -0.13535912 0.20651048 -0.43409508 -0.3769524 0.0014498727 -0.07346563 -0.13251184 -0.28662932 -0.67466605 0.31701306 -0.6921961 0.3456622 -0.3467069 0.059258148 0.6404778 -0.37227413 0.8807064 0.30415103 -0.1538274 -0.40385962 0.968532 -0.08464958 0.11279498 1.1013961 -0.092690885 -0.44038394 0.86900884 -0.1059014 0.029093275 -0.68704957 -0.31757066 0.09510027 0.37068242 0.6902731 -0.68201125
2590 1.4109129 0.017660085 -0.5689066 -1.1768101 1.2133113 0.0080687385 -1.0672144 1.0249774 0.17471032 -0.021201905 -0.23482022 0.5353771 0.73474795 1.6475906 -0.30140245 0.19371492 -0.07546717 0.5571652 0.03287973 0.6782283 0.33564278 -0.094216496 -0.64755714 0.74669695 -0.16193937 -0.6131358 -0.2845986 -0.4910568 -1.0724195 0.06721839 0.5396699 -0.21282566 -0.49768984 1.0641317 -0.5734096 -0.4721496 0.49821728 -0.37769777 1.3442285 -0.08880331 -0.5273876 -0.30099815 -0.3783865 -0.4654612 0.73619336 0.22345516 -0.36655515 -0.16988204 -0.3473935 0.12839893 -1.045097 1.0617775 1.2419068 1.0911407 0.34962168 0.16981386 -1.3309402 0.21270357 -0.87086934 0.44379982 1.5125128 0.09151111 0.17757085 0.64113885
833 -0.26826298 -0.104961865 0.6899976 0.5161362 0.14263798 0.041818157 0.6791064 0.8171481 0.67328644 0.932883 0.09677589 0.10585491 0.3141668 -0.33471185 -0.44646573 -0.68793416 -0.21363117 0.96639943 0.33482552 -0.20892128 -0.31714615 0.9444935 0.10250743 0.49299285 -0.36379993 0.13171 -0.1570887 -0.23599999 -0.6281348 -0.43269855 0.82113725 0.4188288 -0.4131633 0.49095777 -0.4788602 -0.27326405 -0.09127782 0.23747414 0.34181637 -0.22589484 0.32729247 -0.03467762 -0.39510974 -0.031890012 -0.14848489 1.2449828 -0.64201206 0.2602532 -0.33851528 0.17425054 -0.8880112 -0.19379912 0.23772919 0.5041133 -0.2698396 0.19523038 -0.6373518 -0.049834676 -0.24818158 -0.6160937 0.44807264 0.47998393 0.44005528 -0.32378563
2711 -0.1371451 -0.5056299 0.3991677 -0.5673777 0.1436762 0.62025553 -0.42662036 0.14613675 0.31302702 -0.27501273 -0.47733268 0.16358122 -0.04398654 -0.008256526 -0.53751856 0.044485006 -0.21991353 0.44360512 -0.20638071 -0.35368884 -0.46828812 0.26423216 0.0760271 1.2825809 -0.2131151 0.30651304 0.8449489 0.8665356 0.2832947 0.415135 0.47805688 -0.53005403 -0.19251369 0.26994035 0.22411868 -0.28835633 -0.13559479 -0.5093396 0.103141665 -0.4975064 0.17314856 -0.42016232 0.32795942 0.82412153 -0.050205648 0.97095203 0.029031744 -0.23912296 -0.2404745 1.1502863 -0.17584325 0.52222526 1.3048574 0.25296098 -0.7068397 0.28711763 0.39215666 0.094403945 -0.71080196 -0.48599753 0.40057895 0.4026092 0.6088549 -0.32656017
2661 0.2180655 -0.42995632 0.4742651 -1.2569529 1.4041623 0.311589 -0.081916414 1.1322354 1.0352445 -0.063083224 -0.7987988 -0.4021436 -0.47990376 0.8529633 -1.1158491 0.29764897 0.7388705 0.25107962 0.78931874 0.90334177 -1.3186696 0.6345917 -1.1081034 0.3682723 -0.47666752 0.14792514 0.62346864 0.6410426 -0.92469543 -0.06600859 -1.0125262 -0.08334532 0.9314237 0.057279546 -0.1283964 0.051933564 -0.5456797 -1.0395772 0.32699457 -0.63993824 -0.5901772 0.45957133 0.7511634 -0.13709965 0.35589036 -0.42828363 -0.07522681 -0.24591804 0.8146207 -0.06950639 -0.3210039 0.7409308 0.15453242 0.13521953 -0.56672734 -0.5758135 -0.7663217 -0.59067 -0.97289 0.05179305 0.84310955 0.38394678 -0.7298049 0.7074474
353 0.026206005 0.07698721 -0.022759803 -0.05191375 0.4761651 0.0001396906 0.7443467 0.9957579 0.78366286 1.1022464 0.056901287 -0.0110342335 -0.06310043 -0.2099084 -0.046513453 -0.6665683 0.04324906 0.759996 0.39775008 0.029975718 -1.0440527 0.8072061 -0.20755236 0.7317335 -0.6143868 0.09652676 -0.33541685 -0.07164424 -0.3275665 0.25653315 1.0045614 0.18930665 -0.6448484 0.8225324 -0.7839698 0.19745755 -0.118303224 0.86808807 0.30197322 0.09619301 -0.06607194 0.28750664 -0.44819748 0.1995749 -0.08827639 0.3226558 -0.5036778 0.24107513 -0.2755781 0.30405742 -0.739522 -0.52606755 -0.0037185077 0.73951334 -0.6707635 -0.0056899413 -0.7650993 -0.06289797 -0.35657468 -0.11143957 0.6276112 0.50691324 0.534442 -0.3945832
2027 -0.0014960798 -0.45474386 0.3117097 -0.7046279 0.16765752 0.46889946 -0.11980243 0.15963836 0.042367656 -0.29102188 -0.8522545 0.07023721 0.11797629 0.0732558 -0.46711162 -0.09829473 -0.0712875 0.7524145 -0.53222805 -0.4200696 -0.46737832 0.17140691 0.04439383 0.97954243 -0.2992075 0.29382262 0.8056061 0.7593589 0.22359173 0.3504341 0.4925097 -0.36393288 -0.43265378 0.15680982 0.10119148 -0.3216939 -0.05412172 -0.5013211 0.08703276 -0.60363066 0.13658136 -0.15310816 0.2298845 0.783408 -0.32748052 0.6268133 0.04068083 -0.026038332 -0.116476685 1.0337565 -0.10942901 0.2685383 1.335469 0.16846412 -0.5471089 0.50010914 0.34522215 -0.23941077 -0.6857083 -0.5517385 0.35774297 0.28280622 0.59705627 -0.1010436
742 0.009944332 0.20260428 0.31524277 -0.20678882 0.65955913 0.20353074 0.6442528 0.8045383 0.7486049 1.2207761 0.25194284 -0.33106425 0.24445416 -0.18023378 -0.32656175 -0.33723193 0.085199155 0.63182104 0.1236899 -0.37515345 -0.5865599 0.55772793 -0.023016024 0.65356654 -0.437505 -0.12364386 -0.17946234 0.20834008 -0.35703722 -0.25651267 0.8210447 0.05833484 -0.46847156 0.75914764 -0.7515499 0.12036539 0.0771896 0.55025274 0.30404967 -0.09774249 0.4775747 0.34509113 -0.37943128 -0.2459448 -0.34129968 0.7515542 -0.42060506 0.6483676 -0.6338854 0.39090422 -0.87370956 -0.7520585 -0.14701527 0.8775646 -0.40913686 0.20687704 -1.0811176 0.2255576 -0.32980722 -0.43335763 0.5775951 0.37624845 0.52525 -0.36196107
2234 1.007264 -0.57641786 -0.7635709 -1.6678759 -0.73762316 1.1795994 0.089626424 0.9124431 -0.86018217 0.55084985 0.7332244 0.087271675 -0.58112097 -0.2514238 -0.8065096 -0.54651064 0.1520073 1.1227942 -1.2322288 0.25191537 0.3115285 -0.34740868 0.4522228 0.57928437 -0.74977875 -0.33450288 1.2561402 -0.8444033 0.15775397 -0.30494976 0.13506941 0.5779462 0.07976436 1.0575757 0.78541636 0.08517294 -1.234755 -1.5629817 0.7801177 -0.77815616 0.21288075 0.29020742 -0.5463122 0.0059493557 0.016128998 0.2756969 -0.6847172 0.7641328 -0.0767686 -0.1008495 -0.19446404 -0.07351605 0.2629783 0.6212309 -1.1885906 0.649016 -0.44465145 0.6176999 -1.2225686 -0.28738555 0.712701 1.2052712 0.537595 -0.21419068
885 -0.15407121 -0.01373307 -0.52985066 -0.6300826 0.89828956 -0.59145236 -0.21836172 0.2689908 -0.49164236 1.1206992 1.5956259 0.33506066 1.0042796 -0.30373877 -1.0193003 0.2780145 1.2212144 0.26026422 0.15081966 -0.025077004 -0.8133882 -0.7445758 -0.45373166 1.5087602 -0.16513407 1.0500886 -0.112168685 -0.89720947 -0.43795523 -0.20065346 0.37006533 0.6679059 0.8191292 -0.1551143 0.90608305 0.45817202 0.33233792 0.13084237 0.51711875 -0.25743115 0.034031987 0.14455003 -1.1773576 -0.15470678 -0.18796334 -0.09744594 -0.52168584 0.52318853 -2.2655878 0.7854536 -0.73227787 0.42649147 0.21982563 0.6118338 -0.9357238 0.034780785 0.50497496 1.0183353 -0.51502836 -0.31240907 0.422527 0.81127816 0.71233475 0.1849181
232 -0.30492488 -0.4685203 0.38914546 -0.9129 0.54254913 0.1401344 -0.04517365 0.33793864 0.47323996 1.2516341 -0.16310084 1.0182384 0.40980124 -0.39813554 0.16244939 0.20913841 0.13419418 0.71274287 -0.33633763 -0.5293099 -0.18649529 0.48468325 -0.23502101 0.16499285 -0.3456617 -0.0037785838 0.21077771 0.24710508 -0.6300928 -0.11882922 0.73248976 -0.37255183 -0.3428307 -0.29563466 0.103592 -0.1577501 -0.5743488 -0.021921169 0.35923538 -0.789312 -0.43764433 0.22262244 0.22863142 0.60054344 -0.39232498 0.02286903 -0.13121305 -0.00094400253 -0.6977779 0.077456474 -0.7289574 -0.39750966 -0.62294847 0.6969213 -0.35576427 0.5538003 -0.38911265 0.11939425 -0.87921524 1.0651942 -0.22256495 -0.07054862 -0.040002864 -0.5769988
880 -0.32692564 -0.06796534 0.28082284 -1.1036701 0.34400484 0.48048508 0.19690889 0.1350205 -0.004768157 0.54216194 -0.69606215 0.07410954 0.08976619 -0.08334227 0.14240707 0.35127386 0.67187494 0.8166322 0.6107201 -0.608771 0.04277894 -0.3224057 -0.5887744 0.3836189 -0.22550115 -0.54266584 -0.022902967 0.0235137 -0.42948914 -0.01735129 0.11162668 -0.080008164 -0.51720095 0.46551412 0.86899817 0.4818278 -0.3549497 0.12486069 -0.20916718 -0.5343532 0.04618558 -0.16216147 0.14150544 0.5360258 0.08926931 -0.36971626 -0.2733929 0.20265701 0.30422315 -0.490418 -0.18035677 -0.48388648 0.31479272 0.14496092 -0.28058752 0.07184155 0.14058863 -0.2091364 -0.78907514 0.06806731 -0.113747746 -0.11422913 0.15872318 -0.37327236
339 0.3176668 -1.3683946 -1.6070207 -0.7686413 0.6486792 0.62903655 0.8157822 0.4700425 -0.6323629 0.6365962 0.603225 -0.30537924 0.9098955 -0.056458253 0.30528492 0.08295278 0.55430657 0.25624442 -0.5650096 -0.62105364 -0.523852 -0.35521033 -1.2562762 1.4711598 0.4571564 -0.25776285 0.0813593 -0.30871883 -0.05806014 0.37924024 0.08647736 -1.412409 0.7497904 -0.24128795 0.60915494 -0.13350819 0.072509274 -0.8839404 -0.7100945 -0.6396693 1.2201283 0.08558795 0.9784735 0.23185407 0.12638529 -0.71140754 -0.57040805 -0.46422356 0.42445114 0.36271352 -0.5984433 0.68926305 0.048018366 0.103454754 -0.45012796 0.65679973 -0.95729756 0.17474452 -0.631838 -0.03568269 0.6971722 0.5932226 1.2307613 1.2307942
5052 -0.22037609 -0.38175374 0.48312196 -0.744147 0.11847654 0.40024272 -0.26456025 0.024831634 0.30002084 -0.1642067 -0.5551896 0.32558855 0.06752105 0.07034464 -0.5770142 -0.11925932 -0.09803837 0.32822278 -0.1919415 -0.37735748 -0.49187163 0.20175228 -0.013257327 1.0589149 -0.3397453 0.54509836 0.6307489 0.65308887 0.3532909 0.43277884 0.3842443 -0.693611 -0.27082708 0.073104754 0.09856116 -0.21995535 -0.08991279 -0.4462122 0.35518295 -0.55724084 0.20304054 -0.12977187 0.45879444 0.8416164 -0.33852842 0.58645654 0.23278885 -0.19505432 -0.1904602 1.0423578 -0.029936187 0.4109916 1.3181136 0.290518 -0.8838339 0.33794 0.052238543 -0.06269222 -0.5632091 -0.64162534 0.33803523 0.45707887 0.63875717 -0.13662216
3668 0.13340192 -0.52596444 0.20523398 -0.46076193 0.022596087 0.5164132 -0.355219 0.3869653 0.1780564 -0.45866063 -0.4363844 0.36465466 0.29772222 0.0194035 -0.21136443 -0.24279684 0.23148349 0.41404614 -0.25354537 -0.30223662 -0.3460466 -0.24019812 -0.014876446 0.92557776 -0.18971264 0.29027033 0.71603924 0.6653798 0.35969254 0.27651656 0.44221234 -0.44489917 -0.43331388 0.26989773 0.34819198 -0.05446007 -0.3079688 -0.43080127 0.16708218 -0.41750693 0.04869979 -0.4902146 0.3577539 0.63448936 -0.27486953 0.8593296 0.16097945 -0.22689399 -0.2605698 1.0902594 -0.15935634 0.2542865 1.0398138 0.4494799 -0.9815048 0.49398646 0.34623066 -0.16137601 -0.17904806 -0.63935137 0.17141311 0.5213656 0.41896906 -0.18686432
3189 1.1450222 -0.68558526 -0.44715548 -1.1271952 -0.27275014 0.48905617 0.34727994 0.7746205 0.7735697 -0.68980306 0.7481496 -1.048434 -0.36723283 0.09668479 -0.046976436 0.9383171 -0.19777218 0.71099085 0.77011156 -0.25917122 -0.4431528 0.39065212 0.504042 -0.09900604 -0.15168539 0.43301585 -0.1306222 0.36719418 -0.32783124 -0.09727531 0.15398797 -0.49339402 0.031800848 0.6833729 0.5927152 -0.22196518 -0.3641709 0.009771334 0.7201835 -0.060439598 -1.093906 -0.3615255 -1.2173142 0.54767245 0.25170508 0.52760065 -0.84755296 -0.41280758 -2.0445385 0.16503079 -0.92604005 1.2865845 1.5908461 0.96844256 -1.5656165 -0.48382673 -0.5531064 0.5751169 0.2276637 1.1791012 0.2500545 0.60519254 -0.50719357 0.20641673
3387 0.4675411 -0.8197815 -0.95824313 -0.8540393 -0.33590376 1.308972 0.98571885 0.87796193 0.7176436 -0.42975304 -0.20079562 -0.53102183 0.6088688 0.6291359 -0.10752579 -0.5481914 -0.14684904 2.026525 0.863828 0.18531002 0.32457098 1.1379511 0.7956321 0.40575862 -0.12680219 0.5439109 -1.4169492 0.71610856 -0.36647353 0.83379865 -0.37557188 -0.15995999 -0.51063055 0.23525621 -0.15758102 0.3546349 0.9883966 0.11007382 1.9352498 -1.542231 -0.39657816 -0.25833002 -0.21700986 0.6090025 -0.99360096 -0.630972 -0.48571867 -0.67384446 -0.7253325 0.5301459 -1.0563675 -0.52482766 0.18239607 0.6971693 -1.1294619 0.49308118 -0.5578691 -0.27263522 -0.9459764 0.27570212 0.6337451 -0.041061003 -0.6941441 0.7846773
414 -0.3019739 0.06718363 0.41645136 -0.5522928 0.7538195 -0.041181557 0.5271021 0.785072 0.8648691 1.1836879 0.40762022 -0.17302535 0.09761661 -0.39125788 0.046612825 -0.54667026 0.005481818 0.34540194 0.320339 -0.29781964 -0.6169178 0.39090204 -0.08886542 0.5885762 -0.52265096 -0.20857425 -0.25446865 -0.015418283 -0.4083767 -0.017075818 0.9384387 0.306992 -0.69983107 0.57555693 -0.5314393 0.26852578 -0.035412107 0.31747085 0.1489462 0.035107132 0.07341749 0.20016253 -0.31351674 -0.17646982 -0.25637946 0.8108749 -0.6102902 0.6771623 -0.40179074 0.3678441 -0.9816961 -0.46992728 0.33625606 0.74434716 -0.5614917 0.29814002 -0.767184 -0.0153291235 -0.20594645 -0.3685907 0.50222117 0.5130444 0.3256607 -0.5723407
