4185 64
2836 -0.16990145 0.35863593 0.14555342 -0.29337966 -0.21982783 0.25634363 0.85822564 -0.070989095 0.19768307 0.24335264 0.5193919 -0.13250601 0.36246276 0.045540564 -0.11955259 -0.2873076 -0.22676587 -0.41585797 -0.17941046 0.41763842 0.1344649 -0.24512312 0.13441667 -0.09093717 0.37176558 -0.31972423 0.27649927 -0.31889325 0.18369675 -0.1762799 0.31563032 0.31920522 0.3979741 -0.23919949 0.29370788 0.22907813 -0.22399518 0.2454497 -0.53235745 0.24160771 0.017313458 0.4144068 0.2795777 0.54416335 -0.3300092 0.08261008 -0.23603545 -0.18950751 -0.4470612 0.084253244 -0.19751427 -0.074203 0.044821143 -0.0708951 -0.2891287 -0.3128578 0.05960542 -0.078274325 0.57744443 -0.2817607 0.18164669 -0.12730293 0.43658498 -0.2544874
2571 0.026113318 -0.027736345 0.057827547 0.24212873 -0.34306353 0.254182 0.650277 -0.016957138 0.13668072 -0.070918515 0.037937067 0.06779825 0.21476741 -0.17883629 -0.0978965 -0.5123658 -0.3433779 -0.07143629 -0.21572934 0.27039093 0.099467404 -0.2671525 0.4051891 0.24492346 0.024882654 -0.064281106 -3.5967125e-05 -0.18052752 0.118406415 0.06198482 -0.4279285 -0.09137689 -0.5440735 0.1316971 0.08369936 -0.05128396 -0.16575494 0.5214885 -0.19660005 0.29214948 -0.16631596 -0.119873606 0.787284 0.47864425 -0.3191392 -0.097965814 0.22778443 0.317086 -0.18982139 -0.02612506 -0.2661186 0.01527254 0.064363465 -0.2663941 0.15115654 0.2639798 0.04337764 -0.25994226 0.5464302 0.04689806 0.12272176 0.18458876 -0.057841428 0.2220077
2962 0.39216343 0.08393457 -0.17477061 0.20323804 -0.123724066 -0.0050641866 0.73305035 0.2877601 0.082063824 0.30501643 0.30150878 0.3852006 0.2120182 -0.1604922 -0.007985485 -0.4434791 -0.13958488 -0.3536574 0.0948046 0.11953354 0.25912175 -0.46579528 0.28536072 -0.025558993 -0.10353283 -0.22193296 -0.08105206 -0.36336225 0.05690568 -0.07815652 -0.2769959 0.316207 -0.020759497 -0.24428844 -0.00025924903 0.0500998 -0.34737757 0.43041945 -0.40117568 0.036820654 -0.22633515 0.11360939 0.38732797 0.3090742 -0.51504916 -0.16013531 -0.17507198 0.2967709 -0.20429386 -0.11531341 -0.5962574 -0.20370063 -0.07057405 0.22645283 0.03597371 0.25898623 0.10789977 -0.3704319 0.48793036 -0.12594001 0.25651568 0.046172436 0.1800865 -0.057418335
9812 0.10787063 -0.16140568 0.030922137 0.15331678 -0.4056529 0.42303395 0.68194795 0.33003584 0.27635777 0.07531015 0.4199373 0.29986975 0.36295846 -0.29734215 0.12188114 -0.3650858 -0.3046326 -0.34030312 -0.05359438 0.029764393 0.27259463 -0.042461924 0.081483416 0.15483958 0.42053318 0.020090658 0.07007256 0.19294655 0.19132687 0.13609324 -0.30818507 0.26284352 -0.37277198 -0.14858876 0.19485644 0.020226883 -0.1118029 0.4544903 -0.19427611 0.2425905 -0.047474615 -0.25174257 0.6614087 0.707979 -0.34796384 -0.31840804 0.4807068 0.55314964 -0.2544204 -0.028972654 -0.41195035 -0.08204666 -0.13755056 -0.15267369 -0.2148216 0.120692305 0.228349 -0.030683246 0.664268 -0.10776155 0.24900506 0.15577437 0.13964136 0.20109922
3713 0.45498684 0.21177731 -0.24590737 0.15062806 -0.7022963 0.20222573 0.7285311 0.050446846 0.4211367 0.08124757 0.26541755 0.307649 0.01351584 -0.0571437 0.041252024 -0.50724083 -0.04472835 -0.2930193 -0.15165187 0.11109838 0.45975742 -0.17451076 -0.14862812 -0.28920177 0.31951 0.06082836 0.18365408 0.04988814 0.12764643 0.049750805 -0.07681271 0.5566458 -0.027040046 0.20481429 -0.12725924 -0.21410252 0.015792424 0.53405005 -0.32437304 -0.11852247 -0.1386895 0.35455054 0.34347516 0.33333418 0.025341878 0.30186668 0.06672988 0.4735418 -0.43382096 -0.11042255 0.05922719 -0.18795231 0.028831592 -0.17907155 0.35733318 -0.58113164 -0.01821838 0.064210966 0.48170227 -0.24491502 0.3749722 -0.12977153 0.18153568 0.3009878
354 -0.07280121 -0.20201685 -0.30441827 0.1496297 0.021342153 0.15201657 0.69429606 0.3673856 0.47867212 0.35604784 -0.09364727 -0.016383147 0.7304728 0.2635144 0.40244228 0.030661346 -0.28979766 -0.21613474 0.34462315 -0.09604388 -0.25827697 -0.15673743 0.006265666 -0.1351268 0.22391161 0.044453237 0.013398727 -0.9954393 -0.15473963 -0.4581362 0.4446563 0.18701862 -0.17289673 0.046479348 -0.61071825 -0.21996078 -0.004864369 0.06829791 0.42143336 0.08422194 0.12696457 0.55328065 0.24375021 0.28110996 -0.3891086 0.003483723 0.14058475 -0.21408047 -0.4623688 -0.38651913 0.56551844 -0.23937254 0.41357553 -0.7195153 0.0018694618 0.12343872 -0.16590871 -0.16276924 0.0817621 -0.23528184 -0.35231256 -0.26967376 0.38811556 0.56489694
3420 -0.12809692 -0.0742858 0.17961185 0.31460968 -0.30956855 0.5606391 0.2657433 0.19156067 0.22186083 -0.6342717 0.23548265 0.054498572 0.20445596 -0.28595063 0.3144121 -0.26046693 -0.17666137 0.27286056 -0.035534274 0.3800399 0.03031105 -0.1327176 0.17307207 0.33393282 0.5407168 -0.13177536 -0.17223907 -0.17033166 0.026346622 0.020794807 -0.37232924 0.34461927 -0.20237447 0.09829175 0.02690609 -0.088405296 -0.11292584 0.36043054 -0.20438038 0.09764275 0.12915316 0.04586955 0.6774887 0.4297604 -0.27213144 -0.019480672 0.17052393 0.61366546 -0.14606465 0.31354764 -0.40779728 -0.15276204 0.059883166 -0.25492662 -0.05839922 0.31098086 0.08105762 0.08252103 0.5835104 -0.34678903 0.14490655 0.21521884 0.08128555 0.33434036
5295 0.115478754 -0.56786877 0.5249468 0.17528062 -0.1799267 0.22899939 0.5563252 -0.28794307 -0.02687599 0.59374017 0.4363351 -0.43372652 -0.3430797 0.22812474 -0.39051622 0.112328686 0.059045445 -0.2347466 0.19059311 -0.12384818 0.21096542 -0.61833495 0.10235037 0.031081157 -0.45697665 -0.47242418 0.016360432 0.1916432 -0.0047370936 0.020665498 -0.20393641 0.11455368 -0.043984145 0.21119323 0.17943723 0.3094374 0.2950793 0.23219678 0.04427912 -0.052942116 -0.36108643 0.19074455 0.9316005 0.5255077 -0.54296756 0.10883668 0.42527753 0.53959435 -0.5889729 0.07083237 0.2985807 0.21148504 -0.18127584 -0.10499733 0.119670905 -0.054822765 0.21946777 -0.20780899 0.07681785 0.20146883 -0.58990496 0.0429071 -0.036256243 0.55006194
5721 -0.11722493 0.1722343 0.1764861 0.09684419 0.00858832 0.066985466 0.79164565 -0.3418025 0.0076877256 0.19928202 0.315945 -0.09490391 0.37692997 0.09713804 -0.3761914 -0.0039852387 0.024054056 -0.045626484 0.21279238 0.3414826 0.1899482 -0.25485986 -0.10564074 -0.029126223 -0.06375119 -0.2984533 -0.13066755 -0.5624547 -0.13216482 -0.31902927 0.3830906 -0.026189188 0.14946587 0.13411374 0.13586149 0.25358513 -0.28461522 0.44403836 -0.4109004 -0.06423839 -0.30581993 0.43752283 0.66583496 0.30262545 -0.23498063 -0.07345222 -0.38917628 0.114887744 -0.065776266 -0.18613832 -0.13406853 0.14757247 0.26945 -0.014323386 -0.32378498 -0.253209 0.16083226 -0.027704298 0.6166126 0.17349108 0.052460745 -0.16014285 0.11627706 -0.15101644
1953 0.51935416 -0.14772741 -0.5730807 0.32150644 -0.14987813 0.42024165 0.39764938 0.23028351 0.29658964 0.19757362 0.5905324 0.25630113 0.41773438 -0.20744623 0.22384077 -0.7235483 -0.24467444 -0.26228845 0.561029 -0.06968672 -0.24859746 -0.53142804 -0.13194859 0.35455528 0.428507 -0.23649769 -0.054731015 -0.5796542 -0.034720607 0.27488038 -0.23614016 0.13903256 0.0646177 -0.15141134 -0.16307059 0.30730906 0.091778584 0.119675405 -0.026283368 -0.15990983 -0.26962945 0.4849425 0.32073054 0.14690058 -0.10120909 -0.07160294 0.18803133 0.28530693 -0.05728828 0.15754238 0.013788665 0.47762716 0.25689042 -0.6122724 -0.06929415 0.11945697 0.18007636 0.003944737 -0.34420836 0.014409502 0.036783364 0.18730351 -0.3996645 -0.2020794
2810 0.69434255 -0.12458107 -0.22845851 0.40481094 -0.1665696 0.106809735 0.81885004 0.21378604 0.25371101 -0.13600752 0.27532554 -0.014363413 0.37711167 -0.12031343 0.08122133 -0.32819393 -0.016220357 -0.019953439 -0.021505723 -0.09070872 0.2804959 -0.10334719 -0.0053739357 -0.7305529 -0.13068393 -0.106333435 0.09784301 -0.5615346 -0.09387265 0.2363123 0.10277745 0.13266271 -0.14157148 0.2742857 0.061442155 -0.22731458 -0.10187297 -0.1848764 -0.24885622 -0.1781752 -0.16308424 0.11272968 0.41079813 0.24480332 0.05791065 0.1911571 -0.20200576 0.62869734 -0.25491878 -0.30792123 0.014631558 -0.69163644 -0.14022118 -0.5257389 0.21099938 -0.22356522 -0.27473202 0.26702443 0.30956495 -0.19030158 0.07414672 0.24099033 -0.04033708 0.08989382
880 -0.19200875 0.08499858 0.24904476 0.040705003 -0.052987345 0.24898009 1.0385289 -0.23960009 0.17083557 -0.04999444 0.096996605 -0.049117237 0.25906387 -0.04544117 -0.28496048 -0.12453013 -0.22195892 -0.22561552 0.30267897 -0.0056848917 0.10769717 -0.37111706 0.18766189 -0.39573362 -0.038419683 -0.7706126 -0.25850493 -0.8140471 -0.3426567 -0.116291344 0.22210918 0.18736352 0.4522613 0.24787733 -0.13433796 0.43288195 0.0007945396 0.41073027 -0.116875574 -0.29297364 -0.48519158 0.19423564 0.13494541 0.38608745 -0.14455697 -0.12198942 -0.5170245 0.012028437 0.14304301 -0.3336178 -0.013816901 -0.007908384 -0.13432553 -0.14540713 -0.05991044 -0.43903697 0.228352 0.0831033 0.581938 0.27730706 0.0795534 -0.053425934 0.31166136 0.19077227
6433 0.09366266 0.029942952 0.08568314 0.02202423 -0.28892347 0.3480897 0.6554385 0.3151828 -0.014844455 0.011581816 0.25234747 0.19109944 0.12138872 -0.24031016 -0.0014353252 -0.5391655 -0.44594055 -0.20253672 -0.020183476 0.22056502 0.29958838 -0.29247138 0.1380251 0.27373224 0.30524176 -0.23433702 0.042978153 -0.1790094 0.19354422 0.09058311 -0.43655318 0.24813479 -0.3440211 0.09029706 0.2452433 0.11803056 -0.20119143 0.6271618 -0.026453234 0.29478312 0.05549185 -0.48718032 0.6092865 0.7354661 -0.3184767 -0.21028501 0.24523684 0.3922718 -0.36972043 0.13624378 -0.2714013 0.08205777 -0.0122427605 -0.25669307 0.15241057 0.36242577 -0.022134548 -0.0033964776 0.47278255 0.008477167 0.20299907 0.40928885 0.17789051 0.15706137
386 0.33430263 -0.14395747 -0.5347298 -0.11706821 -0.33809426 0.19791475 0.7366074 0.24935114 0.24378456 0.12813003 0.18234223 -0.28450158 0.7997737 0.33815238 0.6560137 -0.007859467 -0.22770502 -0.095460534 0.44769508 0.06366848 -0.5325168 -0.16906215 -0.15807424 -0.4054717 0.29294485 -0.09569738 0.23868859 -1.191378 -0.1590212 -0.46157497 0.3142515 -0.21673767 -0.2702423 0.15161407 -0.71588326 -0.071036264 0.38834807 0.07758232 0.59404904 -0.09766754 -0.22276272 0.5217444 0.3396933 0.2650943 -0.15436514 0.13773751 0.5813995 -0.3138098 -0.7915937 -0.24173541 0.29440477 -0.32785347 0.16549024 -0.61171097 -0.3201392 0.2564512 0.022256026 -0.0972872 0.26683387 -0.485707 -0.39112177 0.089158766 0.35836518 0.12984312
2743 -0.17219582 -0.20319082 0.17281412 -0.18886098 -0.10492687 0.382947 0.5643873 -0.2999772 0.030344127 0.047726586 -0.00043872997 -0.1106907 0.34816024 0.078856796 -0.0077740075 -0.056107264 -0.32555315 0.044274177 0.49390262 -0.044140592 0.377848 -0.6364019 0.360142 0.04800454 0.061722986 -0.20205358 0.1427744 -0.5494918 -0.4764711 0.06329676 0.25028315 -0.085919134 0.297256 0.28409654 0.11038079 -0.044181004 -0.25649092 0.32850277 -0.5270455 -0.020437816 -0.30084753 0.22111587 0.26274726 0.22509423 -0.44681087 -0.22294754 -0.25653604 0.20012647 -0.32060444 -0.1419381 -0.08295679 0.16425939 -0.036496706 -0.32080412 0.04405163 -0.096779816 0.34668756 0.46415856 0.1671245 -0.02076235 0.1422149 0.269279 0.5670921 0.6164365
3668 -0.025250733 0.44221509 -0.14962786 0.25844526 -0.15808249 0.2049204 0.34372324 0.0015598916 0.14599076 -0.44641724 -0.11814128 -0.05385363 0.42183223 -0.22405875 -0.11050714 -0.49776298 0.03489479 0.110720515 -0.19692783 0.13468836 0.1372359 -0.118763186 0.55010444 0.36426875 -0.34564254 -0.171194 0.05436395 -0.14912757 0.07471383 -0.10840539 -0.023306236 -0.085178986 -0.4349382 0.3418601 -0.45514596 0.087802246 -0.020338517 0.41233563 -0.26756462 0.110545576 -0.44982868 0.3803048 0.8949338 0.42618704 -0.2477196 0.31002203 0.19735532 0.28369832 0.06273927 0.0860878 -0.22377238 -0.37716392 -0.04136066 -0.17088646 0.11120096 0.20784947 0.059292812 -0.115952924 0.6202815 -0.032891605 0.14506957 0.16893178 -0.122415766 0.19332655
3374 -0.12181763 0.105387904 0.20803978 -0.16071776 -0.029876303 0.26043734 0.42297184 -0.19535212 -0.074050196 -0.0910202 -0.09412972 -0.17329314 0.14001657 -0.15090555 -0.40478736 -0.075209014 0.54397815 0.15466991 0.27461556 0.24561252 0.2903169 -0.524607 0.31279317 -0.16501549 -0.15989225 -0.32464686 -0.0585347 -0.072269306 -0.26988608 -0.097503215 0.02624697 0.7321732 0.21392824 0.30249947 -0.21158652 0.5374355 -0.37752846 0.6291495 -0.11549661 -0.08676455 -0.1817247 0.38523808 0.51037586 0.41684246 -0.35954985 0.37773848 0.014977432 0.11518824 -0.26022303 -0.4026863 -0.0108886855 -0.07131753 -0.013986646 -0.42296764 -0.48887685 0.18530464 0.2227215 -0.10794304 0.6254369 0.30761 0.020556789 -0.59647614 0.10218688 0.024995811
442 -0.04456815 -0.11696732 -0.30050585 -0.19274768 -0.3765359 -0.087925784 0.4309348 -0.17198826 -0.078806005 0.25628582 0.39950892 -0.48689467 0.07779954 -0.19908167 -0.108053856 0.34250644 -0.15910903 -0.18872246 -0.009210154 0.48071846 0.33316755 -0.34231982 -0.022029497 -0.12882315 -0.47034037 -0.4729382 -0.21621034 0.05644694 -0.30440196 0.05262575 -0.12153272 0.3500675 0.083141476 -0.02044285 -0.21888666 0.21087228 0.025474118 0.47701588 -0.27365717 -0.4286312 -0.6781118 0.575497 0.95957017 0.03932174 -0.7226999 0.3491097 -0.006747313 0.31802538 -0.27839577 0.063711435 0.03473737 0.0044548553 -0.5789742 0.22024125 0.6941763 0.6405395 0.3411485 -0.14912394 0.13557307 -0.121324174 0.13741787 0.052149523 -0.048560522 0.60221386
7008 -0.033230256 0.17031312 -0.23077376 0.3612341 -0.26480368 0.18437771 0.63308674 -0.2010632 0.25065577 -0.40824956 -0.103908084 0.024655858 0.40508842 -0.14620505 -0.16395153 -0.6216126 -0.19881445 -0.17254023 -0.2603266 0.39664876 -0.1960752 -0.19451737 0.5095407 0.3615046 -0.112378135 -0.07320457 0.053166144 -0.15763418 -0.058105 0.09064345 -0.062046535 -0.40434656 -0.6723737 0.14826384 -0.05486553 -0.09606643 0.0132699115 0.74449545 -0.47505647 0.26236674 -0.59062743 0.29080302 0.8917599 0.59895664 -0.29455295 0.042351678 0.22129463 0.060973335 0.09382906 -0.19142962 -0.40048078 0.21099725 0.13397421 -0.36023846 0.1546203 -0.10447922 0.13279317 -0.19603796 0.59900767 0.06250546 0.19583647 0.085621834 -0.29635498 0.17438808
8881 -0.46229577 0.009799301 0.080715515 0.1900113 0.13682225 0.21749644 0.8084757 -0.07048233 0.09863869 0.29148373 -0.00993694 -0.122518145 0.40687993 -0.041976877 -0.15161966 -0.061485723 -0.2934581 -0.054106593 0.0025181898 -0.037210975 0.18836823 -0.5123111 0.15575059 -0.33729056 -0.070883386 -0.2387938 -0.019098815 -0.6366963 -0.29445538 -0.22213592 0.16713072 0.24729806 0.23023045 0.103173584 -0.11929118 -0.21812838 -0.05777532 0.296481 -0.07376784 -0.18338962 -0.20149668 0.49087802 0.15651602 0.392986 -0.1873297 -0.15902676 -0.33227003 -0.04660945 -0.4422578 -0.29429957 0.17870931 -0.17124052 0.07197295 -0.3617398 0.1562724 -0.29121983 0.21761619 -0.019419454 0.2962949 0.089764 0.29717967 0.19126524 0.022884618 0.4195025
4533 -0.11052359 0.16375205 0.082565464 0.27202728 -0.10351819 0.36215052 0.79920167 -0.45298538 0.15427661 -0.2614763 -0.2603984 0.18495679 0.17309728 -0.117915414 -0.12425443 -0.13135743 -0.20817983 0.03482488 -0.099505804 0.18350573 -0.072786786 -0.32127047 0.72054416 0.25783518 -0.016131602 -0.17285925 -0.0054672225 -0.24280874 -0.2735593 -0.06897404 -0.25861394 -0.496045 -0.4392394 0.20585425 -0.15541612 -0.015129413 0.10913533 0.63446325 -0.59962535 0.11491821 -0.5534686 0.26930013 0.39273086 0.76274407 -0.4283652 0.2385275 0.093766935 0.10299531 0.034167778 0.02243382 -0.27914652 -0.07681839 0.06697508 -0.42427793 0.15210266 0.07985154 0.17024568 -0.23556386 0.45376748 0.23665246 0.1019944 0.07325388 0.003186175 0.23683578
3137 -0.08850378 0.07939497 -0.11489088 0.32712722 -0.3199537 0.29978856 0.51996976 -0.32499522 0.23683396 -0.5606101 -0.18763508 0.046706714 0.41827512 -0.042066935 -0.11350863 -0.46713802 0.02931876 -0.15905903 -0.20968904 0.554436 -0.18181953 -0.17108755 0.63638425 0.15546551 0.073513225 -0.31200048 0.035258178 0.009724276 -0.08419851 -0.014884535 -0.23410867 -0.3798176 -0.69912004 0.25191906 -0.349846 -0.041231684 0.17818719 0.50590086 -0.49813238 0.080841005 -0.52551883 0.1821767 0.8494749 0.6076659 -0.25659052 0.1719098 0.010644962 0.07186844 -0.016357027 -0.01678777 -0.6037253 0.0763386 0.23711365 -0.17403238 0.22239941 0.009970643 -0.04101618 -0.07016106 0.51237476 0.30868995 0.18420419 -0.09308098 -0.34144667 0.2431712
5924 -0.055090316 -0.23953882 0.5273025 0.12374041 -0.124979325 0.56746334 0.54022825 -0.2778222 -0.10027162 0.10669148 -0.00031179556 0.07853029 -0.049259655 -0.20055272 0.057516698 -0.3396853 -0.3583115 -0.095947936 0.22600967 0.094394065 0.08533407 -0.60819614 0.42673367 0.28254807 0.1819952 -0.4407859 -0.2770201 -0.4236137 -0.56107527 -0.2778727 -0.33360726 -0.00978963 -0.2338178 0.04517836 -0.19851312 -0.079289004 -0.17843477 0.3332125 -0.30254337 0.003386054 -0.26781332 0.22523122 0.15280868 0.605039 -0.4780885 0.06344095 -0.13553058 0.18212509 -0.2421411 0.016607728 -0.24822311 -0.026745647 -0.15199187 -0.3283674 0.112271816 -0.1950531 0.21643032 -0.14825591 0.34285143 0.30988842 0.32514998 0.2429366 0.3997319 0.25772944
635 0.38466004 -0.057556875 0.015114499 0.17551848 -0.6131113 0.20240848 0.45863613 0.03567142 0.2901331 0.13024957 0.35367975 0.09180643 0.08107556 -0.010295523 0.046424914 0.035286963 -0.14730519 -0.157329 0.42121482 0.20507446 0.20161302 -0.34416 0.10046558 -0.16270302 -0.24386188 -0.5804437 0.0881217 -0.5976428 -1.0692645 0.557938 0.010852386 0.29716265 0.5690963 -0.004904663 -0.35936633 -0.024073582 0.16418825 0.18796177 -0.15768854 0.02139905 -0.014061018 0.18005721 0.5666342 0.11884859 -0.09401872 -0.24022798 -0.33115974 0.53456783 -0.18429308 -0.4168693 -0.435633 -0.6994668 0.18832076 -0.255635 0.10600198 -0.09863221 -0.0098461425 0.079301335 0.14841884 -0.31171936 0.35936794 0.41506308 -0.26357758 0.34806946
5470 -0.20120014 -0.3202789 0.12678714 0.14151265 -0.1554444 0.40997574 0.16110285 0.3177708 0.03790263 -0.21563728 0.26881203 0.57633466 0.12772706 -0.038722113 0.22305182 -0.55885357 -0.17186373 0.53261256 0.36378852 0.21914147 0.043231852 -0.6142964 -0.26895028 0.27728194 0.4820981 -0.41420117 0.27111232 0.028611071 0.14772043 0.17360914 -0.70111674 0.25817233 0.13161644 -0.054608896 -0.08359161 0.45686305 0.32048208 0.45144466 -0.18388891 0.31241626 0.09501639 0.4530048 0.5826114 0.41362157 -0.341626 -0.08922021 0.20471258 0.5914738 -0.45150116 -0.002554041 -0.07733003 -0.47767597 0.13346829 0.060812198 -0.14061338 0.34318006 0.12007764 0.049731325 0.42821273 -0.17410949 0.005912769 0.03383552 -0.31708443 0.241046
833 0.4216286 -0.100702435 -0.42152798 0.19843239 -0.19770958 0.23049256 0.48475182 0.4937962 0.44737467 0.3011425 0.048122067 -0.08803283 0.6787209 0.21001461 0.6223561 -0.30798778 -0.013862796 0.13847072 0.6251758 -0.1190694 -0.4899158 -0.25063127 -0.029883433 -0.08543651 0.3936986 -0.11118042 0.11798654 -0.8809863 -0.0031929142 -0.042088725 0.03630386 0.22463116 0.10277785 0.13277943 -0.48698878 0.31341973 0.2935291 0.2567247 0.4395259 -0.012785346 -0.07542625 0.6045846 0.2994765 0.17788051 -0.23639697 0.06887587 0.34176216 -0.03631582 -0.36984387 0.14542116 0.22965516 0.016763983 0.52514863 -0.6359987 -0.07892172 0.2196587 -0.2779396 -0.05086389 -0.1569273 -0.4159664 -0.14306743 0.14383064 0.08068168 0.27713108
6794 -0.3334558 0.13381284 0.28156435 0.06604235 -0.5961691 -0.19360593 0.5864968 -0.07443758 -0.48946527 0.451545 0.3056683 -0.34778523 0.5308904 0.48052153 -0.052145105 -0.35724485 0.293027 0.090533525 0.023960857 0.06680775 0.28545642 -0.995709 -0.28811806 -0.29452994 0.48178285 -0.43685183 0.15648587 -0.45385525 0.00899484 0.27622855 0.79584926 0.8393402 -0.26286426 -0.08013167 0.2282597 -0.4068574 -0.38650236 0.39446706 -0.2647611 -0.35940105 0.06575114 0.7676633 0.26036733 0.4298842 -0.43126863 -0.013358436 0.1249816 0.08165834 0.04967271 0.062689036 -0.1317469 0.19253336 0.019217104 0.49674776 -0.67704195 0.07098683 -0.006789526 0.3313287 0.4750615 0.24745531 0.14855766 0.36413512 0.992568 0.15204364
7207 -0.4914698 -0.50550896 -0.12839793 0.38601974 -0.032116156 0.5947793 0.7216888 -0.26042542 -0.07790283 0.106582604 0.3841897 0.005932905 0.2748646 0.7185104 0.02942743 0.25681502 0.41313294 0.119210206 0.11819134 -0.5456932 -0.107772246 -0.7794725 0.50465685 -0.19849394 0.07623724 0.27246532 -0.27629626 -0.14328603 -0.6294671 -0.28564733 -0.2427539 -0.03177746 0.1134715 0.17238714 0.5560011 0.34498516 0.3665483 0.23996727 0.03421074 0.16834784 -0.4710517 0.17235488 0.0017252149 0.44563532 -0.5916098 0.8573701 0.34192234 0.36335912 0.012932868 -0.2144544 -0.30254027 0.2777975 -0.13378355 -0.2806187 -0.263352 0.56597185 -0.06244222 -0.020597598 0.40384763 0.30241996 -0.53406996 0.040797606 -0.060308624 0.53348
5028 0.005239743 0.06347216 0.162907 0.21064647 -0.008917455 0.29246488 0.7998475 -0.41959783 0.2656325 0.10521188 0.08048304 0.3813944 -0.19951886 -0.1440714 0.070495486 -0.20002802 -0.0482974 -0.21540183 0.3566331 0.29465392 0.0765675 -0.50636894 0.3231574 -0.21876016 -0.23234953 -0.379952 -0.14148653 -0.63095325 -0.30175817 -0.4767121 0.22327305 -0.039135262 0.24571235 0.003263317 -0.06668967 0.463146 -0.06300179 0.6246329 -0.13900205 -0.039779074 -0.17897297 0.07863675 -0.058518033 0.4963501 -0.55572027 0.46374887 -0.16962211 0.42752153 0.25226974 -0.40746924 0.15950619 -0.08491989 -0.3926336 -0.091129065 -0.5227344 0.031214476 -0.18891439 0.033502743 0.95296466 0.69114226 0.50037324 -0.16424453 0.74598247 -0.053424962
3966 -0.25160626 0.0054591703 0.042686705 -0.04358533 -0.39121997 0.18650034 0.6828566 -0.32726768 0.046847697 0.29561037 0.418281 -0.3082849 -0.027279349 0.055657525 -0.46013176 0.19243947 0.14968744 -0.13484403 -0.01565188 -0.07321397 0.22437166 -0.2995864 -0.18943128 -0.23034869 -0.48519653 -0.21110904 0.005454931 -0.30009943 -0.28154963 -0.2351301 -0.071205705 0.13663253 0.48282647 0.20736445 -0.08011726 0.55438656 -0.11939222 0.217581 -0.13476779 -0.34742096 -0.26636425 0.3403162 0.8147515 0.5823993 -0.351538 -0.0149440365 0.1512247 0.2947366 -0.41628608 -0.09386168 0.12668525 -0.031601172 -0.23097953 0.07818938 0.042643636 0.1694721 0.22652093 0.18029787 0.38093033 0.09539496 0.12034645 -0.26722637 -0.052210186 0.5904434
2567 0.5670356 -0.40483704 -0.5135549 0.16166297 -0.4236932 0.37353757 0.47912103 1.0205659 -0.002010109 -0.33757108 0.27689034 -0.21916866 0.40453932 0.07229724 -0.058085952 0.008433555 -0.3100719 0.12285409 0.06900152 -0.0035744805 -0.1215977 -0.581634 -0.19775912 -0.17999743 -0.31635994 -0.29579696 0.6089243 -0.81626135 0.54496855 0.28924283 -0.1623753 0.5265063 0.20145087 0.28414002 0.038420044 0.24532768 0.36088148 -0.007588048 -0.17165239 -0.47293338 -0.21625797 0.5121599 0.26458654 0.48091593 -0.23659486 0.13465782 -0.31428945 0.54783964 0.6359919 0.26590207 -0.9833065 0.4590997 -0.19533151 -0.5757425 -0.00751188 0.17517571 -1.1557292 -0.16766354 0.004593235 -0.26687014 0.063181214 0.4312954 -0.24090263 0.56976557
1945 -0.22781096 0.12145335 -0.011029096 -0.11994922 0.025798328 0.25548938 0.6965169 -0.39796203 0.17440298 0.18374705 0.003116658 -0.24387744 0.10768407 0.045674704 -0.25873736 0.10288793 0.040618792 0.09246326 0.26941276 -0.123873375 0.034474283 -0.47553074 0.24692549 -0.24322733 -0.22946458 -0.46897653 -0.09037403 -0.49982 -0.55425715 -0.26030678 0.17217284 0.27053988 0.32660863 0.19613528 0.0030752502 0.13799661 0.0026821396 0.24166213 -0.18106918 -0.23585418 -0.19685954 0.3617091 0.3457102 0.36463854 -0.3089092 0.1132947 -0.27114052 0.078068495 -0.28267965 -0.25501078 0.011190706 -0.12288835 -0.11063947 -0.2935181 -0.0706749 -0.1831399 0.2653117 0.17233348 0.43905643 0.08284011 0.20858848 0.19291638 0.13207464 0.5749573
4165 0.24871536 -0.38207027 -0.13231038 0.31988612 -0.17197986 0.5511298 0.22587651 0.082854316 0.44417384 0.31603858 0.6118036 -0.019718574 0.19018392 -0.25010398 0.65498906 -0.6196472 -0.2892748 -0.04197779 0.60889953 -0.119809315 0.08413344 -0.35458505 0.21056469 0.4768332 0.26771796 -0.40466774 -0.0024336406 -0.087956265 0.2347571 0.07445915 -0.11873421 0.5242483 -0.052364666 -0.30130535 -0.64353484 0.40478313 0.40162858 0.27268565 0.34009272 -0.24660142 -0.28032076 0.86158293 0.38352314 -0.24483949 -0.027991073 0.3245834 0.45755062 0.23091258 0.010496523 0.15822288 -0.24419194 0.22644655 0.35669133 -0.4967812 0.18571174 0.47670117 -0.20982085 0.050650023 -0.10261779 -0.09582644 -0.005555381 0.36441642 -0.0034998064 -0.15131588
6735 -0.17484516 -0.032999747 0.07662338 0.22983713 0.065151244 0.3751754 0.71475375 -0.29814512 0.16647595 0.23608176 0.40031016 -0.13159214 0.51910186 0.18228325 -0.23925321 0.13820477 -0.37632167 -0.060356155 -0.109636724 0.048025392 0.099124745 -0.33389586 0.25077426 -0.16526923 0.034054853 -0.12647505 -0.03779147 -0.2859546 -0.3690324 -0.36093155 -0.0049491846 0.111752935 0.18509707 0.03405999 -0.036816858 0.02170314 -0.44030687 0.45344347 -0.49983126 -0.12624595 -0.38050297 0.3479424 0.32583776 0.1404107 -0.41903928 0.025774188 -0.37441003 -0.016297225 -0.2611501 0.030700386 0.24086852 -0.044359017 0.055575117 -0.45648697 0.28080395 0.109302096 -0.016674863 -0.01852752 0.3402286 0.29340357 -0.1253531 0.17139429 0.24170779 0.41200954
4618 -0.26798752 0.42932606 0.08282419 0.4058248 -0.044480138 0.19295403 0.0018964044 0.35107547 -0.15400806 -0.7630978 0.5002221 -0.12501213 0.73985344 -0.35413706 0.32777095 -0.2409787 -0.2430912 0.16120629 -0.14390044 -0.015413148 0.25101602 -0.23568109 0.4393823 0.3594676 -0.35630164 -0.5937942 -0.016300708 -0.083533935 0.24251862 -0.020754335 0.0608324 0.0856426 -0.24806215 -0.1986893 -0.74953294 0.3433682 0.46119666 0.31545746 0.12711152 0.18616569 -0.2777465 0.52163976 0.9511433 -0.009665673 -0.15541014 0.3541521 0.33191073 0.67683494 -0.029998116 0.48739034 0.19980906 -0.20984249 -0.19321188 -0.07536227 -0.06934425 0.3059979 0.07825425 -0.11124858 0.7749475 -0.1437984 0.0078044715 0.68374664 0.15933351 0.099330895
414 0.22712547 -0.084476344 -0.6186111 -0.06954874 -0.24057448 0.3289672 0.7442019 0.32561126 0.45063263 0.3107922 0.28327462 -0.35766003 0.7655451 0.50929934 0.70299166 0.07719941 -0.28973657 0.082804784 0.47703198 -0.078678355 -0.39128134 -0.28027013 -0.050810285 -0.3085057 0.39212045 -0.14236484 0.20690326 -1.0942609 -0.14995489 -0.3154292 0.31838804 -0.15062296 -0.08056644 0.098757334 -0.6492426 -0.05760075 0.23806594 0.0993966 0.57065904 0.07479143 0.053516112 0.380017 0.5940913 0.16358721 -0.27195856 0.017160768 0.588515 -0.38746578 -0.7864857 -0.27378297 0.26305237 -0.23399486 0.19399187 -0.6966805 -0.10536829 0.27614844 -0.036328364 -0.16595599 0.11007546 -0.5163762 -0.3307958 0.07594916 0.27753228 0.14474607
665 -0.13594463 0.3620682 -0.2409825 0.34874746 -0.15882266 0.3730064 0.5860396 -0.20479278 0.21162447 -0.55972505 -0.24428955 0.01481546 0.32620388 -0.22754203 -0.010368458 -0.4006277 -0.07549118 -0.1501801 -0.32099316 0.46570528 -0.10251902 -0.10275391 0.7543191 0.32514194 -0.08477242 -0.07038613 -0.077596806 -0.03427365 -0.018764874 -0.14644346 -0.2883695 -0.399218 -0.6935791 0.42503005 -0.292497 0.10000646 0.13664865 0.7256877 -0.5180028 0.20252264 -0.5386787 0.44658303 0.9762159 0.47629812 -0.37032035 0.106576465 0.25176975 0.13040829 0.006644752 -0.062877625 -0.32815439 -0.058892112 0.096351214 -0.13366133 0.039999772 0.09877462 0.012571686 -0.3429205 0.6547494 -0.04681057 0.3246656 0.19771439 -0.18260819 0.24076875
8880 -0.638196 0.011763229 -0.34771618 0.30059138 -0.08928168 0.2388436 0.81742686 0.05132723 -0.17570868 0.22061667 -0.13580422 -0.34480834 0.31015447 0.15671568 0.21344475 0.031583637 -0.4065649 0.076987706 -0.13563767 -0.19377093 0.06828655 -0.5804379 -0.014267224 0.011096991 -0.30868766 0.11520055 -0.23624077 -0.34665382 -0.26402852 -0.023858558 0.2738498 0.5788796 -0.10525863 -0.10307955 -0.18088318 -0.1416797 0.135144 0.40894747 0.15195267 0.007653715 -0.30117732 0.4095185 0.136011 0.31773737 -0.40252 -0.14023823 -0.38161612 0.010684476 -0.38568163 -0.46670675 0.5547298 -0.2003306 0.1761266 -0.5182165 -0.048807826 -0.59385353 0.1337313 0.036037058 0.2430682 -0.06605201 0.482535 0.15681073 0.1729954 0.4256031
4110 0.6570315 -0.6774687 -0.29272032 0.1512729 -0.41733065 0.71911365 0.52998894 0.969422 -0.10083751 -0.60320294 0.32474098 -0.31581545 0.43031204 0.047466516 0.02663318 0.070423126 -0.15425795 0.5666073 0.2238074 -0.11816128 -0.7593834 -0.4750925 0.040281557 0.23065588 -0.15840106 -0.26916277 0.71310675 -0.69827044 0.24915875 0.057775147 -0.14528798 0.6587235 0.42805696 0.28741637 -0.09956781 0.14524037 0.4589543 0.5353305 -0.021475105 -0.13911867 -0.11571524 0.4259003 0.32093862 0.559929 -0.4381282 -0.073074594 -0.23254411 0.82141787 0.5902766 0.27113253 -0.70385027 0.69649196 -0.14901252 -0.73462605 -0.08073248 0.27581465 -0.9791954 -0.25250962 0.16937649 -0.25298917 0.17294408 0.61179745 -0.17754732 0.3707127
3718 -0.48168084 0.3646007 -0.43190512 0.1808584 0.20268297 0.5523727 0.04941208 0.061510127 -0.20182678 -0.4777696 0.30498946 -0.10176363 0.7678679 -0.42692694 0.41962686 -0.44289908 0.07580935 -0.035002053 -0.015178217 0.47716185 0.44333705 -0.15291947 0.53488076 0.5030361 -0.1989484 -0.21790567 0.07577025 0.1728245 0.054880317 -0.13172075 -0.34250903 -0.1372009 -0.34282604 0.30868626 -0.6102756 0.15854901 0.34526536 0.43652844 -0.15572833 0.066303566 -0.18999924 0.4178728 1.0554782 0.060711507 -0.28977212 0.4101019 0.33446667 0.68081844 0.15505767 0.20534015 0.24464443 -0.084914304 -0.24983557 0.066193834 -0.3608211 0.37983286 -0.0074130874 -0.14564234 0.8007804 -0.34733757 0.094958544 0.79328966 -0.20033139 0.13210025
4708 -0.3825808 -0.15823099 0.15440774 -0.026960326 0.049009975 0.32502246 0.6567934 -0.31717765 0.040013358 0.37000695 0.27671617 -0.0071351896 0.3778966 0.03182908 -0.2341246 0.18864608 -0.33729222 0.11645226 -0.04151032 -0.05404001 -0.061538354 -0.38288748 0.43402 -0.12276081 -0.078763105 -0.3261004 0.2350749 -0.21770404 -0.40372127 -0.3054327 -0.10670479 0.3033014 0.31086957 0.14332022 -0.15510738 -0.024575511 -0.14906476 0.026485888 -0.41783407 -0.21190894 -0.28369406 0.47109684 0.2613877 0.30713597 -0.5228707 -0.3710788 -0.4410845 0.16678333 -0.49439213 -0.090810955 0.22750464 0.061110437 0.042039845 -0.4146307 0.010002791 -0.28032082 0.13434596 0.13751838 0.1465096 -0.05359071 -0.0058266493 0.034644805 0.15242198 0.516888
8074 -0.03846586 0.13923843 0.052243005 0.2955157 -0.14985372 0.30946648 0.501974 -0.14982226 0.16683291 -0.51383924 0.007503779 -0.11000292 0.37294376 -0.27978632 -0.10257083 -0.4412876 -0.07720746 -0.13414806 -0.22399725 0.508928 -0.15436292 -0.098485634 0.66454893 0.29114184 0.013588209 -0.23518927 0.08110635 -0.13805251 0.09489621 0.023606295 -0.40652144 -0.35445878 -0.74314934 0.45791215 -0.044991065 -0.020503482 0.17725761 0.60494137 -0.52362186 0.18926816 -0.47223952 0.25563312 0.91167384 0.5771697 -0.24401695 0.13044435 0.36561805 0.27294198 0.06654541 -0.13741939 -0.38594618 -0.01056136 0.21202713 -0.25420904 0.15946276 0.038866688 -0.15226085 -0.123412676 0.61703426 -0.06887369 0.15237756 0.20501499 -0.20711495 0.16453873
5542 -0.17522536 -0.053057563 0.1320005 0.012183352 0.14441599 0.13227299 0.6492935 -0.36402774 0.15591684 0.21425214 -0.078420036 -0.04989581 0.048291676 0.042836748 -0.15108123 -0.070433035 -0.21193342 -0.09624303 0.19823463 0.054659277 0.060168583 -0.32248265 0.30751783 -0.033299364 0.039532125 -0.25994143 -0.11379125 -0.56092924 -0.6433464 -0.30284777 0.021803806 0.20385756 0.2504117 0.17915122 -0.05718978 0.18634242 -0.3159111 0.46454418 -0.26732686 -0.2735129 -0.3167721 0.4525762 0.2969124 0.30504528 -0.46635762 0.12521596 -0.38771835 -0.097892255 -0.25027078 -0.21849655 0.0894021 -0.046103716 0.0852842 -0.48040193 -0.24896961 -0.28538758 0.23100132 0.011576089 0.34467658 0.1771768 0.22559337 0.24971779 0.3917052 0.3141335
3759 0.27285606 0.006630485 -0.062400598 -0.08709853 -0.39954633 -0.26789603 0.7677026 0.10341449 -0.21486837 0.41671225 0.3513301 -0.24862765 0.49108005 0.42323345 -0.18350814 -0.52003354 0.14950262 -0.11729585 -0.019037236 -0.029485567 0.055250432 -0.5273155 0.046308797 -0.18475962 0.32647288 -0.4307184 0.011781552 -0.2733984 -0.042361904 0.13765013 0.4432536 0.6599827 -0.041625194 -0.14071794 0.17327611 -0.1849339 -0.70041883 0.38601935 -0.661072 -0.1953341 -0.09537502 0.65036875 0.5523257 0.16325183 -0.158245 0.015333114 -0.16233191 -0.18433702 -0.084490344 0.01851032 -0.41261998 0.029292773 0.049845487 0.32359636 -0.8407114 0.06373058 0.079502955 0.008718239 0.52194786 -0.0984308 0.13534288 0.36334237 0.715189 -0.010007567
481 0.31258568 -0.13437073 -0.34642148 0.3446907 -0.32337916 0.48527524 0.41856748 -0.029417416 0.5159008 0.3793523 0.4993776 -0.016446833 0.34114718 -0.25021055 0.41218126 -0.41491532 -0.14813855 -0.0073487116 0.61569655 -0.13956223 -0.09769939 -0.22199035 -0.06587386 0.3420029 0.4250516 -0.28913626 0.049980775 -0.44885132 -0.3207367 0.16054504 0.03297923 0.5467887 0.030666344 -0.21272205 -0.5248468 0.42225647 0.41594234 0.49071094 0.3077843 -0.13363504 -0.21706936 0.7323664 0.3480182 -0.10970031 0.2390427 0.31288406 0.04928212 0.26786485 -0.0067003085 0.18875177 0.15666002 0.45457998 1.0007043 -0.68310255 -0.14227276 0.4503597 -0.21915 0.17607078 -0.32744673 -0.17076352 0.11583865 0.5244195 -0.13529712 -0.0035405466
353 0.20666035 -0.1936018 -0.7108134 0.18614191 -0.1579018 0.18910311 0.6477156 0.15983823 0.1842093 0.21686126 -0.28864163 -0.38810444 0.6888291 0.23271647 0.60914457 -0.1155967 -0.49274492 0.0031994833 0.38606167 0.06488504 -0.30341896 -0.018391779 0.050547685 -0.33093718 0.44568843 -0.31246415 0.25784102 -1.3911835 -0.09071938 -0.25922474 0.2962121 -0.34094697 0.11432095 0.17502226 -0.42292777 0.33348227 0.42508814 0.37428734 0.7336499 -0.014527542 0.007895346 0.3664033 0.31252432 0.22207457 -0.41308728 -0.175482 0.77883756 -0.4887937 -0.5692893 -0.08470363 0.5613422 -0.09467768 0.33156538 -0.6920487 -0.5165223 0.4595646 -0.2972159 -0.28206605 -0.20644683 -0.49151966 -0.020628374 -0.07567979 0.6079114 0.25905222
1596 0.007631882 -0.043831833 0.10375646 -0.1765033 -0.07322348 0.15770847 0.8423469 -0.40861583 0.24143152 0.4932038 0.26914698 -0.01844808 0.30298397 0.19046995 -0.28963062 -0.11911313 -0.26940224 -0.13459606 -0.22999166 0.44544268 0.27632064 -0.48629817 0.24280426 0.05675408 0.12432868 -0.65062314 -0.18288188 -0.38391662 -0.49026927 -0.47327217 0.22668849 0.2620561 0.18496527 -0.15858135 -0.030031022 -0.16964751 -0.1913941 -0.29556432 0.014029961 -0.10738527 -0.25943416 0.34484977 0.5514347 0.28737622 -0.11033823 -0.14612395 -0.64382994 -0.06450912 -0.16245508 -0.16549395 0.29103518 0.45491362 -0.34240595 -0.089329764 -0.27387342 -0.11605592 0.1645405 0.19108082 0.6651112 -0.048948947 -0.13886385 0.1512297 0.22948572 0.15788767
4460 0.07276186 0.21255869 -0.15968269 0.337855 -0.22591023 0.20173022 0.69273716 -0.114438206 0.12939064 -0.31585377 -0.055831883 0.14388923 0.33900648 -0.00084136403 -0.21618122 -0.5433714 -0.017533548 -0.22722685 -0.48556632 0.4114585 -0.06674885 -0.15236036 0.58020324 0.22086176 0.04668769 -0.088667005 0.123101674 0.0026930596 0.023299986 0.0094891805 -0.15151116 -0.23045926 -0.7163816 0.11012601 -0.28638554 0.060744967 0.15738973 0.73869056 -0.59917325 0.2668134 -0.5408638 0.19191584 0.76958686 0.5509643 -0.14719403 0.16659331 0.13740475 0.037197154 0.027981535 -0.073922485 -0.47291258 0.05325856 0.19895966 -0.29305997 0.26567698 -0.22012226 0.05082947 -0.028905604 0.6739126 0.0905911 0.32551005 0.10713992 -0.08095056 0.18057983
2577 0.3319821 0.18714182 0.003999283 0.35733283 -0.25990748 0.09299615 0.81017196 -0.073874764 0.25585723 -0.00361534 0.41321597 0.06286334 -0.030149188 0.18068418 -0.33316904 -0.08524172 -0.04501177 -0.17430727 0.14217262 0.1891553 0.33262452 -0.3983685 0.013381311 -0.21363413 -0.26215547 -0.747856 -0.19922294 -0.56941646 -0.18526289 0.2526834 -0.03211022 0.13907151 0.21768768 0.02657985 -0.09945114 -0.115570545 -0.65772545 0.5012132 -0.32120788 -0.35450852 -0.29197076 0.54713637 0.6309285 0.39250705 -0.0694073 -0.7029823 0.0712065 0.26348472 -0.30990627 -0.0122217545 -0.16311903 -0.25142643 -0.1441485 0.14106292 0.12188295 -0.020138232 0.27752176 -0.053216033 0.25507352 0.11583805 0.014176914 0.013888652 0.027897187 0.37834737
8771 0.17115211 0.2721184 -0.10141037 -0.24579576 -0.14917883 0.01403747 0.31476802 -0.07435548 -0.064943895 0.08484985 0.14666985 -0.16002151 0.18363357 0.17253502 -0.5380992 -0.34612113 0.62251997 -0.25793236 0.16280316 0.010038454 0.2900046 -0.2711867 0.10900923 0.19379963 -0.2967926 -0.4255128 -0.10250655 -0.13114811 -0.48094937 -0.24330273 0.24111678 0.38162106 0.25989905 0.08948352 -0.22102363 0.3164126 -0.28685904 0.78060746 -0.1424227 -0.09923876 0.063578226 0.49740884 0.8560311 0.49548167 -0.35498026 0.2678671 -0.014170463 -0.045449823 -0.15431452 -0.5112642 -0.24606217 -0.23473813 0.08096167 -0.41032234 -0.22880034 0.07726596 0.30089623 0.09084947 0.42634392 0.058027603 0.21177633 -0.04032452 -0.1388983 0.3297425
2711 0.020143047 0.2500997 -0.14052679 0.40945506 -0.20979479 0.34441528 0.75725186 -0.22389369 0.24775262 -0.48845255 -0.14108017 -0.07614355 0.46231136 -0.12936695 -0.19148551 -0.49037924 -0.13968347 -0.2982421 -0.108623 0.27242264 -0.11844266 -0.20597035 0.61555445 0.30940074 -0.121224895 -0.0641595 0.0018732891 -0.09419801 -0.016556917 0.10895582 -0.22949344 -0.28274417 -0.6736117 0.22909789 -0.1275894 -0.089401975 0.043701034 0.7105258 -0.46170995 0.14121215 -0.6328058 0.33910283 0.86934775 0.66131425 -0.35797048 -0.095937826 0.23775269 0.16110976 0.0777115 -0.16440539 -0.42819005 0.058115885 0.11791321 -0.03183944 0.18646082 0.05465596 0.083407246 -0.064483814 0.5701867 0.014264687 0.20439623 0.0355629 -0.25554106 0.13900425
529 -0.18351793 -0.40211457 -0.69687 -0.11442755 0.615596 0.24212644 0.9575034 -0.31402254 0.4378887 0.053386427 0.21855883 -0.027729737 -0.13238579 -0.009251715 -0.31346166 -0.30661723 -0.12029374 0.03060811 0.23591587 1.1441877 -0.37507698 -0.8261341 -0.02621183 -0.22601926 -0.36127454 -0.3296005 0.014384336 -0.8169807 -0.44634983 0.352492 0.44753653 0.1687284 -0.039317742 0.2388277 -0.2709855 0.3598564 -0.53959835 0.056573972 -0.29122764 0.72562695 -0.24066404 0.044519287 0.34742785 -0.12577967 -0.19659097 0.009780955 -0.25096175 -0.04355774 -0.04271597 -0.01701808 0.08863102 0.18976009 -0.0741856 -0.49775416 -0.079083815 -0.76406485 0.16871734 -0.419766 0.44674772 -0.11024906 -0.43791795 0.33790207 0.22263575 -0.33177552
5052 -0.089797586 0.1966095 -0.16184385 0.5048709 -0.26700953 0.23292272 0.58950055 -0.2563319 0.24575712 -0.22214325 -0.10580028 -0.15728939 0.3227388 0.002902967 -0.20757619 -0.47840592 -0.05639535 -0.14301842 -0.29262117 0.37025386 -0.18268064 -0.21563005 0.8327745 0.47267392 0.01153784 -0.082842246 0.09674017 -0.0774817 0.10732806 0.00076123 -0.2553715 -0.55910164 -0.73813087 0.2795326 -0.20517406 0.1561215 0.21184967 0.51789695 -0.6253855 0.25073165 -0.36506784 0.31116492 0.68485 0.7499364 -0.1016658 -0.15796821 0.1119768 0.042179007 0.06784699 -0.15292566 -0.41290087 0.027014438 0.02029996 -0.14594558 0.04331083 0.17256251 0.035833716 -0.14123847 0.74130565 0.08009412 0.15831596 -0.020470355 -0.22781622 0.26389858
2414 0.15285939 0.4220611 -0.3367202 0.64951026 -0.547523 -0.16732277 0.57379967 -0.06951334 0.39625514 0.021635491 0.32052317 -0.035743423 0.53562456 0.03425041 -0.16128346 -0.40428454 0.15171093 -0.22400282 -0.3889641 -0.45818365 0.26939297 -0.14993343 -0.017228158 -0.6959188 0.30707926 -0.3566636 0.09405958 0.063099325 -0.44728184 1.0505219 -0.01373279 0.1880073 -0.0070821117 0.7110763 -0.6474666 0.40024108 -0.15424185 0.6924126 -0.15125294 0.82715493 0.104805306 0.17919573 -0.032291457 0.070610054 0.16795594 0.23320004 0.027586369 0.20128812 -0.8916869 0.466786 -0.39503577 0.080192246 -0.2771785 -0.48661155 0.22786924 -0.0014915537 -0.3530588 -0.007992171 0.6038385 0.3628426 0.64613354 -0.22854619 0.15268865 0.026863277
2773 0.40268776 -0.05181361 -0.23277488 0.1879026 -0.09428806 0.010504684 0.5885001 0.5365349 0.44205615 0.10579659 0.6073396 0.13013266 0.38071483 -0.11746671 0.11509175 -0.13246763 0.14793228 -0.08203936 -0.13278897 0.39393055 -0.41256788 -0.6179265 0.10739771 0.2971312 0.08841371 -0.12096906 -0.17442447 0.0018805542 -0.36835757 -0.13060969 -0.36632752 0.48881507 0.38374886 0.29797238 -0.009332182 0.18691698 0.26624826 0.19635953 -0.55681837 0.3655051 -0.04607659 -0.1971208 0.24765082 0.40218228 -0.22941422 0.2619789 -0.4099488 -0.30922434 -0.43308106 0.13364564 -0.39956632 0.3085457 -0.23858316 -0.85041285 0.09339949 -0.08778298 -0.39584267 -0.30101278 0.08185333 0.21871975 -0.12803967 0.49302197 -0.030160474 0.36851573
5425 0.065797225 0.07426479 -0.29299334 0.26569885 -0.5282918 0.062016215 0.6161564 0.334177 0.65496856 0.1261592 1.0108964 0.015155475 0.6715317 0.041949555 0.11039113 -0.18547703 0.13414802 -0.26376197 -0.64800227 0.5099181 -0.02559745 -0.40901285 0.35517868 -0.15446766 0.36055183 -0.13604394 0.09139888 0.32752055 -0.21498682 0.1849343 -0.21067624 0.028498327 0.27998278 0.30915445 -0.1203391 -0.06412642 0.13011664 0.2307585 -0.5442445 0.3179822 0.103664674 -0.16112268 0.14776537 -0.17664881 0.18657401 0.39600256 -0.3128233 -0.045282256 -0.71325517 -0.07457151 0.14746974 -0.036301702 0.2167851 -0.8367288 0.22177418 -0.36359945 -0.32378614 0.15892008 0.24157031 0.66808707 -0.053551115 0.34258828 0.29589227 0.4417619
6533 -0.07531489 -0.7001729 0.0050174245 -0.14953615 0.027695496 0.5321999 0.69129884 -0.19929072 0.15752965 0.04095861 0.08291959 0.100115344 -0.016213046 0.24906628 -0.05618514 -0.10397069 -0.16832109 -0.117484994 0.27245465 0.3715912 0.098940566 -0.6723102 0.21791309 0.22477776 -0.04363905 -0.39886397 -0.026642198 -0.38363275 -0.61677486 -0.18754147 0.33801574 0.22559185 0.3272027 0.39914706 0.24051791 0.309779 -0.3806812 0.15155894 -0.48409942 -0.0025788376 -0.5443478 0.1434463 0.3636496 0.07189747 -0.3605215 -0.11504019 -0.16713484 -0.18434185 -0.36705452 -0.119247906 -0.076579295 0.28412154 -0.07513774 -0.32251936 0.026235629 -0.5123265 -0.015848422 0.008761554 0.25579506 0.27737775 -0.12529613 0.18523443 0.32514045 0.3562167
3237 -0.0061402726 0.2808541 -0.38672778 -0.3452901 -0.4738357 0.8052609 0.8302008 0.23731935 -0.05017212 0.2451613 0.49162912 0.15439215 -0.20950271 0.1947384 0.5172535 -0.039569363 -0.9478294 -0.39504206 -0.4677784 0.0106903985 0.30503896 -0.33346254 0.17893595 -0.06782147 0.123009406 -0.2863875 0.3426567 -0.05351094 -0.4839269 -0.005508063 0.8669354 -0.47514263 0.3109521 -0.48821607 0.02907682 -0.23125349 -0.27486604 0.5215202 -0.12723413 0.29557538 0.04134775 -0.5134978 1.0772418 0.43690318 -0.04560273 0.18351442 0.28223538 -0.07756966 0.026775943 -0.2750171 -0.25100562 -0.031116107 0.13641444 -0.622436 0.6063627 -0.17680418 -0.6194699 -0.019004919 0.6108103 0.318829 -0.2022278 0.11366447 0.13272311 -0.2090366
1282 -0.6426451 0.27074194 0.38939387 -0.319373 0.2745214 0.24609177 0.43197972 -0.005351685 -0.36513335 0.34272248 0.4708213 -0.77857333 0.2978065 0.2123806 0.13693957 -0.9577297 -0.71262354 -0.41920665 0.7136201 1.1840179 0.03526623 0.44038635 -0.3559458 -1.1441218 0.2893502 -0.98234653 -0.45054883 -0.62002337 -0.39672005 -0.36304694 -1.3779957 0.8517781 -0.75994205 0.7645362 0.92055607 -0.9821944 1.9830219 0.9343282 -0.5570416 0.57957244 -0.61093175 -0.54932934 0.9084849 0.06785135 1.2236782 -0.2591696 1.2299424 0.72589564 0.6436204 -0.20210646 -0.40746585 0.90813845 1.5386329 -0.5602918 -0.23734099 -0.57874125 -0.79413146 0.22835997 1.8384218 0.76513475 -0.9525969 -1.340188 1.4294329 1.1359922
7465 -0.42236662 0.2936206 -0.062128436 -0.14944495 0.044229064 0.2923676 0.86109984 -0.27739587 0.20693697 0.08149154 0.4220038 0.12861851 0.21452421 -0.080588594 -0.5348231 0.38577577 0.33209893 0.11402651 0.18844387 0.10206399 -0.07523574 -0.3742278 0.025653405 -0.41545573 -0.15920639 -0.4887122 -0.04058196 -0.68265676 -0.2944179 -0.34938082 0.084397785 -0.07927568 0.31366584 0.2811993 0.1742682 0.24487734 -0.18816501 0.27492112 -0.10405605 -0.31483504 -0.27472854 0.26961356 0.5155703 0.2435867 -0.3051464 0.05283473 -0.054275956 0.21782948 -0.26808187 -0.15578756 -0.00055948173 -0.04204007 0.025442857 -0.0789977 -0.23306565 0.019486798 0.16683948 0.04858929 0.5951852 0.19827057 -0.20019816 -0.25872606 -0.046247616 0.54691654
4059 -0.23420686 -0.021697756 -0.029437568 -0.07189343 -0.26159447 0.1750029 0.550841 -0.3418034 0.09537799 0.3955177 0.32663324 -0.43961397 -0.13936536 -0.03487985 -0.44589418 0.19069412 0.1794986 -0.06819736 0.10206848 0.034655973 0.19808722 -0.3713717 -0.17015162 0.013488758 -0.46152356 -0.35637015 -0.100236654 -0.15008841 -0.32399344 -0.19294418 -0.015236514 0.2714522 0.4115042 0.18821341 -0.16627859 0.53456384 -0.0032944654 0.2694461 -0.14785308 -0.2579468 -0.39489973 0.32072893 0.9671778 0.24167359 -0.52561384 0.11044835 0.16545346 0.16880153 -0.65206814 -0.11535718 0.094720095 0.09455552 -0.3327038 -0.0462546 0.0879588 0.21247584 0.43377158 -0.006925033 0.34444827 0.116411105 0.10048701 -0.31057066 -0.0116379345 0.5980377
6879 0.32307643 -0.23008108 -0.29849327 0.28757155 -0.10077845 0.6877608 0.40225926 0.16205415 0.24749236 0.13983595 0.2527309 0.21857987 0.32257074 -0.2125804 0.31725228 -0.64452875 0.16170047 0.09138527 0.5106023 0.06271826 -0.12633967 -0.20120446 0.15002592 0.26034096 0.32930967 -0.21666972 0.05054879 -0.2917496 -0.16490355 0.18963332 -0.24419434 0.37452427 0.121595085 -0.33745757 -0.26505935 0.4309473 0.47277093 0.38220298 0.37763292 -0.014759571 -0.010883086 0.7854332 0.49140036 -0.04111322 -0.1933815 0.104318246 0.12697907 0.44693166 0.048173517 0.32078874 0.18006024 0.088062905 0.7952168 -0.48939514 -0.09442246 0.63356256 0.029968243 0.09690458 0.026511276 -0.36787677 -0.024228834 0.32042837 -0.4168974 0.17815726
750 0.032759465 -0.39614943 0.040808503 -0.2357673 -0.42022648 0.21165763 0.5658047 -0.3116953 0.24540313 0.3234094 0.5038881 -0.2644853 -0.31922773 0.16523811 -0.39997935 -0.099640876 -0.0820121 -0.12357892 -0.036554802 -0.088187635 0.23442334 -0.2988893 -0.18632337 -0.16059056 -0.47816032 -0.46075043 -0.17408654 -0.33190292 -0.36588728 -0.022404486 -0.046636682 0.09824993 0.315135 0.0143504925 0.10389986 0.33657277 0.22217004 0.03137788 -0.006668549 -0.17682742 -0.43404806 0.23921128 0.98470634 0.4854147 -0.34326705 0.10030131 0.24954976 0.31851554 -0.5590436 -0.09982639 0.3394046 0.13131477 -0.62081397 0.22496125 -0.0017633772 -0.0049194866 0.4237506 -0.21491836 0.21441084 0.05322866 -0.32288122 0.0392914 0.034764603 0.8020737
3080 -0.12233516 -0.13962254 0.1832658 0.8964387 -0.41967672 0.49887788 0.046190463 0.033040393 -0.04952391 0.22965346 0.2907539 0.25953302 0.064768225 -0.6298241 0.3157632 -0.7132169 -0.25290996 -0.08526542 0.4422571 0.34319454 -0.17465782 0.16112463 -0.24322602 0.48712274 0.6505787 -0.1625919 0.2347486 -0.34601393 -0.041138787 0.4284879 -0.7277358 0.3662762 0.06814162 -0.32390428 -0.16097003 0.054962542 0.3075622 0.3540604 0.1282895 -0.4691695 0.33849737 0.87922776 0.70972115 -0.040304374 -0.18805306 0.17860606 0.07963372 0.5497746 0.048717704 0.39180246 -0.09429754 0.21416394 0.1875573 -0.997129 0.088577084 0.11156934 0.36986524 -0.25431004 0.29434988 0.20688105 -0.22204037 0.35491073 -0.103755616 0.09761606
6249 0.15518095 0.10405145 -0.3863124 0.11022917 -0.6310134 0.324685 0.27748996 -0.19260418 0.45851707 0.022914099 0.22070129 0.040700104 0.09447896 0.078356184 -0.03080373 -0.25109366 0.4179656 0.046210088 0.038037486 0.012477008 -0.15382405 -0.6123308 0.2602696 0.11341261 0.083428025 -0.03881135 0.2129873 0.04529864 -0.507477 -0.18585636 0.010906479 0.6526579 0.36122027 0.112612635 -0.39870238 0.18603519 0.2886186 0.41722855 -0.27165365 0.06956539 0.12515792 0.028096963 0.6093861 -0.06366295 0.060475707 0.16967288 -0.20393437 0.45669404 -0.13800967 -0.29341868 -0.26886633 -0.18623379 0.21350874 -0.5259361 0.13244319 0.2711662 -0.32728437 0.2914743 -0.29381973 0.102729365 0.3448275 0.029711252 -0.34992212 0.31443572
6137 0.0821967 -0.15862417 -0.40369797 0.31298873 -0.6038713 0.17257603 0.15974121 -0.38011193 0.3439825 0.22588268 0.60914224 -0.01803103 0.41349387 -0.7015547 0.26918587 -0.6035508 -0.24750602 -0.2074687 0.40673828 0.16495344 0.030382624 -0.49084982 -0.23582508 0.5221271 0.44400987 0.111693226 0.25120035 -0.74891585 -0.3431206 0.47372106 -0.104911536 0.27744365 0.22941655 -0.16062854 -0.2862028 0.07837693 0.2465546 0.2951314 0.09222382 0.106444925 -0.18005164 0.74000746 0.6760098 -0.1569397 0.16325621 -0.10698059 -0.100287035 0.62941915 0.19947994 0.15613991 0.09295764 0.36902353 1.1069406 -1.0067277 0.10824655 0.34983566 -0.095846094 0.19741932 -0.2595366 0.038983434 0.05977761 0.52298945 -0.43409443 -0.10012826
2133 -0.37193036 0.16149569 0.17450377 0.054506168 0.3112249 0.24823765 0.62496525 -0.49865323 0.174095 0.10083469 0.0929708 -0.08765956 0.45602408 0.15093502 -0.29611242 0.14301033 -0.36664194 0.03830237 0.042531736 0.008100337 0.18190083 -0.28500348 0.27803904 -0.30669346 0.18040064 -0.13660458 -0.001479614 -0.5300511 -0.17636888 -0.10325478 0.16226521 0.13289447 0.116130136 0.19258752 0.07177998 0.06967269 -0.30705386 0.55836093 -0.34848544 -0.27641076 -0.6506477 0.3948633 0.32676363 0.3763801 -0.5683962 -0.23796009 -0.4404757 0.29450098 -0.48491603 -0.0038553104 0.053998373 -0.106389925 0.013253286 -0.34224623 0.20391239 -0.010543525 0.08548396 -0.09995557 0.28572991 0.15308268 -0.11435338 0.12281987 0.38361552 0.58405834
7280 -0.08676433 0.27273482 0.08308605 0.20043312 -0.31936598 0.4682082 0.6193625 -0.15367073 0.24940315 -0.5412401 -0.049299415 0.14673802 0.20462605 -0.14208023 -0.08307574 -0.42761278 -0.10389519 -0.1250834 -0.20451802 0.42546955 -0.11567136 -0.15085866 0.5531709 0.36556807 0.15682717 -0.023280174 0.13072003 -0.06626925 0.03444914 0.0069074593 -0.21804035 -0.15994468 -0.3945225 0.06596151 -0.09103206 0.07605642 0.22190483 0.6723016 -0.5669908 0.21616805 -0.37185135 0.4283478 0.79703903 0.7475 -0.3473079 0.31404915 0.1782163 0.110741615 -0.03724294 0.10041053 -0.3185119 0.018511286 0.29940572 -0.22861613 0.18088363 0.10204612 0.013335673 -0.13471752 0.49402702 -0.22343259 0.2603837 -0.060727082 -0.096613824 0.232543
2419 0.10621547 -0.40083805 -0.3448164 0.21170925 -0.3846584 0.33913377 0.17456403 0.37460572 -0.11480114 0.19680746 0.028346661 -0.46013784 -0.06326301 -0.19618832 0.24161963 -0.20890293 -1.038822 -0.37382135 -0.64731693 -0.25025553 -0.22026782 -0.70434546 0.14430134 -0.32223818 -0.9545563 -0.36846957 0.04370496 -0.37984318 0.974193 0.5936557 -0.65386474 0.118120626 0.29900542 -0.19815129 -0.4361928 0.4516115 0.06105979 0.31841046 -0.5773815 0.034572717 0.06708559 -0.21279345 0.70299935 0.06405405 -0.24350715 0.289848 -0.15295695 0.567644 -0.278463 0.44847164 -0.65943825 0.08282207 0.38939738 -0.076339446 -0.17200214 0.33955777 -0.0040299287 0.0061135776 -0.26158613 0.43188167 -0.46089816 0.11434426 0.48239157 0.674647
1851 0.5402991 -0.038143277 -0.27210718 0.40638414 -0.3504137 0.12210706 0.6025697 0.16952446 0.08125042 0.20776865 0.22096083 0.4133956 -0.07259217 0.109632336 -0.17440352 -0.24190481 -0.22246361 -0.17458646 -0.37848037 0.24376278 0.31451657 -0.16371174 0.057283927 -0.078180425 -0.307269 -0.41184393 0.11870298 -0.15434787 0.25561565 -0.030962406 -0.49390724 0.41819075 -0.06423485 -0.07025222 -0.18028137 -0.033242427 -0.19376254 0.62719655 -0.50067633 -0.16545309 -0.39087558 0.06823256 0.8354295 0.23164314 -0.33298984 0.055301886 0.13051757 0.47741035 -0.22821781 -0.082609266 0.07998818 -0.1230527 -0.078209415 0.30384207 0.5340136 0.4963338 0.048033323 -0.23819786 0.27650505 -0.12086153 0.1224476 -0.012683764 0.30039114 0.5158295
2027 0.012485733 0.24128799 0.0010031676 0.4567709 -0.22724593 0.1977118 0.642281 -0.2962677 0.24662028 -0.48647285 -0.368147 0.011806921 0.23952173 -0.2168425 -0.21484798 -0.60614973 -0.06310424 -0.11944566 -0.3290654 0.3106085 -0.10023255 -0.17417568 0.6626093 0.21848634 -0.088960096 -0.08670328 -0.09688121 -0.2295389 0.008114291 -0.086593255 -0.2857251 -0.3436694 -0.69899267 0.34616777 -0.19155748 0.012893685 0.19034293 0.75451076 -0.39285997 0.17451505 -0.6931269 0.30644512 0.8138431 0.79147613 -0.2819662 0.20369646 0.193366 0.20654139 -0.05415428 -0.165079 -0.28748444 0.0012516112 0.19264726 -0.19021933 0.17249005 -0.072509706 0.1068291 -0.24443166 0.58594567 0.042472787 0.10743384 0.0027286378 -0.038037967 0.06003368
6295 0.16281077 0.029559756 -0.23495561 0.20240758 -0.3330906 0.00720698 0.6439399 -0.19563942 -0.10376134 0.1491546 0.1803666 0.12550838 0.3574249 0.15463242 -0.3236697 -0.26816112 -0.023655493 -0.309578 0.18751186 0.09645122 -0.047372345 -0.6157059 0.29240507 0.11760841 0.08596865 -0.3128192 0.05842626 -0.16526435 0.1702666 -0.4053094 0.13414536 0.5183728 0.27387184 -0.15354119 -0.049502857 0.16301651 -0.8344883 0.13110566 -0.38959572 -0.14585225 -0.0044129705 0.5883684 0.45178553 0.35479733 -0.13374442 -0.36670515 -0.2992999 9.615252e-05 -0.38345537 0.008832841 -0.1745097 -0.18299378 -0.19510397 -0.00536101 -0.4953508 -0.17110017 0.19934243 0.10624549 0.5417608 0.24865809 0.02861671 -0.3207163 0.36822203 0.071308754
1144 0.2552869 0.046687342 0.16406368 0.4200306 -0.2562963 0.2434848 0.8540611 -0.35649547 -0.17143248 -0.13667141 -0.0128892325 -0.2725407 0.48837316 -0.48065177 -0.059423327 -0.4068463 -0.05552928 -0.10885775 -0.07190659 -0.56282943 0.05665563 -0.4744725 0.14355835 -0.32897353 -0.16831766 -0.42076743 -0.20617604 -0.72012866 -0.29067248 -0.13893257 0.085707836 0.3340562 -0.14058481 0.29583657 -0.20783445 -0.18194227 -0.13083045 0.23598461 0.14172216 0.053296663 -0.5651556 0.39011177 0.15052012 0.6176093 0.2350354 0.053147174 -0.4927368 0.13105713 -0.3293474 -0.29831648 0.25619927 -0.43121728 -0.22932227 -0.52708584 0.27679038 -0.6041088 -0.069387496 0.22039808 0.3972197 0.1381324 0.22396605 -0.16478486 0.30047387 0.20242845
8889 -0.2301605 0.009599244 -0.02258161 0.066821344 0.21986063 0.20740724 0.99140406 -0.4769971 0.2828262 -0.09836612 0.24345861 0.31991315 0.38522243 -0.055854112 -0.3269097 0.029590385 -0.08738163 0.24220754 0.09968225 0.2187791 0.042166185 -0.3457758 0.1041794 -0.38516 -0.14345752 -0.4202052 0.27049908 -0.5971613 -0.258043 -0.0063210693 0.24065712 0.02068259 0.29506677 0.21696618 0.05660179 0.21659803 -0.25299335 0.44464597 -0.49699908 -0.042400192 -0.45684886 0.3170719 0.23573835 0.1834311 -0.12415517 0.023568442 -0.4452371 0.19609754 -0.37617007 -0.22302157 0.40080112 -0.061777476 -0.04300511 -0.41247013 -0.14914209 -0.047508284 0.15437385 -0.23030739 0.3367326 0.2604761 -0.046456575 0.11458067 0.19871026 0.39160842
4749 0.027259102 0.067617856 -0.10345741 0.40553787 -0.3382297 0.22191282 0.6693007 -0.26409686 0.21544622 -0.63287646 -0.22019622 0.0034550966 0.3675004 -0.16168414 -0.14182352 -0.41495132 -0.13662437 -0.09260525 -0.1891418 0.34319782 -0.15952416 -0.057750612 0.64198893 0.3068156 -0.162492 -0.1481534 0.09917881 -0.06440842 0.0071369163 -0.035244167 -0.22541346 -0.46615764 -0.7076594 0.35655424 -0.17391051 0.024569245 0.1699582 0.7673592 -0.71599215 0.19190589 -0.5972489 0.36378044 0.8269972 0.59222883 -0.3191544 0.16458511 0.19180483 0.21364231 0.027454492 -0.11687726 -0.49392688 -0.009117048 0.26669753 -0.18844692 0.11806591 -0.034484964 -0.027242033 -0.15668538 0.7212211 0.05834854 0.19380619 0.0032467265 -0.14131457 0.19024375
3074 0.06993701 -0.044959523 -0.3508692 0.2468536 -0.81099993 0.048842512 0.32398868 -0.38535643 0.45381474 0.29098192 0.5956036 -0.09702631 0.37862596 -0.46881264 0.077658415 -0.42330253 0.15737982 -0.16068853 0.2669132 0.26614153 -0.059482194 -0.4714842 -0.21205127 0.4934186 0.14457665 0.038066268 0.24626255 -0.54490966 -0.49734893 0.37008494 0.026085107 0.40471318 0.37280777 0.0937047 -0.52006865 -0.026723204 0.17376186 0.20494826 0.12296305 0.13160247 -0.10739169 0.4395156 0.61767083 -0.004516989 0.43077114 -0.0593587 -0.11612982 0.61738557 -0.038193632 -0.18961099 -0.09362515 0.032383617 0.9108766 -0.79897237 0.17927608 0.3211656 -0.15331626 0.41604328 -0.4101189 0.17040363 0.19458166 0.54951274 -0.42676276 0.053989027
2528 -0.3447722 0.12135119 -0.867829 0.03967994 -0.4772932 0.5561567 0.44517928 -0.23510845 -0.35192704 0.26916653 0.026998224 -0.35146213 0.078268975 -0.21323252 0.57009196 -0.33261058 -0.30467546 -0.25890955 -0.18258037 -0.2112098 -0.22561859 -0.5344599 0.15153882 0.38383397 0.13197872 0.05028497 0.02669111 -0.624833 -0.16861805 0.2958349 0.20025848 0.32156956 -0.41584092 0.0074676783 0.17995963 -0.39654562 -0.008029524 0.36127567 -0.016149908 0.18832198 -0.71329665 0.3154974 0.03490439 0.3372462 -0.32922566 0.25758493 -0.37624267 0.21799313 -0.3410895 -0.3285999 0.4532174 -0.3561154 0.036976174 -0.5851806 0.3078805 -0.9825395 0.29508287 -0.18240087 0.43615845 -0.014293632 0.7797779 -0.06297777 0.14896865 0.4120107
4961 0.11118865 -0.50308603 -0.32407162 -0.5635486 -0.43450996 0.080866285 0.54009914 -0.5183785 0.26642522 0.24807525 0.31326675 -0.519743 -0.5832118 -0.0780846 -0.38135982 0.04879381 0.06449691 -0.21594054 0.1349264 -0.079809435 0.42808092 -0.12252043 -0.25315857 -0.28103125 -0.32285008 -0.0799035 -0.25930557 -0.28820226 -0.55675083 -0.17492417 -0.16551587 0.09696678 0.23710011 0.50151205 0.06819479 0.5188755 0.33006415 0.23407477 -0.14950013 -0.12752612 -0.3364242 0.34497207 0.7341205 0.61706454 -0.31861177 0.31715888 0.3195421 0.37685323 -0.6124882 -0.030626014 0.38559186 0.1286742 -0.7697724 0.14706273 0.33404952 0.58850205 0.4490159 -0.104918346 0.6042576 0.035788536 0.1436495 0.05605615 -0.059399884 0.6784165
742 0.29631564 -0.06563488 -0.4917502 -0.029392073 -0.29144424 0.19754805 0.64918053 0.42098984 0.38143182 0.20598291 0.13177827 -0.26935583 0.732459 0.15262955 0.7136638 -0.061355617 -0.311508 -0.12573017 0.39800808 0.052414916 -0.6223189 -0.2221005 -0.32098812 -0.3736385 0.40049508 -0.06446396 0.29837623 -1.1061217 -0.08487108 -0.4144543 0.1029403 -0.22208034 -0.22067404 0.1725336 -0.785462 -0.10320559 0.37428162 0.19095004 0.6812428 -0.074470535 -0.20933846 0.46581724 0.24748954 0.29637295 -0.31370735 0.0033919562 0.5070321 -0.20235 -0.59304154 -0.3031772 0.31831506 -0.27284077 0.3730117 -0.6840545 -0.31652012 0.18709897 -0.09355737 -0.18388967 0.1749712 -0.34716108 -0.20230219 -0.01637928 0.43412983 0.09947975
975 0.5673548 0.24484894 -0.29150712 0.27071014 -0.66063267 0.31769446 0.54903185 0.109250225 0.20858139 0.44289964 0.22372589 -0.058064964 0.106836535 -0.11545063 0.017436774 -0.4466746 0.27965546 -0.019617673 0.31349716 -2.6538408e-05 0.23930025 -0.2801859 -0.06719912 -0.11712221 0.22491872 -0.30600518 0.24421802 -0.36561581 -0.1884443 0.3289222 0.035442457 0.61191076 0.09825674 0.48328593 -0.36084893 0.22296813 0.2015835 0.56790316 0.30758384 0.045995772 -0.10528044 0.24092944 0.3654823 0.11926624 0.2806497 0.057022646 -0.019070212 0.40769187 -0.33217025 -0.09933165 0.021543536 -0.17651021 0.6436911 -0.36565354 0.5602804 0.06576534 -0.22383276 0.29908592 -0.26067436 -0.11864743 0.42023373 0.18770102 -0.065034434 0.04999189
3331 -0.41610998 0.56853086 -0.17298388 0.35521442 0.019243987 0.42344987 0.2349481 0.18185554 -0.05293105 -0.8556261 0.20658155 -0.24250548 0.16843481 -0.48569098 0.44463646 -0.26202995 -0.17028305 0.13327776 -0.05738209 0.4334678 0.43119717 -0.097457476 0.2060703 0.44226545 -0.12462883 -0.1551119 0.1014122 0.098997444 -0.06716039 -0.15513277 -0.15588984 0.069513425 -0.27707362 0.3390568 -0.7236987 0.12913291 0.013174471 0.4764785 -0.042355727 0.2444354 -0.0068759886 0.43257064 0.8374159 0.33099315 -0.47680923 0.28187418 0.32286483 0.4805586 0.26885852 0.24439861 0.08318182 -0.29201367 0.021479458 -0.09991819 -0.04611288 0.33965805 0.16223852 -0.16507357 0.764068 -0.34362143 0.16089968 0.5702705 -0.03254169 0.4214503
3399 0.32235873 -0.2859142 0.17173293 0.19218047 -0.18301836 -0.06317497 0.38659424 0.038606122 -0.18856303 0.171561 0.10917569 0.014331118 -0.21071386 0.2966076 -0.024668535 -0.19965176 -0.2378891 -0.23688018 -0.018558394 0.24405168 0.2142677 -0.68036044 0.1467435 0.58003783 -0.4337704 -0.55712706 -0.059697535 -0.05721603 0.70723003 -0.122202285 -0.52055 0.1146573 -0.32929206 0.07083038 0.24941005 0.2068467 0.10953321 0.4367073 0.011872105 0.27787945 -0.20691423 -0.014447859 0.9882417 0.08276759 -0.43544194 0.5112003 -0.03269833 0.8711783 -0.780213 -0.17340802 -0.17593722 0.26697996 0.14508958 0.049167156 -0.09519287 0.5504729 -0.5288786 -0.17781724 0.2493042 -0.044839777 -0.0056695263 0.037499197 -0.14004458 0.95378244
976 0.06584636 0.5162401 -0.4855942 -0.732242 -0.6863681 -0.49378124 0.740042 0.1751434 0.06271261 0.18292579 0.55246955 0.74797356 -0.7030193 0.1510703 1.2090527 0.019872837 -0.19162108 -0.7923383 -0.18280748 -0.6349286 0.29096287 -0.27428252 0.54257256 0.25845662 0.048954464 0.30658302 0.7670941 -0.7313542 -0.45093396 -0.20236883 0.03606296 0.77465695 -0.6107808 -0.2668995 -0.31259194 0.027571911 0.9592999 -0.026055748 -0.13660114 0.01233659 0.1767539 0.36229125 1.6561705 -0.59558403 -0.25897697 -0.30072382 -0.2651974 0.34352538 0.49911112 -0.86090356 -0.050551634 0.22967908 -0.62421405 -0.9510017 0.18630156 -0.37963596 -1.0582831 0.4562594 -0.0933047 0.60934824 0.15437743 -0.90416425 0.16749841 0.23409343
6055 0.14700677 0.08337902 -0.15768297 0.22771657 -0.33538568 0.035914343 0.68388414 -0.1733616 -0.23345453 0.06372892 0.1358492 -0.02645221 0.4508612 0.17761853 -0.3270973 -0.33889607 0.053862974 -0.38154033 0.23740317 0.03101719 0.02538783 -0.6191431 0.25875026 0.28411353 0.039179184 -0.09846109 -0.022294564 -0.12564547 0.092362545 -0.494131 0.3248524 0.56648904 0.17016855 -0.13265051 -0.049410015 0.117614895 -0.80821574 0.2690591 -0.3413824 -0.16041507 -0.040346283 0.5125265 0.5164924 0.37153038 -0.25371534 -0.20747596 -0.26290503 -0.029945953 -0.3597098 -0.01330464 -0.11272976 -0.17031941 -0.088452995 0.02717003 -0.5738346 -0.12056172 0.14093073 0.1810042 0.5402799 0.33743224 0.045220323 -0.28046605 0.42168975 0.1629009
6532 -0.21408263 -0.18823501 0.33320415 -0.2722127 -0.075818084 0.43307942 0.84757364 -0.39139795 -0.060163822 0.2843004 0.0609473 -0.09345402 0.30213806 0.1864518 -0.14212695 -0.12727414 0.046537872 -0.1220482 0.20823942 0.37316605 0.21159309 -0.69773656 0.10942774 0.114136994 -0.093904205 -0.49130377 -0.07067288 -0.44403744 -0.28948313 -0.07756452 0.31368864 0.27239174 0.30264077 0.16998042 -0.13722183 -0.0009677207 -0.36846638 0.14161053 -0.53601843 0.15203978 -0.048927147 0.30354214 0.590596 0.2625072 -0.2716796 0.05464181 -0.27526852 0.04819413 -0.23362985 0.002967856 -0.11586315 0.4009495 0.0036596619 0.014685281 -0.15720122 -0.44330212 0.078867055 0.2833015 0.5096158 -0.0994928 0.3025599 0.06722933 0.57177114 0.11152245
5184 -0.1827991 -0.10138899 0.16439694 0.11548236 -0.18756667 0.37659046 0.5454711 0.40697986 -0.08732069 -0.19042853 0.10932044 0.18477233 0.15746799 -0.5516885 0.06776036 -0.3757055 -0.44405884 0.3454328 0.099756025 -0.16580807 0.11542806 -0.03202273 0.23913655 0.108781055 0.20678294 0.17914733 0.35483065 -0.10626358 -0.14987686 0.041271895 -0.117284045 0.061655276 -0.44534135 0.14819264 0.022488806 0.138927 0.005268938 -0.04226552 0.23913391 0.13296868 -0.23459584 -0.011425386 0.89753824 0.8351588 -0.0989869 -0.0036375625 0.08489435 0.4198168 -0.54908764 0.47338197 -0.29073694 -0.36902797 -0.42168733 -0.357339 -0.27946442 0.51595366 -0.098979786 0.1882762 0.45942757 -0.045374792 0.28998107 0.4861586 0.17920437 0.21848214
633 0.2455175 -0.24989823 -0.62496626 0.17459016 -0.1013293 0.35672924 0.762271 0.41021484 0.57105637 0.25591555 0.12035159 -0.3726852 0.5430054 0.32010892 0.5779296 -0.06747203 -0.1445109 -0.14234313 0.43085006 0.31195143 -0.5849319 -0.3316174 -0.10991007 -0.35336894 0.47345334 0.11068071 0.2151689 -1.2218804 0.032555927 -0.18039401 0.27708003 -0.18544395 -0.0077604693 0.41248852 -0.8459306 0.28663796 0.17476122 0.23998886 0.37768143 0.018232908 0.005025873 0.25724113 0.25430012 0.06276382 -0.531229 0.03440549 0.54534584 -0.44627154 -0.5490307 -0.19408065 0.37294206 0.0022710708 0.26818117 -0.7687138 -0.33212098 0.17513345 -0.06859358 -0.30878228 -0.00291474 -0.38844663 -0.19235821 -0.11865395 0.6047307 0.13383041
7979 -0.30562493 0.21498461 0.0732116 -0.019058239 -0.07287513 0.19276589 0.8221843 0.00441207 0.021320825 0.043974318 0.35398284 -0.018130098 0.41867825 0.06631634 -0.36961558 -0.2188151 0.007033159 -0.076109335 0.07514589 0.12692511 0.11629676 -0.4677984 0.06514168 -0.08469798 -0.012453458 -0.3608271 0.10216356 -0.3792315 -0.1227306 -0.16458188 0.32932866 0.24225177 0.52844906 0.06387795 -0.0016762774 0.01560962 -0.4755617 0.1799722 -0.41744614 -0.16595826 -0.15387516 0.4352403 0.46911052 0.50467247 -0.2781962 -0.1356001 -0.22831315 -0.13362864 -0.2081879 0.12274524 -0.059748504 -0.12106138 0.0067354017 -0.19638193 -0.19448459 -0.045535803 0.14157264 0.05796563 0.34730884 0.08663836 0.18458065 -0.09217214 0.3078784 0.18421985
1244 0.003930936 0.15434521 0.073857084 0.09368816 -0.3625947 0.2902314 0.78190374 0.101726644 0.68632764 -0.090991616 1.2309144 -0.22234593 0.20673937 -0.048809372 0.004501079 -0.36174327 0.24648638 -0.5799649 -0.27325734 0.6547691 -0.11445963 -0.30583116 0.30754593 0.15041284 0.09623691 -0.041764993 0.15116148 -0.012855821 0.34618807 -0.048851762 -0.1669082 -0.14379722 0.07771224 0.53957015 0.044996385 -0.36848333 -0.27882147 -0.34544912 -0.72619194 0.23380606 0.4560667 -0.039524514 0.71661264 0.27501863 -0.26707476 -0.0020957512 0.04135496 -0.07584828 -0.023625845 -0.012557681 -0.1574615 -0.12830211 -0.02582897 -0.6600841 -0.28779158 -0.27742246 -0.4849083 -0.039735712 0.048318245 0.39907503 -0.2599433 0.34908858 0.3466225 0.46557486
744 0.14445111 -0.04807456 -0.3638814 -0.1303642 -0.10830749 0.306494 0.69655925 0.016273107 0.60649574 -0.23541754 0.49278057 -0.2771479 0.7489648 0.23498018 0.436274 -0.010173001 -0.20998247 -0.077540785 0.7454713 0.046266917 -0.45810115 -0.21066949 -0.1348156 -0.2540483 0.5322071 0.0024113974 0.1037004 -0.998701 -0.05105203 -0.28179684 0.36604244 -0.30536738 0.18696125 0.0065744226 -0.44117835 0.068552 0.21255213 0.30031726 0.06830619 0.22046202 -0.027783945 0.51411 0.13497359 0.5510622 -0.39205572 0.03209562 0.5206739 -0.3002638 -0.6409786 0.038071703 0.33202744 -0.14905378 0.23381378 -0.586417 -0.33182943 0.14248228 0.063356094 -0.33543095 -0.025556937 -0.4222387 0.19229445 -0.19731177 0.5228457 0.0501038
8086 -0.20550099 0.30818954 0.08071642 -0.06609109 -0.2069933 -0.009340143 0.5036798 -0.05514942 0.26184496 0.26235682 0.422923 -0.6060176 -0.3576194 0.045163814 -0.29172626 0.3704543 -0.13545176 0.24593413 0.06059244 -0.048311602 -0.07648609 -0.32768375 0.19099516 -0.2666003 -0.5750268 -0.60834354 0.24726968 -0.043713626 -0.4737774 0.0626421 0.14511845 0.28585118 0.16576858 0.56604433 0.019967584 0.16648018 0.26091278 0.050957274 -0.37435097 -0.1871386 -0.30806202 0.11304653 0.74120486 0.75257343 -0.57681227 -0.4618737 0.10113625 0.12659559 -0.6444951 0.16470598 0.38411134 0.29201305 0.17750773 -0.07901588 -0.22987324 0.04256897 0.29956582 0.13893937 0.23664795 0.027439822 0.20581923 -0.22614692 0.20255445 0.44581485
2786 0.07236528 -0.24084793 -0.015169728 -0.13605471 -0.3813646 0.7649499 0.22208372 -0.10278331 0.49913296 -0.23644458 0.54255694 0.106286846 0.5953884 -0.25185496 0.073281854 -0.17429179 -0.17554846 -0.53751737 0.8102156 0.11928593 0.2566976 -0.5120214 0.3270777 0.099632226 0.5430511 -0.13427542 -0.1720081 -0.5372119 -0.14595638 0.7129475 0.085373856 0.11576918 -0.060672197 -0.2924408 -0.34028855 -0.09520689 0.34606737 -0.103888206 0.11464038 -0.009270466 -0.44179174 0.2937522 0.33979633 0.17460397 -0.091214105 -0.13838273 0.2295272 0.6745846 -0.25426543 0.3333189 0.014722222 0.6127024 0.15841289 -0.4616956 -0.111157335 -0.18826248 0.44574368 0.03143516 0.04516579 -0.11983378 0.3691059 0.11812453 -0.07586728 0.108773805
6980 -0.49787217 -0.112319835 0.20012069 0.2905309 0.04063937 0.31623882 0.7819696 -0.2534117 0.080226704 0.37270814 0.4942497 -0.09769853 0.5475871 -0.079314694 -0.22394338 0.13591526 -0.38908333 0.08166163 -0.24705242 -0.079732716 -0.07758569 -0.3862794 0.14512108 -0.2625517 -0.26246557 -0.3217875 0.098540604 -0.499769 -0.34960568 -0.16794421 0.074543044 0.3559499 0.114242144 0.1674154 -0.27622727 0.14558473 -0.26182234 0.3127813 -0.08010405 -0.057641115 -0.14319015 0.33360547 0.33304334 0.0014083293 -0.08677955 -0.17515738 -0.5278201 0.18909091 -0.48452404 -0.23223792 0.43883458 -0.026353236 0.16712733 -0.3411821 0.18442427 -0.09126492 -0.08015455 -0.29715532 0.3366339 0.11179718 0.1555083 -0.07584195 0.019820713 0.50804377
4372 0.36034214 -0.09753384 -0.33785886 -0.3602656 -0.58580214 0.11169226 0.9750276 0.5929942 -0.21428025 0.09363905 0.26877606 -0.15827845 0.46152663 0.13844706 0.637673 0.04057468 -0.22491154 -0.50378364 0.40929234 0.09027594 -0.81689596 -0.28796455 -0.36482564 -0.67905277 0.00095888705 -0.2997955 0.67383873 -1.19825 -0.28051755 -0.44644234 0.0007313887 -0.16105047 -0.77041376 0.22504827 -0.9613481 -0.6654003 0.42161715 -0.16707489 0.8794865 -0.2536363 -0.6251944 0.39866924 0.1962946 0.2737325 -0.015820775 0.19320577 0.50679535 0.048997853 -0.7888695 -0.5502423 0.19048966 -0.8643982 0.14707685 -0.4430173 -0.44688386 0.22821417 -0.15429778 0.18069516 0.7516304 -0.54965276 -0.7502738 0.03259727 0.45957962 0.006724266
8809 -0.09652287 0.12503318 -0.048068125 0.30208576 -0.20760205 0.18343149 0.6316881 -0.2715398 0.14044292 -0.06310431 -0.19147772 0.022179512 0.2661159 -0.12501669 -0.27174526 -0.53747255 -0.0013096612 -0.15304004 -0.05867242 0.52672166 0.044881083 -0.1958349 0.524554 0.27210158 0.038585186 -0.054695524 0.09971241 -0.031213472 0.16642909 0.041887686 -0.16805653 -0.53142506 -0.6787113 0.33937615 0.080030605 0.16942815 0.23129521 0.7857064 -0.66428524 0.0760402 -0.6339652 0.3260346 0.7395059 0.5733269 -0.022405144 -0.073484756 0.2776118 0.17851384 0.18188258 -0.14108685 -0.3889718 0.057681385 0.04328458 -0.12218368 -0.22277315 0.01630089 -0.0017996337 -0.17688338 0.82614154 0.06653109 0.20810004 0.08475414 -0.1840112 0.30590823
3881 -0.2533205 0.28724247 0.07278522 0.14768088 0.26229054 0.013839327 0.85240155 -0.40739313 0.25354934 0.13969278 0.40428734 0.13548534 0.32874578 0.13543695 -0.38698408 0.2196378 -0.22869983 -0.26284057 0.18581203 0.17029911 0.06197489 -0.37923303 0.13176727 -0.66546154 0.036723338 -0.6105855 0.016472455 -0.67390716 -0.2297409 -0.10338707 0.15093476 0.052971665 0.41374746 0.21099925 0.051873814 0.19244847 -0.40285763 0.43642125 -0.46277967 -0.16635591 -0.55784696 0.46135494 0.20932683 0.16496687 -0.3980342 -0.2883288 -0.27352524 0.3133334 -0.4478499 -0.022861132 -0.12667488 -0.08808144 0.05805577 -0.16325946 0.19069931 0.02698253 -0.05350059 -0.23026198 0.2715909 0.16259384 -0.008426715 0.09067864 -0.028315999 0.3344805
9336 -0.3211285 0.22110638 0.38673612 -0.019593405 0.03886757 0.074327275 0.65660477 -0.34749526 0.13276942 0.23655193 0.20230764 -0.12358187 0.20357023 0.064883344 -0.27370492 0.07884199 -0.070208475 0.0418502 0.08946786 0.07613534 0.31302437 -0.15917304 0.12859203 -0.25190267 -0.1555519 -0.53172517 -0.13099918 -0.57020736 -0.37914872 0.13371912 0.1763538 0.36110157 0.40147686 0.20283116 0.06340353 0.028247837 -0.061627295 0.20022382 -0.212313 -0.38025644 -0.37320328 0.56594944 0.6237193 0.68208516 -0.12002555 -0.36320624 -0.35480437 0.13511008 -0.46463764 -0.25455585 0.032083664 0.27971748 -0.2684893 -0.27327597 -0.03906261 -0.27200285 0.28226572 0.19150764 0.40942922 0.16560918 0.025457917 -0.005520819 -0.047948122 0.5753411
260 -0.1134704 0.7049121 -0.19398406 -0.7259196 -0.8801386 -0.5880423 0.57191986 -0.4717892 0.2262864 -0.08788903 0.40331483 0.6543413 -0.70197165 0.03450206 1.5844276 0.15978196 -0.09457856 -0.7055854 0.10195024 -0.692539 0.64342153 -0.70349854 0.67187035 -0.15067676 0.4430194 0.047030564 0.9199012 -0.9838244 -0.34673405 -0.4671113 -0.18070349 0.31232622 -0.20110539 0.051586103 0.11875409 0.03028159 0.75478023 0.06479629 -0.503986 0.113240406 0.5535819 0.59690595 1.5265958 -0.7549034 -0.2286171 -0.20870414 -0.27262843 0.6457876 0.5227193 -0.75535107 -0.48852488 0.64920175 -0.41328976 -0.9922384 0.13005257 -0.1066518 -1.0563343 0.35047278 -0.16930927 0.5099763 -0.29049686 -0.41343856 0.14339837 -0.31831452
3864 -1.0485477 0.58813787 -0.35050806 -0.6393288 -0.12289261 -1.0818446 2.6336014 -1.4599481 -1.465377 -0.8309877 0.65431106 0.4113152 -0.004853446 -1.1606506 1.2593625 -1.204959 -0.520704 -1.6736094 -0.030814085 0.5233246 -0.18060671 -1.11585 -1.145483 -0.7605606 1.3159974 0.4219163 -0.34390953 -0.7707002 -0.2907814 -0.0126882065 0.7812963 -0.005215124 -1.1238914 1.0682555 -0.7381341 0.94245315 1.7662978 -0.28641888 -0.048762284 -2.0702858 0.9106546 -0.04774234 0.31265143 0.26092836 -0.22345015 1.180763 -1.5332047 1.1818656 -1.1478122 0.6500651 -0.69456226 0.18912342 -0.34266236 -0.34012717 -0.42495704 1.3465363 0.17330866 -1.0921497 0.12925822 -0.11205741 -2.0196142 0.8495331 -0.004793117 0.8515803
2757 0.28891534 -0.27382493 0.067331545 0.49104914 0.06787976 0.013513958 0.6359965 -0.7380335 -1.5863401 -0.17963825 0.20818046 0.08576782 0.0611567 -0.096284986 0.099128 -0.9258198 -0.87823087 -0.029139908 -0.39578262 -6.90081e-05 -0.5075043 -0.57799125 0.15988594 0.3953975 0.2878403 -0.22794959 0.30200297 -0.7526966 0.42320418 -0.16698316 0.019699473 0.3272144 0.94985926 -0.1918698 -0.17952378 -0.0429877 0.5926378 0.70127463 -0.7018012 0.7345369 1.0425221 0.021976788 0.3391047 -0.005180877 -0.48116097 -0.12485576 -0.2434174 1.0859574 -1.0219787 0.0005625412 0.12150731 0.71367586 -0.23151393 -0.04905117 -0.33120242 0.043694604 0.033548623 0.31659892 0.85113883 -0.21698341 -0.42343727 0.08843312 -0.8575783 0.6530138
4777 0.51138496 0.037797216 0.47322285 -0.17402874 -0.25514427 0.2788752 0.7867607 -0.40112892 -0.10673267 0.34410655 -0.2490211 -0.705871 -0.034457527 0.20657943 -0.25214127 0.034134664 -0.06250353 -0.26036355 -0.16052674 0.45016563 0.36503768 -1.1660789 0.6381183 0.08049935 0.80978924 -0.7534107 0.40900302 -0.20604953 -0.34177074 0.15772115 1.1248336 0.12830712 -0.022326825 0.54565287 0.17471714 -0.85914224 0.65940905 0.18005435 -0.035833694 -0.21951826 0.11242866 0.64572895 0.15500796 -0.15477091 -0.60466075 -0.06559698 0.04384622 0.10614818 -0.5511436 0.19504811 -0.23824142 -0.13824564 -0.3024916 0.5083686 -0.091233596 0.54108196 -0.0059620026 0.44190168 0.32456285 0.67669195 -0.11960136 0.05442016 0.8260342 -0.055380918
8892 0.08981549 0.16378325 -0.28974748 -0.2346134 0.06406203 0.3073048 0.838905 0.06647951 0.2902429 0.44375142 0.3472439 -0.11569052 0.061906442 0.52423364 0.029982846 -0.074004695 -0.5092417 0.027039677 0.0071790847 0.004818475 0.3027079 -0.5656646 0.5352645 -0.22307733 0.16151005 -0.3519615 0.26427737 -0.059797976 -0.3017019 0.02223607 0.14466988 -0.3813728 -0.031367276 0.011783496 -0.04850746 -0.52777064 -0.14163974 0.1187515 -0.18206826 0.25298896 0.108235575 -0.36581305 0.7665025 0.29378453 -0.25224143 0.23151827 -0.104209304 -0.012977465 -0.27058315 -0.4650626 -0.22313656 -0.58388007 0.19796126 -0.7411804 0.23772098 0.3292875 -0.043607563 0.08242267 0.24965277 -0.053532474 -0.48965254 0.16198565 -0.017207248 -0.018922234
1516 0.5462749 -0.0075178565 -0.22987941 -0.15802737 -0.3747754 0.1541857 0.8637222 0.42840102 0.08208826 -0.08171588 0.034590825 -0.05868153 0.72360104 0.06085695 0.3851238 -0.09079083 -0.14461342 -0.17077956 0.16089329 -0.08004757 -0.28619865 -0.13389863 -0.0465581 -0.6606493 0.06948706 -0.0063632824 0.42801708 -1.1013666 -0.16498788 -0.41329277 0.2507673 -0.12925866 -0.3655026 0.20762554 -0.44498813 -0.3145708 0.14452372 -0.07603905 0.39537725 -0.122174 -0.47622854 0.31332347 0.28863776 0.4282663 0.07571136 0.24988231 0.35230973 0.13052475 -0.68238133 -0.27029988 0.16020192 -0.72816974 0.028023822 -0.59142804 -0.114934884 0.20492859 -0.20418733 0.0054713166 0.36089283 -0.46209908 -0.58372927 0.17824051 0.14012505 0.14887656
9449 -0.3901043 0.53297293 0.06189937 0.24034381 -0.08054542 0.51582956 0.18388042 0.32598838 -0.13906132 -0.5229384 0.13960798 0.032030903 0.41103065 -0.4211101 0.39524993 -0.38120002 -0.27491507 0.2586707 -0.08930422 0.08923998 0.41165185 -0.0712801 0.3185215 0.12431097 -0.033329405 -0.25472596 0.11309416 0.12276687 0.12800653 -0.15519068 0.075044475 0.13769677 -0.25545502 0.1268339 -0.55740833 0.03696699 0.51959926 0.28128904 -0.23588938 0.12673612 0.042145025 0.39301392 1.0366967 0.3434646 -0.40919206 0.32841772 0.31541318 0.4891023 0.013462904 0.4786396 0.069993 -0.041547526 -0.24626379 -0.026754217 -0.039296765 0.33193648 -0.013299527 -0.05316321 0.7353984 -0.3066884 0.15437207 0.7764662 0.11192753 0.033311084
1899 0.65626556 0.31319335 -0.1614431 0.22656116 -0.5905091 0.027074547 0.78691477 -0.09802075 0.1657363 0.117809445 0.11928231 -0.004008627 0.26683763 -0.33935925 -0.24047895 -0.45983562 0.37283435 -0.19444446 0.10777799 -0.41980073 0.25778186 -0.279748 -0.014274526 -0.81857145 0.2974069 -0.21620095 -0.031818554 -0.15869412 -0.09053634 0.3514041 0.20908311 0.5209822 -0.17023195 0.5021015 -0.52373755 0.0013744863 0.10088302 0.6684305 -0.06381905 0.06990124 -0.013960296 0.43167 0.20360596 0.3571051 0.3039764 0.35850424 -0.24375218 0.44342726 -0.6331517 0.13328765 0.04012077 -0.3739265 -0.051522907 -0.41722223 0.5088569 -0.3787297 -0.32751325 0.32457277 0.3848296 0.015805654 0.4073296 0.011773401 -0.18972467 0.1026438
1058 0.548893 0.20213412 -0.33597282 -0.12389031 -0.1931618 0.0060007568 0.631212 0.336862 0.10764487 0.13724786 0.34502617 0.29400876 -0.6152135 -0.3601309 0.49889758 -0.22637665 -0.17956008 -0.09590799 0.036400586 0.17365168 0.27917692 -0.9903338 0.5094367 -0.10744038 -0.04272257 -0.31149158 0.20941067 -0.3866507 0.4148413 0.12499911 -0.81683475 0.31672478 -0.34190676 -0.37799227 0.013193418 0.44620547 0.1364102 0.52915394 -0.47159597 -0.033580795 0.7082715 -0.3085664 0.63989943 0.122346684 -0.34321114 -0.2123569 -0.27110484 -0.006750508 -0.3314049 0.14648421 -0.5434297 -0.057146072 0.29619837 -0.28623644 0.035170663 0.7740687 -0.22208855 -0.3891625 0.29541016 0.25336742 0.24738869 0.17635164 0.37223232 0.42915615
930 0.11901402 0.09728548 -0.08357811 0.1851303 0.01343008 -0.08093867 0.54482925 0.2355768 0.2108282 0.07312139 0.36680964 -0.74272335 -0.02230732 0.4033385 0.25105542 0.0137718 -0.108329356 -0.110496916 0.16635896 0.33083203 0.6734418 -0.21415359 0.8195088 -0.8982144 0.3190187 -0.34325087 -0.21681996 -0.15281594 -0.51058847 -0.16053818 0.24074523 -0.37483528 -0.33044547 0.48885044 1.097021 0.2777467 -0.07210859 -0.7829583 -0.34375852 0.22987312 -0.30612978 0.55075926 0.6496978 0.39703998 -0.06324276 0.23156962 -0.25700316 0.85214037 -0.07288316 -0.53896296 -0.055889066 -0.42540357 0.19669402 -0.81124043 0.24672142 0.5887799 -0.1290652 0.5944875 -0.13401736 -0.25204667 -0.41114843 0.26106146 0.1343434 -0.19452272
3992 -0.12723735 0.5342989 0.2352423 -0.11093814 -0.47747836 0.5162076 1.1553525 -0.061656035 0.374676 -0.07672224 0.5774247 0.17070344 0.04535544 -0.040328905 0.18849346 -0.30293965 -0.17174974 -0.40714002 -0.095297456 0.63553464 -0.024334965 -0.1849824 0.21094191 -0.010006091 0.33671394 0.109112434 0.27521393 0.0049927384 0.2715502 -0.06966533 0.13057232 -0.1890901 0.0651037 -0.33000022 0.4658835 0.3889464 0.15409964 0.3745315 -0.6168371 0.36945042 -0.133581 0.7511124 0.64760745 1.0580757 0.089309655 0.4571317 0.07090483 0.06287683 -0.2737418 0.2909489 0.02971847 -0.08319898 0.2616441 -0.16491038 0.0696693 -0.10564601 0.27613315 0.02393657 0.5531424 -0.5844746 0.14914325 -0.45059988 0.46567318 -0.11850107
632 -0.24638025 0.45314145 -0.012883669 -0.48651037 -0.9046185 -0.2307121 0.63905054 -0.096472904 0.42295474 -0.35713205 0.13922915 1.0381725 -0.6703326 0.015743015 1.193688 -0.020371666 -0.02283747 -0.6402063 -0.4355255 -0.7074866 0.79427665 -0.5949505 0.63026375 -0.08510117 0.31004596 0.009504395 0.8767954 -0.6532315 -0.07121504 -0.2845876 0.19957884 0.94951344 -0.3997399 -0.16418351 -0.19418304 0.24922717 0.66787636 0.23756744 -0.551472 -0.1793036 0.3255907 0.6651208 1.3859799 -0.62079954 -0.11556598 0.031201473 -0.11021263 0.7197936 0.24217366 -0.7104126 -0.38577902 0.22019717 -0.2511984 -0.79965967 0.10720386 -0.1314056 -0.94941705 0.608319 -0.1640613 0.33470324 -0.019260421 -0.6370251 0.24949625 0.047606505
3123 0.28557816 -0.1707517 -0.4232394 0.13592231 -0.2428045 0.50278664 0.41656432 -0.29710558 0.50676936 -0.016423205 0.8064914 -0.18870254 0.3922512 -0.35827494 0.26253203 -0.56607294 -0.34158224 -0.19840959 0.6652546 0.026755832 -0.16705035 -0.37855425 0.24402128 0.31563336 0.37935525 -0.00951361 0.109174915 -0.43382138 -0.30612805 0.31333092 -0.0856421 0.31402734 0.34486216 -0.4053021 -0.33395573 0.11996158 0.55078924 0.3183468 0.1572974 -0.07488614 -0.19539255 0.60386205 0.40231222 -0.13668571 0.06332624 0.25313595 0.06314803 0.43291312 0.163788 0.26968023 0.03541351 0.26848668 0.85873425 -0.79847133 -0.082126155 0.5281712 -0.20641497 0.23676984 -0.28291726 -0.15068568 0.21731223 0.4051222 -0.35664493 0.058479987
1442 -0.047081724 0.25567058 -0.80537933 -0.5188198 -0.32743254 0.31260887 0.6137955 -0.20968395 -0.145608 0.41202125 0.4882378 0.0956145 -0.46513426 0.15772392 0.7341825 0.25380874 -0.92740333 -0.16738766 0.33173215 0.1333211 0.2532333 -0.72553545 0.46927878 0.25204346 0.10099056 -0.60745776 0.47890466 0.044986196 -0.8575319 0.34064513 0.8797353 -0.3088947 0.07544314 -0.53305894 -0.024455996 -0.4094345 0.13711871 0.54112464 0.31784925 0.3804799 0.47276035 -0.23410732 0.5952435 0.12603733 -0.055090792 0.15948772 -0.14565639 0.35131803 0.056066174 -0.47388247 -0.41547254 -0.8727788 -0.10853404 -0.3390079 0.11909356 -0.20093563 -0.23594366 -0.06868355 0.73479706 -0.14992502 -0.092937134 -0.17130332 -0.028140943 -0.018350542
6045 -0.23973761 0.11585676 -0.113150105 -0.01885374 0.2653119 -0.022091933 0.97041166 -0.45244163 0.44025788 0.12885752 0.30010918 0.16470653 0.3890208 0.19315286 -0.4008722 0.28249457 -0.14678241 -0.043288007 -0.10882292 -0.10741575 0.09163068 -0.4042249 0.06728941 -0.5127156 -0.093553506 -0.52120507 0.06518427 -0.1214068 -0.51428646 0.23948415 0.11292678 0.18843997 0.44959944 0.23949276 -0.21421383 0.38257173 -0.28708288 0.5885335 -0.4898174 -0.033480834 -0.39113504 0.4929805 0.041455604 0.18489945 -0.3453003 -0.23750824 -0.23718517 0.16961345 -0.48497137 -0.071171 0.3209253 -0.33300504 0.032963112 -0.44793746 -0.082782544 0.23795898 0.0012579376 -0.4646057 0.3503869 0.16285335 0.014477244 0.13266475 0.1403781 0.33425575
2746 0.5051631 0.2766517 -0.14815488 0.06832598 0.11857447 -0.080333725 0.82761306 0.27637562 0.042182952 0.34186554 0.4798721 0.46326038 0.30606517 0.012729291 -0.05302323 -0.540932 -0.08747636 -0.53001446 0.18607637 0.087183766 0.4056672 -0.2939457 0.14507082 -0.113868535 0.15826584 -0.24220195 -0.11664832 -0.44407234 -0.093773365 -0.22305883 -0.24661139 0.2392754 0.39552283 -0.20249428 0.082923956 0.22045128 -0.29782116 0.57548034 -0.26973984 0.025290513 -0.27362573 0.46477082 0.37398538 0.32875997 -0.6069726 -0.025313646 -0.4319027 0.5340159 -0.22466283 -0.22824499 -0.5869141 -0.6137252 0.005583367 0.22888358 -0.1753669 0.019078448 0.13454537 -0.23623198 0.5177601 -0.2917425 0.2559322 -0.15104571 0.15743439 -0.3040455
4260 1.2248791 0.5019798 0.008505373 0.23459946 -0.41683042 0.09415198 0.8190162 0.44303572 -0.37439573 0.19314872 -0.095058836 -0.4709496 0.18400483 0.031041412 0.25820082 0.6791957 0.46768048 -1.1255815 -0.6002202 0.646518 0.32963416 -1.104165 0.23673376 -0.08652193 0.8579538 -0.16768567 0.25949833 -0.24820599 -0.75937617 0.40388185 0.57728404 0.49330667 0.49208754 0.37938914 0.28603098 -0.28205755 0.9765033 0.1380994 0.53783816 -0.57340974 -0.20327559 0.6500602 0.006289615 -0.009770313 -0.7035723 -0.3502036 -0.014477821 0.8018192 -0.12597713 0.41624555 -0.00607677 -0.15845065 -0.1760339 0.39826772 0.26584572 0.24652617 -0.036123354 -0.026712323 0.08996854 1.1140509 0.07491847 -0.31969836 0.34715366 0.7181819
3842 0.13500454 0.10479214 -0.21097815 0.26355395 -0.624176 0.25198147 0.5844274 0.0014983063 0.30723536 0.46904135 0.45763686 -0.124770105 0.56407 -0.21672924 -0.049169227 -0.23526081 0.035948686 0.06446936 -0.30561224 0.32298943 -0.23372412 -0.9024306 0.19061044 0.18868297 -0.26951575 -0.20398349 0.17296773 -0.30203533 -0.6964105 0.3812138 -0.16637744 0.43397006 0.4782278 0.24341697 -0.4481544 0.22047257 0.38742197 0.25534144 -0.005893989 -0.015468055 0.5385957 0.15629882 0.5083999 0.0698022 0.4102815 -0.023368564 -0.49539146 0.5302005 -0.53201026 -0.45732203 -0.012061902 -0.36017781 0.5747033 -0.6216563 0.37351257 -0.039049055 -0.35790113 -0.03637706 -0.32284033 0.07920412 0.34862304 0.39068076 -0.06255241 0.3009168
1905 0.44571295 -0.18423158 -0.24656814 0.25754073 -0.37920007 0.18832837 0.7137381 0.0247309 0.24016975 0.28264076 0.43037218 0.35076421 -0.0032391322 0.0875934 0.013812703 -0.198536 -0.46563223 -0.25909376 -0.240827 0.36560163 0.23749651 -0.34313926 0.0947253 0.014526621 -0.55707604 -0.60324407 -0.22390456 -0.33769655 -0.16230522 -0.064366415 -0.2650842 0.4214099 0.10254257 -0.27883226 -0.20489956 -0.016037405 -0.28746426 0.030155221 -0.24094585 -0.28084454 -0.5045912 0.28090784 0.63869476 0.12888469 -0.39249626 -0.23256384 -0.12405489 0.43317032 -0.1974559 -0.16336335 0.26053935 0.17178479 -0.5366936 0.34225386 0.1722967 0.4285073 0.2300594 -0.24620804 0.3336435 -0.22541629 0.10379006 -0.11992597 0.106513776 0.39500636
3886 0.42115432 -0.2131326 0.23163684 -0.18281344 0.082048215 0.41536883 0.5235775 -0.39294916 0.080880396 0.57398266 0.1477752 -0.759031 -0.026530225 0.17644292 -0.43645984 -0.053189076 -0.48596355 -0.13600925 -0.29277354 0.2515476 0.27295423 -0.8158949 0.58382785 0.09166714 0.6373395 -0.9246159 0.15060893 -0.1061125 -0.5881056 -0.26381725 0.48551217 -0.14834052 -0.10157787 0.36569878 0.26107085 -0.52857715 0.20234372 -0.363169 0.38149238 -0.06480434 -0.14759094 0.22492433 0.5678799 0.1742429 -0.22083437 0.12666744 -0.61906606 0.23406295 -0.56222767 -0.3436789 0.015347993 0.2427882 -0.53359354 -0.0369231 -0.09654364 0.08613672 0.101917 0.51165175 0.6502876 0.15753804 -0.11835872 -0.024522953 0.47773105 -0.024076223
1341 0.5406412 -0.3305228 -0.41039068 -0.34446573 -0.7099754 0.14492637 1.2435336 0.549198 -0.09024492 0.00633396 0.05396557 -0.18546215 0.39146295 0.29059988 0.78349257 -0.0289706 -0.27037638 -0.1905145 0.0611882 0.25016212 -0.5661764 0.011711143 -0.60834205 -0.9517322 -0.039641708 -0.33571038 0.41889387 -1.2509669 -0.16143171 -0.7734008 -0.06617335 -0.21187666 -0.5727395 0.17015412 -1.0504299 -0.4685365 0.6667756 -0.13772798 0.91739905 -0.37557003 -0.42082813 0.5276431 0.097436614 0.32428136 0.01002669 -0.050063893 0.90266323 -0.034213483 -0.539614 -0.5384405 0.2368439 -0.55041873 0.020730553 -0.7618067 -0.51324856 0.14713694 0.10165414 0.12743919 0.8854645 -0.5548083 -0.57611823 -0.031762343 0.38649088 -0.054060005
4865 0.794747 -0.5618795 -0.7458569 0.04055292 -0.1659829 0.42107317 0.5844092 1.2022748 0.26438573 -0.4603887 0.30873585 -0.47512308 0.4674427 0.2287319 0.25247377 -0.0008116246 -0.23182617 0.34590068 0.22408576 -0.17759863 -0.76515 -0.5052062 -0.26360443 -0.048011392 -0.16444455 -0.08850809 0.52459645 -0.83180386 0.11244777 -0.0745366 -0.108069085 0.48334244 0.3190732 0.2665906 -0.3327282 0.27230093 0.3480285 0.24096689 0.18041193 -0.32863587 -0.12200433 0.6058125 0.272081 0.7211365 -0.3899945 -0.19473056 -0.13899589 0.5063196 0.8178138 0.47396812 -0.55453885 0.70290047 -0.29032993 -0.94248176 0.057319913 0.12949519 -1.2780197 -0.24327733 -0.0621377 -0.42512745 -0.089936584 0.5048786 0.020972498 0.37016073
943 0.1542697 0.4920476 -0.3028542 -0.7430801 -0.7396126 -0.27003047 0.61609983 0.19202541 0.24635017 -0.18023776 0.29197797 0.7255361 -0.8966233 -0.021714041 1.4231052 0.0509893 0.17655224 -0.39428276 -0.07459049 -0.5681043 0.6163977 -0.8616836 0.60631466 -0.18086158 0.29789293 -0.048519276 0.865607 -0.6626337 -0.08430814 -0.2003736 -0.08580444 0.6780872 -0.32766882 -0.19944927 -0.17724575 0.30860403 0.67390054 0.35966435 -0.16520944 0.10757594 0.4737721 0.35184428 1.66736 -0.61574924 -0.24045505 -0.24782278 -0.06781678 0.2672616 0.4068506 -0.27275065 -0.5024455 0.26569206 -0.13585405 -0.7013833 -0.08696603 0.0074193776 -0.9082652 0.22847939 -0.18565013 0.57182723 0.02166312 -0.54581285 -0.029966014 0.14351717
7792 0.27269402 -0.27664527 -0.43712974 0.30257276 -0.16911002 0.66905224 0.3695742 -0.10342917 0.16223046 0.2835988 0.6389114 -0.035192724 0.34869617 -0.5624838 0.18898687 -0.57375216 -0.44923323 -0.25601265 0.6156408 -0.080688775 -0.08590088 -0.428578 0.04486158 0.37459278 0.3916867 -0.12703623 0.26343447 -0.49812225 -0.12380712 0.35648987 -0.22642161 0.3266775 0.2105178 -0.34514233 -0.26174033 0.31279844 0.43360573 0.08918411 0.27082232 -0.2847819 -0.21401101 0.7573326 0.36036497 -0.1797981 -0.11855236 0.21545498 0.12357512 0.47738117 0.2376701 0.31511265 0.221366 0.47894013 0.659685 -0.90115625 -0.004366337 0.47528046 -0.08979275 0.26010585 -0.40300605 0.015460243 0.12344581 0.36217126 -0.15193684 0.028690463
496 0.29335973 -0.19927967 -0.6253211 0.050016154 -0.22418308 0.28613323 0.68670034 0.43276775 0.53781235 0.24507429 0.1674012 -0.34209597 0.7704057 0.2029144 0.68982214 -0.0995767 -0.31703985 -0.06186565 0.5596574 0.10443836 -0.5732012 -0.2473054 -0.17332253 -0.27596247 0.5194273 -0.053289443 0.16374613 -1.1736159 0.0086608725 -0.36555728 0.3811441 -0.119389355 -0.050728306 0.15203837 -0.6900231 0.06727909 0.30353925 0.21130614 0.5378449 0.026580682 0.17292453 0.6011364 0.31551906 0.28034458 -0.45778862 -0.048151974 0.41438997 -0.30274191 -0.56547815 -0.12240954 0.41071144 -0.104854055 0.43058643 -0.73145676 -0.25651363 0.28619763 -0.15069862 -0.25400904 0.015333318 -0.3479254 -0.082788914 -0.051837787 0.43849662 0.19920109
2463 0.2714644 -0.24649967 -0.21571244 -0.0042113564 -0.7537643 0.50039214 0.89050615 -0.51351666 0.54818493 -0.24323355 0.56653565 -0.2979615 0.5474797 -0.078564405 0.3647916 -0.57829463 -0.3612224 -0.2104857 -0.12002179 0.014689266 0.33421174 -0.20860659 -0.103545904 -0.5226186 -0.003108618 -0.27716503 0.33560476 -0.60759866 0.013542518 0.25330678 -0.5741573 -0.23382893 -0.35522956 0.23855926 0.12543987 -0.06341537 -0.15384917 -0.707033 -0.011454641 0.34380305 0.18775111 0.10877404 0.26664492 -0.300262 -0.096567936 0.5543224 -0.15156436 1.0044937 -0.27485785 -0.4697884 -0.19409513 -0.5123733 -0.17108202 -0.5313147 -0.13648641 0.039359998 -0.22530054 -0.3948014 0.62580806 0.42715222 0.42839852 -0.26126423 -0.18384063 -0.1802964
2877 0.09037005 0.23998728 -0.596708 0.20127334 -0.30461264 0.6616721 0.685134 -0.092886366 0.010100452 0.60023373 0.7563699 -0.35017315 0.39105353 0.1843457 0.085028514 -0.7520674 0.56212926 -0.044011746 -0.29331103 0.80478954 0.09822457 -0.44559616 0.23900726 0.38902342 0.5153994 0.07445974 0.35831207 0.18382756 0.3600216 -0.32079202 -0.5394598 -0.917821 -0.7380328 0.10759944 -0.2635196 0.25120136 0.9659113 0.28860706 -1.1411688 0.23938352 -0.044269793 0.41179302 0.5423033 0.4937624 0.48444086 -0.042148918 0.078196175 0.5217778 0.73025656 -0.64236826 -0.18316714 -0.4622541 -0.39305127 0.0024908541 -0.599256 -0.3383831 0.0020165714 -0.2123244 1.0594392 -0.15316696 0.31519225 0.18008012 -0.39009246 0.30015948
5433 0.8386746 -0.41509756 -0.7426815 0.05918911 -0.16386576 0.46318677 0.4819032 1.1454731 0.34920415 -0.3818023 0.62217367 -0.229614 0.76523787 0.10799691 0.12200409 -0.058345616 -0.031022135 0.3355157 -0.073729225 0.19428585 -0.7056476 -0.593327 -0.26769194 0.0037676662 -0.10572521 -0.22295411 0.59190077 -0.5400557 0.014554493 -0.11496165 -0.113620594 0.7356816 0.19935633 0.118299 -0.25503325 0.32011324 0.35227376 0.3871113 -0.07962598 -0.37305948 -0.27950191 0.18971823 0.10843635 0.61565965 -0.35615924 -0.24937166 -0.4909956 0.5620493 0.74880004 0.27343783 -0.97855806 0.7642695 -0.1325986 -0.8243013 -0.0782363 -0.14609464 -1.3925653 -0.21039866 0.15016526 -0.34769148 -0.16375072 0.6662367 0.10755302 0.49124005
5771 -0.29047266 0.5125559 -0.18695365 0.53357494 0.0012816021 0.49697614 0.16985643 0.06432008 -0.06463745 -0.43160528 0.3608882 -0.15478158 0.3964491 -0.30057615 0.64463514 -0.096101604 -0.21143393 0.32020932 0.116099216 0.2659483 0.3402417 -0.15245731 0.42805082 0.27763414 -0.18243362 -0.46806046 0.16329487 0.13466334 0.093479276 0.08269166 0.14181559 -0.069497146 -0.31191298 -0.10061004 -0.91813153 -0.028296709 0.33883485 0.26859924 0.076702446 0.12346809 0.03050783 0.33984166 0.9352392 0.032760013 -0.2459306 0.38599887 0.3373486 0.4478821 0.1873476 0.30023855 0.065609455 -0.32812357 -0.15170978 -0.2228622 0.09085364 0.22134164 0.18157704 -0.03216847 0.83802587 -0.07844449 0.020101063 0.760803 0.096975945 -0.041129034
5945 -0.027564896 -0.20680784 0.009916749 0.67074215 0.16572747 0.4483437 0.16512623 -0.016456336 0.30249828 -0.37701294 0.69230765 0.0785818 0.71019155 -0.3013168 0.5759352 -0.1501722 -0.142893 0.09187542 0.48277378 0.14423318 0.3005321 -0.26571974 0.067711085 0.16872618 -0.17130677 -0.64196926 0.023233278 0.0673118 0.21494374 0.6390788 -0.21726075 -0.0005599543 0.07474614 -0.3583296 -0.87608105 0.23343578 0.63292474 0.14991581 0.10366538 -0.123498335 -0.18516992 0.4995918 0.419211 -0.31354558 -0.16577774 0.19022454 0.44354537 0.51117474 0.047853265 0.28808796 -0.20411699 -0.07813445 -0.01154996 -0.28138933 0.21499856 0.22306956 0.19949257 -0.14082538 0.46243104 0.08425418 0.13773406 0.26622915 0.1433027 -0.083819374
404 -0.66321486 0.04542401 -1.0885851 -0.10927108 -0.3784233 0.46696913 0.73480916 -0.11723356 0.086961366 0.39414167 0.14675744 -0.5756859 0.18718204 -0.0034136637 0.7635471 -0.3100182 -0.42516822 -0.003387105 -0.5881728 -0.15167548 -0.25233507 -0.9079716 -0.01262798 0.3545431 -0.14332728 -0.17147811 -0.47965685 -0.5303544 -0.1724865 0.14407766 0.5599168 0.47674713 -0.5344816 -0.21876712 0.09929216 -0.1177739 0.23416778 0.6208481 0.16455196 0.00688384 -0.6320579 0.56039053 0.0806802 0.1770556 -0.83431315 0.06014561 -0.46055177 0.1577049 -0.10247447 -0.4464285 0.61769336 0.15443693 0.22118552 -0.34456426 0.032519788 -1.1002902 0.030523852 -0.20548616 0.67681366 -0.16873728 0.8552382 0.13800015 0.3141664 0.22198142
849 0.27127206 -0.107785694 -0.5811145 0.083450526 -0.23784555 0.2623995 0.64876705 0.28563333 0.5308587 0.26271236 0.05658689 -0.31952894 0.73994917 0.19900848 0.6070458 -0.10696275 -0.31949052 -0.06443855 0.5760823 0.09147157 -0.5408884 -0.20452598 -0.14857686 -0.29794893 0.53984123 -0.097165994 0.20625643 -1.1827912 -0.061797507 -0.28217667 0.3409041 -0.08960037 -0.011270558 0.2161168 -0.6938271 0.09300127 0.30066767 0.3116136 0.5181932 0.05115172 0.07445189 0.5020993 0.29018402 0.2640168 -0.4584902 0.013118772 0.47533628 -0.38774806 -0.64282113 -0.13550323 0.4260968 -0.124036245 0.40096822 -0.6627558 -0.17914474 0.21938069 -0.11432763 -0.21972463 -0.04297986 -0.3957239 -0.105719894 -0.082605794 0.5101264 0.30785796
7630 0.18120304 -0.053905703 -0.22424565 0.19973485 -0.103155985 0.65948635 0.3502317 -0.064889856 0.43188697 -0.4021132 0.4725134 -0.028743528 0.39776984 -0.17933841 0.28896922 -0.39240837 0.13326658 -0.044507515 0.5492266 -0.015197875 -0.4618313 -0.41311413 0.39551193 0.2952273 0.3121884 -0.08708969 0.1302745 -0.3167267 -0.27725363 0.08690546 -0.4093127 0.36789212 0.11920258 -0.06822165 0.050826635 0.15404375 0.42971918 0.29487035 -0.13079017 0.083447255 -0.2893615 0.16492334 0.38598248 0.31834272 -0.28248775 0.36652163 0.13784584 0.26505104 -0.1861306 0.019426966 -0.1445793 -0.03343331 0.31659013 -0.48567304 -0.033875234 0.41826504 0.07415679 0.108135425 -0.027420431 -0.12118869 0.3982979 0.20233081 -0.43426585 0.26419848
8511 -0.2413203 -0.40691727 -0.051767517 0.33794433 -0.10938205 0.60928607 0.9261757 -0.3442769 -0.07446479 0.038741868 0.14378683 0.034980632 0.109822154 0.643167 0.14840068 0.15686628 0.33852232 0.031579643 0.16763997 -0.4528073 -0.18129991 -0.786408 0.614002 0.035097767 -0.15565763 0.12178426 -0.24272792 -0.08186735 -0.7977329 -0.36824456 -0.33252916 0.1274604 0.11317482 -0.028413706 0.3384248 0.28052244 0.41565973 0.30923533 0.036223885 0.29936936 -0.5670234 0.14873719 0.12456228 0.5999886 -0.54821974 0.9019582 0.3336542 0.4105144 -0.10545001 -0.2096649 -0.44092762 0.21624798 -0.13650548 -0.16430053 -0.2143375 0.46431875 0.16511342 -0.29179922 0.14403747 0.08564252 -0.31812656 0.13735794 -0.119985856 0.6091551
2682 0.17584299 0.021658743 -0.10111595 0.23356646 -0.09506817 0.020049771 0.64569765 0.24559772 -0.046249542 -0.18361548 -0.0021272819 0.11443751 0.98333234 -0.33376235 0.11817588 -0.4880749 -0.30130702 0.4519815 0.22139141 -0.108435154 0.3347003 -0.023436401 0.117663115 -0.2613692 -0.09249481 0.24110962 0.385572 -0.75216126 -0.24656664 0.009997073 0.13471933 -0.046487216 -0.6836432 0.35646078 0.08910709 0.16630772 0.12972715 -0.25138524 -0.40618205 0.33359426 -0.3687356 -0.1368487 0.7219772 0.54254293 0.044515472 0.3506822 -0.46029437 0.42367667 -0.60707325 0.15837736 -0.11027841 -0.4920425 -0.15156741 -0.42991897 0.18847977 0.35673767 -0.09477992 0.127695 0.29422292 -0.46612564 -0.4005943 0.3694627 0.42747387 0.4015278
7071 0.06851003 -0.04344657 0.38342732 -0.3678556 -0.4906617 0.22530515 0.6608013 -0.27235895 -0.2668888 0.24159242 0.12362029 -0.32730603 0.5834143 0.19426277 -0.25744063 -0.5665701 -0.12023944 -0.026857946 -0.080916606 0.157491 0.07184136 -0.797698 0.051162574 -0.11897104 0.47010723 -0.3394148 0.33258682 -0.26813912 -0.33992076 0.11041336 0.54146135 0.66058046 -0.06887289 0.020242127 0.4081938 -0.16658388 -0.3643015 0.2617159 -0.50383466 -0.12931128 0.29694858 0.6077085 0.4061076 0.41076508 -0.3973984 0.042048696 -0.1614624 -0.014335007 -0.17577125 0.30704597 -0.15132464 0.33042905 -0.010110616 0.4215036 -0.41251123 -0.027880525 0.031579148 0.29873106 0.45811132 0.18895605 0.17361759 0.31949347 1.0567504 0.18329513
7987 -0.13553648 0.06384326 -0.018161358 0.23633508 -0.26258913 0.31424505 0.62244767 0.13123026 0.12806 0.41908857 0.26532847 -0.2895053 0.5386361 -0.39125806 -0.031599123 -0.21431229 -0.41871077 0.22695248 -0.53457004 -0.12841858 -0.11292139 -1.0991429 0.29937404 -0.16696264 -0.40871757 -0.1617621 0.14394398 -0.47421417 -0.33431134 0.35972005 -0.3473696 0.13331404 0.035144076 0.16912444 -0.26127753 0.16497166 0.1939864 0.33954194 -0.18641017 0.23938131 0.41596732 0.087793544 0.40245602 0.09164465 0.17902851 0.06285364 -0.6024772 0.38546956 -0.619293 -0.4071488 0.016255874 -0.3774718 0.4062562 -0.5687603 0.2711191 -0.37128028 -0.0054990323 -0.39388892 -0.15969606 0.20476954 0.17766082 0.17866421 0.17372356 0.5540538
4392 -0.16040209 -0.058444135 0.15373614 0.31073657 0.20742488 0.49177182 0.92232 -0.58576834 -0.13893922 -0.2376513 0.09093397 0.38675025 0.24363038 0.46307886 -0.012042856 -0.11773332 -0.08057943 -0.10582861 0.048516735 -0.29559502 -0.04163287 -0.70654243 0.747802 0.23340668 -0.22916561 -0.0024148833 -0.28922257 -0.2732172 -0.6970738 0.04898281 -0.44507945 -0.1234713 0.0062381714 -0.3053966 0.09938324 -0.011237295 0.4604242 0.41243854 -0.02070349 0.11181149 -0.50752527 0.011225373 -0.018522006 0.9173121 -0.26868364 0.45810592 0.47616035 0.3350356 0.12773879 -0.26402444 -0.3966979 -0.00047783108 -0.04781626 -0.31139627 0.2909358 0.37000373 0.3753044 -0.2849601 0.32160378 0.27048743 -0.24929187 0.14715199 0.37667307 0.26438546
7796 -0.54804754 0.16691488 0.0061188284 -0.07143033 -0.3064373 0.14912842 0.66493 -0.4141601 -0.15175007 0.20742136 0.33571643 -0.30865425 -0.00782818 -0.004387714 -0.57946783 -0.039954763 0.19356269 -0.31921783 -0.14307636 -0.27584293 0.07657262 -0.29274368 -0.07443258 0.0849188 -0.41853872 0.015636919 -0.15861206 -0.5360056 -0.52164453 -0.19066663 -0.055725083 -0.025931323 0.35770643 0.43879288 -0.10105824 0.84124684 -0.14863397 0.14635453 0.2221357 -0.25203204 -0.17130327 0.29881188 0.8819857 0.7562778 -0.30053064 -0.104300566 0.021247294 -0.090212606 -0.48143056 -0.06826796 0.15555108 -0.061688777 -0.1614249 -0.0030536335 0.09802574 0.0732501 0.3684111 0.31104776 0.26848587 0.15662806 -0.08841631 -0.1481273 0.24828207 0.5227966
