4185 64
2962 0.2547836 0.26804814 0.21861652 0.07718766 0.2894509 0.8795512 -0.25563595 -0.4041451 -0.61673814 -0.034960296 0.76911265 0.20390962 0.12040689 -0.19804364 0.50510657 -0.6024461 0.26113153 0.27946177 0.19766486 0.36458233 0.61666906 0.037046496 0.09158761 0.18811435 -0.1993661 0.5494735 -0.3556709 -0.028247824 0.19702736 -0.6892824 0.0026638273 0.18900152 0.43007532 -0.022844674 -0.6698637 0.033260804 -0.121997975 0.12633938 -0.24707517 -0.09885211 0.19238107 0.44717643 -0.016523087 0.025218723 0.13523419 -0.048890214 -0.5066111 0.03459136 0.12283723 0.45547274 0.1883409 -0.53290105 -0.2305101 -0.22330278 -0.16071787 -0.17755614 -0.49970958 -0.3530514 -0.24699962 -0.06790739 0.07384356 -0.3321981 -0.2218173 -0.23072627
2836 0.25164226 0.040831145 -0.20842007 -0.65590334 0.0032047222 0.48095754 -0.56183624 -0.19001386 0.15471128 -0.10549757 0.7779258 0.32449403 0.52246475 0.3699992 0.065336235 0.02343183 -0.07010182 0.41548505 -0.3021987 0.8374826 0.52793103 -0.13752651 -0.062515005 0.102443255 0.04770634 0.3577157 -0.22212818 0.57183355 0.60311675 -0.16042554 -0.37909737 0.52951497 -0.030715775 0.5822339 0.18136987 -0.10949088 -0.34928134 -0.337424 0.3570895 -0.051195405 0.38131857 0.57036096 -0.15255946 -0.3291212 0.47949493 -0.12843603 -0.36027732 -0.2127889 0.4321158 0.3101011 0.3674242 -0.49227494 -0.37610912 -0.1587829 -0.19130605 -0.35612664 -0.110475376 -0.21179408 0.18642154 -0.06760453 0.56926674 -0.21622993 0.064793 -0.47579134
3713 0.12821619 0.01661981 0.21657015 -0.12129053 -0.017441623 0.467408 -0.45844388 -0.09617142 -0.19743712 -0.21645397 0.678165 0.32866263 0.2970822 0.15012734 0.80400753 -0.33413133 -0.12351934 0.60901403 -0.53877544 -0.11720733 0.53473014 0.18746226 -0.24469134 0.41829082 -0.023185693 -0.101035565 0.059529267 0.13674526 0.3683508 -0.2973575 -0.033072002 -0.070649855 -0.28927365 0.2860815 -0.6053845 0.034082387 -0.54968536 -0.21340464 -0.029757975 -0.2926833 0.1656112 -0.23931748 0.051889844 -0.13153255 0.6708263 0.3059078 -0.40770417 0.32692155 -0.14603078 0.82815415 0.04501765 -0.48309854 -0.46622995 0.3952034 -0.122187346 -0.07093753 0.09473868 0.1383368 0.2688422 -0.16406684 0.24089603 -0.3513988 -0.0045988886 -0.43871677
2571 0.078955755 -0.27581114 0.0040728413 0.20417912 -0.17338443 1.0068084 0.1174719 0.25952074 -0.549719 -0.10736075 0.3495528 0.61360973 -0.06604807 -0.0023227076 0.435041 -0.42063364 0.12616825 0.16610439 0.3019099 0.07483454 0.5235831 -0.07510834 -0.014158321 0.16310607 -0.37447146 0.2938562 0.0077620447 0.46286473 0.028618846 -0.5882511 0.023240589 -0.15448745 0.09644345 0.50711435 -0.22818781 0.15732692 -0.13077633 -0.23156674 -0.50999516 0.22138919 -0.36338645 0.1693158 0.21649586 0.35904393 -0.09402683 0.025653876 -0.34914854 0.06801552 0.06205275 0.4676341 0.3523225 -0.37489018 -0.21617888 -0.16795889 -0.36061558 -0.5016791 -0.14266697 -0.05161174 -0.18693754 -0.42405155 0.373408 -0.31989145 -0.38680398 -0.49821055
9812 0.06585881 -0.34292588 0.067835495 0.05543864 0.10494795 1.1311661 -0.22487722 -0.31636515 -0.04513351 -0.15789506 0.86151904 0.3912759 0.15352091 0.0689127 0.5465279 -0.545805 0.24297641 -0.052259225 0.11904482 0.19524553 0.32509542 0.44499847 -0.4114659 0.014984566 -0.09141449 0.73721975 0.13957621 0.2819118 -0.11885386 -0.31153834 -0.2890021 0.36812603 0.2574478 0.13939033 -0.59577227 -0.10130476 -0.30224696 -0.26494288 -0.34329775 -0.21544234 -0.118402764 -0.06793961 0.52765083 0.5251181 0.015253188 0.4784642 -0.4847971 -0.1127792 0.16485162 0.3457875 0.46930918 -0.3576684 -0.16982825 -0.055850558 -0.24988207 -0.31221682 0.14489163 0.3246245 -0.2536669 -0.24422422 0.17470035 -0.3345334 -0.27279136 -0.35178092
5295 0.55199534 -0.22299862 -0.21619856 -0.09322346 -0.10071528 0.7071147 -0.46454832 0.08627833 -0.5029271 0.30342174 -0.07200354 0.35360914 -0.26084995 0.026586216 0.53500235 -0.094935745 -0.21513404 0.3869924 -0.32516122 0.36444035 -0.23303522 0.23880242 -0.6890977 0.3341014 0.35233814 0.12067093 0.089633696 0.17526299 0.18545009 -0.0946019 -0.46800643 0.017455515 0.18020895 0.404213 -0.6494014 0.51728445 -0.021072134 -0.33189958 -0.13518786 0.6081569 -0.23694164 0.62134796 -0.120354384 -0.25282863 -0.119310774 -0.3058973 0.3642617 0.17196234 -0.2168113 -0.22030091 -0.09613483 -0.3464898 0.48103788 -0.49380553 0.30825868 -0.78327024 -0.65054417 0.77724975 0.044928964 0.43441644 0.41232112 -0.263887 0.24942873 -0.19381344
3420 0.01144206 -0.19444159 0.3319684 0.18409455 -0.21882969 0.65301573 0.052659463 0.11201946 0.015104147 -0.065794185 0.6023549 0.18024337 0.13851726 0.11532333 0.13604356 -0.5186576 0.36514986 0.102977276 -0.01156273 0.15281205 0.475013 0.46592408 0.12341014 0.25913242 0.03567936 0.15503176 -0.23492403 0.5522985 0.22142561 -0.35732973 0.14157619 0.6743253 -0.22140115 0.12497243 -0.50864947 -0.21021417 -0.4012138 -0.14424141 -0.5745803 0.11431588 -0.51817495 0.09990311 0.6159229 0.21171582 -0.028366597 0.08720303 -0.08424939 -0.30804864 -0.004702934 0.19425336 -0.2548956 -0.30025694 -0.16561298 -0.086807005 -0.07091368 -0.71057796 0.20773023 0.24609697 -0.14278525 -0.010487303 0.18387589 -0.31183288 -0.7131128 -0.13801566
5721 0.3421111 -0.3657315 -0.368389 -0.12519534 0.40036982 0.37712905 0.04413812 0.079742536 -0.6428904 -0.14246204 0.5713678 -0.07240837 0.38342395 0.61449105 -0.110458955 -0.17853977 0.05060764 0.25695497 -0.032944944 -0.003769789 0.6395091 -0.20125881 -0.34873998 -0.061929252 0.4038269 0.15107232 -0.115601316 0.28898916 0.44491917 -0.08442469 -0.09125981 0.31967562 0.14769198 0.3063334 -0.060483124 -0.011106732 -0.057255268 0.07818984 0.12933154 -0.07271231 -0.02140763 0.95864534 -0.06842163 -0.37696704 0.52279294 -0.4407129 -0.3064076 0.07855078 0.37058064 0.31404063 0.067192286 -0.3534883 -0.17878503 -0.49478894 -0.14750025 -0.058161236 -0.08232113 -0.02419948 -0.2941675 0.40883556 0.37564442 -0.5841682 -0.07877831 -0.35230255
354 0.709005 0.066953905 -0.16768561 0.18432277 -0.60023504 0.97982854 -0.17236626 -0.36124915 -0.054406147 0.017772276 -0.4852551 0.45510444 0.0806958 -0.30318245 -0.5651909 0.2637995 -0.50087273 -0.04210953 -0.21245214 -0.31530902 -0.080693945 0.051782195 -0.025282437 -0.37766504 0.08476001 0.15185279 -0.1959465 0.43916932 0.5934587 -0.314943 0.34531835 -0.055689614 -0.18678167 -0.12629 -0.48370433 -0.035910305 0.036195617 0.12779212 0.39142436 0.107454516 -0.16904327 0.4221146 -0.31593823 0.22993018 -0.020078368 0.0017617473 0.48255178 -0.36200976 0.31429547 0.69072616 0.03974496 -0.81514066 -0.4302431 0.6182092 0.101185866 0.030258661 0.6709778 -0.6293158 -0.27531725 0.373955 0.44381765 -0.4305285 0.08077347 -0.76150715
2810 0.8663806 -0.15800168 0.2327405 0.4234706 -0.25291196 0.4033639 -0.37301502 -0.47681448 -0.86942625 -0.07191419 0.18283436 0.17598346 0.21714579 0.2512871 -0.010415072 -0.23395208 -0.017904831 0.67498505 -0.50375366 0.23738071 0.2433179 -0.23469833 0.27786082 -0.27060577 -0.30751675 -0.08563349 -0.007708922 0.21392286 -0.6032617 -0.24591483 -0.04255752 0.008197644 0.085447684 0.07890768 -0.63124037 -0.12853509 -0.4620528 -0.17380105 -0.20627064 -0.34488785 0.026219664 -0.24325778 0.16751707 0.0044901674 0.520653 0.04627455 -0.18856655 -0.029624432 -0.18044057 0.5376318 -0.087060705 -0.68842006 -0.12605633 0.68361217 -0.21153599 0.25450736 -0.015220447 -0.14198504 -0.4322138 0.39565378 -0.046282507 -0.4662856 -0.25260836 -0.36380762
1953 0.30250823 -0.730204 0.014395353 0.11961576 0.008831264 0.9244698 0.17244183 -0.3346892 -0.037417594 0.5550743 -0.07265369 0.09262054 -0.32522875 0.17870301 0.0060624974 -0.08399106 0.24098311 0.2491273 -0.30353993 0.09228433 0.551817 0.311966 0.1896644 -0.067166306 0.07698287 -0.09809392 -0.3771281 0.30519694 0.25912994 -0.6355871 0.31851584 0.23683728 0.4385426 0.4517035 -0.34193087 -0.19406612 -0.12797466 -0.3590936 -0.111573525 -0.5102532 -0.13647056 0.32788232 0.51403755 -0.54818785 -0.24931563 0.55037284 -0.2661095 -0.6879143 -0.5051882 0.3158478 -0.53972983 -0.35714763 -0.21132742 -0.1862498 0.735257 0.3887601 -0.14371201 -0.13261628 -0.28361198 -0.4679777 0.51204157 0.1448865 -0.012151832 -0.45412138
2743 0.50524306 -0.28447014 0.16329198 -0.29506513 0.20031989 0.61431247 0.085369915 -0.8968367 -0.5049289 -0.37361026 0.09804466 -0.12188396 0.31833264 0.68791246 0.017618341 0.045403685 -0.2708984 0.037812456 0.10067881 0.43436843 0.22382912 -0.13752182 -0.019565076 0.02035022 0.22778659 0.034046013 -0.21324523 0.48890817 0.28185064 0.19502632 0.04485763 0.5434522 0.16860962 0.38655344 0.0997695 0.117018886 0.16873698 0.40374458 0.07701318 0.14650393 -0.524104 -0.10780567 -0.22817357 0.41981632 0.39500797 -0.0044086864 -0.29598752 -0.012472354 0.66557413 0.4333898 -0.24820535 -0.80113363 -0.09217988 -0.2265813 0.35887372 -0.3053494 -0.55873984 0.29529083 -0.40919307 0.23538944 0.7548873 -0.48609823 -0.11358948 -0.04901041
3374 0.47732073 0.020579686 -0.16501038 -0.40008238 0.292761 0.18168151 -0.11754336 0.49722207 -1.204157 -0.13896035 0.59323996 -0.24754982 0.13946103 -0.14082871 0.15900551 -0.5186292 0.1407308 -0.12904948 0.06429774 -0.20127049 0.83034986 0.12082494 -0.28139442 -0.122672945 -0.12703367 -0.0583381 -0.11678652 0.43044204 0.51261705 -0.17132154 0.24328855 0.62879765 -0.24887551 0.23492894 -0.36783853 -0.032326903 -0.5213722 0.06260917 0.2610235 0.14276475 -0.35818025 0.63685405 -0.280529 -0.6740857 0.37509075 -0.45503002 -0.117081694 -0.4070538 0.3103151 0.18534903 0.44417658 -0.19447209 0.4357451 -0.1090298 0.04311759 -0.03505406 0.13579635 0.032847624 0.060414024 0.49108297 0.66580683 -0.35452595 0.43549082 0.08364443
880 0.5780037 -0.29526395 -0.28430223 -0.04391295 0.030291218 0.5438358 0.14702374 -0.71187454 -0.76240045 -0.41968724 0.40913758 -0.28555813 0.45451957 0.3312217 -0.20904385 -0.12506387 -0.2623151 0.24774389 -0.11186123 0.1410577 0.10338673 -0.12755376 0.15476929 0.19160068 0.4791397 -0.3376193 -0.2260683 0.7505534 0.46913627 -0.029978067 -0.072287835 0.26053578 0.053461354 -0.54973334 -0.26002917 -0.015307612 -0.3014169 -0.2149659 0.20637362 0.15854609 -0.11961554 0.60399806 -0.08508135 -0.45877808 0.5871985 -0.744165 -0.60337436 0.19916666 0.7730375 0.022533758 -0.043009702 0.021872856 -0.22259672 -0.003720754 0.22178106 -0.023221552 -0.3097564 -0.030919844 -0.08687636 0.7216571 0.27728295 -0.6234584 0.23832361 -0.20313565
442 0.18650128 0.09387311 -0.018463636 0.13619973 -0.41148758 0.36069688 -0.4651551 -0.01845107 -0.6862859 0.4653738 0.4371775 -0.07930066 0.38797498 -0.23354793 -0.23204373 -0.48235047 -0.046866197 0.3101677 -0.09434977 0.36863014 0.4559994 0.09327789 -0.7847812 0.76342607 0.10172384 0.013698073 0.48427063 0.26400673 0.5192884 -0.4870681 -0.28858054 0.1977664 0.060110483 0.20138386 -0.89395666 0.92166 0.5751834 0.06766218 -0.5048429 0.012796627 -0.25788614 0.2598744 -0.085102044 -0.37844485 -0.03543046 -0.4474399 0.2391781 0.12895647 0.07007809 0.21618453 0.043224763 -0.9843879 0.21829969 -0.09613381 0.43106198 -0.55196464 -0.38526788 -0.27156132 0.039469857 -0.24047562 -0.09111351 -0.31517777 0.13541116 -0.05682789
3668 0.34035277 -0.34436998 0.057194263 -0.08376325 -0.29725727 0.7271523 -0.1402394 0.605515 -0.30784932 -0.004419603 0.12065039 0.24577104 -0.054983217 -0.21175063 0.4054762 -0.7331022 -0.2557277 0.13863617 0.0047881287 -0.15133747 0.6166297 -0.40183172 -0.013369662 0.25954825 0.08430159 -0.34190214 -0.01139122 0.18044825 0.34537867 -0.4508225 0.23094383 0.092692554 -0.16860929 0.66718805 -0.3512279 -0.14019632 -0.33417892 0.29513913 -0.3016922 0.15621676 -0.45046124 -0.11346985 0.29776207 0.21213974 -0.24698077 -0.68634117 -0.529197 0.055232797 0.5709849 0.25427255 0.41962138 -0.45701325 0.23744148 0.033971738 -0.11358268 -0.23328573 -0.13855447 0.01800405 0.1616431 -0.1785847 0.40639302 -0.36206195 -0.6831595 -0.11162781
6433 0.33166406 -0.47562623 -0.17867807 0.10815579 0.009929915 0.91801035 0.12551661 -0.15971926 -0.2437859 -0.5468863 0.6118725 0.73207355 0.083593175 -0.0432992 0.4521611 -0.3008744 0.25970587 0.34329265 0.39715883 0.4790435 0.5476259 0.526823 -0.21232535 -0.044675708 -0.5583585 0.4060426 -0.30225375 0.24307162 -0.2039479 -0.6151961 -0.2908802 0.10486116 -0.023957897 0.30197877 -0.26005858 -0.09305008 -0.27458978 -0.45694622 -0.22993502 0.18566497 -0.4646594 -0.014404622 0.5096752 0.5204371 -0.15259649 0.22875316 -0.5096052 -0.1197976 -0.11956843 0.32240134 0.033976138 -0.31591785 -0.22313559 0.04859524 -0.35153222 -0.5337315 0.11184148 0.020645104 -0.067552626 -0.2578211 0.3667189 -0.19594805 -0.13986525 -0.724691
386 0.7654406 -0.5005479 -0.01665652 0.26816398 -0.45848608 1.1702752 0.0312219 -0.4194707 0.6518092 0.23871861 -0.36118555 0.2487579 -0.090364754 -0.5841427 -0.56827605 -0.036752928 -0.2101154 -0.020538619 -0.4116371 0.011052992 0.5036599 -0.51903725 0.34596166 -0.41418293 0.63633746 0.39498985 -0.52132374 0.49596405 0.5800193 -0.23360701 0.18476003 -0.56271994 -0.09747548 0.058868766 -0.87207747 0.093939014 0.009365363 0.33835477 0.31442553 0.3526 0.36960545 0.09661596 -0.52632326 -0.07071665 -0.11215183 0.054847352 0.24481343 -0.27535903 -0.46372685 0.6147741 0.00068504346 -0.5155604 -0.4306415 0.5279841 -0.07814491 -0.09441333 0.32193103 -0.12876111 -0.71880764 0.6840045 0.8322965 -0.17641422 0.07899408 -0.71663386
635 1.1314663 -0.24055222 0.50212914 -0.02518141 -0.22343518 0.3842549 -0.30286944 -0.47020766 -0.70452064 -0.11992289 0.24625827 0.23076923 0.210266 0.81715244 0.2917006 -0.07251805 -0.2120396 0.32755613 0.12160621 0.35759872 0.8834592 0.0078071244 -0.34760126 0.094082355 -0.10839516 -0.8346664 -0.13811204 0.106083356 -0.1376128 0.04656393 -0.17065634 -0.20967983 0.080977246 -0.3373634 -0.7318729 -0.36868608 -0.11553882 -0.42380428 -0.10658039 -0.5365456 -0.13212739 -0.26615596 0.120299004 -0.083935305 0.03925 -0.15559739 0.061752126 -0.09921785 0.11681912 0.107250705 0.006955812 -0.8857012 0.32726026 0.105423585 0.5996816 -0.21246995 -0.08218546 -0.27096605 -0.40449318 0.008617405 -0.44527116 -0.4965042 -0.02785245 -0.27649048
5028 0.8235716 -0.05232085 0.24176547 -0.21204542 -0.29734007 -0.0021388717 -0.59248334 -0.39035332 -0.9144034 -0.46741942 0.38110927 0.13939051 0.58692336 -0.0044740285 -0.035854474 -0.84847987 0.17468952 0.118140936 -0.04841862 -0.06297398 0.14475589 -0.03454387 -0.11853713 0.21314839 0.07339211 -0.4033819 -0.2574663 0.764424 0.333242 -0.52130467 0.14506294 0.49517736 0.3823409 -0.3166669 -0.21943375 -0.019850247 0.33803958 -0.2737154 0.49170545 0.26104194 -0.29824036 0.46829826 -0.101525284 0.13477011 0.28205344 -0.31814545 -0.5758867 0.3955828 0.66270775 0.24113429 0.16903366 0.2457118 -0.3242526 -0.21074738 -0.3235601 -0.1354044 -0.31807554 -0.09633051 0.01959584 0.65522933 1.4468952 0.014082517 0.27543586 0.08241077
5924 0.480967 -0.41591287 0.16605213 -0.0067410967 -0.11225428 0.43930954 -0.21118373 -0.35849625 -0.6666648 -0.23462622 0.33224925 0.14153248 0.12811399 0.25193065 0.39464235 -0.23567131 -0.18973327 0.32925808 0.5994445 -0.041140698 0.16272625 0.06318676 -0.013482122 0.029542983 0.07261807 0.06420063 -0.20838533 0.9250947 0.19163874 -0.3410463 0.4595045 0.48923212 -0.061190747 0.19216225 -0.32862645 0.13233846 -0.10108275 -0.24759537 0.24391054 0.2793306 -0.83289 0.2926448 0.043040283 0.38647315 -0.15464541 -0.025845869 -0.489888 0.26082355 0.24376078 0.32966277 -0.4264747 -0.17150867 -0.44409478 -0.23170476 -0.0017087572 -0.49454606 -0.5515732 0.05540453 -0.16222644 -0.16504987 0.7692979 -0.15563294 -0.18024918 -0.094298564
8881 0.3724318 -0.03295414 -0.30679688 -0.15998061 0.06365942 0.8155241 -0.035734873 -0.6448892 -0.6875323 -0.66454047 0.096003346 0.30046004 0.27275905 0.29977697 -0.49622664 0.24813408 -0.44787535 0.38988197 0.21489842 -0.1606371 0.059191465 -0.021597067 0.23299743 -0.12247592 0.06701978 -0.09523292 -0.035215102 0.61904633 0.59349674 0.12150315 0.1665853 0.25323087 -0.27410853 0.24750228 -0.33076605 0.19277121 0.13796501 -0.0055294763 0.16611648 -0.21824446 -0.14883505 0.55707544 0.014820201 -0.13404672 0.31275237 -0.31608564 -0.22405209 0.10279417 0.46085575 0.13892828 -0.06849099 -0.63083756 -0.11980605 0.12515844 0.26303065 -0.20626548 -0.25633737 0.12313473 -0.016321689 0.011336688 0.20959097 -0.62648714 0.068085454 -0.12096134
5470 0.09878079 -0.13498014 0.103422865 0.04263888 -0.290445 0.8961146 0.022285605 0.056775812 0.21261992 -0.25694764 0.0025675877 0.26363713 0.52719367 0.28686056 0.5470654 -0.6160663 0.7487737 -0.24478823 0.14019808 0.44239148 0.059088964 0.9900547 0.12151274 0.042433675 -0.11361251 0.3827753 -0.04048392 0.30553302 0.7634217 -0.68410647 -0.076285705 0.37517622 0.0979352 -0.021858983 -0.87750286 0.08824288 -0.3054134 -0.051939007 -0.46489042 -0.28835353 -0.5510419 0.21889964 0.6054952 -0.18723871 0.099740274 -0.29714346 0.67058235 -0.3574085 0.014359728 0.031840652 0.27314907 -0.30649877 -0.43851924 -0.36466724 -0.059412308 -0.070611246 0.35599872 0.30925924 -0.14344445 -0.15334225 0.6231808 -0.011743721 -0.12606427 -0.089403965
7207 0.63340366 -0.5671343 -0.64220756 -0.10549276 -0.8663126 0.68352705 0.04955437 -0.46874252 -0.62852913 0.36925256 -0.10135795 0.63927 -0.5110529 -0.20422141 -0.051408213 -0.22142191 0.24918827 -0.034951277 0.0224066 -0.23126458 0.0050013317 0.362273 -0.42007536 0.002116884 0.6260877 -0.035789073 0.08561591 0.23487376 0.3593902 0.25043792 0.31869355 0.5584478 0.25156236 -0.055648774 -0.66958755 0.2448161 -0.28354126 0.6503452 0.15394928 -0.17774774 -0.33194792 0.84121203 -0.24913624 0.10820576 -0.0755778 0.26415572 0.3850762 -0.16218208 0.26673532 0.07431316 -0.40539676 -0.79198325 0.54285043 0.23381378 -0.3625426 -0.7521806 -0.92530435 1.3388345 -0.050950337 -0.18984458 0.41882303 -0.24564712 0.35248622 -0.15560159
6794 0.019371241 -0.36951542 -0.34609705 -1.0993489 0.20160653 0.4421446 -0.19814533 -1.3663003 -1.0455768 0.0100702755 0.6886275 -0.51249576 0.1425793 -0.14546217 -0.086893514 -0.20190293 -0.16715659 0.20346083 -0.5416143 -0.12995012 0.53086877 -0.060858365 -0.5533635 -0.36976543 0.28477654 -0.10530147 -0.90286285 0.16319244 0.10152084 -0.1845 -0.7377887 0.9246226 0.6344499 0.3941577 -0.51117307 -0.21481764 0.15588798 0.37013218 -0.0028342588 -0.0834522 0.28577283 -0.1441327 -0.4471965 -0.6501122 0.20867747 -0.7166437 0.064657606 0.17769864 0.06925267 0.0002179901 0.24641849 0.019263558 -0.62740546 -0.032302216 -0.15044323 0.19453442 -0.063049786 0.5754439 0.1547435 0.06078947 0.31313178 -0.38239476 -0.056893874 -0.9890044
3966 0.4601796 -0.2663318 -0.23033108 0.026823051 0.10291632 0.4649397 -0.40902963 0.27971584 -0.5621932 -0.04944478 0.1860399 -0.45416176 -0.023321392 0.050202545 -0.14774658 -0.3390791 -0.19111656 0.26652566 -0.31227162 0.33991313 0.21802408 0.25386682 -0.3692693 0.3727739 -0.06622553 0.14264403 0.23406036 0.3365856 0.7289873 -0.10280589 -0.55528367 0.103144385 -0.29323688 0.4973339 -0.7360171 0.34423232 0.3529756 -0.04581048 -0.06678621 0.39594245 -0.23793052 0.38125205 -0.2932381 -0.3422908 0.49274355 -0.36471647 -0.030104568 -0.064457364 0.13973027 0.24774733 0.5233647 -0.9045884 0.45248464 -0.2821683 0.512228 -0.22953328 -0.089810625 0.4008686 0.38095912 0.42974928 0.2993736 -0.40954354 0.34450847 0.091024876
4165 0.19560136 -0.6910879 -0.17261325 0.5345036 -0.18856066 0.51285 -0.6904133 -0.3111897 0.5625398 0.23158987 -0.87120885 0.20116743 -0.5779396 0.5485324 0.5205909 -0.3814084 -0.1960295 -0.23172367 -0.12262883 0.3966265 0.51441705 0.6903255 0.24823312 -0.25575256 0.117693126 -0.3975853 -0.379154 0.016996918 0.020734588 -1.1032045 0.569543 0.36269298 0.718755 0.15982075 -0.8360382 0.088631675 -0.18355638 -0.28879237 -0.010587942 -0.41698703 0.0063208807 0.16055126 0.5429809 -0.30756623 -0.18823396 0.23002608 -0.17449944 -0.6866925 0.18937206 0.11234966 -0.22181217 -0.31610033 -0.16907279 0.17264727 0.32987663 0.010570693 -0.03621418 0.06990931 0.13193466 0.40660504 0.93944776 -0.0025848013 -0.32962558 -0.1455835
4618 0.18352255 -0.22490835 0.24790516 0.0039125504 -0.8523442 0.63534266 0.0630706 0.3068368 0.0883514 0.39865258 0.2274979 0.18210866 -0.04573024 -0.73679006 0.41490054 -0.50128573 -0.5406462 -0.18242039 -0.3283135 0.07373161 0.075789675 -0.23429085 -0.16688608 0.6040341 -0.14651124 -0.68131703 -0.650162 0.01827171 0.30690655 -0.5581588 0.78044266 0.37688535 0.08532876 0.58464944 -0.50104344 0.1712243 -0.45117396 -0.32361647 -0.36359528 -0.39450696 -0.47426268 -0.32402116 1.0713086 -0.34177238 -0.30545685 -0.8546125 -0.2764692 -0.2371913 0.5825546 -0.010967028 0.017476369 -0.66237414 0.409479 -0.486466 -0.32476312 -0.28662956 -0.16835721 -0.3365287 -0.048421986 0.44217575 0.35499427 -0.17068018 -0.74424577 0.4151991
7008 0.39255324 -0.42954442 0.0944003 0.00876795 -0.18497944 0.9893898 0.11971865 0.6894465 -0.603679 0.13417505 0.19172001 0.29742265 0.017398387 0.26686957 0.38603184 -0.6906027 0.020390438 -0.08485546 0.27727532 -0.41915986 0.72190565 -0.42604113 0.008121466 0.18399344 -0.19969063 -0.18616652 0.09448502 0.3009343 0.38760722 -0.54759854 0.17549838 -0.4386107 0.35725072 0.5301146 0.027408918 0.3291742 -0.19114012 -0.070776716 0.033579182 -0.000928593 -0.21659996 0.10767105 0.35745996 0.42058307 -0.10860204 -0.14277337 -0.41028798 0.30581126 0.63006616 0.4016195 0.56981486 -0.19435261 -0.1783347 -0.05669182 -0.22694746 -0.74574375 0.34872434 0.028736997 -0.11178297 -0.71218824 0.442872 -0.87261456 -0.35418308 -0.45649248
4533 0.4457337 -0.52946806 -0.2058855 0.44768497 -0.3506236 0.42929146 -0.12590154 0.3155713 -0.6431187 -0.06602922 0.21959305 0.17885745 0.046568483 0.2572268 -0.08719604 -0.7823778 0.059809983 0.2545138 0.36012667 -0.26058656 0.3872889 -0.4827084 0.15799275 0.15532641 0.050311986 0.11852495 0.17622553 0.77190924 0.5615359 -0.30714062 0.58351797 0.015961137 0.09267532 0.4587681 -0.3063575 0.41023943 -0.13337857 0.21238562 -0.032114398 -0.06536353 -0.5463124 0.5106843 0.062029686 0.31526938 -0.21639466 -0.4499921 -0.3605446 0.56860155 0.5916801 0.277272 0.07956318 -0.26847196 -0.11282326 -0.1779983 -0.08927946 -0.5279694 -0.21192668 0.39568567 0.014329933 -0.61498004 0.47825277 -0.36046022 -0.30316377 -0.4137788
3137 0.2853789 -0.6883108 -0.11503082 0.2584525 -0.25459224 1.0270506 -0.19376767 0.80558497 -0.13507064 0.32291394 -0.16158222 0.31816763 0.33217824 0.34916398 0.13339102 -0.8310634 -0.037554093 0.101275854 0.36799625 -0.11570197 0.7884231 -0.36874527 0.0026106425 0.124870345 -0.11661105 -0.28444517 -0.017753722 0.06882914 0.34582987 -0.29848626 0.09595734 -0.18652955 0.24207127 0.5850432 -0.10039663 0.4138435 -0.307972 0.20603412 0.031530086 0.10877694 -0.5653112 0.15296566 0.11731305 0.45877835 0.047341723 -0.3104207 -0.56718695 0.30388314 0.92467123 0.10779607 0.22286785 -0.2944787 -0.34475183 -0.045155186 -0.28472552 -0.32369858 0.30092075 0.15067637 0.2564654 -0.676821 0.5659234 -0.3909645 -0.3165214 -0.5137859
6735 0.5408609 -0.064659484 -0.24258246 0.07626961 0.101581946 0.38018876 0.06448455 -0.3644485 -0.8148478 -0.21166639 0.05914237 0.16453703 0.016113028 0.55890524 -0.81755626 -0.03577981 -0.08495368 0.51303864 0.032709375 -0.039587237 0.52872664 -0.2996416 0.1699012 0.05320203 -0.15428068 0.17161684 0.43362567 0.36824858 0.56993103 0.18895076 0.32744947 0.35159925 -0.1269318 0.117217116 -0.20956324 0.38155717 0.16023281 0.18797994 -0.30685773 -0.18501988 -0.4241538 0.4366452 -0.031570956 -0.10903195 0.33595973 -0.3876443 -0.54072005 0.11646216 0.45887434 0.40803203 -0.33139598 -0.8701492 -0.12414362 -0.08121227 0.13589366 -0.32574973 -0.5739835 0.1355241 -0.2160357 -0.13353494 0.308474 -0.2625634 0.033797793 -0.17542271
3718 0.4307134 -0.2357112 -0.31728515 -0.14471018 -0.96619546 1.0047277 0.097851165 0.3960012 -0.028112309 0.505388 0.40006557 0.2260774 -0.09629682 -0.6078773 0.33879325 -0.83922976 -0.2712443 0.45277026 -0.106714815 0.49416295 0.15608162 -0.15104519 -0.22192182 0.38594547 0.12259044 -0.774607 -0.40836298 -0.06579843 0.5966122 -0.1901064 0.06548188 0.5077863 -0.040165618 0.3523764 -0.4886397 0.42499173 0.003028134 -0.07798013 -0.4464301 -0.3934199 -1.1018332 -0.61644673 0.8097707 -0.37799588 -0.1588863 -0.2840389 -0.3571039 -0.41251773 0.57130367 0.031189753 0.2324452 -0.13965105 0.52954096 0.27352053 -0.19356433 -0.21104717 0.35434127 -0.37099332 -0.11181819 -0.14985964 0.6032304 -0.20925805 -0.98045015 0.30249226
529 0.4880411 0.62352395 -0.43669933 0.5401663 -0.32385615 0.720671 0.060548756 -0.37499171 -0.7320041 -0.07517395 0.39980906 -0.55288994 0.07403 0.29925337 -0.10680554 -0.0018682318 -0.5441432 0.103286654 0.42522222 0.28573242 0.018549329 -1.1885031 -0.5253894 -0.2531799 0.89191365 -0.77733713 -0.36402032 0.030890191 0.7261737 0.038628466 0.34087065 -0.35883164 0.47145694 0.6204038 0.24328353 -0.03862068 -0.4322962 -0.073398605 -0.10487938 -0.3873792 -0.15983288 0.62616783 0.56530523 -0.08230529 -0.07541949 -0.107915014 0.0528077 0.35496 0.13194801 1.0624568 -0.13713957 -0.35282198 -1.1333437 -1.0385134 0.5267421 -0.093273446 0.24487904 0.39205977 -0.30831194 -0.12529573 0.48650986 -0.25638366 0.33678144 -0.4940014
8880 0.1956041 0.12616058 -0.16291618 -0.063776635 0.2276998 1.1060085 0.05287501 -0.26316217 -1.115614 -0.51893085 -0.31120148 0.4759924 -0.13912325 0.08642429 -0.32332343 0.5992576 -0.3382353 0.35751018 0.07586029 -0.32936043 -0.05374907 0.21128793 0.1531552 -0.07714011 0.05444351 0.09107803 -0.06951076 0.6214799 0.45793825 -0.22438566 0.40785277 0.20422825 0.15263745 -0.0073546767 -0.42969278 0.08784233 0.0006608028 0.07147065 0.2871886 -0.16998717 -0.33610803 0.26203525 -0.15664275 -0.22153457 0.5659923 0.0128087355 -0.21960002 0.12595536 0.2982735 -0.12893352 -0.28467575 -0.37291768 -0.54655266 0.22749881 0.14276978 -0.00031899882 0.542675 -0.009368838 0.22287647 0.1966914 0.40568382 -0.5744176 0.10589688 0.24774721
8771 0.54292345 -0.13524587 0.033328816 -0.53140324 0.32728654 0.28462142 -0.015782438 0.6959463 -0.49918666 -0.361654 0.6212062 -0.19001198 -0.20744638 0.1527596 -0.016270403 -0.35492188 0.008535348 -0.08156674 -0.004033802 -0.20063625 0.9003417 -0.14910544 -0.3817603 0.1797878 0.32918337 -0.03872784 -0.022356134 -0.026292605 0.32127538 -0.41153705 -0.340102 0.31552032 0.20141722 0.5752109 -0.5340285 -0.15735196 -0.29687688 0.4442898 0.3198357 0.07014152 -0.39894348 0.565111 -0.14489816 -0.25331384 0.16041312 -0.12603244 -0.25005645 -0.11025545 0.19294804 0.27830338 0.35098976 -1.0117475 0.10057989 -0.4462255 0.21047243 0.08063459 -0.09818168 -0.095568776 0.46278194 0.56185204 0.3840065 -0.216379 0.2562951 -0.163553
833 0.73556715 -0.5646029 -0.14051475 0.34060827 -0.27169067 0.9053655 -0.15812682 -0.44179553 0.67624146 0.14584519 -0.686076 0.3624546 -0.034124803 0.048085622 -0.12491928 0.17858262 -0.33237213 -0.396223 -0.25070268 -0.03480685 0.4628159 0.18736267 0.29215693 -0.41548112 -0.044399355 -0.18709494 -0.21771005 0.27628618 0.243569 -0.49748695 0.35160324 -0.048381116 0.18447243 0.25928026 -0.6305971 -0.006967075 -0.20315523 0.037215307 0.04448943 -0.27793044 -0.010234218 0.3128946 0.038829975 -0.4231212 -0.112969205 -0.13829269 0.13665321 -0.4262199 -0.6960352 0.42230648 -0.16568592 -0.67013013 -0.19713637 0.40144208 0.15056282 0.069845885 0.092694 -0.26117012 -0.1909317 0.3220059 0.7960021 0.060329907 -0.062727526 -1.0127769
1945 0.29935062 -0.20208368 -0.22807936 -0.25500447 0.03446595 0.46159917 0.010843 -0.17537576 -0.82797515 -0.39599392 0.3692609 -0.35700083 0.21651652 0.4763529 -0.3473234 0.085380666 -0.3086671 0.026282728 0.04217763 -0.030992838 0.20742829 0.23335716 0.013952815 0.08186929 0.1594506 -0.028926134 -0.090840414 0.70613587 0.6278394 0.14589907 0.0057904175 0.18840323 -0.30943412 -0.0028769765 -0.55042046 0.16538875 0.035588376 0.03617515 0.46498007 0.115584016 -0.2418041 0.35276213 -0.15599753 -0.102701835 0.45576966 -0.23614532 -0.25300235 0.11664053 0.33510682 0.15002933 0.0060668336 -0.7741265 0.09817572 0.07089418 0.31365308 -0.15491357 -0.527714 0.3412785 0.06535796 0.30280003 0.57997286 -0.5665476 0.13477492 0.057632305
2414 0.5162773 -0.20747657 -0.27076352 -0.33020982 -0.20947482 0.057370253 0.104615845 -0.41784602 -0.25705963 -0.4851077 0.67535967 0.413568 0.018335061 0.06189222 0.041576773 -0.24464412 -0.041679237 -0.1061575 -0.53983134 -0.113813184 0.71864593 -0.15522216 -0.40990287 0.3459203 -0.6730546 0.06246072 -0.578299 0.32697862 0.34135628 0.04350056 -0.14183572 -0.2108551 -0.12835291 -0.22758012 -1.0871785 0.7185457 -0.7860078 -0.8948796 0.08692798 -0.28361958 0.16283117 -0.37585834 -0.38256916 -0.19588354 0.31242812 0.11966482 -0.6875789 0.008582093 -0.1831125 -0.11125121 0.7668206 -1.1099961 -0.77546656 0.3085423 -0.5235645 -0.044333965 0.110602714 0.9219325 -0.08090772 -0.4102222 -0.13940452 0.57900333 -0.6745875 -0.32546568
2567 0.2824893 -0.26119778 0.5535956 0.60749716 -0.5436601 0.93823385 -0.7416432 -0.46235788 -0.30812556 0.34049082 -0.67389566 -0.080067955 0.64234275 0.009536684 -0.8361494 0.23608848 0.81338817 0.38721263 0.45318863 -0.3787967 0.80677795 0.1979027 -0.17595442 0.24789596 -0.6847495 0.30807886 -0.7181129 0.4706229 -0.7066427 -0.27380678 -0.21471123 0.26833823 0.7028812 0.1828115 -0.2206002 0.027523719 -0.7951735 -0.2676425 -0.21731973 0.107187495 -0.22936204 -0.06490853 0.7838168 -0.51687914 0.20469326 0.27607733 -0.22256626 -0.040057417 -1.2015669 0.04956998 -0.13201898 -0.9723152 0.35770467 0.26277232 -0.32149184 -0.09408425 -0.065964594 0.00022522648 0.023664458 -0.090140596 0.62095946 -0.48994732 0.22728787 -0.74087274
1596 0.27745694 -0.036078453 -0.2275728 -0.24590297 0.35693994 0.34196705 0.114320524 -0.63826615 -0.59410155 -0.20625453 0.75641716 -0.57013214 0.13997708 0.4911106 -0.095325865 0.25599337 -0.50132453 0.106766365 0.10633727 0.4365715 0.14455111 -0.52938646 -0.17081751 -0.057249136 0.36403537 0.11093387 0.15756646 0.32985356 0.56135345 0.010901719 -0.086179875 0.49785477 -0.041764624 -0.24440055 -0.37996346 -0.14485137 0.22759308 -0.499511 -0.04376791 -0.1518482 -0.15707879 0.4638059 0.2441312 0.024674127 0.76939905 -0.28175974 -0.13979201 -0.095315546 0.07972386 -0.023641763 0.13683616 -0.48920134 -0.028072458 -0.17467853 0.17687479 -0.49065834 -0.5021976 -0.12485015 -0.20515461 0.15236542 0.6849981 -0.45300356 0.26906765 -0.351226
481 -0.04998852 -0.99121904 0.022979816 0.3291883 -0.12985137 0.30913383 0.042696856 -0.5709748 0.18523765 0.24915454 -0.49185404 0.33149916 -0.30457148 0.55416113 0.12377335 -0.32051694 -0.209629 -0.2924159 -0.23695892 0.2840229 0.69820017 0.5683021 0.3240633 -0.48650527 0.33674812 -0.3992734 0.08913512 0.24707961 0.14357553 -0.6486644 0.6009929 0.407729 1.0119971 0.6217433 -0.7401389 -0.14155103 -0.086076684 -0.43065384 0.1788372 -0.86495 0.113671914 0.30024913 0.40561563 -0.46157002 -0.12477542 -0.21615696 -0.23910348 -0.5257205 -0.64400864 0.43800357 0.13998295 -0.33526447 -0.40934277 0.5425811 0.79489833 -0.11730423 0.19889832 -0.24317922 0.31823316 0.44969735 0.5225351 0.12840334 -0.3029767 -0.5478565
665 0.30343845 -0.7202357 -0.21745439 0.13391152 -0.5805854 0.9759498 -0.104348704 0.7207293 -0.5473146 0.060212024 0.19535562 0.13287047 -2.4826699e-05 -0.092180945 0.3366449 -0.8474896 0.18348873 -0.07651279 0.2010747 -0.13989846 0.827212 -0.6349647 0.041404095 0.19535464 -0.215097 -0.07405346 0.12608239 0.23568563 0.5793806 -0.41642433 0.37008512 -0.16983071 0.14057796 0.667008 0.05678786 0.23801695 -0.16666974 0.1646195 -0.54823697 0.052648854 -0.7151615 -6.727882e-05 0.20295316 0.17139538 0.044341348 -0.35579908 -0.37965354 0.032404594 0.6600468 0.48070267 0.40350124 -0.09966563 0.17340273 0.1651463 -0.097376145 -0.48493686 0.58647466 -0.0033755822 0.21796598 -0.6957961 0.48643503 -0.67072326 -0.69996524 -0.29679385
2773 0.06985095 -0.008924014 -0.44527757 0.119454116 0.35800725 0.87760425 -0.30358675 -0.62192833 -0.52427393 0.56134635 0.31935894 0.7155683 -0.26317018 0.36398944 -0.43204367 -0.09386267 -0.10332025 0.28582925 -0.015189032 0.26600665 0.43456757 0.16403508 0.2038021 0.7849539 -0.18486716 0.17634769 0.5208313 0.5141644 0.48135102 -0.057161473 0.113712296 0.13597636 0.52088684 -0.11677055 0.47784147 -0.41773954 -0.66125065 -0.1326353 0.020397048 -0.35251907 -0.37745833 -0.24684647 0.20431544 -0.49039412 0.33587518 0.19524053 -0.07201684 0.18190426 -0.29850206 0.5333745 -0.15075089 -0.8312541 0.38552225 0.058143675 -0.19168945 -0.28648147 -0.38740236 -0.23593302 -0.23926926 -0.13858134 0.5496028 0.38845068 0.03471867 -0.4663366
2577 0.66660887 0.048604965 -0.30465555 0.21512635 0.13081795 0.48492342 -0.17666413 -0.6324242 -0.6853422 -0.14334667 0.74202204 0.06489932 0.19405629 0.3611032 -0.021839714 -0.4618767 -0.027430207 0.47922185 -0.068401985 0.5151739 0.6514794 0.2715538 -0.20857398 0.33553275 0.22329251 -0.09073566 -0.28181362 0.21588114 0.2452025 -0.4068882 -0.35285875 -0.059601437 0.35690072 -0.14169075 -0.3830536 0.107071385 0.13792923 -0.08962693 -0.171422 -0.42192742 -0.0990281 0.30137515 -0.4605053 -0.5408276 0.004881898 -0.58362955 -0.71099365 0.24540515 0.10743979 0.63419276 0.13101201 -0.5024029 0.27738658 -0.16251574 0.26826808 -0.40881363 -0.49472696 -0.45314777 -0.41935495 0.074866965 -0.13689078 -0.9406036 0.31929272 -0.10142485
6879 -0.07527724 -0.6703241 0.10041 0.43679586 -0.44216755 0.7515361 0.0050799022 -0.16001189 0.16529533 0.0144194355 -0.17372753 0.111249596 0.1445955 0.3357815 0.08024597 -0.3232029 0.054914434 -0.29906556 0.031746496 0.29346535 0.32311958 0.50041413 0.38668147 -0.027877856 -0.03519012 -0.5527411 -0.35178515 0.20468183 0.2780141 -0.64290154 0.2542877 0.27912045 0.6313218 0.6111802 -0.85278636 0.012137709 -0.28775206 -0.2236434 0.018900618 -0.67357254 -0.18289816 0.47860017 0.6983204 -0.7393124 -0.4835632 -0.4621795 0.10550234 -0.46301237 -0.7613335 -0.14894517 -0.038215008 -0.19061805 -0.41253045 0.5239027 0.55393445 -0.16783188 0.052696884 -0.27501848 -0.056977108 0.24352662 0.5999458 0.10161294 -0.42775297 -0.28980455
2711 0.39296457 -0.40870976 -0.11116829 0.2043441 -0.19280572 0.9925904 -0.13352336 0.55437094 -0.45985803 0.09015406 0.34665033 0.35154375 -0.022861598 0.14869861 0.2373959 -0.90011907 -0.15011494 -0.15531819 0.2383918 -0.1397406 0.6633896 -0.22897798 0.10182972 0.07466868 -0.20601852 -0.27553552 0.08117568 0.31681412 0.47260743 -0.5189354 0.13979569 -0.49331054 0.25194663 0.4948896 -0.10404422 0.36651027 -0.19325745 0.29750338 -0.18728612 0.04377486 -0.29758924 0.121327996 0.27584723 0.34911337 -0.16445237 -0.3313016 -0.6810231 0.2389448 0.692729 0.35638812 0.36159766 -0.19961525 0.07950207 0.015001603 -0.2628242 -0.6063537 0.24616207 0.24575065 -0.048834693 -0.6775358 0.45439127 -0.9840233 -0.43561506 -0.6433956
5542 0.55976355 0.0757575 0.08967389 -0.30862522 0.124543056 0.49619654 0.007092945 -0.10596456 -0.80641794 -0.44582146 0.4190181 -0.15888025 0.08063659 0.41339234 -0.53568596 0.19596785 -0.14657675 0.080886565 0.25782478 -0.18042713 0.10196188 -0.0013142718 0.14347187 0.24778076 -0.040146902 0.08796574 -0.029803338 0.5288584 0.6333331 -0.13515022 0.2965087 0.59191126 0.10322094 0.23449011 -0.61768407 0.13426544 0.09401305 0.30510423 0.15133302 0.04472703 -0.5476195 0.45064676 -0.118736535 0.18303841 0.3326262 0.07169602 -0.70816576 0.14691287 0.50974476 0.3020886 -0.30968475 -0.60935676 -0.48208556 -0.21787477 0.16545956 -0.062375925 -0.49263892 0.060656 -0.16775455 0.45571354 0.902258 -0.28291038 0.21624298 -0.03844249
4110 -0.077289365 -0.29704237 0.42232674 0.52587247 -0.7897191 0.98521674 -0.59021014 -0.21307503 -0.08988988 0.40984297 -0.44822264 -0.17199674 0.933087 0.12383101 -0.88737786 -0.05908518 0.841012 -0.7770954 0.29194662 -0.53649795 1.2030505 0.41634738 -0.21518594 0.6298506 -0.12086761 -0.15318474 -0.5919772 0.33845282 0.045558866 -0.21460809 0.34460667 0.5331104 0.5923237 -0.32620844 -0.027442232 -0.12256781 -0.85810477 -0.0078047854 0.13176309 0.35712323 -0.21747464 -0.18411854 0.46309108 -0.9635408 -0.35191792 -0.068432495 -0.5772001 0.079246 -1.0813712 -0.374969 -0.37592813 -1.5129862 0.16007994 0.4709402 -0.4414529 -0.59110934 0.031882245 0.008462741 -0.3629436 0.039473083 0.804675 -0.1176483 -0.17677887 -0.698085
3237 0.5078146 0.3505235 -0.14835875 0.117457144 0.26676312 0.15759598 0.6397754 -0.333703 -0.5874732 -0.32701278 -0.40982383 0.4272293 0.08629737 -0.31736678 0.3562596 0.07015548 0.26851708 1.2482959 -0.15136461 0.24712878 1.0072155 -0.54431146 -0.76658946 0.016151661 -0.55552214 0.4333222 0.14801052 0.24363601 0.29151493 -0.17890567 0.08112972 0.36042494 0.1457206 0.67983794 -0.31129265 -0.47280446 -0.09850251 -0.09631377 0.9639196 -0.5186166 0.17542094 -0.29163337 1.2220752 0.49469167 -0.29374775 -0.54617417 0.31025362 -0.45816043 0.44118205 0.37681442 0.16543975 -0.63289094 -0.5137387 0.2080172 -0.52943015 -0.79981333 0.38765928 -0.5707385 -0.8388219 -0.10561059 -0.04126859 -0.3132194 0.21795447 -0.5978226
8074 0.27539617 -0.8008303 -0.05313061 0.31577122 -0.23632348 1.0416641 -0.15676582 0.698867 -0.39665726 0.13302559 0.35550556 0.12342074 0.11216242 0.17143731 0.059453055 -0.81889194 0.091642715 0.10657311 0.21732765 -0.24383202 0.6648913 -0.22801976 -0.09891908 0.01856394 -0.23158135 -0.070346445 0.09025137 0.40330103 0.62242657 -0.43927175 0.07024413 0.044736173 0.22441384 0.5028343 -0.10071601 0.33130637 -0.21219125 -0.015943306 -0.39945936 0.21422574 -0.5341717 -0.030335197 0.34156057 0.39501458 -0.038979612 -0.33246928 -0.30581793 0.24860047 0.46111065 0.32921085 0.2598939 -0.15799126 -0.010043886 0.14751145 -0.40879783 -0.41353488 0.28588435 0.10296168 0.058993682 -0.5806142 0.62443227 -0.5634511 -0.6737896 -0.5481422
5425 0.15357237 0.24468365 -0.28277868 -0.39826497 0.1431889 0.6191007 -0.3616947 -0.29055813 -0.30339405 0.15872617 0.16627018 0.766348 -0.5315011 0.32406595 -0.23114006 -0.67402047 -0.45192292 0.4791924 -0.54075474 0.3404816 0.47937834 0.026467042 0.018011525 0.397817 -0.21265215 -0.07511507 0.2316332 0.36678836 0.089793794 -0.07964194 0.3169572 -0.079384364 0.49992093 -0.68484104 0.43499768 -0.1311638 -0.47539854 -0.31032345 -0.25985834 -0.32002404 -0.08485997 -0.58686537 0.15738845 -0.4319388 0.56635475 0.1491323 -0.15518522 0.5267798 0.117229685 0.17928158 0.4173424 -1.0300562 -0.3774967 -0.08777067 -0.2865383 -0.40741175 -0.10085563 0.3376577 0.36666209 -0.51523596 0.15118317 0.11115488 0.49392146 -0.72048515
1282 -0.81245154 -1.2954749 0.050516546 0.3962334 -1.3075857 1.2845716 0.07926926 1.2820255 -0.5112716 0.28707582 0.42995924 0.6692328 0.561359 0.9125457 0.05348839 0.82733357 0.0030501361 -0.6497124 -0.32810426 -0.0462236 -0.25043783 -1.2518368 -0.9673179 -0.84465194 -1.298082 0.2142243 -0.9596097 -0.43380168 0.044779547 0.15607393 0.19628468 0.17426993 1.345503 -0.49819726 -0.785694 -1.0185547 0.33430997 -0.28001857 1.0051644 0.12762839 -0.65472907 0.2900107 0.0036566064 -1.8578984 0.80069107 -0.002360211 0.26588678 -0.5601214 0.37229413 1.3408267 -0.3722081 -0.1881056 1.5614232 0.29181707 -0.23412107 -0.5178225 0.6617566 1.5190299 -0.40614733 0.3576677 0.8341788 -0.06918267 -0.08627594 -0.86445826
1144 0.7630952 -0.37377852 -0.22672144 -0.02004297 0.080283076 0.6881833 -0.08478784 -0.3130291 -0.8262419 -0.60033184 0.01318249 0.10789931 0.3956834 0.021991562 -0.25465173 -0.24454384 -0.5070633 0.60090786 0.23568396 -0.108211525 0.101010256 -0.12214045 0.29557467 -0.233981 0.002583941 -0.05296697 -0.16868563 0.88979053 0.106078476 -0.17058258 0.1465446 -0.021821922 -0.34141016 -0.18095535 -0.7932993 0.5170434 -0.5079162 -0.14022714 0.63491565 -0.059254516 -0.033811703 0.18051057 0.046092834 -0.37495854 0.55047596 -0.27248785 -0.58651656 0.07262056 0.698064 -0.23982315 -0.44393176 -0.5390365 -0.21527976 0.9019174 0.18930858 0.29715666 -0.19658855 0.25559056 -0.2265787 0.082594626 0.42858225 -0.43869802 -0.08417902 0.100258976
3080 0.47194573 -0.5578986 0.6102195 0.0009916674 -0.1919184 0.8995073 -0.14788656 -0.1191346 0.05471175 0.07170373 -0.29931137 0.12676263 -0.064088754 0.37440532 0.026042288 -1.2480311 0.42298046 -0.25856698 0.47729722 0.44969374 -0.6655103 0.6750219 -0.55779105 0.24200988 -0.034731675 0.15356392 -0.23589535 0.05191943 0.5598383 -0.4089516 0.89133906 0.33490643 0.48332405 0.17286842 -0.58439356 0.42511338 0.20936675 -0.38052103 -0.12591884 -0.534638 -0.3194644 0.16416469 0.884234 -0.660935 -0.25988552 0.108738676 -0.10279659 -0.43979412 0.0039864834 0.818715 -0.33227494 -0.24304532 -0.54002804 0.33975622 0.46371904 -0.18262713 0.16720702 0.18986505 -0.036161955 -0.27788326 0.34810725 0.6694294 -0.3735654 -0.19036685
353 0.8080311 -0.101795755 -0.017134216 -0.27089545 -0.42257476 0.98356974 -0.3547778 -0.6460201 1.0132369 0.42171815 -0.63270223 0.38135743 -0.15564409 -0.6138949 -0.46897933 0.16537955 -0.33375522 -0.2704019 0.11214932 0.0029162096 0.45468166 -0.13009398 0.03530181 -0.60347897 0.4627981 0.6341524 -0.15406843 0.34349537 1.0025159 -0.62238157 0.13201228 -0.85350394 -0.4037064 -0.015685843 -0.5166074 0.07804692 -0.14560083 -0.23152491 0.013144252 0.06114827 -0.2662846 0.008525332 -0.5226625 -0.51610285 -0.31185457 0.22929588 0.571183 -0.19448838 -0.17162988 0.59129965 -0.079153515 -0.89907336 -1.0232 0.3395942 0.338619 -0.2913602 0.0040329634 -0.2213831 -0.35830027 0.1658446 0.90302676 -0.20168768 0.08016283 -0.8453568
6533 0.5280276 0.16385125 -0.028815974 -0.012467967 0.08469993 0.7012842 0.20672388 -0.46215007 -0.78954417 -0.032914933 0.5582497 -0.10196116 0.34876812 0.6565737 -0.03915393 0.41696835 -0.48940423 0.025814777 0.26528445 0.06854457 0.16939157 -0.3759821 -0.14662927 0.45021123 0.49954897 -0.32161513 -0.20402096 0.09538208 0.5059478 0.17333815 0.13210243 0.40291265 0.5627336 0.2851192 -0.008951033 -0.05185901 -0.38152537 0.18020114 -0.14921474 0.07015467 -0.04484495 0.47773227 0.06186298 0.24862413 0.18560573 -0.03712303 -0.018352846 -0.08424577 0.296738 0.1589959 -0.2781839 -0.35670543 -0.2357843 -0.6897561 0.09828125 -0.31567693 -0.54025656 0.22335695 -0.73654896 0.44579834 0.9342149 -0.44470102 0.07678326 -0.24536669
6137 0.039901927 -0.5263577 0.58122134 -0.31497043 -0.29996315 0.44835824 0.09869572 -0.4288766 -0.20552818 0.5307097 -0.044729345 0.4791111 -0.30248204 0.8628538 0.01797591 -0.91818064 -0.040040996 -0.31492075 -0.2108648 -0.08069798 0.4936554 0.6743576 -0.39101362 -0.44948852 0.48039573 -0.4004286 -0.22303073 0.6542322 -0.05471684 -0.24305688 0.88028747 -0.009240088 0.6791667 0.040661465 -0.42366013 -0.11138994 0.087490365 -0.72221607 -0.09901637 -0.7485224 0.10158388 0.33250308 0.6594035 -1.1018778 -0.43855545 0.40091342 -0.2707305 -0.45352322 -0.36085492 0.34231457 0.24668157 -0.31261876 -0.6137081 0.43403676 1.2651958 -0.70160365 0.11308104 -0.0074806106 -0.15297015 -0.039361455 0.30319208 0.15223749 -0.2949371 -0.32692522
4708 0.31815612 0.0051847035 0.15530887 -0.51366645 0.32382536 0.41907284 -0.38223323 -0.3401259 -0.8302751 -0.09248773 -0.23350036 0.09070666 -0.03238807 0.8748568 -0.47645554 0.31119743 0.05157865 0.30961788 -0.009832262 0.18936643 0.2106655 0.026830722 0.047781114 0.2999048 -0.042120166 0.49773648 0.20893721 0.62028694 0.42914537 0.009361243 0.09900287 0.45981494 0.12454607 0.30866802 -0.4832831 0.268105 0.5823763 -0.17584983 -0.29410642 -0.30866328 -0.5488719 0.224122 -0.38681343 -0.17866674 0.63084143 -0.13339719 -0.25995842 0.0032018472 0.39753774 0.24210215 -0.22436234 -0.69127977 -0.35661173 -0.15265556 0.32935527 -0.2958439 -0.14041692 0.046853736 -0.31597343 -0.006844122 0.66319966 -0.35840562 -0.06316451 0.29174563
414 0.7967462 -0.42958897 -0.087422565 0.2270848 -0.30209157 1.0374926 0.1096892 -0.3987144 0.6323086 0.048327126 -0.28167596 0.22179662 -0.09277131 -0.57088375 -0.37534887 -0.08323529 -0.26373184 -0.12056141 -0.26445642 0.162902 0.5965354 -0.37878394 0.0761566 -0.3969591 0.4928957 0.09231391 -0.2734714 0.3582728 0.7210263 -0.37074968 0.2033988 -0.4619802 -0.122395374 0.12121723 -0.6901592 0.17274614 0.21517085 0.15048632 0.35071072 0.23450737 0.074565895 0.1913753 -0.4417874 -0.08405108 0.0202974 0.16573212 0.6013092 -0.2703439 -0.25266603 0.5850455 -0.119043894 -0.84969777 -0.36185938 0.8197174 -0.15067902 -0.035921417 0.27060786 -0.39780822 -0.6927516 0.7620515 0.75735563 -0.177307 0.34757233 -0.97137636
2133 0.6624183 -0.29961118 -0.46981707 0.05241655 -0.17407781 0.258132 0.17548332 -0.20966715 -0.8675607 -0.48131534 -0.074018806 -0.20074886 -0.06354726 0.7584556 -0.3699586 -0.008797816 0.08101484 0.060946323 -0.06697769 0.09456012 0.21745232 -0.00229065 0.10635829 0.29850936 -0.04127249 0.2721323 0.047943674 0.41196188 0.41213757 0.14472254 0.39656046 0.22149768 -0.09463554 0.2544911 -0.13052133 0.30076298 0.13334404 0.008058311 -0.054139793 -0.26393396 -0.7845634 0.31218702 -0.46841326 -0.10814794 0.33697987 -0.5396312 -0.6572805 0.15256168 0.5249919 0.7236182 -0.35437834 -0.8746234 -0.4918319 -0.07188447 0.22765782 -0.45834008 -0.49113712 0.19351454 0.08266581 0.14739966 0.55853343 -0.50815815 -0.027522402 0.081930965
750 0.5038843 -0.09747721 -0.048037548 0.2668421 -0.43375304 0.25504413 -0.41280466 0.07072665 -0.7125361 0.5233793 0.09256718 -0.37032372 -0.3390216 0.19047333 0.44878757 0.082062684 -0.43548355 0.1545348 -0.6909114 0.41210085 0.17220134 0.084913105 -0.43396816 0.57312554 -0.120158225 0.22919786 0.106442206 0.23471633 0.6067372 0.0071573546 -0.79483384 0.043061096 -0.02409494 0.22980508 -0.6921425 0.34692156 0.36831608 -0.18090281 -0.011252518 0.4272899 -0.44352564 0.45022288 0.014806564 -0.107247114 -0.0623549 -0.20875919 0.0017913335 -0.018245567 -0.0069618025 0.19110769 0.41194758 -0.69688696 0.5400379 -0.5343108 0.4946747 -0.84888816 -0.7137181 0.4019777 -0.0015082171 0.58897096 0.589388 -0.31866577 0.48889345 0.06631776
4059 0.5781491 -0.04900688 -0.15140682 -0.24062492 -0.061595112 0.5064935 -0.36309603 0.44617847 -0.8172287 0.12427398 0.2436301 -0.49536395 -0.11628266 0.15325418 0.057742912 0.033204455 -0.25970417 0.25278825 -0.39688742 0.11532587 0.26706743 -0.020966686 -0.5460587 0.37254894 -0.031165643 -0.034045696 0.44496837 0.14982551 0.5976468 -0.29275036 -0.3900344 0.45309746 0.08703099 0.13396835 -0.87478447 0.4050678 0.2581588 0.058754023 0.16059726 0.47278988 -0.40276414 0.43216452 -0.28939238 -0.3425913 0.066316344 -0.32081226 -0.10493865 -0.12778017 -0.021108728 0.13898034 0.48128903 -0.640958 0.39249718 -0.1686165 0.6482683 -0.6993019 -0.32586038 0.30857098 0.12976404 0.34106693 0.49520335 -0.36176616 0.2867858 0.3584817
6532 0.38091782 -0.18599564 0.041185517 -0.46298644 0.39371866 0.58980316 -0.29959363 -0.45834786 -0.65025795 -0.06833893 0.73971045 -0.05118388 0.5369723 0.41480055 0.15147942 0.2287223 -0.28975967 0.18792652 0.2471489 0.48669475 0.6387523 -0.37240565 -0.492628 -0.01777748 0.18660413 -0.16134621 -0.5714186 0.71729976 0.6768935 0.5989806 -0.08893923 0.46113005 0.29389784 0.24880375 0.16834919 -0.1072106 0.013502871 -0.044202287 0.05201803 0.2282206 0.0873716 0.40617093 -0.11723391 0.071160585 0.14221187 -0.32551757 -0.39993078 -0.22595975 0.56738937 0.12376963 -0.09829317 -0.37650016 -0.21700561 -0.5493953 0.22139692 -0.06604562 -0.27610555 -0.1608703 -0.1991276 0.1921149 0.7426352 -0.33418503 -0.124633916 -0.2445607
3759 0.07305663 -0.21160091 -0.10640011 -0.8685021 0.14397855 0.3112253 -0.5099841 -0.744401 -0.35406926 0.16550392 0.8824842 -0.56029314 0.019951846 -0.047741454 -0.163399 -0.14135428 0.049361724 0.45286036 -0.20420589 0.17851524 0.6338543 -0.3898852 0.25320035 -0.0044542775 -0.11116202 0.4611183 -0.55907494 0.34276676 0.17192473 -0.33250812 -0.42245835 0.5990975 0.72120595 0.47318545 -0.7189428 -0.43486172 -0.046624273 0.39488962 -0.18436137 -0.0851384 0.41457742 0.24839501 -0.23809876 -0.690106 0.28785083 -0.48824856 -0.010828937 -0.04346872 0.1244872 0.2985015 0.0906329 -0.18856478 -0.84814674 -0.39109066 -0.4761924 -0.14902739 -0.34257975 -0.045973074 -0.06150457 0.026929703 0.27834684 -0.39202753 -0.121345215 -0.8000229
4460 0.33581817 -0.5162175 -0.02999531 -0.009573951 -0.23868167 1.011864 -0.41367728 0.73648924 -0.33747044 0.22794792 0.23422587 0.47038668 0.105825454 0.2504884 0.29315197 -0.7399892 -0.15613702 0.30353025 0.25061277 -0.06489727 0.707129 -0.42352384 -0.1055066 0.24251199 -0.18911391 -0.43260708 0.17078066 0.2108726 0.4258488 -0.18636492 0.3865798 0.015057766 0.28028753 0.6495723 0.08601131 0.044958863 -0.41790226 -0.1812669 -0.08457186 0.10209816 -0.13549823 -0.15743783 0.010194486 0.3476165 -0.100284606 -0.34262875 -0.4624198 0.5068201 0.64034617 0.23920757 0.24361058 -0.27363628 -0.49542683 0.09577642 -0.32264036 -0.62168 0.10144351 0.42606205 0.056018528 -0.7575996 0.43701664 -0.6350871 -0.33409226 -0.40439233
5052 0.42939067 -0.5899124 -0.051565163 0.14687943 -0.121851906 0.79714197 -0.17485312 0.5331628 -0.37863168 0.308789 0.49066767 0.51118636 -0.21754241 0.07827256 0.093391195 -0.9665151 0.29955462 -0.21463643 0.22175315 -0.25357604 0.49013492 -0.668902 -0.0060295397 -0.070112996 -0.24371664 0.0068216757 0.24930961 0.31892884 0.56704336 -0.28541058 0.069456376 -0.28537944 0.42504907 0.69107485 -0.18636058 0.011116246 -0.19247858 0.06768815 -0.5542996 -0.07207574 -0.4200255 0.13524382 0.23287137 0.3045949 -0.031455144 -0.4534691 -0.11443204 0.52571225 0.7369007 0.19108562 0.32115412 -0.16839325 0.111475475 0.3044522 -0.25580126 -0.26044574 0.20015755 0.31132787 0.043560207 -0.7354473 0.57345796 -0.6252087 -0.40675163 -0.293087
2419 -0.36959675 -0.13083076 0.3898206 0.6011684 0.071926855 0.28556666 -0.19776084 -1.0001342 -0.2954774 0.5656987 -0.38891 1.5117716 0.39838907 0.19565965 0.26261953 0.22532444 0.14006804 -0.26944408 0.5293924 0.08372069 0.14873998 -0.42744786 -0.7096686 0.25735998 -0.21073171 0.79889596 -0.96369404 0.1204292 -0.060379714 -0.5549793 -0.10086046 -0.27802882 -0.19669376 0.018975878 -0.34273317 0.7386964 0.22155228 0.08475951 -0.2134711 0.15885709 -0.88237673 -0.12298701 0.5557817 -0.6216413 0.40711024 -0.12727672 -0.17488569 -0.036260266 -0.7114801 0.038748987 0.7001946 -1.1767842 0.69546413 -0.1117138 -0.16658504 -0.2714347 -0.34499082 -0.011751141 0.1362663 -0.1568645 0.4026084 -0.115200326 0.003230796 0.05438177
975 0.48616594 -0.35003608 0.3508555 0.01200343 -0.1848396 0.3802731 -0.16920191 -0.3864426 -0.18706463 -0.5701572 0.14910972 0.6863304 -0.04669458 0.53936833 0.40245008 -0.1832552 -0.16100203 0.18818673 -0.12764443 0.12036913 0.82383674 0.4165077 -0.16142435 0.168222 -0.10421403 -0.49110934 -0.32676733 -0.07843799 0.30895674 -0.2528592 0.057490442 -0.49545714 -0.15826966 0.3224191 -0.8569146 -0.12295711 -0.44798696 -0.19510606 0.3175785 -0.667478 -0.026323676 -0.08958071 0.0773205 -0.37448964 0.27596778 0.13385978 -0.24386059 -0.097148664 -0.21273266 0.08554908 0.010639893 -0.79740244 0.034436367 0.70477873 0.66223246 0.24764873 0.32316145 -0.08092213 0.28231692 -0.09555176 -0.03486692 0.14633673 0.112840086 -0.7688826
7465 0.3677676 -0.87325346 -0.39251953 1.4679484e-05 0.12224672 0.28049755 -0.1621038 -0.3149267 -0.80222154 -0.39796403 0.23309316 -0.2979895 0.20694362 0.35286263 -0.2948744 -0.56787795 0.37929928 0.0022583788 -0.013301243 -0.013332656 0.15966108 -0.07303352 -0.27969494 -0.01648276 0.500556 0.19040027 -0.06090738 0.68105286 0.5841006 0.02838751 0.13683292 0.07988287 -0.3064948 0.13109156 -0.10518619 0.02946298 -0.037961822 0.13487278 0.18160345 0.039181013 -0.06917964 0.6622019 -0.24790561 -0.50077003 0.532324 -0.33951926 -0.14137182 -0.0115504 0.5931771 0.6379027 0.61695 -0.68485206 0.24862523 -0.29187316 0.3448524 -0.119873494 -0.41561937 0.3637633 -0.11757845 0.627943 0.025262807 -0.52306134 0.22339678 0.044904962
8889 0.49757466 -0.059010588 -0.34831232 0.1603711 -0.22226642 0.5622189 0.14074966 -0.28004155 -0.77716494 -0.5715547 0.22081958 -0.23393813 0.36401078 0.89826477 -0.3635417 0.056916714 0.08178401 0.42276037 -0.27619755 -0.12310016 0.20321101 -0.6873634 0.11711447 -0.011103696 0.11899577 -0.08440598 0.18686195 0.39387128 0.36011234 0.3123742 0.2842797 0.25898662 0.048747055 0.118003845 -0.033120643 0.07559714 -0.33575335 -0.09277442 -0.11840911 0.055626083 -0.107616805 0.8614555 0.047817215 -0.607561 0.2837202 -0.6347606 -0.47383913 0.13435481 0.46874306 0.94218165 0.21456656 -0.4103954 -0.47226372 -0.22521608 0.32527068 -0.36734244 -0.30026695 0.2760254 -0.08589225 0.30180255 0.121454 -0.4132508 0.20113108 0.083900005
6249 -0.005113198 -0.3422651 0.20851366 -0.081619784 0.15468973 0.23625277 0.011692701 -0.085927516 -0.27465323 0.05300174 0.010527005 0.5350452 -0.33443886 0.6474339 0.23084082 -0.59478605 -0.010800357 0.14691378 -0.063678324 -0.081608154 1.1727773 0.24942356 -0.1019166 0.2526548 0.6362881 -0.73995715 0.17648464 0.11756375 0.25186887 0.12575205 -0.060621817 -0.05184179 0.2669153 0.10988298 -0.86250347 -0.24153806 -0.46373767 -0.07565466 0.24155933 -0.09682035 -0.34650606 0.33360153 0.28925505 -0.21645959 0.49053672 -0.030664135 -0.059512105 0.09207573 -0.13517073 0.22226624 0.2490731 -0.9444706 0.2875117 0.352695 0.27892852 0.11288489 -0.14843962 -0.17106384 0.23367605 -0.1322043 -0.19562307 0.27515882 0.09309404 -0.4088699
3074 0.31370288 -0.23632467 0.58848023 -0.21048315 -0.17237413 0.28474435 0.037247546 -0.25492093 -0.25702494 0.38174814 0.058060374 0.8045975 -0.25175786 0.78671885 0.15917823 -0.7243099 -0.12648423 0.035576053 -0.120478995 -0.063931435 0.8453615 0.48232812 -0.35020676 -0.27896953 0.40713942 -0.8450565 -0.17288221 0.37640068 -0.22831613 0.15567318 0.2955481 -0.11831798 0.5654009 -0.09951506 -0.5210445 -0.2843448 0.0011174585 -0.57812744 -0.21115293 -0.63222265 0.06300595 0.32208169 0.40478173 -0.70558727 -0.02053591 0.26164418 -0.19427949 -0.120513484 -0.23224284 0.24919638 0.10875107 -0.6434202 -0.032398164 0.52280563 1.2408104 -0.5965795 0.31325623 -0.11114701 -0.24809584 -0.017356288 -0.033592712 0.14758788 0.0074602105 -0.5002675
1851 -0.018963624 0.16942506 0.120049566 0.114003934 -0.39008877 0.52707994 -0.28713846 0.19829535 -0.6514304 0.29697037 0.35693437 0.581549 0.10985912 -0.026713816 0.7576672 -0.34215438 -0.00066366035 0.2401032 -0.06801528 0.08606678 0.99271864 0.22860625 -0.3130217 0.2826656 -0.19155297 0.27402955 0.10371309 0.071677946 0.21657307 -0.89058375 -0.28461716 -0.27882513 0.13383207 0.23561922 -0.88839555 0.26598942 0.4954438 -0.023453884 -0.5860615 0.075051576 -0.03187441 0.14246543 0.14509882 -0.2323221 0.45553157 -0.22686172 -0.5361131 0.11002892 -0.09917373 0.9638251 0.026423397 -0.5460184 0.046033103 -0.15494066 -0.004578668 -0.38334012 -0.8944814 -0.044626735 0.27929258 -0.23080598 0.02559071 -0.13751881 -0.30344978 -0.1945715
4749 0.38977516 -0.8499498 -0.014415611 0.22565326 -0.15540755 0.82934636 -0.119462356 0.82720375 -0.6551509 0.21451125 0.1583357 0.25796267 0.0056924517 0.1484455 0.2522422 -0.77971625 0.07884702 -0.16617395 0.23361146 -0.43016803 0.8120503 -0.46930692 -0.26398003 -0.010759082 -0.022662956 0.036480207 0.19923641 0.46299836 0.6954587 -0.32401863 0.41059732 -0.1876265 0.2728754 0.6687681 -0.024176348 0.10994121 -0.22404854 0.15876605 -0.5602599 0.21086152 -0.22852561 0.30361128 0.21922117 0.4351164 -0.28218487 -0.3289139 -0.50287116 0.09652431 0.71267784 0.30470812 0.4072874 -0.23205943 -0.12291777 0.3397528 -0.4312428 -0.47738978 0.29357773 0.06722605 -0.09900268 -0.6700545 0.7671619 -0.49126613 -0.37533352 -0.3586131
3331 0.12298718 -0.25128224 0.18521203 -0.07928884 -0.7069986 0.74981797 0.08586001 0.18443274 -0.06419168 0.38742107 0.45980626 0.20007932 -0.14406882 -0.91844237 0.044680238 -0.60084456 -0.099566676 0.39837834 0.0026644561 0.3266793 0.3663759 -0.35839587 0.3111542 0.548783 -0.1314981 -0.53258365 -0.10000056 0.50661904 0.7737173 -0.45108616 0.5103154 0.6888389 -0.09308867 0.2831889 -0.34315875 0.120936245 0.14928909 0.11600685 -0.6507784 0.06294824 -0.79043293 0.063127354 0.70702696 0.25730342 -0.285515 -0.5249144 -0.3293252 -0.55407196 0.3500334 0.24688941 0.10149261 -0.31079283 0.47525138 0.0023357747 -0.025680821 -0.5865668 0.59278643 -0.06476399 0.23450041 0.051013045 0.25158808 -0.28880945 -0.8925701 0.1512343
7280 -0.09158348 -0.51937306 -0.03486409 0.36900848 -0.066577606 0.8981898 -0.16431624 0.69080114 -0.18149157 0.1351463 0.14461721 0.25640225 -0.0023620771 0.23503196 0.20439978 -0.92459416 0.06458983 0.07640834 -0.03224756 -0.15662915 0.7987258 -0.29680994 0.34871843 0.3411837 0.029323012 -0.14803092 0.24911384 0.53156894 0.73064065 -0.4933417 0.25690392 0.06498579 -0.042316835 0.5256803 -0.19074346 0.087377556 -0.28789702 -0.2629472 -0.15094303 0.21614331 -0.16826083 0.14035258 0.38347843 0.26886332 0.08956735 -0.26824638 -0.29111442 0.09772562 0.37793824 0.16583976 0.21748607 -0.19747637 -0.1502871 -0.016506962 -0.2567111 -0.6663561 0.15259758 0.23995931 -0.03657801 -0.80567276 0.6426079 -0.41724753 -0.57711643 -0.4733833
4961 0.8152128 -0.11218869 0.0033931774 0.4710033 -0.6483993 0.46481475 -0.31467733 0.26687953 -0.8568359 0.08609918 0.016922899 -0.6441467 -0.3089831 0.079736255 -0.2218148 -0.22874825 -0.16538334 0.31300294 -0.5479357 0.45433295 -0.027739711 0.12237485 -0.81518626 0.69093704 0.13000387 0.24836451 0.08018453 0.19659032 0.91821074 -0.26176655 -0.5613183 0.22569527 0.14823094 0.6919296 -0.6669117 0.25026217 0.47517428 0.12344997 0.038035072 0.7082159 -0.43501633 -0.17688155 -0.043840516 0.56838655 -0.102393135 -0.18127677 -0.16924815 -0.25088292 0.10824086 -0.13457264 0.47623506 -1.0233041 0.32439712 -0.114326864 0.43764958 -0.5642208 -0.22215816 0.3644005 0.14677824 0.2546075 0.4646511 -0.052511625 0.8215251 0.23506273
6295 0.09738092 0.12004035 0.027207544 -0.68542796 0.5030632 0.42224544 -0.4366094 0.028205862 -0.5515927 -0.23240632 0.77202344 -0.25079954 0.027574543 0.19887827 -0.045521427 0.04639276 0.09195262 0.24642709 0.24711315 0.20949283 0.3509981 -0.23977287 0.117316045 0.338214 -0.042043127 0.73777527 -0.21550804 0.33258304 0.40331414 -0.30355945 -0.12102084 0.5439305 0.37157485 0.28840742 -0.59933364 -0.11134581 -0.22410123 0.044803966 -0.3490295 -0.36517337 0.08180698 0.602131 -0.1846757 -0.50695544 0.5515984 -0.2432897 -0.26299408 -0.29791763 0.27510315 0.51250917 -0.111324355 -0.40340185 -0.2744055 -0.20849614 -0.31644222 -0.029262492 -0.28168258 -0.14740486 -0.09620089 0.27827695 0.67593956 -0.32370466 0.2540615 -0.55695885
2757 -1.4447134 0.010744847 0.25198883 0.04941721 -0.5356233 1.3403512 -0.28647393 -0.4478382 0.12853965 -0.23295386 -0.18643485 0.38602832 0.6755739 0.110669814 -0.027260572 0.6306905 1.1045676 -0.60044277 -0.051229004 0.8342465 0.62466556 -0.14728197 -0.7154148 0.1434523 -0.0610673 0.15203512 -0.64826417 0.90135497 0.21115646 -0.43031904 -0.5779469 -0.22137661 0.5829582 0.14396419 -0.5654983 0.17268008 -0.977086 -0.8277361 -0.017421827 0.26948977 -0.8866515 0.6464755 -0.4137884 0.03978571 -0.69528645 -0.6244316 0.5716311 0.047504734 0.8181356 0.8649158 -0.73338777 0.045220792 -0.18137896 0.00622363 -0.09893761 -0.5294356 -0.20002444 -0.60321444 0.45085427 -0.12155835 0.30476314 -0.9070741 0.60125965 0.10177513
3399 -0.26899454 -0.38146693 0.12575226 0.17465688 -0.14981312 0.63237625 -0.14353113 0.033769567 -0.41200095 -0.15915562 -0.14082704 1.1701056 0.2593621 0.21336035 0.7096053 0.028848697 0.37611866 0.24772753 0.21116866 0.2562079 0.38367233 0.19665353 -0.9079649 0.124175966 0.09173486 0.47423053 -0.54246104 0.26111937 0.47435093 -0.7719952 -0.40451592 -0.6658696 -0.056882992 0.53268474 -0.547734 0.47417092 0.08027813 -0.02158137 -0.45383322 0.70883083 -0.6792033 0.52712494 0.01977092 -0.2758708 -0.024040807 -0.5759555 -0.073746525 0.26560792 -0.25986078 0.33880776 0.30797133 -0.11362185 0.3334479 -0.10207333 -0.41468334 -0.8825303 -0.5945302 -0.12691398 0.54985696 -0.076731786 0.51004237 -0.097339004 -0.14904343 -0.4709616
2528 0.12216552 0.09768183 0.2303223 0.2843135 0.08100359 1.1308857 0.20634934 -0.3523422 -0.9998033 -0.3524373 -0.1119905 0.43133536 -0.19622256 0.102216534 0.487354 0.44302028 -0.34401554 0.8474692 0.011775351 -0.45202717 0.07564554 -0.029147066 -0.17047624 -0.10294993 -0.3282747 0.19215254 -0.47077835 0.80730647 0.5077898 -0.22703478 0.25552994 -0.23655696 0.27441964 -0.09338245 -0.56366295 -0.122555375 -0.5687744 -0.4089675 0.953138 -0.45250118 -0.30686754 -0.40779993 0.1272433 0.10797845 0.5471218 0.32427457 -0.27400792 0.7260038 0.12959152 0.6115487 -0.045854792 0.27502856 -0.5122788 0.21218291 0.09976984 -0.12366531 0.57592916 -0.042609654 0.5401174 -0.11331244 0.7280819 -0.53909904 0.18215479 0.43858066
8809 0.36051425 -0.8177582 -0.27713215 0.32198858 0.21856815 0.9536418 -0.13066414 0.6556988 -0.43261006 0.0041760663 0.27055663 0.11620258 -0.066588536 0.42320007 0.16566816 -0.9998366 0.121740095 -0.23048654 0.05290975 -0.3424625 0.5804095 -0.45225054 -0.2596139 -0.20400096 -0.014565846 0.32548916 -0.112417094 0.049115103 0.53104115 -0.25280932 -0.19416937 -0.032121137 0.30900702 0.5672933 0.1945742 -0.012579878 0.06955134 -0.08283218 -0.30859387 -0.05202496 -0.39830604 0.43728942 0.17942862 0.08999886 0.1028986 -0.5758505 -0.3302672 0.41857225 0.78586966 0.48320678 0.42043734 -0.0028529621 -0.12886149 0.22698641 -0.40410706 -0.2654071 0.4385337 0.1692218 -0.052608635 -0.6154677 0.53790206 -0.6874118 -0.40945148 -0.26943228
6055 0.10533828 0.045637924 0.21079057 -0.8265924 0.47158575 0.33311138 -0.41239455 0.0711115 -0.5906413 -0.22537705 0.76355606 -0.25774682 0.10514157 -0.027762208 -0.26201156 -0.109877214 0.11846455 0.13633688 0.2401174 0.10222932 0.4800036 -0.1466498 0.021281626 0.23232399 0.022637574 0.54261434 -0.2973084 0.31369188 0.42504096 -0.2120821 -0.17213634 0.7025178 0.27073696 0.5008679 -0.61823887 -0.01887124 -0.2887614 0.2623147 -0.22928862 -0.18789874 0.03600336 0.62543875 -0.27938566 -0.36996114 0.47482488 -0.018023506 -0.42297092 -0.2780913 0.4107077 0.37269497 -0.08550456 -0.43542004 -0.36795577 -0.21872632 -0.2111239 0.02897056 -0.27807632 -0.15698421 0.058489755 0.34119636 0.66078264 -0.31716335 0.12875117 -0.4671438
742 0.99066246 -0.5060575 0.15374805 0.24475391 -0.68025994 1.0217874 -0.023394711 -0.49793506 0.7942926 0.60606384 -0.34816137 0.2690163 -0.028724372 -0.31730342 -0.6543446 0.21085577 -0.51909685 -0.30279166 -0.43464813 0.0848007 0.39083323 -0.35361385 0.22388521 -0.59793925 0.2702898 0.33827502 -0.6275555 0.5240678 0.67939067 -0.30408475 0.3114491 -0.3461444 -0.3263907 0.25559425 -0.93449163 0.07386255 -0.3607056 0.24596307 0.28033286 -0.081706636 0.15913555 0.21149474 -0.43604234 0.034479454 -0.074394524 0.31484947 0.44569385 -0.111076534 -0.49969307 0.6280807 -0.042138357 -0.73666644 -0.4591347 0.20190492 0.09147085 -0.28213137 0.20956385 -0.5284657 -0.38648203 0.64723116 0.8562955 -0.1015138 0.15427743 -0.784313
3886 0.3730262 -0.22520936 -0.04632295 -0.12552555 0.21007814 0.13662961 0.07586958 -0.9307321 -1.165995 0.2699281 0.23825312 -0.3959799 0.28502598 0.086974904 0.3928259 -0.24703743 -0.8534884 0.40995628 -0.23097411 0.6341077 0.25934473 -0.23436517 -0.46387866 -0.8741186 0.69951665 0.16201565 -0.069778316 0.35535583 -0.23551421 0.010726453 0.03421264 0.6169032 -0.021622522 -0.47203138 -0.07430967 0.5378178 0.4029172 -0.41709056 0.31838378 0.44192487 -0.5541223 0.47271958 0.54562104 0.82001925 0.66585064 -0.41837874 -0.09903486 -0.3770704 -0.2784747 -0.51114327 0.248603 -0.6836657 -0.03624316 0.25956488 -0.37616694 -0.35657492 -0.16386539 0.3121841 -0.29437852 0.028080424 1.0584112 -0.7131024 0.59018457 -0.6000076
2027 0.36937627 -0.5734977 -0.09728365 0.25271955 -0.12531362 1.0626733 0.07537213 0.7135939 -0.64580685 0.07022685 0.11157982 0.25460082 -0.007147094 0.10932233 0.23381294 -0.7830423 0.20090903 0.09095444 0.27197105 -0.36408666 0.67508644 -0.4778024 0.13270487 0.32270935 -0.20035785 -0.11374602 0.16289455 0.5078288 0.5785192 -0.60070056 0.20260818 -0.11204475 0.054868653 0.46163598 -0.1412326 0.20707588 -0.41621804 0.027846513 -0.37776703 0.27300137 -0.31489637 0.25156358 0.18267378 0.4108472 0.0071987594 -0.45035046 -0.35584655 0.23585819 0.9414566 0.0627794 0.6066945 0.036316626 -0.006768493 0.27440727 -0.12228775 -0.42855996 0.15567547 0.25377175 -0.029245272 -0.42939967 0.76051074 -0.5512635 -0.26332366 -0.46813998
7979 0.45240915 0.020938167 -0.33922586 -0.27539405 0.18650143 0.38569254 0.055150323 -0.10721802 -0.660257 0.0435552 0.7833656 -0.22186953 0.43513712 0.51068926 -0.41955712 0.06905877 -0.3269901 0.33258042 0.11930626 0.1423941 0.51287574 -0.41054115 0.08946922 -0.25178954 -0.19806007 -0.031633656 -0.18055193 0.3579209 0.5715003 0.031599425 -0.20725225 0.46076638 -0.019547947 0.4501849 -0.26641497 -0.21801859 -0.081458524 0.23064841 0.14634621 0.016288064 0.14280923 0.70546097 -0.108636215 -0.4623851 0.3884484 -0.5517454 -0.38528937 -0.0653205 0.20185092 0.36003008 0.028929375 -0.8380449 -0.36884734 -0.1578116 0.027358312 -0.31420642 -0.34481475 -0.04746764 -0.10418174 0.2778711 0.11474606 -0.48928738 -0.14001925 -0.21193606
976 0.4821423 -0.2856425 -0.24716096 -0.30024987 0.5299875 0.29933986 -0.65494007 -0.59286064 0.11364997 -0.52233917 0.096609324 1.044799 0.41147473 0.13460428 -0.18173453 -0.2983794 0.37678778 0.2334388 -0.6564204 -0.46860364 0.55153394 -0.9788511 -0.8999787 1.7754915 0.8023155 -0.34938854 -0.59353137 -0.5914703 -0.72475445 0.6857947 0.024964321 0.1688322 0.7120262 0.5242328 -1.266191 -0.3784357 -0.57395464 0.011824395 0.06891133 0.481785 -0.6820959 0.23289019 0.74879056 -0.40304515 0.0936705 0.49166265 0.7221053 -0.6561932 0.18268658 0.59570265 0.4735387 0.027898788 -0.29936862 0.6893146 -0.58566374 -0.060804725 0.26393178 -0.62153506 0.04974071 0.076727994 0.70337164 -0.5470067 0.545147 0.12188023
1058 -0.53857595 0.47290456 0.22382128 0.123325236 0.5504609 1.143914 0.42664123 -0.7715983 -0.47020993 -0.05045726 0.5967646 0.73384845 -0.018073924 -0.054334443 0.3604685 -0.66468847 0.75168306 -0.03221846 0.26278475 0.6265232 0.78975135 -0.0076037985 0.24261738 0.07908388 -0.44589946 0.9825078 -0.5252276 -0.62563425 0.2576518 -0.77657187 -0.02819376 0.013272021 0.7321105 0.020282649 -0.28480503 0.029847916 -0.2034139 0.30284762 -0.71433055 0.8467781 -0.6962424 0.47858736 0.42884353 -0.27909294 0.14026855 0.0475254 0.66989106 0.09809224 0.12334075 0.57664907 0.17108789 -0.6039517 -0.17489873 0.67763436 -0.0063509764 -0.35948268 -0.76217556 0.086594634 -0.0048770024 0.08556521 0.31337476 0.4440537 0.27251008 -0.6577899
3881 0.8521708 -0.37843072 -0.47316778 0.37789086 0.06694965 0.30712655 0.18120721 -0.59751296 -0.75970215 -0.39564687 0.12517495 0.03838669 0.47489 0.6664161 -0.44077668 -0.02952162 0.14315577 0.4528205 -0.2811968 0.1684508 0.3402131 -0.096055575 -0.1540504 0.21506216 -0.013420743 0.07510399 -0.12139196 0.062296238 0.45013574 0.29843572 -0.038127266 0.14546122 -0.0040623527 0.054316778 -0.099796236 0.28698653 -0.15611671 -0.2287229 -0.3270038 -0.4120906 -0.18325803 0.52248687 -0.5027785 -0.6854438 0.38635013 -0.9905166 -0.75008804 0.0038228354 0.5519947 0.7030593 0.016072555 -0.57912153 -0.22395006 -0.25432268 0.06775581 -0.64047015 -0.28351587 -0.005903986 -0.37523285 0.23324353 -0.011760037 -0.47871214 0.037203472 0.0046623056
2463 0.6800043 -0.33129552 0.77755713 0.43815374 -0.5653571 1.0360101 0.0558813 -0.22565794 -1.0240755 0.3511726 0.19196105 -0.20488872 0.29017228 0.74919003 0.026755424 -0.67286885 -0.5082556 0.38773248 -0.89171636 0.25102687 -0.19430892 -0.4884036 0.5171079 0.23647764 -0.44383493 -0.020479597 -0.64512575 -0.023730332 -0.41439235 -0.52189976 -0.19992515 -0.44160628 0.38635415 -0.3590104 -0.10378706 -0.1235409 -0.60097766 -0.5169937 -0.42946255 0.54769194 0.5804999 -0.29205862 0.794091 -0.4669005 0.359334 0.3233612 0.39656723 0.3643048 0.23622072 0.31674016 0.9004353 -0.56540823 -0.65729994 0.5844672 -0.4076947 -0.47921318 0.3277785 -0.06411953 0.22311899 0.121129416 0.030226454 -0.35498425 -0.25389037 -0.2546751
3864 -0.41765395 -1.1633362 -0.24672829 -1.3603784 -0.45281696 0.51399535 0.62993336 -1.0383815 -0.011109501 -0.7346508 1.4910127 -0.25753838 -0.7496389 0.5689626 0.17105655 0.08415747 0.43639588 0.7044682 0.07445828 0.042853594 -0.48549756 -1.4766049 -0.8458509 -0.31794775 -0.6521936 1.071116 -1.8969572 -0.633787 0.96955335 -1.7076014 0.130205 -0.021101918 0.06416147 -0.04085867 0.13154054 -0.84396 -0.80190796 -0.79352415 0.0011276894 0.843707 -0.013783568 0.32574847 1.2154255 -0.4736791 -0.1379095 -1.2089276 -0.685551 -1.1064867 0.035174828 -0.5503905 -1.7796649 0.20741922 0.20856774 0.720214 0.71648985 -1.4495857 1.2473456 -0.6419487 0.3149456 0.04560102 1.3239372 -1.1058334 0.89549327 -0.5467811
633 0.8908713 -0.0930802 -0.20397635 0.45185012 -0.3864345 1.0731261 -0.0022919357 -0.1484426 0.694266 0.1756274 -0.38332936 0.25918004 0.02835652 -0.30554366 -0.33930668 0.21855722 -0.5520512 -0.42163506 -0.19208784 -0.055283256 0.530397 -0.52349985 0.16909222 -0.5509224 0.40401116 -0.15900725 -0.33139455 0.367785 0.82936794 -0.48115647 0.32832453 -0.26364616 -0.036706455 0.07695924 -0.4662926 0.100596726 -0.1760966 0.041951027 -0.10320588 0.025374068 0.082940765 0.53795594 -0.2093808 -0.52460724 -0.026138693 0.17715137 0.7845919 -0.12708662 -0.39448884 0.6947116 -0.07740834 -0.77097416 -0.75098723 0.24727516 0.17368597 -0.4107908 0.28070107 -0.55218875 -0.23124006 0.39545617 1.2064368 0.32466164 0.3832671 -0.6581085
1244 0.34333846 0.0073994626 0.35818923 -0.051977087 -0.4524424 0.24258855 -0.40588427 -0.22416352 -0.17033808 0.3508002 0.526184 0.70651275 0.03153988 0.4137341 -0.6359068 -1.105291 -0.06724373 0.43263522 -0.80587137 1.1253238 0.39266384 0.109343566 0.08555548 -0.027269578 -0.60383 0.55643237 0.17461406 0.8466754 0.08629141 0.12202684 -0.16440538 0.0789613 0.5059062 -0.234022 0.59617233 -0.09341575 -0.8649313 -0.393074 -0.18771055 0.2107101 -0.18958297 0.1723058 0.14370273 0.21698482 0.5006757 0.27043828 0.11561267 0.14132817 0.4987045 0.30312684 0.10175328 -0.8277651 0.111061715 -0.25920352 -0.20959073 -0.5259229 0.10768657 -0.28474164 0.32816482 -0.45537037 0.35896158 -0.3463412 0.3180726 -0.44326055
930 0.5673719 -0.1538228 0.04818437 0.22061077 -0.66641 0.4561896 -0.033127546 -0.39008874 -0.6016502 0.16705686 0.26776117 0.40149814 0.2004852 0.4814438 -0.28018096 -0.2182115 0.10120243 -0.046082288 -0.7302857 0.6619704 -0.30504146 0.2040083 -0.33733404 -0.8976763 0.19372821 0.06763692 0.09174449 0.60604006 -0.5540859 0.041605618 0.22364181 0.3319464 0.86980873 0.38314682 -0.3629405 0.3619319 -0.40026745 0.3062955 -0.1431912 0.2673125 -0.0057706595 -0.4983769 0.22426632 0.32098955 0.92733777 0.3660801 -0.26188987 -0.91062117 0.12025028 -0.14315006 -0.39284265 -1.4114457 -0.09525269 -0.089970104 -0.6380256 -0.26473942 0.23962621 -0.024777848 -0.30005887 0.44930297 -0.3504469 -0.91095644 0.62619406 0.15846099
1442 0.7223849 0.001207074 -0.042800233 -0.14296196 0.29940128 -0.03590355 0.09110676 -0.7229893 -0.3093281 -0.68172306 -0.103709094 0.24308607 0.27991092 -0.2822512 0.30033168 -0.13531181 0.10145445 1.5573008 0.73298347 -0.2327881 0.5371908 -0.2448937 -0.856234 -0.063215874 -0.19540824 0.064153776 0.39779043 0.011805225 0.25709224 -0.16291794 0.16966353 0.31874228 0.6072261 -0.044553246 -1.001208 -0.2842606 -0.36124203 0.49500105 0.58468336 -0.43047163 -0.04065172 -0.29504633 1.5104256 -0.17196713 -0.41443345 0.030713852 0.60865396 -0.19842069 0.7994386 0.076548286 -0.05281359 -0.5167411 -0.42427358 -0.2115736 -0.5874255 -0.6158177 0.44739547 -0.48876607 -0.30483702 0.06858104 0.34778276 -0.67397815 0.58408505 -0.30989763
744 1.0472784 -0.4891169 -0.4231731 0.06554053 -0.13039845 0.98707026 0.37246823 -0.17305614 1.049554 0.19090985 -0.06057335 0.25074336 0.08547977 -0.25833017 -0.4413908 -0.13259853 -0.017396122 -0.26791406 -0.6540731 0.10951662 0.27299392 -0.49806768 0.31592816 -0.32924205 0.30547616 0.215666 -0.22808605 0.7138827 0.58190733 -0.19383767 0.10110296 -0.4384905 -0.18833168 0.6376046 -0.3566041 0.033991836 -0.16798557 -0.33403826 0.5887592 0.05610085 0.008392147 0.3861504 -0.59391755 -0.34778622 0.2272112 -0.022573536 0.39891663 -0.21847095 -0.44146445 0.12513463 -0.19051649 -0.88286173 -0.5227932 0.0012517689 0.3302699 -0.3502935 -0.0109409345 -0.5292604 -0.11947808 0.28157926 1.0701362 -0.103722595 0.035390235 -0.7666561
2746 0.56016624 0.38000533 0.1536273 -0.030803585 0.39376315 0.875352 -0.4048186 -0.40544757 -0.48744333 -0.45701355 0.58219963 0.11270996 0.18755166 -0.124778785 0.68501115 -0.87285876 0.2457123 0.34062603 0.06989459 0.65325475 0.48869264 0.20571281 -0.199891 0.17590696 0.069819614 0.32328048 -0.46253926 -0.19358657 0.38881037 -0.60811585 -0.06022864 0.19650118 0.29659384 -0.02267978 -0.5843171 -0.16667844 -0.44027463 -0.1440736 -0.21578711 -0.50706744 0.28271976 0.32685027 -0.18063655 -0.15385872 0.36600116 -0.55646586 -0.6261933 -0.09668053 -0.013806269 0.49277386 0.50153923 -0.79068655 -0.31321296 -0.44015914 -0.25604388 0.09619784 -0.43172887 -0.3941238 -0.11234059 0.4178293 0.31445575 -0.5098222 0.1696472 -0.06517046
5945 0.37459373 -0.40811414 0.22028299 0.012158667 -0.47392723 0.8028528 0.17427053 0.06702425 0.12783489 0.38547754 -0.178296 0.01447546 0.053013824 -0.0017129014 0.7093177 -0.5824236 -0.20122942 -0.039415807 -0.25558585 0.41441458 0.078334585 0.37313023 0.011313882 0.51492345 0.005184208 -0.4858177 -0.4770916 -0.22339977 0.13244778 -0.6914115 0.71275616 0.2359823 0.38717082 0.1662601 -0.5640356 0.23130798 -0.08447531 -0.6746789 -0.2960814 0.19246174 -0.055988517 -0.17612237 0.76297647 -0.9219286 -0.14837171 0.27953514 -0.121545434 -0.32466173 0.62367404 -0.34834397 -0.1488042 -0.43258876 -0.06878173 -0.37985831 -0.025789842 0.023400567 -0.069594234 0.16999725 -0.14371687 -0.07248941 0.3958458 -0.018678721 -0.55959797 0.053655416
7433 0.60245097 -0.5910073 -0.10449192 0.5691907 -0.24912603 0.3712176 -0.40028992 0.057244644 -0.76145333 0.66617256 -0.12889369 -0.40991247 -0.3528752 0.13977188 0.45816252 0.017203601 -0.06887058 0.31752446 -0.47545725 0.3593234 0.352579 0.16853862 -0.72580934 0.40688124 -0.1326194 0.50125176 0.24719186 0.3460756 0.67544276 -0.13767368 -0.7732895 -0.15562399 0.14077325 0.5602795 -0.85365576 0.15922904 0.33974296 -0.3192938 -0.026540497 0.53405046 -0.18447258 0.22878452 0.01737264 -0.049103316 0.18943097 -0.30078477 0.18880363 0.0720461 -0.057274472 -0.24768005 0.20647193 -0.80039835 0.071629845 -0.23658057 0.6705072 -0.8866816 -0.5584815 -0.008736407 -0.09942708 0.6795179 0.13082409 -0.31250033 0.22775319 0.49853164
3992 0.059545945 -0.27937678 0.022113046 0.22845447 -0.0066553466 0.47153664 -0.7309164 0.28910452 -0.016335186 -0.3564463 0.87208796 0.56885225 0.13062592 -0.007096716 0.114041746 -0.49968055 0.21506603 0.3828701 -0.81592566 0.9209924 0.65477735 -0.39637718 0.3432533 0.49526352 0.20534894 0.02418132 0.11053416 0.5631668 1.3540277 -0.7622878 -0.068642795 0.23975722 -0.17215686 0.4948188 -0.12463339 -0.27110162 -0.30037332 -0.6590483 0.6986028 -0.08555928 0.47946143 0.68943554 0.808035 0.025084797 0.4323711 -0.11163943 -0.34353203 -0.036961347 0.27045146 0.072368845 0.18180905 -0.40045777 -0.9819524 -0.023734404 -0.40676573 -0.45857286 0.26088542 0.2603032 0.20747691 -0.80794466 0.48259634 -0.40791267 -0.28289917 -0.16667779
2877 0.76617396 -0.4705407 -0.47451788 0.13699558 0.2671195 1.0992441 -0.17592062 0.12596866 -0.2818656 0.44687507 0.42915568 0.31000376 -0.6129368 0.104868054 -0.3161933 -1.2247978 0.48682266 -0.45939213 -0.14885667 0.38401815 -0.14704917 -0.7128045 -0.80843747 -0.5372711 0.37779227 -0.38101247 -0.01786985 -0.02964813 0.63465726 -0.19648843 -0.80693316 0.29337117 0.179273 0.29226556 0.13527738 -0.9583412 -0.32105857 -0.82304984 -0.14514382 0.12559426 -0.611931 -0.23636763 0.49905613 0.07256062 0.18578738 -0.38330373 -0.5464643 0.25300786 1.2294573 0.5838916 -0.33962432 -0.19948629 -0.20908351 0.54354906 -0.93163735 -0.30599332 0.9194951 0.25861442 0.4083856 -0.679023 0.12807134 -0.49166307 -0.6750336 0.27941787
136 1.0262862 -0.68202186 -0.66916907 0.48911116 0.606767 0.27811357 0.3426371 -0.37262863 -1.3176326 -0.5889475 0.49997652 -0.34345096 0.018810453 0.17065866 -0.9808097 0.43389967 0.4858611 0.2522762 -0.65678084 0.1515676 0.48017976 -0.09252192 -0.41070372 0.52058387 -0.39106002 0.081492424 -0.16087036 -0.58935606 0.5789032 0.939573 0.412807 0.021662924 -0.40015236 0.37982693 -0.5780179 0.41331968 -0.5172687 -1.0356536 -0.8964442 -0.27283353 0.26680082 -0.0017670557 -0.4320019 -1.0570972 0.4116355 -0.7857875 -1.2287847 -1.1759192 0.73627454 0.5108634 -0.54720384 -1.101656 -0.66269565 -0.080281064 -0.44650957 -1.0319377 0.3987039 0.37069726 -0.42844692 -0.073559314 0.2517488 -0.13469729 0.29847124 -0.1313152
702 -0.16787562 0.21455286 -0.45373827 0.023315309 0.282837 0.41665342 -0.46493152 -0.71613294 -0.77447546 0.06751873 0.3470992 1.0775417 -0.9055201 0.5100311 -0.4505374 -0.09236412 -1.1318984 0.31267866 -0.36813512 0.7740289 0.33115047 0.119750746 -0.2829371 0.35080162 -0.14830385 0.029882375 0.055101812 0.6573185 0.36602533 0.13444161 0.2690136 -0.3818031 0.106122516 -0.49969348 0.06266339 -0.93346876 -0.27073804 -0.17478184 -0.33334944 -0.094912976 -0.6041913 -0.023025876 0.06873596 -0.4380549 -0.2205196 -0.057848144 -0.091031216 0.5524512 -0.32604805 0.47310412 -0.22443822 -1.0063479 0.6817266 -0.3377373 -0.3937409 -0.22582453 0.06708306 0.18183194 -0.38730824 0.056559928 0.9038598 0.26862875 0.5357045 -0.96157044
9336 0.33886167 -0.48049822 -0.32248932 0.0274805 0.5070972 0.47198325 0.033598278 -0.40270972 -0.5404287 -0.26050532 0.19609751 -0.5190536 -0.059697025 0.7564057 -0.442876 -0.030614356 0.08825193 -0.08158314 0.27457812 0.6207712 0.6189887 -0.13457523 -0.41643938 0.11587857 0.2862598 0.21327366 -0.058737934 0.549149 0.59093577 -0.18033361 -0.09204147 0.1509431 -0.4987399 -0.055525407 -0.54487073 0.08884581 0.49401212 0.07517828 0.41717616 -0.4317753 -0.37799695 0.3692116 -0.28432178 -0.40873623 0.52100044 -0.4220027 -0.07209088 0.30451068 0.6126884 0.21077476 0.2948071 -0.8473854 0.2042589 -0.1861037 0.583191 -0.28146458 -0.39865854 0.26196685 0.05808978 0.5885115 0.29552028 -0.86542547 0.08699915 0.06545128
1899 0.74672806 -0.07238105 0.106297605 -0.11404874 -0.22891513 0.39183626 -0.5575455 -0.41370776 -0.5533125 -0.6193024 0.29200855 0.44565246 0.27378365 0.12778549 0.43610132 -0.30222046 -0.37898147 0.2619472 -0.29659542 -0.14474435 0.5880578 0.059324127 -0.21751206 0.13636342 -0.20932296 -0.34305006 -0.27946463 0.35083205 -0.080097936 -0.1582952 -0.07061979 -0.30027336 -0.52329427 0.28357142 -0.91915816 0.49081677 -0.99889565 -0.33102596 0.23295212 -0.36816165 0.29653597 -0.40625432 -0.044658765 -0.20126115 0.635986 0.25822708 -0.46996143 -0.21722907 0.21486959 -0.04798098 -0.01090098 -0.885605 -0.42668593 0.92236686 0.15674925 0.39743158 0.17811428 0.36454463 -0.010651346 0.03901502 0.18918513 0.09954377 -0.14800921 -0.46212488
4777 0.18979734 -0.474227 0.2284178 -0.6788622 -0.11387828 0.469257 -0.18747945 -1.1042769 -1.0059041 0.16781735 -0.08722444 -0.61202073 0.59138554 0.18132234 0.1259898 -0.00063410145 -0.6685802 -0.3642378 -0.7691642 0.22673792 0.3796589 -0.17249227 -0.43202108 -0.7280323 1.2538203 -0.012973828 -0.24171077 0.24778728 -0.15430221 -0.4634998 -0.42088023 0.9202007 -0.22627231 0.33002493 -0.30236375 0.20366138 0.5391684 0.3407726 0.04820847 0.36267197 -0.30489933 -0.14771023 0.3832649 0.6407242 -0.105298616 -0.7176947 -0.3158848 -0.18913028 0.01700913 -0.20031849 -0.34267733 -0.2876942 -0.23085172 0.67919004 -0.06619364 -0.18610358 -0.16875587 0.4737739 -0.20143816 -0.6660913 0.79495406 -0.48547465 0.85524404 -1.1286044
3123 -0.2455681 -0.9892875 0.09102812 0.039667517 0.16899845 0.32419595 0.012092784 -0.46045408 0.17502321 0.2308252 -0.62887454 0.2451542 -0.5859468 0.86710244 0.14300379 -0.90337706 -0.09346083 -0.39938033 -0.19321708 -0.2674633 0.54129636 0.64910835 0.196748 -0.4759512 0.48569238 -0.22309938 -0.22072995 0.5981497 0.1155873 -0.62935835 0.6758392 0.4626399 0.9316803 0.70927435 -0.7924479 -0.029517101 -0.08047886 -0.665436 0.41580087 -0.6000863 0.09473476 0.25906652 0.51350087 -0.3942263 -0.10670308 0.33872977 0.032313768 -0.16355202 -0.24905622 0.19917174 -0.16226697 -0.58443606 -0.38277292 0.29418352 1.0419909 -0.45576566 -0.05325794 -0.121503845 0.07293533 0.1002338 0.8406553 -0.028203057 -0.3410999 -0.23229389
7630 -0.4583064 -0.6924337 0.15829563 0.28045604 0.16554914 0.73199743 0.20294231 -0.09628258 -0.07261762 0.0632081 -0.04715631 0.13219346 -0.13050975 0.48314407 0.01700003 -0.7929337 0.34686303 0.019890057 -0.3079762 -0.104406595 0.69913554 0.5430449 0.46253717 -0.022465982 0.51448745 -0.31789988 0.013149519 0.09019652 0.6336208 -0.1846206 0.01647147 0.50607234 0.26333565 0.105763845 -0.7186339 -0.20353505 -0.56096715 -0.21928716 0.11112597 0.0003683567 -0.40107825 0.31799138 0.48406768 -0.03820156 0.13011661 -0.071345866 0.13654572 -0.048410546 -0.52499133 0.08894764 -0.15785898 -0.58557093 0.07712226 0.09893846 0.27577984 -0.43224367 -0.2870316 -0.01266755 -0.21098185 -0.25026402 0.7709416 0.22833668 -0.68133324 -0.36223862
4475 0.21991388 0.16502716 -0.24359064 -0.1864444 0.19208732 0.40245423 -0.08702541 -0.30909523 -0.37998435 -0.29475984 0.45107073 0.6737245 0.117373265 -0.024027016 0.14246032 -0.20271876 -0.052451048 0.5263922 -0.0067367153 0.9078054 0.79865503 -0.34920934 -0.5446122 0.44109407 -0.18708108 0.19363904 0.19348547 0.56984246 0.23788172 -0.5019878 -0.25431293 0.28742644 -0.16805415 0.72714317 0.30560514 -0.801414 -0.45664313 -0.583359 0.50294966 -0.31251886 0.22594668 0.056772713 0.70047855 0.5884387 0.42684498 0.31763747 0.019380214 -0.05695987 0.24510764 0.17380638 0.2241525 -0.51018506 -0.87391037 -0.092698045 -0.53103393 -0.59931254 0.3054444 -0.23577647 -0.15662368 -0.38632703 0.3330306 -0.31763142 0.014224344 -0.379102
820 0.38700148 -0.01918334 0.23411122 -0.13565673 -0.226802 0.15036201 -0.18480733 -0.13755518 -0.48898956 -0.54815686 0.52886415 0.67718744 0.13111392 0.32971215 0.69206107 -0.450224 -0.09875907 0.090248644 -0.4138444 -0.2510781 1.0223179 0.12517257 -0.22386846 0.37348074 0.12367242 -0.6470459 -0.35543942 0.081752986 0.54098207 -0.055339884 0.10072916 -0.40672848 -0.33517915 0.17214452 -1.0613071 0.49531952 -0.97810125 -0.10585108 0.3719391 -0.41449443 0.17983839 0.008738505 -0.14959836 -0.050919995 0.5148085 0.26309946 -0.6243054 -0.2942385 0.03119547 -0.042584207 0.2543342 -1.0669299 -0.097283185 0.56370306 0.0054436754 0.27968565 0.32206982 0.47277385 0.34487146 0.009915536 0.13564342 0.44203725 0.15321602 -0.6037857
2786 0.22213061 -0.94427204 0.71226555 -0.20228046 0.15903929 1.1040694 0.48593414 -0.56155044 0.37878656 0.31653333 0.01926406 0.13873269 0.12413367 0.20590875 0.6828092 -0.49804074 -0.11347715 0.61381507 -0.7708816 -0.082571775 0.40331316 0.15347396 -0.09007153 0.38314474 0.23529597 -0.02784426 -0.28785643 0.46251354 0.39542416 -0.057002753 0.51428026 -0.06378179 0.32563436 0.24975021 -0.16516213 -0.477822 -0.01717581 -0.31552184 0.1687618 0.3348148 -0.28698948 0.04280036 0.24774174 -0.28656733 0.102069624 0.23670247 -0.2885885 -0.48686 0.1688094 0.15128928 -0.10156312 -0.2735201 -0.11023574 -0.3168051 1.0634023 0.277343 0.30352634 0.47087568 -0.47871268 -0.56397086 0.5894802 -0.16560899 -0.3659494 -0.24228024
9449 -0.15838353 -0.41829786 -0.077018976 0.1032315 -0.6568479 0.8166476 -0.09219273 0.3080561 0.16941713 0.22863692 0.50928164 0.34732592 -0.23221344 -0.51952904 0.34763715 -0.28160736 -0.30003628 0.21159711 -0.14809649 0.07281583 0.13509402 -0.04558643 -0.16208732 0.43914524 0.0038785865 -0.3779664 0.078544445 0.3039719 0.4271827 -0.59912306 0.4459756 0.42389357 -0.34392366 0.38048142 -0.5756573 -0.28828853 -0.051364407 -0.10876979 -0.49139607 -0.28311855 -0.84548086 -0.46182343 0.8564624 -0.093250565 -0.22111957 -0.7337204 -0.39123154 -0.49671248 0.19013105 0.15271458 0.28380904 -0.4845231 0.28124827 -0.0014999242 -0.20907563 -0.671962 0.13547726 -0.04508725 0.06759494 0.36447486 0.3781853 -0.585714 -0.83611214 0.3950367
2060 0.8115113 -0.15519868 0.1345954 0.44189832 -0.47085947 0.04816485 -0.2678341 0.22653739 -0.7163846 -0.6152516 0.36324084 -0.11332982 0.33304274 0.07880382 -0.028089872 -0.77020216 0.6123587 0.33609414 -0.65320104 -0.1470394 0.1540309 -0.2505185 0.15134533 -0.22629379 0.036935735 -0.06199233 0.13216871 0.77956563 0.8713155 -0.18846366 0.1809596 0.63104284 0.15253328 -0.055249512 -0.36568406 -0.12064034 -0.36447817 -0.013690184 0.3701922 -0.25120574 -0.41851386 0.98613864 0.18868387 -0.45074674 0.26736647 -0.6120869 -0.14638752 0.38440913 0.75182223 0.82046556 0.5819331 0.012979588 -0.083761096 -0.1398222 -0.11039943 -0.024464628 -0.3080819 0.56262636 -0.03238153 0.36418244 0.6408542 -0.37884146 0.015818315 0.07618322
260 0.48229563 -0.03378383 -0.6651354 -0.320087 0.36688447 0.6779767 -1.2269827 -0.9164435 0.6720179 -0.019375633 0.006939076 0.9384094 0.41125953 0.3648247 -0.06002702 -0.3158892 0.5257013 -0.23485471 -0.6966419 -0.70784366 0.30451348 -1.1243451 -0.76508343 1.6804256 0.4455861 -0.1236267 -0.7505535 -0.5575034 -0.3141047 0.91837394 0.3220529 0.04897381 1.0312518 0.7625316 -1.1593235 -0.6787824 -0.5646847 0.22227183 0.6277776 0.24621364 -0.5207289 0.3778349 1.4756907 0.084902525 0.5186142 0.40198526 0.580689 -0.39737278 0.7857593 0.6750786 0.78425914 -0.4767718 0.15891324 1.0255978 -0.35900307 0.027593946 -0.009477641 -0.9169193 -0.14556372 0.304524 0.5672168 -0.10091107 0.5169201 0.07550869
3842 -0.0062387073 0.12588425 0.21053715 0.2519566 0.07690532 0.7094865 -0.302773 -0.1335184 -0.9367399 -0.24074739 0.06914932 0.9952093 -0.5433494 0.5418439 -0.17635995 -0.2077683 -0.68855774 0.20801614 0.09727244 0.37816346 0.9391955 0.3118262 0.15408751 0.4195905 0.3308549 -0.72657365 0.0006785712 0.6963775 -0.029361673 0.11780036 0.2368058 -0.28124502 0.21578632 -0.12625442 -0.89885753 -0.37274808 -0.053225413 -0.21331383 0.033653922 -0.31671512 -0.18569241 -0.002291976 0.5239501 -0.53862137 0.043902695 -0.076055735 0.013473537 0.2744342 0.063178465 0.066268176 0.5146891 -1.120317 0.21113126 0.23276417 0.80058056 -0.25158137 0.3587126 -0.18239194 -0.22820167 -0.4861455 -0.10141847 0.19628802 0.13287187 -0.9758776
6059 0.12362388 -0.28437966 -0.13412194 0.15184247 -0.97705746 0.9754153 0.021072796 0.067483 0.22387257 -0.21496694 0.07489759 0.13054977 0.29936728 -0.56573856 0.28579977 -0.6588205 0.11896437 0.12766698 0.12029074 0.3764883 0.023402048 0.6058974 -0.019720322 0.5789195 -0.27681857 -0.4387924 -0.5436904 -0.19457938 0.5070829 -0.8420914 0.37076375 0.12685719 0.17669097 0.33123946 -0.62293 0.39763582 0.051760703 -0.2310999 -0.4257647 -0.62223345 -0.63126266 -0.27530262 0.8446594 -0.559438 -0.13756387 -0.25370088 0.06467819 -0.40369886 0.30472937 -0.4878429 0.23955755 -0.47800523 -0.13149743 -0.3255943 0.0464393 -0.027682252 0.35805583 -0.049618475 -0.06425882 0.22615585 0.6650998 0.11642752 -0.6518651 0.100092605
6980 0.30016857 0.00592585 -0.35166854 -0.09824761 -0.0020022509 0.5709185 -0.07300619 -0.24945743 -0.95410526 -0.31892738 -0.10729266 0.49723008 0.05645326 0.6183692 -0.3136829 0.4455259 0.02188043 0.6269941 -0.06326089 -0.37000912 0.15542714 -0.07334382 0.2885688 -0.18321668 -0.29738954 0.28082857 0.04920005 0.35142645 0.4795082 0.21024348 0.02853904 0.39902171 -0.09286958 0.18446124 -0.59396136 0.16629666 0.404045 0.012485181 -0.28120604 -0.103386894 -0.18605296 0.7336116 -0.11012777 -0.5568091 0.48154223 -0.23387893 -0.3271909 0.0647313 0.37284622 0.23385553 0.0761796 -0.7717841 -0.6224558 0.08774125 0.65415573 -0.51866704 0.06348645 0.21144857 -0.38574126 0.07633138 0.091272 -0.20641948 -0.017044771 0.21555129
8086 0.84609205 -0.098164305 -0.40147838 -0.38454908 0.23364836 0.21090631 -0.59072804 0.28016058 -0.6455411 0.27156258 0.026496017 0.06408733 0.097977035 0.61750764 -0.3722415 0.62175614 0.13767704 0.29265624 -0.47549748 0.23215924 -0.022621233 -0.095412165 -0.38831192 -0.13286762 -0.3654099 -0.09714463 -0.016167983 0.044740602 0.588642 -0.5093242 -0.5799564 0.4188623 -0.19122304 0.4037562 -0.3301021 0.49895117 0.5015208 0.1395624 -0.015550811 0.30685008 -0.5235205 0.6225393 0.14091644 -0.4508525 0.4977382 -0.52292764 0.08195704 0.067148544 0.3161559 0.01812478 0.49019438 -0.7472196 0.22235353 -0.24014065 0.6348239 -0.4334675 0.120243125 0.3540866 -0.2876377 0.41542712 0.4233204 -0.5191571 -0.06757894 -0.1648786
4781 -0.022150666 -0.25152174 -0.09286303 -0.56849784 -0.07942623 0.7434586 0.20065106 0.096929945 -0.7884478 0.6934602 -0.0007266967 0.35265124 0.17575298 0.56761515 -0.64155674 -0.27936476 0.35542825 -0.43544766 -0.12953068 0.641283 -0.18592003 0.17146385 -0.94744295 -0.30917776 -0.1945801 -0.4129843 -0.1435331 -0.44788966 0.3586715 -0.29300377 0.21507184 0.4037361 -0.48377725 0.15234865 -1.1207558 0.959607 0.13446023 -0.6322968 -0.04005659 0.6431366 -1.4187055 -0.4348456 0.7467737 -0.20754315 -0.13808276 -0.10659216 -0.16160636 0.12674768 0.23653026 0.051905137 0.30006823 -0.2313637 0.2954179 -0.30592173 -0.077439345 0.2845433 0.031503286 -1.1141347 -0.3049519 -0.098314874 -0.04319991 0.060488813 0.27613315 0.27604815
6939 0.38688415 -0.67579037 0.6532764 -0.24115406 -0.13823639 1.3430558 0.3413288 -0.1831042 -0.18585196 0.34189576 0.32118967 0.3955678 -0.5044283 0.6896775 0.3937164 -0.40029937 0.12720463 -0.024275992 -0.26827228 -0.17313096 0.22369857 -0.1174803 -0.0925436 0.06609675 0.12484958 -0.23100302 0.109074384 0.72444504 0.25696054 -0.3176649 0.38252455 -0.50149447 0.43894836 -0.005703346 -0.063812815 -0.33914736 -0.053609315 -0.580884 0.1255714 -0.6059143 -0.12863776 0.08375187 0.607334 -0.6437063 -0.60347724 0.33859998 -0.6300749 -0.6404831 -0.18436493 0.30227283 0.54753625 -0.21217303 -0.608472 0.0426778 1.0849648 0.25006413 0.27410525 -0.105685875 -0.47293383 -0.25022492 0.5575737 0.13633879 0.118878506 -0.56681216
269 0.8528685 -0.11617157 -0.32708454 0.0003248679 0.046271138 0.64203924 -0.43117723 0.030324234 -1.0805596 0.27989373 -0.36181787 -0.19345668 -0.5729115 0.39759773 0.5809928 -0.03768957 -0.46848562 0.21797459 -0.3456093 0.40305078 0.38853282 0.27877328 -0.6574767 0.40867656 0.23293172 0.5046623 -0.04284354 0.15178345 0.026765693 0.030150136 -0.5397179 0.06037619 0.021293044 0.4574092 -0.16152607 0.76078534 0.020146333 -0.19295831 0.23600447 0.36512098 -0.679532 0.54653007 -0.27295148 -0.4185515 -0.3475312 -0.541697 0.11387492 0.4923049 -0.010212921 0.044401627 0.038726956 -0.40091345 0.22353303 -0.3905867 0.6593267 -0.8662878 -0.24915873 0.22251302 -0.23743542 0.5731766 0.4657117 -0.89287335 0.44440514 -0.04571989
6045 0.67364895 -0.08773034 -0.55656815 -0.0027945037 -0.23573773 0.31310752 -0.053759143 0.014414945 -0.7836633 -0.5871024 0.06259484 -0.0604346 0.19090642 0.8724032 -0.44068307 0.104062386 0.15392181 0.50588995 -0.42434084 -0.20303607 0.21078633 -0.18823385 0.045727506 0.22039095 -0.05144731 0.16137102 0.11323646 0.030380666 0.4270217 0.4366236 0.4014458 0.2888968 -0.00040852162 0.10289239 -0.6754259 0.58512616 -0.26836985 -0.09038227 -0.39207214 -0.031564984 0.0051141656 0.7943887 -0.2760594 -0.4227651 0.3568569 -0.35311782 -0.8132511 -0.30765882 0.6457479 0.43272218 0.11221012 -0.73783714 -0.3758128 -0.5652275 0.32851973 -0.6609255 -0.01565541 0.27586657 -0.13112223 0.2579492 0.21692108 -0.012528855 0.05099319 0.076189965
3760 0.30715454 -0.32953346 -0.023172058 0.008539736 -0.023261176 0.29287905 -0.4937437 -0.2453359 -0.9581662 0.3038444 0.30251703 -0.0074497913 -0.20949745 0.7533342 0.046124425 0.5392115 -0.08208475 0.5840135 0.07339629 0.08123135 0.5457107 -0.16516781 -0.08645454 0.047861286 -0.40755627 0.27710164 -0.17340823 0.6847729 0.6307036 -0.21163349 -0.30401352 0.2434466 0.04377652 0.25618145 -0.7653297 0.14586905 0.53537136 -0.4759939 -0.76903355 -0.19669704 -0.4244453 0.09676582 -0.0346772 -0.19555962 0.3128035 0.18875715 0.016109487 0.10429539 0.30968374 0.0928218 -0.31229886 -0.41163522 -0.2330251 -0.35746935 0.3678942 -0.7172864 -0.27358532 -0.59243804 -0.5256213 -0.037130028 0.23302284 0.066088654 -0.06516424 0.41744104
3940 1.2993779 -1.5382787 -0.5419099 -1.0638217 -1.914984 -0.16087727 1.4484022 0.026901456 -0.9089415 -0.21451417 -1.6669269 1.0304784 -0.1760315 -0.321208 0.33608317 -0.115899704 0.0863543 -0.93576235 -0.9650237 0.9731812 0.6026652 -1.2249409 0.45496216 0.8240238 0.361392 0.35510612 -0.5532843 1.070556 -0.6279025 0.4683131 0.12397555 1.5611483 1.179825 0.48593974 -0.4144319 -0.88250947 0.96506256 -0.81609946 0.5541488 0.06994538 0.33745697 -0.27037582 1.396518 -1.5271864 0.049186256 1.2417406 -1.1842523 0.4546039 0.31808996 -0.73253256 0.78013754 -1.3717644 -0.012029299 -0.63704896 0.45644107 -0.23613347 0.08938159 0.88991517 0.36044124 0.059630018 1.099717 -0.8645746 -0.1791846 1.1727089
5771 0.17346641 -0.34176847 0.02985427 -0.021240583 -0.39344376 0.9100957 0.12595329 0.23309094 0.20063174 -0.0035787506 0.22680204 0.16761942 -0.21875864 -0.778749 0.36410818 -0.67259765 -0.12453471 0.5106527 -0.24347647 0.43601456 -0.073761806 -0.1794091 -0.26747507 0.52437484 -0.10820473 -0.391205 -0.21778637 -0.15587205 0.5317323 -0.7749701 0.75469035 0.15633744 0.05557959 0.2601313 -0.6625274 0.081071086 -0.06703564 -0.108811505 -0.24360003 -0.42174175 -0.6286679 -0.4051753 1.1243726 -0.21243097 -0.2546132 -0.31156188 -0.14519805 -0.005946648 0.6186979 -0.22945727 0.1420706 -0.38483608 0.3265713 -0.42820826 -0.25750533 -0.35481 0.29042783 0.07566813 -0.13376059 0.48392832 0.33588165 -0.517181 -0.92829436 0.22686644
7071 0.12906744 -0.31390482 -0.04359744 -1.0056332 0.19583914 0.4469153 -0.45151916 -1.0304822 -0.6154185 0.23327683 0.6791788 -0.56582767 0.45573118 0.12529758 0.07981479 0.14562817 -0.4765355 0.10953342 -0.29622033 0.45164528 0.41598448 -0.3141277 -0.35746887 -0.19746111 0.0740372 -0.11981213 -0.6846261 0.28598228 0.20063736 0.039108068 -0.63189155 1.0826638 0.25481516 0.59410226 0.024041524 -0.060608022 0.13996936 0.3828692 0.18375893 0.24494606 0.10979728 -0.29743084 -0.14376153 -0.27877465 0.1783301 -0.5297761 -0.18883196 -0.13013098 0.3298529 -0.12974232 0.1488138 -0.18670577 -0.6677757 -0.27066967 0.040459815 -0.17873678 -0.40892398 0.28742212 -0.15453303 -0.19397733 0.82688665 -0.42948872 -0.24025653 -0.64836174
4372 0.7842989 -0.545283 0.036732115 0.26793784 -0.9647266 0.8277486 -0.6004623 -0.48998553 0.21969004 0.56520486 -0.33742622 0.33359456 -0.2752976 -0.31195855 -0.8753225 0.2829783 -0.044846635 0.014576729 -1.079012 0.12346698 0.88184106 -0.542742 -0.18063165 -0.69460875 0.9507039 0.9444716 -0.98342955 0.22417942 0.43290198 -0.026833575 0.30222082 -0.33743635 -0.13198124 -0.1364502 -1.3155556 0.13618617 -0.8318477 0.56803733 0.47530487 0.16243437 0.4890777 -0.4649338 -0.84596765 0.7082814 -0.028431278 -0.15301876 -0.25333822 -0.23611079 -0.89854985 1.0634747 0.12267876 -0.38574567 -0.25817105 -0.22463667 -0.0671619 -0.15772018 0.8844396 -0.51744187 -0.8908134 0.98065555 0.7114356 -0.9203204 -0.39136 -0.30800804
5184 0.22426176 -0.41435876 0.15582326 0.09549098 -0.42807484 0.9123451 0.31347618 -0.16612332 -0.39182708 -0.3316928 0.40654647 0.6054825 0.21440431 -0.3110725 0.23436728 -0.18669473 -0.026071476 -0.08958134 0.41439775 0.06956676 0.27585524 0.46933043 -0.008042302 0.21427049 -0.06432534 0.5019637 0.34328905 0.31507438 -0.14061041 -0.7793077 -0.11507185 0.116287924 -0.5288641 0.7086492 -0.27036446 -0.48148826 -0.48372898 -0.45974603 -0.52590716 -0.029564405 -0.60352486 -0.14383413 0.570431 0.3687156 -0.3648999 -0.6160412 -0.45481434 -0.5761264 -0.021110496 0.10430521 0.46508417 -0.38066968 0.059506845 0.26052436 -0.116237275 -0.009680806 0.2084245 0.474001 -0.4663012 0.24962741 0.25857022 -0.60620415 -0.2302148 -0.015024716
3248 -0.043369345 -0.92722416 -1.2423881 0.24643646 -1.305049 0.80839705 -0.41874757 -1.5044081 -0.05054539 0.779638 0.18034667 -0.9598583 -0.23426299 0.15385766 0.30038893 -0.17182168 0.3433896 -0.3385203 1.0490417 0.6752697 1.2228884 0.8409619 -0.3646307 0.87963206 -0.91110855 -0.35886496 0.21115421 0.5501831 -0.3353566 -0.54701376 0.51087177 -0.87913865 -0.26720127 0.64757264 -1.5155227 1.2190504 -0.6254648 -0.056359366 0.4341028 1.2694169 0.5403033 1.1378171 2.0640295 0.38614136 0.6225007 -0.66199 0.28202888 -0.100797154 0.8716127 1.3206984 1.0165244 -0.06853105 0.20738593 -0.47278705 0.10218748 -0.24861047 1.5313023 -0.024589114 -0.47552705 0.5989211 0.7693404 0.21343568 0.76536286 -0.07621025
4260 0.54159796 0.034257524 0.04646204 -0.57268405 0.19398808 0.5653984 -0.80996 -0.8531512 -0.78160137 -0.11043239 -0.37016407 -0.7164959 0.4826913 -0.07361475 -0.15385681 0.51988554 -0.25238666 -0.91635257 -1.4124223 0.42249355 0.5083886 0.41564548 -0.8406092 0.5492128 0.6131498 0.2042302 -0.5021695 0.82098395 -0.3767427 -1.1997278 0.053371195 -0.44116583 -0.25846216 -0.005919659 -0.8513211 0.32962462 -0.3756607 0.5052231 0.12814312 -0.41073707 -0.6313477 -0.33479896 0.902446 0.20085087 -0.19476217 -0.7841622 -0.58830994 0.73041755 0.26820222 0.30022994 -0.9941669 -0.36795172 -0.13740385 0.13589078 0.5999518 -0.9189828 0.5245868 0.9019866 -0.28839895 -0.44599634 -0.11431902 0.6561513 0.8822094 -0.6903441
7792 -0.14821836 -1.0660877 0.22479628 -0.030934151 0.08341109 0.4062213 -0.2838461 -0.52033675 0.05202182 0.68294257 -0.43346116 -0.033436548 -0.33909577 0.57644296 0.086463675 -0.52941513 -0.20009986 -0.3459327 -0.106527805 0.015103658 0.45657623 0.545198 0.15393533 -0.3782635 0.0788417 -0.17148946 -0.43624082 0.42410195 0.16826072 -0.6496068 0.8899626 0.66212296 1.1075102 0.58456767 -0.65852475 -0.12093262 0.11355917 -0.5153762 0.12302499 -0.6381623 0.0676229 0.10935736 0.65617085 -0.5769338 -0.3172608 0.36083004 -0.1058661 -0.41322672 -0.47735697 0.15530285 -0.73543096 -0.6293343 -0.46026564 0.10924462 0.8718623 -0.21126658 -0.14950447 0.02625859 0.049280785 -0.16311036 0.80808717 -0.07756682 -0.44661048 -0.3959919
885 -0.8520223 0.28764668 0.27386376 -0.8178366 0.7595111 2.0510805 -0.7777 0.20559195 0.8555772 -0.25188065 0.08511703 -0.5922068 0.07509926 -0.6122028 -0.26777682 -0.20208678 -0.255393 -0.22493176 -1.3242341 -0.66411763 2.2774103 -1.470541 -1.3195496 -0.9335929 -0.5974076 -0.3130724 -0.37279227 -0.3124584 -0.32950222 -0.5078107 0.47328788 -0.7321442 0.0682683 -0.00051142834 -1.3029205 0.07906796 -0.22833759 -0.5532435 -0.8189499 0.46155074 0.102362454 0.24325383 2.3069205 0.11455332 -0.18179022 -0.41459617 0.10102667 -0.3319916 -1.1241233 -0.045904882 -0.119419016 -0.37965098 -0.19041234 -0.49585247 0.87333775 -1.1779835 -0.44640696 1.2477676 -0.25420964 0.44198006 0.6447614 -1.3238505 0.6785314 1.6507487
5828 0.44528064 -0.81288695 -0.29981664 0.31872568 -0.13354272 0.7144383 -0.03264085 -0.3972454 0.38095593 0.23642659 -0.9390868 0.5046793 -0.514665 0.12252698 -0.23523284 -0.09686144 -0.064615145 -0.2531039 -0.14224707 0.7663269 0.5584122 0.46832275 0.075551696 -0.046146728 -0.36783442 -0.62894565 -0.3339406 0.06016228 0.18318789 -1.2481824 0.18545589 0.28276587 0.6135811 0.51570123 -0.7457542 0.06766187 0.053240713 -0.08900846 -0.1815088 -0.7936686 -0.034053132 0.42306164 0.587222 -0.4732622 -0.18930368 0.22193003 -0.093968675 -0.7655374 -0.78772795 0.22496866 0.03121717 -0.11206815 -0.47883874 0.66171896 0.5821817 0.29211122 0.4233846 0.09620454 0.049930155 0.17273146 0.63849896 -0.07117936 -0.09650185 -0.66015744
4392 0.57488096 -0.43297645 -0.31427544 0.3899124 -0.5207773 0.44762245 -0.30653846 -0.36794028 -0.7969297 0.26902768 0.10229981 0.3091953 -0.17045696 -0.38730866 -0.17827117 -0.6312433 0.22926003 0.13971072 0.5136842 -0.22716165 0.043132324 0.0061128805 -0.015422448 0.42730597 0.4936713 0.079668 -0.5064131 0.52159435 0.12976095 -0.035427384 0.6557914 0.42115 0.18270881 0.19751021 -0.42365494 0.14966612 -0.33904898 -0.09716858 0.4091147 -0.047408693 -0.5562296 1.1162812 0.014766138 0.19504997 -0.40909854 0.008356887 -0.23261464 0.44487768 0.27446917 -0.06385352 -0.49951977 0.063479364 -0.06460001 -0.21494682 -0.013161813 -0.85637975 -0.94866586 0.95240325 0.19436021 -0.5045834 0.51793057 -0.049131125 0.19257128 -0.28492588
1905 0.18973427 0.19921869 0.24430965 0.1963485 -0.41030917 0.52365166 -0.22368737 -0.097975165 -0.90358484 0.6329454 0.6306798 0.17917746 0.15712476 -0.08063 0.3427361 -0.21207899 -0.16707943 0.46177718 -0.1957651 0.48748618 0.6505494 0.11340378 -0.4418135 0.4604472 0.055000942 0.15304734 -0.21326545 0.13428919 0.6680296 -0.5468466 -0.46560448 -0.15904924 0.1788457 0.05938036 -0.95406985 0.15188298 0.8295233 -0.314591 -0.78161484 -0.42973888 0.06273384 0.2824744 0.22069404 -0.43397397 0.24713135 0.31408983 -0.27976424 0.10378671 -0.09957161 0.6581673 -0.24230254 -0.5411883 0.0012398466 -0.6404505 0.27095106 -0.41253534 -0.6512342 -0.5200997 -0.22669613 -0.34367234 -0.023666238 -0.25383687 0.0074525666 0.17284581
