61 10
2 -0.15185846 -0.6145762 0.05458041 -0.20290989 -0.96598244 -0.38971496 0.727808 -0.07150163 -1.2351843 0.08863991
0 -0.062040344 -0.7256528 0.3096364 -0.19150932 -0.85030377 -0.3762169 0.6600739 -0.18263046 -1.0786039 0.13175733
1 -0.48769316 -0.75142485 0.6354172 0.0011281836 -0.6198639 -0.5746187 0.5283137 -0.26945293 -0.831799 -0.19575791
3 -0.6948294 -0.5836144 0.49184677 0.055710778 -0.5003918 -0.47905034 0.62876546 -0.15664704 -0.7375493 -0.056690622
31 0.052611034 -0.7094186 0.33858576 -0.33639523 -1.0695531 -0.34743166 0.63691115 -0.13046539 -1.3911285 -0.045218777
34 -0.95245117 -0.66212606 0.46671253 0.29596645 -0.3852546 -0.5782486 0.55683106 -0.17092143 -0.86457014 -0.044300675
35 -0.9775332 -0.62058383 0.54228157 0.34926686 -0.48034325 -0.6423786 0.60272664 -0.31636807 -0.96313876 0.043502506
30 0.10701808 -0.8033404 -0.02064543 -0.3006225 -0.86810684 -0.1391375 0.5980274 0.06902813 -0.92310643 0.04470797
32 0.12286929 -1.1008238 0.1370892 -0.10613564 -1.116309 -0.30232126 0.7800971 0.08098068 -1.1822189 0.08789698
33 0.040004525 -0.85885423 0.08600484 -0.12296656 -1.0463154 -0.31743547 0.62688816 0.022080336 -1.2025213 0.118032776
12 -0.2934068 -0.4764616 0.7940937 -1.1051666 0.5365997 -0.12360718 -0.32034427 -0.1173966 -0.65921205 0.05237194
14 -0.43367362 -0.32595855 0.17171824 -1.2175052 0.31863806 0.17978685 -0.19713882 0.025447827 -0.4415392 0.16736922
8 -0.8448313 -0.4434913 0.57815754 -0.28143364 -0.71945703 -0.1305676 0.4814367 -0.33545473 -0.1131527 -0.041660264
7 -0.6990301 -0.7117491 0.36396772 -0.20566344 -0.47654077 -0.1114412 0.43618536 -0.23410732 -0.30593875 -0.22733027
11 -0.7712299 -0.36814824 0.82648104 -0.80594766 -0.8500797 0.15726592 0.3955045 -0.2198506 0.644864 -0.27496934
13 -0.3310458 0.019076629 0.869216 -1.2492048 -0.4286768 0.07374716 0.30394247 -0.5102457 0.25703803 0.26830363
9 -0.57296574 -0.48781168 0.46954256 -0.50384015 -0.03869875 -0.19978498 -0.1465628 -0.10542388 -0.57501066 -0.18736616
26 -0.6136015 -0.7389921 -0.2051718 -1.1717098 1.0832858 -0.42938438 0.70318764 -0.048998628 -0.27400354 -0.23604487
10 -0.82750463 -0.25527418 0.45176762 -0.50640315 -0.96927595 0.20674 0.49872208 -0.35117415 0.21032469 -0.010848017
27 -0.24520214 -0.5539786 0.8180589 -1.1392248 0.5461947 0.22474071 -0.25489953 0.20055892 -0.69595194 0.32585546
24 -0.2013751 -0.45426485 0.92206985 -1.248432 0.56339496 0.21069546 -0.21422052 0.017073575 -0.59501153 0.28953332
5 -0.7369964 -0.38396865 0.42588168 -0.26446655 -0.8033631 -0.31219986 0.6336739 -0.64315486 -0.18067825 -0.33451352
41 -0.8755059 -0.9986605 -0.21204118 -1.2479564 1.23607 -0.47467905 1.3574584 0.007116679 0.07424582 -0.24018958
28 -0.6317859 -0.5403127 0.48854756 -0.7943443 0.24864589 0.2624248 -0.059538092 0.14698537 -0.34858257 -0.06578623
23 -0.5256382 -0.3077039 0.75189984 -1.1938297 0.41260168 0.31662306 -0.4207888 0.22130594 -0.68635315 0.17333876
21 -0.8503419 -0.013167479 0.5148012 -0.9252682 -1.0246347 0.4131361 0.3171481 -0.41193885 0.427269 0.5550995
53 -0.60385054 -1.0709655 -0.8034791 -1.2256286 -0.2707926 0.49224985 -0.9918938 -0.29135272 0.14140883 0.41235211
38 -0.34994602 -1.2025231 -0.3440439 -0.71282357 0.429604 -0.10475575 -1.2844807 -0.27447453 -0.7246563 0.17748076
60 -0.67961144 -0.83910173 -0.32974803 -1.8255042 0.95464534 -0.22981615 1.2374787 0.41556484 -0.027830562 -0.30870387
40 -0.66475546 -0.7656612 -0.42943606 -1.3147196 0.88399094 -0.115012325 0.04083311 0.38092095 -0.22216511 -0.0098969005
43 -0.7432982 -0.7088981 -0.3627605 -1.5693854 1.1015288 -0.40549833 1.358969 0.42823783 -0.28883368 -0.2998557
42 -0.77276146 -0.8721448 -0.4516765 -1.5088174 1.2592971 -0.48036322 1.3332442 0.42426398 -0.32468665 -0.14048351
39 -0.8131363 -0.87568724 -0.7955283 -1.1408134 -0.025206415 0.43663132 -1.4100165 -0.56881124 -0.780167 0.46061394
16 -0.7488686 -1.1179218 0.6913382 -0.60358083 -1.3409469 -0.45821357 -0.12555411 -0.66675633 1.3614981 1.7383912
15 -0.3242013 -0.75522447 0.7378629 -0.4723994 -0.8368356 -0.23197368 0.2632979 -0.43056867 0.8896856 1.4104682
6 -0.6661974 -0.8835121 0.51357067 -0.1154019 -1.519209 -0.27713606 0.22022077 -0.8294681 0.45376018 0.28944212
49 -0.5694046 -0.7997187 -0.8191884 -1.4037714 0.32830077 -0.070995115 -0.13701063 -0.4816022 0.61665016 0.03988788
20 -0.65503794 -1.3539207 0.08238287 0.23322268 -1.4743408 -1.0683994 0.11085926 -1.1708299 0.6324335 0.69479
18 -0.62893176 -1.3965335 0.48558527 -0.59278846 -0.9763329 -0.9171166 0.030577043 -1.0632895 1.4115512 1.7951909
56 -0.87074864 -0.64944476 -0.4857702 -1.1328729 0.06392797 0.3488488 -1.2578433 -0.5009276 -0.6536848 0.24036455
51 -0.6845633 -1.2218161 -0.5289093 -1.4027601 0.30745858 0.11379178 -1.4255655 -0.7691034 -0.18564007 0.8112766
25 -0.58835477 -0.16415821 0.61538965 -1.216779 -0.06770437 0.4023922 -0.3973072 -0.14842169 -0.42395404 -0.034831144
44 -0.7512047 -0.79442227 -0.91069466 -1.4871502 0.5244688 0.11794217 0.24950513 0.31650206 0.09871634 0.020622028
19 -0.35940814 -1.37412 0.30159923 0.179989 -1.5685154 -0.67904603 -0.18433218 -0.8861334 0.34752297 1.1298145
45 -0.67491865 -0.7531831 -0.3346573 -1.565674 1.1439954 -0.12629761 0.51809084 0.19629179 -0.4714419 -0.13678074
22 -0.5562219 -0.33595988 0.34741223 -0.8418577 -0.33598557 0.2343084 -0.26099238 -0.24735793 -0.04823251 0.16572751
17 -0.92184436 -1.4618914 0.6396817 -1.0175492 -1.0460159 -0.46384957 0.10295882 -0.6769006 1.5558445 2.0677829
55 -0.6444285 -0.99821746 -0.3161643 -1.0998771 -0.011017475 0.19133908 -1.2625564 -0.4795677 -0.19651519 0.533791
58 -0.780553 -0.67554545 -0.4918255 -1.4007518 0.10401197 0.27262527 -0.3673506 -0.07474093 0.37853417 0.26098716
54 -0.68446916 -1.019452 -0.15372416 -1.1120981 -0.043327183 0.17055379 -1.3179028 -0.5796099 -0.10450927 0.4077396
29 -0.65321213 -0.5928016 0.05779787 -0.8210385 0.1605317 -0.048641082 -0.31281626 -0.509504 0.13859807 0.28945255
50 -0.84307563 -0.966075 -0.6849265 -1.4550254 0.20461248 0.22887968 -0.8695111 -0.35092452 0.07365573 0.4425923
37 -0.63758415 -0.6518169 0.3171483 -0.63836694 -0.050235584 -0.011349067 -0.23349446 -0.1859714 -0.106935 0.30133992
46 -0.86303025 -0.67178315 -0.21221377 -1.4269803 1.1350914 -0.26168865 1.0945369 0.30418202 -0.21487692 -0.2070315
48 -0.8708279 -0.7024968 -0.29943737 -1.6382321 1.1423491 -0.27132806 1.0476955 0.2320968 -0.022617484 -0.1863581
52 -0.7743199 -0.76945037 -0.31997243 -1.3643451 0.1963833 0.2173646 -0.9164172 -0.5277338 0.05719535 0.36311975
47 -0.8763464 -0.5701036 -0.27310482 -1.3270872 1.0409342 -0.21322447 0.7696035 0.19564782 -0.11315787 -0.25171086
4 -0.3462288 -0.6900342 0.24867694 0.08074669 -0.46761328 -0.60054374 0.52128893 -0.17939396 -0.67788696 0.069438644
36 -0.19816844 -0.76122546 0.24843602 0.07009143 -0.5479471 -0.6213843 0.6554644 -0.1399765 -0.7502774 0.20551245
57 -0.80276495 -0.84488857 -0.34170997 -1.2728297 0.03610897 0.14162676 -0.8334025 -0.4858192 0.123976715 0.41852185
59 -0.8881891 -0.8992425 -0.2275049 -1.4061311 0.024993122 0.16265556 -0.8323939 -0.6072438 0.264427 0.5062368
