61 64
14 -0.10856327 -0.15296169 0.01659126 -0.30598876 -0.007523165 0.09690238 -0.16376576 -0.20771487 0.03785378 0.1707568 -0.03778243 0.22051233 0.02967762 -0.06416754 -0.0001465512 -0.14189574 -0.3633186 -0.1516858 0.060440715 -0.09366377 0.46849468 0.06456659 0.06536784 0.20564213 -0.3079345 0.038443085 -0.10035224 0.08410098 -0.1295775 0.18471138 -0.029710887 0.17553294 -0.10163002 -0.15966196 0.05614763 -0.19872977 0.15277518 0.12993023 -0.12037719 -0.111755446 -0.08514259 0.25390503 -0.14369619 0.10257934 0.038161613 0.65280116 -0.12480038 0.30816445 -0.170752 -0.0693689 -0.19265412 0.08740783 0.16295038 0.103576384 -0.08977496 -0.21881554 -0.029942295 -0.05942385 -0.07061099 -0.21091166 0.15101701 0.07061468 0.052520577 -0.184439
13 -0.04483263 -0.118431896 0.046678383 -0.3260895 -0.07640293 0.15311879 -0.08961274 -0.3169996 0.015425218 0.18945453 -0.14349496 0.10117721 0.029368885 -0.14384316 0.07481841 -0.07323777 -0.25486517 -0.24474582 0.021276297 -0.064949244 0.57776123 0.058894414 0.015827887 0.29055363 -0.39964956 -0.07593072 -0.007006502 0.14344698 -0.16531424 0.15519014 -0.101778105 0.14987956 -0.15380558 -0.28692955 -0.16716157 -0.26888344 0.30190343 0.16907221 -0.07290962 -0.18918608 -0.14758453 0.17498979 -0.12194123 0.20725903 0.09192212 0.73113066 -0.05028021 0.37848562 -0.1802054 0.07115553 -0.052954536 0.25922507 0.0654606 0.11181319 -0.13224317 -0.3207933 -0.2231928 -0.07060877 -0.012365152 -0.1496343 0.18539833 0.097370744 0.08428421 -0.13568772
53 -0.15083537 -0.12284112 -0.0721204 -0.1646546 0.37341505 -0.08053642 0.08003537 -0.2633132 0.12846243 -0.1635696 0.003567875 0.44956186 -0.45736206 -0.005062003 -0.7088353 -0.45832434 -0.28942585 0.34222758 -0.21983428 0.0698787 0.44200382 -0.17641766 0.09163245 -0.06918416 0.308515 -0.24130379 -0.47844782 -0.31993005 -0.09849366 -0.15510005 -0.11192981 0.045178518 0.0033251748 -0.29919344 0.20706043 0.23335458 -0.041060355 -0.06823306 -0.20950437 -0.04958324 -0.029873647 0.7014107 -0.15955292 0.08786306 -0.08143919 0.5988418 0.10556475 -0.13557231 0.17117542 -0.13792804 -0.32679442 -0.51229435 0.7562359 0.17389274 0.028332423 -0.31915507 0.41072276 -0.16980219 -0.21278024 -0.19790655 -0.14008066 0.5779792 -0.10291155 -0.26398757
3 -0.38880584 -0.5777452 0.20332555 -0.15894483 0.22836323 -0.14118075 0.7504415 0.011661356 -0.09908159 0.07581236 -0.24328715 0.26187858 -0.44570428 -0.41771653 0.12596671 -0.5583709 0.30199936 -0.4500985 0.0022647148 -0.026083076 0.30472884 0.15421975 0.12863971 0.5794348 0.48356205 -0.3525436 0.12049171 0.08473729 -0.075993694 0.37733635 0.06036435 0.16322644 -0.59223145 0.28233376 -0.04844288 -0.50419587 0.48848683 0.02860492 0.15963562 -0.18442194 -0.51238257 -0.17583181 0.63935757 0.5921106 -0.44709843 -0.038714595 0.42223018 -0.3378115 -0.14004463 0.3697837 0.075159535 0.21067847 -0.04809481 0.30108157 -0.19525328 -0.4921207 -0.26237068 -0.12129238 -0.30572265 -0.03245914 -0.060956314 -0.27256772 -0.12674166 0.5674431
41 -0.2262056 0.108904496 -0.25807875 -0.2545456 0.31299004 -0.014333019 0.27869934 0.11354047 0.24172984 -0.0503613 -0.16675872 0.2641268 -0.25274423 0.3267625 0.14527221 0.04107631 -0.40163273 -0.3798345 -0.2803907 0.44745445 0.33487543 -0.6068083 0.3009357 0.13501772 0.38918856 0.11598373 -0.67360806 0.030076308 -0.35102928 0.21470056 0.07653551 0.45290166 0.026020117 0.034866348 -0.021150256 -0.0140607385 -0.06567484 -0.03399615 -0.24214372 -0.025491526 -0.07632345 0.09785798 -0.095379464 -0.17411962 -0.049514078 0.7915882 0.21820593 0.23566376 -0.09541029 -0.01185272 0.4718967 -0.081730574 0.0745267 -0.22338998 0.13942358 -0.26477948 0.5501704 -0.043299083 -0.45276448 -0.8725701 0.352404 0.2775605 -0.030257618 0.16370875
27 -0.062759295 -0.10974639 -0.073052056 -0.30908975 0.038120147 0.1479141 -0.20569268 -0.21529913 -0.054535758 0.12717609 -0.024323953 0.21867041 0.06529721 -0.06967589 -0.09040545 -0.036356527 -0.33176684 -0.135665 0.21604966 0.038862437 0.44220793 0.01552321 0.057550833 0.2680178 -0.35642266 0.051431708 -0.2598731 0.017553743 -0.19460699 0.3245205 -0.002225073 0.17319925 -0.20150928 -0.21894789 -0.031004868 -0.2391108 0.1535238 0.04266384 -0.14565995 -0.16982804 -0.107107475 0.17804584 -0.20778272 0.071302 0.048542507 0.74781156 -0.18021426 0.33479005 -0.2050103 -0.15323846 -0.052128345 0.08550359 -0.027909964 0.05685345 -0.05545631 -0.29305583 0.12368649 -0.04970673 -0.110380225 -0.23991793 0.115426354 0.19185457 0.06807345 -0.06231926
26 0.09045868 0.15790321 -0.3232004 -0.2840543 0.14120522 0.008744272 0.10587533 0.015173376 0.23835139 -0.06587817 -0.13694991 0.08368139 -0.19074216 0.16495372 0.1625779 0.07664173 -0.29484794 -0.25295964 -0.012890954 0.35985494 0.3539682 -0.42175123 0.15200078 0.094217524 0.122797534 -0.093358964 -0.49292815 -0.04685741 -0.32788658 0.27228865 0.07097358 0.15952706 0.01693427 -0.22096062 -0.1354215 0.05571124 0.042091593 -0.01846376 -0.2119169 -0.062255472 -0.057505477 0.15068643 -0.2629391 -0.05487805 -0.022213362 0.77879065 0.028829034 0.34477207 -0.16172248 -0.026667945 0.36462694 -0.00034979914 0.21229012 -0.039396122 -0.1123195 -0.33759236 0.5566597 -0.12917024 -0.43349835 -0.5660945 0.21738955 0.27045697 0.16674091 0.054288376
2 -0.034131836 -0.64720887 -0.0008617682 -0.067157984 -0.13112442 -0.2270892 0.51854295 -0.0042463923 -0.37009352 0.124324135 -0.11587909 0.34873062 -0.1500621 -0.47394282 0.24649225 -0.5289006 0.12128211 -0.1447328 -0.25149488 0.15472561 0.33088845 0.053925727 0.17807682 0.159699 0.0041817063 -0.28478882 0.0035784936 0.28686997 -0.09122775 0.37652215 0.1431028 0.19908495 -0.6422788 0.5050659 -0.23105766 -0.11332228 0.2088163 0.21443464 0.16373861 -0.22494508 -0.32916984 0.067931354 0.5206778 0.37839472 -0.5172448 0.16112576 0.035217214 -0.39156654 -0.4303346 0.21364015 -0.05908673 0.24082816 0.10551357 -0.00996418 -0.48597917 -0.6211263 -0.18356839 0.28956085 -0.33217844 -0.15375462 0.13512653 -0.35963985 -0.15100355 0.1314924
12 -0.034663904 -0.29338565 -0.0024521726 -0.24791262 -0.041069303 0.110104926 -0.12426338 -0.24998683 -0.18234363 0.15244186 -0.015669076 0.24123064 0.0946185 -0.30683106 -0.09368339 -0.10885375 -0.2248467 -0.09088834 0.27566394 -0.047505714 0.39628124 0.20430778 0.06838402 0.3359118 -0.4549776 0.0074642394 -0.074558064 0.031792898 -0.13697943 0.4616714 0.011467782 0.15301475 -0.44263577 -0.11781717 -0.06868244 -0.36345905 0.26840475 0.087315895 -0.079328746 -0.2353302 -0.203621 0.075585365 -0.013358751 0.22842479 -0.12595943 0.59790033 -0.17296575 0.17430636 -0.23966889 -0.10514721 -0.19746308 0.20042372 -0.13178955 0.08142766 -0.1315057 -0.42083806 -0.05399127 -0.03878336 -0.08866712 -0.05591089 0.0613337 0.052629415 0.0313532 0.07572945
40 -0.27895907 0.03901188 -0.15195778 -0.20998122 0.34280342 -0.0007270119 0.08659268 0.028843442 0.16054037 -0.13418409 0.056307595 0.17304434 -0.26654342 0.33265716 -0.20190863 -0.05292053 -0.35262805 -0.072193265 -0.07252642 0.14373964 0.31944442 -0.25158498 0.19539441 0.22301903 0.20455304 0.07945796 -0.68700355 -0.17235626 -0.4580374 0.1526375 0.052895535 0.31417352 0.0605202 -0.006936572 0.18764059 -0.066435866 -0.2551977 -0.059383348 -0.2571688 -0.05426584 0.00199594 0.1570067 -0.03404264 -0.07749991 0.018912809 0.6916227 0.14902113 0.024898216 0.1431051 -0.14563815 0.12576132 -0.14099546 0.10028855 -0.19156994 0.24662249 -0.30273598 0.5712682 -0.18848233 -0.35199964 -0.64567643 0.15001044 0.47655243 -0.12824956 0.04295082
24 0.041990366 -0.17351387 -0.038500812 -0.31004348 -0.11080317 0.15658589 -0.19960631 -0.31392172 -0.038902353 0.17964499 -0.044787705 0.12250099 0.079413734 -0.17590871 -0.020505462 -0.12075737 -0.2750736 -0.093783185 0.24374443 -0.010311251 0.54405844 0.15636037 0.007724695 0.29829726 -0.45637718 -0.012999862 -0.09702024 0.018492699 -0.22554295 0.33472788 -0.061642934 0.074972555 -0.26372126 -0.29077002 -0.09165475 -0.25535393 0.25606793 0.13996287 -0.1296888 -0.17586802 -0.11818986 0.19839959 -0.19539502 0.21243346 0.07289097 0.79036224 -0.19286023 0.38329315 -0.19142905 -0.12059142 -0.129715 0.22061884 0.04431745 0.09543283 -0.10226307 -0.3668447 -0.038488425 -0.1368874 -0.064222865 -0.14520735 0.080689214 0.15438592 0.17354341 -0.087106355
56 -0.25973693 -0.039386775 -0.029845146 -0.24633022 0.34133682 -0.027059896 0.018080799 -0.29988995 -0.047736883 -0.13330376 -0.00088623853 0.27803603 -0.30964208 0.1637974 -0.65836114 -0.29731768 -0.27444395 0.27353466 -0.19134296 0.063561775 0.46963254 -0.034797262 0.18957235 0.13838542 0.10133799 -0.053007692 -0.5742108 -0.29119146 -0.3861348 0.005495902 0.007565492 0.17974211 -0.063530825 -0.22495762 0.15724722 0.04540513 -0.23737632 -0.018063774 -0.20778072 -0.035721898 0.01906687 0.4327523 0.0039592073 0.08126808 0.005748022 0.6797073 0.08903851 -0.07178949 0.25348133 -0.113890134 -0.086654775 -0.30335903 0.29882413 -0.027498417 0.21954973 -0.41861665 0.4128999 -0.116615675 -0.19582973 -0.36422113 -0.095333844 0.6908523 -0.1795354 -0.19523405
8 -0.1334807 -0.5579064 0.14166383 -0.15997553 -0.08499174 -0.03249343 0.5037271 -0.09169744 0.04716304 0.09893296 -0.09633312 0.054037277 -0.39759853 -0.35488644 0.19404934 -0.5653944 0.25784868 -0.25114834 0.43835503 -0.08088829 0.34164256 0.34745845 -0.17960769 0.51941663 0.36358818 -0.3483419 0.23330191 -0.16108677 -0.242412 0.26900825 -0.021541756 -0.13403971 -0.40964463 -0.0062060514 0.010164436 -0.39815372 0.49773508 0.046273507 0.058522396 -0.07657854 -0.39457658 -0.13562618 0.3125437 0.6441085 -0.13380505 0.13803181 0.305067 -0.16310973 -0.02938542 0.14776118 -0.18089285 0.35317641 0.1885127 0.33472896 -0.13699326 -0.33363315 -0.29644188 -0.5394517 -0.15689123 0.061283458 -0.16882332 -0.14484234 0.15772088 0.4723388
60 -0.13318384 0.13054843 -0.32791594 -0.26389548 0.25622267 -0.01692145 0.2409026 0.15014583 0.27944398 -0.08183743 -0.07219453 0.13311574 -0.31718245 0.4093747 0.19716409 0.026772982 -0.3635883 -0.2932838 -0.14195849 0.40852013 0.34091225 -0.5273178 0.20351589 0.16798727 0.35906047 0.032202337 -0.6957144 -0.059421703 -0.5119755 0.24699955 0.10803513 0.3550936 0.11945888 0.008730139 -0.011256884 0.01875795 -0.12860374 -0.040012497 -0.2476528 -0.002895932 -0.01413125 0.07751318 -0.113257766 -0.13487703 -0.00047706102 0.8566173 0.21118309 0.19190484 -0.0328557 -0.08700426 0.46990684 0.010608756 0.15817027 -0.24189885 0.10711665 -0.29131088 0.6771944 -0.22004972 -0.5399068 -0.8640884 0.31244218 0.3395198 0.0073213857 0.19124353
39 -0.26520404 -0.07627738 -0.015675044 -0.19290543 0.3468308 -0.011345552 0.034281284 -0.2910641 -0.06961606 -0.1491685 0.022042435 0.26696634 -0.30100048 0.12355463 -0.6229238 -0.2875485 -0.22857438 0.2679092 -0.1760423 0.09182033 0.4271512 -0.036238242 0.16673644 0.13837488 0.06493623 -0.07348705 -0.5727678 -0.25337723 -0.35572934 0.0045224237 -0.020003693 0.183477 -0.08888079 -0.16500495 0.11587831 0.030992135 -0.19477518 -0.040927455 -0.1987638 -0.07080641 0.027552951 0.381448 0.026902927 0.075434625 0.00014724302 0.6564983 0.08354602 -0.111800246 0.21856847 -0.11103774 -0.079451226 -0.24906339 0.24496807 -0.06003378 0.1844657 -0.39517975 0.3797115 -0.058171984 -0.18839858 -0.32862774 -0.10703714 0.65420073 -0.20301749 -0.12529847
7 -0.19150418 -0.45043728 0.16775674 -0.11070274 0.045051854 -0.0054039764 0.54661894 -0.016270798 0.060709536 0.15052575 -0.15849383 0.1790929 -0.31903893 -0.36607063 0.06958875 -0.4469766 0.14029767 -0.37884977 0.2119303 -0.09320354 0.30270764 0.17785823 -0.024868902 0.52098036 0.53511876 -0.186512 0.1870266 -0.22049712 -0.11747568 0.2475751 -0.06516477 0.04511549 -0.3327504 -0.04213757 0.053857647 -0.5597229 0.513999 -0.07625266 -0.003059506 -0.16166157 -0.53675586 -0.17485535 0.3052155 0.5593947 -0.15978272 0.07525496 0.41170058 -0.23966624 0.050579954 0.22232632 -0.15069957 0.22269942 -0.008748118 0.30605015 0.06987078 -0.19781546 -0.4040464 -0.5085112 -0.02063997 -0.007694319 -0.0056190374 -0.13803758 0.05427232 0.51576084
30 -0.008497293 -0.43008992 -0.010103901 -0.10047704 -0.05225289 0.02040837 0.06249701 -0.16543214 -0.2895799 0.1738202 -0.05114721 0.33088303 0.044196364 -0.4203232 0.052905943 -0.24942201 -0.12356466 -0.100665815 -0.13735816 0.06768509 0.37697986 0.012436946 0.13237567 0.17801902 -0.38667482 -0.10501238 -0.07691233 0.21040322 -0.039955605 0.3460651 -0.035086937 0.26630324 -0.41644248 0.17735027 -0.29785544 -0.26540083 0.32554495 0.11713872 0.014732433 -0.30107167 -0.23166838 0.13020316 0.13242775 0.18812852 -0.26464513 0.5429202 -0.12568523 -0.088311724 -0.36744374 0.034897942 -0.10730942 0.24094906 -0.06572059 -0.05126402 -0.3245504 -0.38741836 -0.21654154 0.23778102 -0.16971171 -0.04047734 0.1998017 -0.19445325 -0.12481154 0.1192504
38 -0.07144914 -0.05112817 -0.12237876 -0.16196063 0.23338196 0.097265586 -0.13328412 -0.14149658 0.018935297 -0.13160598 0.035840202 0.18357824 -0.10296395 0.003444733 -0.3821148 -0.005723051 -0.26766524 0.123938166 0.055914156 0.009382233 0.31671828 -0.06063599 0.1189594 0.20880514 -0.23470339 -0.027938545 -0.4556391 -0.22537477 -0.30599082 0.22080511 -0.011784647 0.15418091 -0.096549995 -0.22215877 -0.016173735 -0.15027384 -0.018919462 -0.061677814 -0.20539638 -0.20124203 -0.07764622 0.21679135 -0.08014438 0.01940669 -0.07558565 0.7046728 -0.004887849 0.034961097 0.1023038 -0.17937756 -0.077804625 -0.09989481 0.017172316 -0.051514413 0.060341433 -0.41858777 0.3528084 -0.1417531 -0.26001543 -0.19618909 0.04821587 0.40007567 -0.07295843 -0.0018604504
51 -0.17770301 -0.11786331 -0.056542538 -0.17118546 0.34851164 -0.064308226 0.06492313 -0.35041893 0.10605381 -0.1482826 0.07171069 0.38640806 -0.4196062 0.074779995 -0.745513 -0.47556487 -0.33884653 0.34182006 -0.20912951 0.06163384 0.48595816 -0.11979959 0.14571087 -0.005112066 0.2604961 -0.1675459 -0.5892822 -0.37146223 -0.19808367 -0.09152508 -0.13959606 0.095005296 0.033208042 -0.2534834 0.22236422 0.1603434 -0.12741466 -0.06122363 -0.2831545 -0.07241161 0.016962327 0.6304098 -0.16658457 0.10057013 0.02822423 0.72451866 0.08063004 -0.1711194 0.25491846 -0.15462294 -0.33627763 -0.4294698 0.64431524 0.03342359 0.116950355 -0.30714834 0.4530002 -0.17106442 -0.15663496 -0.27407736 -0.1433549 0.70088613 -0.1421114 -0.20864397
23 0.028668446 -0.16007437 -0.024149368 -0.30176392 -0.08329973 0.13999408 -0.17134865 -0.30457434 -0.051412165 0.11995325 -0.067854546 0.118363686 0.05339844 -0.2046042 -0.05871368 -0.085242696 -0.23100376 -0.09888476 0.23672625 -0.03305162 0.49156782 0.15294628 0.009787522 0.28059506 -0.44778696 -0.074054055 -0.07996779 0.017327895 -0.18559651 0.31299853 -0.042702235 0.06544948 -0.27544445 -0.28742826 -0.11164123 -0.24532273 0.24893577 0.116856724 -0.11998378 -0.18307687 -0.13692519 0.17148636 -0.16086608 0.2277865 0.028842622 0.69248605 -0.17002651 0.34799358 -0.18961902 -0.06794298 -0.14261082 0.18107687 0.05080823 0.12723467 -0.14345832 -0.4010074 -0.041642893 -0.09838672 -0.065447085 -0.09291183 0.057172623 0.162912 0.14708117 -0.0929759
1 -0.39130688 -0.5653053 0.17255582 -0.17320287 0.3715447 -0.21269023 0.70219994 -0.016188918 -0.19768913 0.04136031 -0.25806895 0.35496724 -0.428941 -0.46529552 0.029276008 -0.5398305 0.3471927 -0.39242867 -0.05273881 0.06958026 0.32976478 0.01531303 0.13711396 0.4767246 0.3578885 -0.48884463 0.04629347 0.25979382 0.057091184 0.34661466 0.05892671 0.2161967 -0.62372196 0.34022388 -0.18768296 -0.36207977 0.46637416 -0.030623026 0.25221455 -0.285143 -0.47227925 -0.05564456 0.6366239 0.50760484 -0.50692147 -0.07047379 0.28409606 -0.37079158 -0.27848127 0.3892072 0.14180829 0.13952787 0.011695421 0.33630577 -0.43819448 -0.5388297 -0.11790815 0.20292683 -0.3871693 0.032554843 -0.052545395 -0.2855195 -0.25811273 0.47046337
28 -0.0981474 -0.19795169 -0.038976807 -0.27726853 0.061016995 0.20901129 -0.23425058 -0.22638492 0.06345974 0.1875983 0.029723506 0.38822284 0.072709344 -0.23516008 -0.05826009 -0.06700251 -0.45327374 -0.19576482 0.41413927 -0.024689848 0.39079484 -0.021257505 -0.01047547 0.31635615 -0.41373232 0.07418349 -0.13814646 0.002694874 0.009237756 0.42999288 -0.049395766 0.18476006 -0.18018879 -0.2212556 -0.010795793 -0.34856027 0.47145352 0.0074202353 -0.10448806 -0.21912692 -0.13714854 0.23081781 -0.28475735 0.04692046 -0.03703497 0.80245876 -0.2533907 0.37338924 -0.2947456 -0.24898514 -0.24040133 0.091264024 0.08026576 0.17357537 -0.17587873 -0.14716177 0.10773888 -0.18784335 -0.19936785 -0.06108244 0.11539054 -0.030086774 0.09297682 0.10799434
31 0.05217574 -0.75920194 -0.026526118 0.025186805 -0.28946802 -0.13852921 0.3146773 -0.07686844 -0.41752076 0.1979451 0.07362778 0.44853023 -0.03695166 -0.5775808 0.31426156 -0.5486044 -0.05999502 -0.012774661 -0.28567374 0.12800117 0.37855712 0.01384193 0.04472808 0.11098821 -0.29023215 -0.21213752 -0.002200884 0.31744167 -0.084306136 0.3109903 -0.0039217165 0.28730193 -0.5353588 0.5936683 -0.34796736 -0.13777725 0.29887727 0.26303846 0.12197266 -0.33257017 -0.2671591 0.1598153 0.36574623 0.25127825 -0.47226244 0.49501592 -0.09137149 -0.45260814 -0.50080603 0.053524844 -0.2915464 0.39384037 0.14514714 -0.21713321 -0.52230024 -0.51656324 -0.3410447 0.23982908 -0.3463908 -0.111603506 0.3078016 -0.46161067 -0.21964504 0.14399284
18 -0.088460974 -0.26176503 0.083708405 -0.23682897 -0.10562182 -0.0004785363 0.36630675 0.077394545 0.39910746 0.46009117 -0.34350356 0.2803855 -0.001969469 -0.19896919 0.11351164 -0.43923295 -0.36651516 -0.55423117 -0.0015815052 -0.15198308 0.43093306 0.07641981 0.3092932 0.36486912 0.626611 0.38767475 0.3595205 -0.31650433 0.04277467 0.3142267 -0.09216149 0.099529885 -0.026450008 -0.29563332 0.39932397 -0.6701168 0.51249284 0.07698127 -0.11998566 -0.010986301 -0.61267734 0.021936838 -0.09292612 0.36656556 -0.027953805 0.19738404 0.31982094 0.13772887 0.1397728 0.16483262 -0.32048607 -0.012232774 0.09846441 0.30806354 0.3668714 0.09920882 -0.5107927 -0.7327542 0.15895274 -0.22477916 0.22732013 -0.3559606 0.33768928 0.23268804
16 -0.010069941 -0.12107263 0.070617214 -0.3168586 -0.25344148 0.019576939 0.23110528 -0.073854156 0.27986348 0.45913878 -0.45152023 0.18508963 0.13435888 -0.106548935 0.14526059 -0.29388615 -0.44835258 -0.5622766 -0.20647605 -0.14068645 0.55872697 0.05995216 0.4388889 0.23891939 0.3004443 0.37164813 0.3294464 -0.15229069 -0.033403937 0.24717659 -0.061768766 0.14171019 -0.061733104 -0.43172243 0.25135478 -0.50461656 0.37361223 0.20196684 -0.17260969 -0.07025823 -0.5547165 0.11885157 -0.13974752 0.30501303 0.06485943 0.3508359 0.25259957 0.36364138 0.060391016 0.2623577 -0.19883592 0.055787954 0.042506292 0.1985021 0.31885082 -0.06326104 -0.5301103 -0.47202957 0.25202572 -0.30949214 0.31685933 -0.21289866 0.3547166 -0.076832846
21 -0.046747744 -0.10500848 0.11050749 -0.3301733 -0.26941648 0.092380784 0.095541045 -0.31887308 0.13309118 0.29015112 -0.3000373 0.0022603797 0.017747909 -0.09387802 0.1430993 -0.24973077 -0.21534483 -0.32031384 -0.17756413 -0.08888196 0.6826494 0.10675528 0.11575972 0.26235807 -0.116996445 -0.028170673 0.1972509 0.026931157 -0.20723666 0.0051816944 -0.094056696 0.036571287 -0.019739583 -0.38041 -0.1218905 -0.25650588 0.28029004 0.29802862 -0.041166008 -0.07298128 -0.24061936 0.2214656 -0.10291472 0.30166984 0.19249238 0.62167054 0.12971699 0.3728084 0.026574358 0.23249435 -0.041869085 0.2679191 0.18669221 0.11436374 -0.0016436089 -0.23047511 -0.4657928 -0.27582645 0.122351445 -0.15903804 0.18579532 0.042997673 0.20818926 -0.21306592
42 -0.1256093 0.18985729 -0.33682334 -0.30997184 0.32196182 -0.021121107 0.23717977 0.16742596 0.34687713 -0.06650933 -0.06400673 0.13618617 -0.3681072 0.38390633 0.29999685 0.058871564 -0.33926478 -0.40531063 -0.033251733 0.39795604 0.3327837 -0.586141 0.1297547 0.1807981 0.39625165 -0.09077012 -0.65298754 0.08052273 -0.3750434 0.23922196 0.08371585 0.30788636 0.10383774 -0.035013527 -0.0054148077 0.06673345 -0.027141167 -0.076465905 -0.21569462 -0.045156218 -0.019674212 0.11760786 -0.19033526 -0.13794142 0.019051332 0.7910304 0.18183605 0.302232 -0.1638701 -0.04854272 0.49002287 -0.021899907 0.24700266 -0.10048038 -0.030570906 -0.25574592 0.72703785 -0.166367 -0.55603176 -0.8057959 0.2956965 0.30106512 0.04179569 0.1694644
49 0.24405502 -0.067545064 -0.303535 -0.1371627 0.10956308 -0.1785202 0.20249803 -0.1887276 0.25553623 -0.1438732 -0.05105593 0.344395 -0.40443015 0.0070514437 -0.446708 -0.4958836 -0.3920552 0.253332 -0.31002152 0.34372255 0.45081085 -0.33442375 0.23303144 -0.30537292 0.49168628 -0.17561023 -0.5602263 -0.4066697 -0.14605968 -0.02705928 -0.111322284 -0.085573755 0.033168312 -0.3188891 0.14092803 0.4032147 -0.10865202 0.015439737 -0.3571262 0.017062 -0.07044944 0.6933015 -0.39388335 0.10934261 -0.050495874 0.72452897 0.019876814 -0.07309568 0.070015736 -0.0875965 -0.26525787 -0.47913858 0.88966525 0.05029982 -0.0544449 -0.3296638 0.53468513 -0.18056169 -0.20397489 -0.4287291 -0.06516033 0.5817115 0.17961639 -0.29873616
43 -0.024297765 0.19092786 -0.3775035 -0.335447 0.1919444 -0.0652268 0.2518818 0.12313858 0.28228143 -0.076345496 -0.1208572 0.100223415 -0.31630427 0.3680625 0.28698292 0.056130815 -0.33606955 -0.3282791 -0.12908341 0.46608776 0.38621113 -0.5429685 0.17418988 0.110546134 0.34796038 -0.057704978 -0.64122623 0.032281343 -0.4820101 0.24423459 0.13816084 0.2898819 0.04676996 -0.06913539 -0.0446098 0.12428931 -0.13890938 -0.0038121112 -0.22367957 -0.00844613 -0.011042266 0.12404714 -0.16436067 -0.092858404 -0.017669976 0.8240002 0.16883807 0.2993001 -0.16239232 -0.034141045 0.5152063 0.020615598 0.25405455 -0.15835012 -0.017823182 -0.38164154 0.7113264 -0.15336777 -0.5517936 -0.89105684 0.3033654 0.34978947 0.09698232 0.06607717
20 -0.09749811 -0.5740487 0.12223832 -0.046396792 -0.13834362 -0.06353702 0.5329409 0.07070987 0.2868547 0.34010306 -0.16743326 0.33830035 -0.14503506 -0.41510746 0.06344779 -0.64605665 -0.22487062 -0.4048157 0.08940052 -0.16040677 0.3904259 0.1379524 0.18487512 0.39696497 0.65122974 0.2000476 0.32344535 -0.44452608 0.01944086 0.30715823 -0.18066695 0.060431726 -0.10114662 -0.0726321 0.26390925 -0.71245956 0.6501975 0.0069309077 -0.12948339 -0.14457558 -0.69332784 -0.04255371 0.03884504 0.49087578 -0.13646697 0.19107027 0.38427052 -0.256527 0.16462731 0.09892107 -0.5441301 0.11779758 0.16311774 0.19280702 0.25110644 0.05552344 -0.5854422 -0.7920112 0.07398156 -0.033226825 0.17298655 -0.40837145 0.22374451 0.5302498
25 -0.06312517 -0.13402505 -0.038820863 -0.32949975 -0.1389468 0.124792546 -0.17982359 -0.31003436 -0.080362424 0.17836294 -0.094088696 0.16323031 0.12860067 -0.100788526 0.07160227 -0.0473117 -0.30605283 -0.196897 0.15876944 0.09461296 0.50997555 0.044194788 0.07626929 0.2677217 -0.45958418 0.018317334 -0.10623383 0.0926165 -0.2132574 0.30450174 0.010506175 0.19549777 -0.2265961 -0.18435971 -0.17642519 -0.22087732 0.19202939 0.15573135 -0.10132422 -0.15830311 -0.10286576 0.13390687 -0.1640499 0.08717565 0.04841235 0.77952266 -0.17819422 0.4220516 -0.25495526 -0.081311904 0.00299488 0.26059368 -0.027475925 -0.009803234 -0.13062592 -0.33241674 -0.004219027 -0.045990862 -0.131776 -0.23396723 0.16790602 0.092759416 0.11272737 -0.061096326
11 0.013933556 -0.22356449 0.08032049 -0.36403638 -0.42470992 0.07104751 0.10718058 -0.2519871 0.2056999 0.17804131 -0.20617718 -0.2807733 -0.0783324 0.024807384 0.37812716 -0.34835824 -0.10896838 -0.2525251 -0.041061632 -0.2725093 0.7026782 0.3798815 0.030893173 0.3473266 -0.24229895 -0.16979508 0.22349712 0.059470695 -0.48904872 0.05238965 -0.0204948 -0.120185785 -0.074440144 -0.33076248 0.006371808 -0.17142767 0.11113759 0.4943937 -0.090125754 -0.005562804 -0.12713103 0.13755177 0.050538123 0.4566984 0.19846576 0.6314968 0.19037916 0.38786957 0.10298025 0.2199083 -0.16370745 0.47654372 0.27376413 0.08354044 -0.030045496 -0.48999387 -0.41188303 -0.42337865 0.047054216 -0.18665613 0.101581715 0.10581025 0.3279717 -0.2841573
15 -0.006397107 -0.15908484 0.029188858 -0.27122086 -0.24312413 0.08544301 -0.0033519699 -0.20796286 0.12093363 0.3385633 -0.21108234 0.19131649 0.14890935 -0.14163482 0.08591142 -0.22131927 -0.41489318 -0.30335608 -0.16540426 -0.046951752 0.589678 0.016025981 0.19719967 0.16372223 -0.12596518 0.19141601 0.09889398 -0.025030535 -0.082965255 0.1398586 -0.10654746 0.1617325 -0.00015755453 -0.2847233 -0.006854471 -0.322415 0.27332288 0.22615789 -0.112772554 -0.10373811 -0.2848542 0.2326914 -0.23761062 0.1675251 0.11411481 0.6453629 -0.011343601 0.31237862 -0.068829216 0.06781518 -0.20546745 0.13637546 0.12950346 0.0390751 0.06032662 -0.13102566 -0.4011284 -0.2511108 0.124032915 -0.2313598 0.30571902 -0.0681748 0.2040013 -0.17314489
55 -0.18006729 -0.17532718 -0.0560548 -0.15354535 0.2453641 -0.071356446 0.08244268 -0.30310214 0.07970601 -0.2032061 0.13021037 0.2599722 -0.40089986 0.13193022 -0.6452581 -0.44263092 -0.26607582 0.3675461 -0.1217269 0.043060843 0.46712273 0.0005406132 0.09746889 0.067617 0.16977361 -0.174592 -0.61033 -0.36813027 -0.37021708 -0.056238253 -0.087511286 0.06724098 -0.0094454205 -0.15915796 0.23659451 0.1537351 -0.26592967 0.0026746173 -0.2826788 -0.064849734 0.06280344 0.5099314 -0.04965133 0.13434845 0.029821608 0.69749856 0.08730599 -0.19289199 0.28105372 -0.1936858 -0.33005783 -0.29235417 0.56319886 -0.060991533 0.14428906 -0.42192414 0.46601456 -0.21446429 -0.20978874 -0.3353796 -0.1449252 0.6993243 -0.109102786 -0.20947357
35 -0.46945238 -0.61810094 0.18712856 -0.20385246 0.33723873 -0.18798158 0.72896856 -0.017042618 -0.26822668 0.09403152 -0.21757485 0.35433954 -0.41528207 -0.389883 0.039669186 -0.548524 0.36901483 -0.41297653 0.12070343 0.09180659 0.32361066 0.16018353 0.1281617 0.6252312 0.43553066 -0.35649464 0.024674233 0.17175703 -0.082333826 0.47426316 0.13683681 0.22524863 -0.73906624 0.3908676 -0.028749142 -0.48556012 0.40244633 -0.049038984 0.2241809 -0.23719573 -0.50519544 -0.20430252 0.7320631 0.57212967 -0.47182137 -0.1221447 0.30767503 -0.36718714 -0.26582906 0.30403775 0.16211267 0.1750428 -0.15773217 0.29793826 -0.24280024 -0.57181627 -0.09832305 0.078265615 -0.3580838 -0.10407765 -0.10755357 -0.25468972 -0.20423386 0.55694354
5 -0.30448952 -0.562053 0.2103063 -0.1299606 0.07693206 -0.113880746 0.60067123 -0.06598406 -0.0034765818 0.09814959 -0.10138322 0.16047664 -0.37527266 -0.29395065 0.032268915 -0.57962596 0.21433799 -0.30294994 0.2287879 -0.09675597 0.3302318 0.34961343 0.0027377931 0.5697295 0.5000765 -0.218398 0.16895628 -0.20648143 -0.19340946 0.26614535 -0.017508885 0.018844916 -0.42012405 0.13427109 0.13167794 -0.53063613 0.36709893 -0.005174314 0.039742447 -0.116521895 -0.45481405 -0.20271246 0.47012517 0.60955954 -0.20739193 -0.039815594 0.3768521 -0.32091305 0.06386709 0.19085117 -0.16477972 0.2470375 0.024059987 0.24339399 0.059900325 -0.31477734 -0.3063545 -0.42772847 -0.09892333 -0.038542543 -0.12052001 -0.14746186 0.021805882 0.4947131
9 -0.11830143 -0.5138522 0.09307722 -0.06451033 -0.05405339 0.032632668 0.22098489 -0.08860249 -0.0080329515 0.059586108 0.10271878 0.11694718 -0.17785005 -0.339731 0.035443686 -0.36397934 0.023814652 -0.11855022 0.37678647 -0.13944459 0.26622948 0.35842204 -0.09050077 0.47599354 0.0050339373 -0.117906585 0.056027997 -0.23169947 -0.2276457 0.35413545 -0.08524212 0.030166447 -0.32896113 0.08103482 0.02623513 -0.52858657 0.3700439 0.0063807513 -0.0959977 -0.19023502 -0.3177316 -0.1828938 0.2182141 0.4505532 -0.14535451 0.28246266 0.13388933 -0.2103687 0.0020239032 -0.06594899 -0.33844337 0.34443536 -0.054255653 0.06697111 0.029810522 -0.2840395 -0.24575508 -0.43067825 -0.10851433 0.037237916 -0.03261503 -0.09306341 0.053828157 0.4638529
34 -0.46522617 -0.5341382 0.21058853 -0.22923195 0.3597314 -0.22284776 0.7719868 -0.012115157 -0.2568171 0.12844846 -0.34938592 0.32746354 -0.40363526 -0.3286199 0.009820755 -0.5639124 0.37342268 -0.45950928 -0.04000921 0.11334752 0.35340396 0.1089876 0.24657562 0.5233394 0.53546864 -0.35262498 0.06392586 0.1874289 -0.038323317 0.41108987 0.16581199 0.22171612 -0.6920561 0.30741188 -0.023682594 -0.41604757 0.38070157 -0.014592822 0.22297485 -0.1656828 -0.53514254 -0.13807483 0.70599127 0.57388455 -0.43569127 -0.18587242 0.3708699 -0.3111869 -0.22682098 0.41202822 0.25149277 0.10149292 -0.111110255 0.3564952 -0.22658992 -0.53523123 -0.15446638 0.1394489 -0.26511523 -0.12590483 -0.1001896 -0.21300049 -0.19303654 0.44989032
22 -0.10293346 -0.14059152 0.014525671 -0.33813205 -0.040880565 0.14416544 -0.17254192 -0.32761618 -0.00078282313 0.18220992 -0.09220966 0.21082307 0.07091874 -0.1383241 -0.005200258 -0.09120327 -0.33666313 -0.20624337 0.13205111 -0.022192776 0.5400646 0.053626895 0.07221321 0.29346362 -0.44510996 -0.014584156 -0.0733099 0.08959279 -0.1145561 0.2607605 -0.041346345 0.1645785 -0.18220451 -0.24040878 -0.120034836 -0.2610122 0.2744122 0.14786185 -0.083862044 -0.18240348 -0.10184075 0.21945514 -0.17307265 0.1203605 0.05121483 0.7771057 -0.1542613 0.40617362 -0.1972064 -0.051109187 -0.09026936 0.17651579 0.059742834 0.08926376 -0.14608765 -0.28718704 -0.03934385 -0.063772775 -0.09381374 -0.13412338 0.1353835 0.086569436 0.077427834 -0.084796935
50 0.11199478 -0.12856872 -0.26518422 -0.15480088 0.11899713 -0.1435108 0.1415797 -0.21228755 0.1653981 -0.1898861 0.013059636 0.3231555 -0.3908653 0.022645153 -0.48700613 -0.4682908 -0.35150516 0.34458253 -0.3217235 0.18891798 0.4893676 -0.24694517 0.16167513 -0.20621455 0.2292956 -0.26576304 -0.5892313 -0.24971141 -0.2298986 -0.060894225 -0.07898468 -0.015752945 -0.020478278 -0.2520504 0.14032489 0.41575435 -0.19488764 0.09344847 -0.29215416 -0.06998626 0.014929601 0.7420148 -0.2546396 0.090344764 -0.07548111 0.78001446 0.02576816 -0.11656304 0.08874984 -0.12974313 -0.33953094 -0.40473637 0.86604255 -0.011269728 -0.10968686 -0.49816737 0.5317048 -0.10793489 -0.26710108 -0.37668535 -0.036228 0.60723746 0.019147104 -0.40475374
54 -0.19830948 -0.11481596 -0.04613344 -0.16295327 0.26933205 -0.044511154 0.083730444 -0.30795962 0.16917273 -0.25231427 0.098353155 0.19337068 -0.41953138 0.16919878 -0.61955357 -0.3843617 -0.2901765 0.2908026 -0.14560634 -0.020517522 0.48658043 -0.03599132 0.11787851 0.09199542 0.1523739 -0.23543608 -0.61635023 -0.3452011 -0.36513698 -0.114302784 -0.11478977 0.06062058 0.054891244 -0.24127968 0.23107065 0.1592492 -0.24907078 0.01197373 -0.29924336 -0.09684267 0.05781881 0.5269098 -0.08793045 0.13644953 0.07401878 0.73256665 0.12701583 -0.13413577 0.32898995 -0.13266245 -0.32964498 -0.29355586 0.5938926 -0.037302215 0.13483357 -0.42876115 0.46688226 -0.22495869 -0.18777855 -0.30951065 -0.131555 0.7524034 -0.10629393 -0.24754868
45 -0.24432096 0.15715341 -0.24143583 -0.28928426 0.40407655 0.008695451 0.19655597 0.0360743 0.18412971 -0.090415254 -0.12531994 0.2124671 -0.29536924 0.3895509 -0.04846281 0.031476267 -0.33739448 -0.25196287 -0.17765827 0.42102507 0.3793603 -0.50421786 0.23845774 0.20373507 0.35452768 0.047364734 -0.7653827 -0.098992355 -0.48648232 0.17577025 0.07547445 0.39222366 0.047417834 -0.08007646 0.0025536155 -0.017042888 -0.1589613 -0.11220333 -0.24430418 -0.04173385 -0.036183864 0.11396747 -0.074734665 -0.12840553 0.024898965 0.82768536 0.21339492 0.18742497 -0.0053570424 -0.045423143 0.5137702 -0.09207459 0.050131954 -0.17938311 0.18710452 -0.3087563 0.64609987 -0.095118985 -0.45560786 -0.8411342 0.24343972 0.46566013 -0.072276935 0.1316481
19 -0.0024397955 -0.45792428 0.09947874 -0.073007084 -0.0697509 -0.07138654 0.589561 0.086837016 0.36081648 0.31792474 -0.30519116 0.3090508 -0.19513977 -0.429744 0.013624942 -0.605044 -0.17763649 -0.46652156 -0.06764496 -0.155908 0.39292336 0.05475053 0.26369894 0.31203946 0.7340932 0.11155758 0.3396593 -0.39512286 0.11122166 0.2737396 -0.18326151 -0.0039812904 -0.09795955 -0.22951226 0.22568849 -0.63856333 0.65089315 0.029844662 -0.11273482 -0.14397126 -0.7299238 0.04496475 0.014502929 0.51797795 -0.15719298 0.10296066 0.4431822 -0.21373525 0.17716607 0.25754195 -0.44882098 -0.0074454653 0.20705973 0.30695546 0.21263398 -0.00046784844 -0.60159135 -0.67573833 0.1565686 0.0037384673 0.14520262 -0.36755806 0.2659504 0.41346264
33 0.09872963 -0.7422328 -0.053974736 0.014531783 -0.21927015 -0.21561934 0.48875082 0.032099787 -0.2833237 0.19900174 -0.11467685 0.44918215 -0.09994179 -0.63077384 0.2976855 -0.60765195 -0.0094674025 -0.12831017 -0.3988635 0.13834174 0.3790188 -0.047402535 0.21187492 0.02369982 -0.039253972 -0.2519479 0.063112944 0.26748696 0.04469063 0.3617995 0.02544022 0.21160491 -0.5439581 0.4730417 -0.30918023 -0.14116576 0.3974983 0.25487107 0.10426823 -0.27208784 -0.41446075 0.21130644 0.35589564 0.34479386 -0.5537357 0.32856798 0.0123912925 -0.43054986 -0.48275924 0.19062681 -0.24278052 0.24442904 0.25020027 -0.04537452 -0.5700598 -0.5215421 -0.36180404 0.24950302 -0.2870653 -0.05736971 0.26981902 -0.5279746 -0.11181603 0.16009554
17 0.049712446 -0.2663044 0.047668178 -0.1778631 -0.24911414 -0.01198317 0.36749426 0.068329275 0.41393134 0.4176543 -0.36143035 0.21734634 0.04283721 -0.24271645 0.12789947 -0.4090577 -0.4192677 -0.5226929 -0.23205687 -0.20502838 0.51072454 0.013639502 0.378416 0.21274142 0.4660009 0.3169469 0.3291774 -0.2924525 0.020135345 0.2501676 -0.12507683 0.06839304 0.054158155 -0.36898014 0.2500055 -0.58240926 0.49075136 0.19725795 -0.17909159 -0.078345366 -0.63333285 0.12025367 -0.15457685 0.3770988 -0.019336576 0.32856444 0.3361037 0.10671984 0.16811746 0.24228102 -0.41267255 0.021146927 0.18225913 0.18976621 0.2812732 -0.012180196 -0.6340197 -0.63074344 0.25014713 -0.1851133 0.33804017 -0.3063848 0.35009363 0.06957212
44 0.26855937 0.08462893 -0.4336844 -0.20853369 0.038238022 -0.10752835 0.20691304 0.11157157 0.41286343 -0.085449606 -0.08911786 0.16615699 -0.3265707 0.17355573 0.024689315 -0.21546508 -0.40229532 -0.04683393 -0.20544025 0.27424824 0.3069725 -0.42129904 0.19187891 -0.17006993 0.47600043 -0.088476196 -0.45474222 -0.19564863 -0.2227337 0.1322732 0.030381622 -0.040293813 0.08547858 -0.27038953 0.16242157 0.30782193 -0.110028125 0.080763265 -0.30750626 0.009953871 -0.094768606 0.46128175 -0.36620992 -0.01256574 -0.060499102 0.6522974 0.116773464 0.13970669 -0.0023538796 -0.07233413 -0.030656187 -0.29697672 0.6664488 -0.008659086 -0.03401606 -0.3124379 0.59527093 -0.31153283 -0.3140854 -0.5604048 0.13385665 0.3303082 0.24924904 -0.20226592
10 0.03325378 -0.24158353 0.1229164 -0.27507544 -0.25848866 0.111605026 0.312769 -0.3201388 0.2176978 -0.004442111 -0.16210325 -0.3185549 -0.35020033 -0.15650652 0.33584878 -0.30710402 0.18845598 -0.25253886 0.044815533 -0.2983551 0.6198003 0.36335614 -0.16561794 0.465384 -0.16245222 -0.5773442 0.29822862 0.045685478 -0.3793751 -0.040533945 -0.12354755 -0.25852132 -0.1711896 -0.33867595 -0.21468525 -0.18366589 0.3505039 0.32921818 -0.023359105 -0.1755889 -0.20400518 0.06541441 0.1883575 0.6147932 0.12253864 0.48616785 0.34717542 0.19924554 0.13065483 0.35502952 -0.10959208 0.52318543 0.32763574 0.24210295 -0.23136611 -0.55576766 -0.42414427 -0.4377171 -0.012375591 0.111271985 -0.05585522 0.1656558 0.20513804 -0.0690197
32 -0.021219397 -0.75649595 -0.029081302 0.051306423 -0.058665 -0.20640872 0.5600765 0.036095336 -0.36554375 0.16001087 -0.08933758 0.5316979 -0.17669259 -0.6578632 0.23621486 -0.5792306 0.06958455 -0.15787672 -0.4126933 0.19979356 0.3251627 -0.116690114 0.18707536 0.09469148 0.026248973 -0.29956177 -0.018486645 0.29319564 0.078307755 0.36087888 0.01769668 0.2947313 -0.57745767 0.5804774 -0.37313503 -0.19955236 0.44962052 0.1556527 0.15196785 -0.32977986 -0.43904856 0.14570066 0.44591212 0.32018605 -0.6185815 0.28742096 0.062409453 -0.54281026 -0.5022781 0.20037527 -0.13263671 0.2238915 0.12973887 -0.045450736 -0.5814524 -0.51436263 -0.32017615 0.32545272 -0.36141765 -0.054766964 0.2583059 -0.511881 -0.253709 0.3248178
29 -0.19649811 -0.1622796 -0.025585078 -0.30524337 0.24931155 0.28543267 -0.2746892 -0.27783865 0.15809223 0.24005543 0.0028029103 0.62551504 0.038619522 -0.3640489 -0.16811155 -0.062244497 -0.5412244 -0.2795282 0.61357385 0.027637523 0.3709784 -0.18960977 -0.10814007 0.39909503 -0.31801668 0.058477193 -0.11982863 -0.08766361 0.20240067 0.4581777 -0.07361187 0.19275121 -0.1220617 -0.3603576 -0.046604905 -0.42883644 0.77435166 -0.15472248 -0.015755806 -0.25130785 -0.15890583 0.34400815 -0.42239368 -0.0584494 -0.05525681 0.91199195 -0.30108103 0.4396097 -0.3734592 -0.30791214 -0.18823533 -0.025437485 0.13228282 0.38197437 -0.2969501 0.067412354 0.21433711 -0.2761122 -0.2954436 0.07636779 0.0762098 -0.143467 0.056565 0.28378054
6 -0.035015486 -0.5958558 0.09629305 -0.008144541 -0.07960363 -0.013832041 0.57823193 0.064468 0.28985384 0.15359452 -0.06361934 0.19981973 -0.32052016 -0.49277636 0.17230636 -0.56830925 -0.008361822 -0.38218248 0.24533184 -0.20800737 0.3243127 0.17949207 -0.022614531 0.47332293 0.5016137 -0.1727536 0.28230226 -0.35595033 -0.036609933 0.31654835 -0.1784056 -0.06650135 -0.1906408 -0.049224317 0.09916875 -0.6304419 0.69265825 0.004227549 -0.0920007 -0.24816011 -0.60976696 -0.08950822 0.17025873 0.5763696 -0.20982014 0.18880159 0.40733576 -0.32349697 0.10810814 0.15058082 -0.47626007 0.2655282 0.1876145 0.26096037 0.019170957 -0.14661163 -0.47780994 -0.72970915 -0.038975235 0.10711693 0.07191186 -0.32511166 0.17487614 0.59826845
37 -0.30489188 -0.12793058 0.009470958 -0.3509722 0.3622373 0.25122422 -0.29695243 -0.20543979 0.18057466 0.26951024 -0.060270395 0.7330801 0.07784693 -0.32463375 -0.15383443 -0.02461908 -0.63358414 -0.33108523 0.45144713 -0.013893061 0.31942078 -0.22835925 0.052414488 0.3493366 -0.30797532 0.14243641 -0.1146763 0.07426627 0.29731804 0.48577416 -0.0046312064 0.30790463 -0.1831498 -0.27835122 0.08681426 -0.3971631 0.69945747 -0.11501922 0.0013875777 -0.1782864 -0.11595886 0.41406593 -0.31745186 -0.13176747 -0.19428992 0.8255423 -0.31801254 0.5124227 -0.45483026 -0.27855206 -0.13708301 -0.13145797 0.16600472 0.43422237 -0.33154097 0.0590025 0.28977165 -0.08282162 -0.34560204 -0.012919927 0.107617036 -0.2322853 -0.010632266 0.1825966
58 0.1188318 -0.13865183 -0.2848335 -0.13811253 0.06399644 -0.16299462 0.1944941 -0.13250156 0.22262369 -0.121139176 0.023391852 0.34878257 -0.3686333 0.081259005 -0.38262138 -0.52926546 -0.41983712 0.28033155 -0.3592962 0.21743548 0.41648537 -0.28883013 0.21354118 -0.26014462 0.40684852 -0.14847305 -0.553391 -0.292666 -0.18430957 -0.030135976 -0.060787145 -0.0013212103 0.04096997 -0.16118103 0.22686331 0.40650645 -0.19884053 0.11218894 -0.32488576 0.0064621517 -0.01597726 0.68730414 -0.2836387 0.046120334 -0.078259416 0.7029667 0.0536463 -0.11968173 0.09832911 -0.15335084 -0.3467849 -0.42799652 0.878689 -0.05703948 -0.019675625 -0.34533384 0.5110844 -0.18274629 -0.22660956 -0.44260368 -0.0027005554 0.49819013 0.0680259 -0.33884683
52 -0.1477569 -0.17691772 -0.07963794 -0.15195104 0.23384853 -0.121459655 0.10892399 -0.29626176 0.046141323 -0.17471422 0.071983 0.38805366 -0.3861758 0.043145753 -0.68923086 -0.50729764 -0.31958055 0.39290646 -0.2740577 0.088949814 0.4938094 -0.10504721 0.1425435 -0.05808485 0.2052176 -0.17031994 -0.57020634 -0.31390616 -0.24284336 -0.108560756 -0.08200197 0.096785255 -0.009941411 -0.16950643 0.21122451 0.23391639 -0.21102785 0.012342057 -0.23706053 -0.06775561 0.020403149 0.6577796 -0.10783156 0.10845858 -0.045461852 0.6828065 0.059676807 -0.21923497 0.2041712 -0.16387829 -0.37094963 -0.41166297 0.6824514 -0.02440758 0.07953419 -0.40023363 0.4227435 -0.14051187 -0.20929903 -0.31771153 -0.10479836 0.6521943 -0.14294519 -0.29494268
4 -0.40364844 -0.5473386 0.22069305 -0.17812413 0.2231397 -0.15734367 0.7005503 -0.008959252 -0.10759116 0.11076108 -0.20796818 0.24266383 -0.43406397 -0.32078165 0.10646661 -0.555472 0.31669888 -0.42454103 0.09973715 0.020971905 0.3426236 0.18389857 0.04355802 0.5744237 0.53014576 -0.33401728 0.111592196 0.038346626 -0.13885304 0.2931041 0.061676264 0.13699761 -0.5215894 0.24574597 -0.013923473 -0.4779793 0.4183967 -0.012344928 0.17255872 -0.1395817 -0.46636173 -0.19658822 0.62634164 0.59250975 -0.32043788 -0.07354222 0.39595464 -0.32838628 -0.12922151 0.31857845 0.10430844 0.22737528 -0.021508733 0.29831582 -0.134291 -0.40053093 -0.25043127 -0.16034059 -0.24490596 -0.0977117 -0.06397943 -0.23829895 -0.1040658 0.5191979
46 -0.27805412 0.08826923 -0.21231887 -0.24006252 0.26379833 -0.018243855 0.2901719 0.09067142 0.17122456 0.019502912 -0.12574774 0.25045833 -0.26566386 0.41498867 0.16947116 -0.020726247 -0.3334237 -0.35823736 -0.1619683 0.5675419 0.35368443 -0.55954194 0.18769157 0.18865642 0.5259303 0.13152237 -0.67985207 -0.10336976 -0.49491242 0.13160546 0.082831 0.43698728 0.10939334 0.06075454 -0.029926755 -0.04572892 -0.09501517 -0.11895483 -0.20266911 0.069437094 -0.05170194 0.009879755 -0.055739824 -0.14369328 0.05688832 0.7978306 0.22630538 0.18419616 -0.11399585 -0.087202564 0.6159725 0.031175364 0.056993283 -0.25024432 0.20748137 -0.12229222 0.5230271 -0.16286866 -0.47882932 -0.97704786 0.34173486 0.26024702 -0.017067628 0.24139765
47 -0.3325657 0.08843854 -0.2453895 -0.2900479 0.32684416 -0.053416252 0.29669416 0.10197141 0.14278026 -0.06508244 -0.10415563 0.20748189 -0.31009635 0.46565223 0.15129939 0.0082617365 -0.3123069 -0.34246343 -0.14625211 0.57225376 0.3801956 -0.5345464 0.21430022 0.2506493 0.48750895 0.0852333 -0.7934278 -0.07909785 -0.6229776 0.17982535 0.13691723 0.47300792 0.058539048 0.11160888 -0.016500095 -0.029947573 -0.21952131 -0.10736138 -0.23629531 0.04024224 -0.018971322 -0.014831963 0.019110858 -0.13573627 0.02206129 0.8329921 0.23753338 0.15398522 -0.08759613 -0.08273392 0.66545105 0.04549377 0.029807623 -0.31079254 0.21460915 -0.28271466 0.6727101 -0.12502527 -0.5715213 -1.0673361 0.3211958 0.36593267 -0.075178765 0.23706022
36 -0.4116764 -0.60276437 0.22578177 -0.16730033 0.17386672 -0.21988656 0.7866583 -0.007556125 -0.14078507 0.14157298 -0.21803811 0.22970954 -0.44917396 -0.2731316 0.154497 -0.62681764 0.32008168 -0.4144882 -0.054474708 0.06292374 0.38228697 0.18582888 0.09374983 0.56186104 0.5841005 -0.31050906 0.096648805 0.046957765 -0.21088469 0.25679675 0.057302583 0.19636914 -0.50749725 0.3646001 -0.032796603 -0.46381998 0.3244261 0.028596833 0.16427653 -0.13859741 -0.4557988 -0.22081485 0.6942116 0.5928271 -0.32020953 -0.06758971 0.44313243 -0.40574318 -0.09999072 0.35569713 0.123204984 0.28221756 -0.02197952 0.1723783 -0.080031246 -0.41742992 -0.3056051 -0.13516916 -0.26420954 -0.19423932 -0.012624744 -0.26199985 -0.13445738 0.5161672
0 0.043722 -0.7985739 -0.08246702 0.046378165 -0.102795064 -0.1862579 0.4972608 0.044940837 -0.3736928 0.15378192 -0.023763334 0.57406765 -0.17270172 -0.70652634 0.29990703 -0.59156454 0.05191742 -0.11632213 -0.27075315 0.25156176 0.2812595 -0.15526968 0.099202655 0.07705257 -0.036572408 -0.33136964 -0.038337275 0.29851902 0.07629379 0.40918002 0.035880122 0.27391118 -0.6159514 0.60242075 -0.39456996 -0.14548738 0.5047225 0.13596746 0.16431172 -0.33492768 -0.39718845 0.16543107 0.38090667 0.29466218 -0.64097553 0.36969015 -0.034485582 -0.5255343 -0.6153949 0.11558564 -0.16578014 0.24354216 0.19702126 -0.04701893 -0.6847519 -0.5023381 -0.22945511 0.3255826 -0.46133807 -0.037143487 0.24205802 -0.5705438 -0.21651347 0.35854906
48 -0.2660781 0.06193931 -0.24932499 -0.27512917 0.27714545 -0.07802258 0.31054386 0.084037565 0.13016501 -0.009378003 -0.13240981 0.27569756 -0.2744435 0.42724037 0.14165144 -0.0731157 -0.35669923 -0.32652664 -0.24908145 0.5707592 0.39317825 -0.54837096 0.25840726 0.14633906 0.5041863 0.11393558 -0.7566579 -0.043654557 -0.5159553 0.17315713 0.12551555 0.45232403 0.029029561 0.11628542 0.0058769966 0.02104619 -0.19598271 -0.0685146 -0.2298105 0.04430392 -0.048989326 0.070867635 -0.009163569 -0.13011251 0.0041121063 0.80203944 0.20327638 0.1472192 -0.1443099 -0.07536211 0.5816515 -0.0205515 0.1042918 -0.27250183 0.17126049 -0.25325567 0.6013066 -0.044051066 -0.49935645 -1.0380058 0.33846432 0.31794623 -0.039417718 0.14462288
59 -0.11934632 -0.1634539 -0.08663015 -0.17087722 0.16065525 -0.062141247 0.040040348 -0.3381639 0.14024493 -0.0727846 0.06360242 0.4318035 -0.32409328 0.10207925 -0.6710216 -0.5440879 -0.4718927 0.36087865 -0.2866021 0.11093345 0.54886186 -0.14237429 0.16121213 -0.10150793 0.2677566 -0.043498907 -0.5662707 -0.4014913 -0.2378755 -0.14979634 -0.14869934 0.10281414 0.094708495 -0.26194406 0.27317658 0.2222726 -0.17344137 0.035794776 -0.32197422 -0.020307926 0.02381452 0.7150375 -0.26290536 0.055294182 0.07839909 0.83143646 0.043220818 -0.123225905 0.24159092 -0.21827635 -0.43719983 -0.4194742 0.747033 -0.05526914 0.18657632 -0.24503797 0.36630738 -0.2460356 -0.1182317 -0.3906151 -0.058157567 0.6424976 -0.041625317 -0.33761355
57 -0.038201924 -0.20541458 -0.123797596 -0.17759424 0.10881323 -0.068554305 0.024088254 -0.35582012 0.090314746 -0.08816912 0.072537266 0.39438474 -0.3166049 0.0032405057 -0.59311783 -0.5459974 -0.41031748 0.35581824 -0.21794894 0.11131791 0.53400105 -0.10576852 0.12543352 -0.104919165 0.13794374 -0.15442517 -0.5158614 -0.2971967 -0.19395752 -0.083462775 -0.13569495 0.04936701 -0.0053197327 -0.23461242 0.17831056 0.26536387 -0.12883598 0.0690973 -0.2850251 -0.060211275 0.027794985 0.7111833 -0.25309786 0.097959764 0.022048514 0.81769925 -0.02733317 -0.09687619 0.13251247 -0.19672853 -0.45311722 -0.3498039 0.7588527 -0.015391351 0.012927778 -0.34326938 0.36834776 -0.15823844 -0.14622861 -0.28931537 -0.09105286 0.5987673 -0.026499057 -0.3378683
