61 64
14 -0.07738316 -0.23198159 -0.008615067 -0.12987788 0.0076094293 0.019699812 0.19666342 -0.03055532 0.052131932 0.04827761 -0.10778229 0.26030985 -0.053279463 -0.18955055 -0.21247238 -0.22688156 -0.13893113 -0.02043061 -0.2747214 0.06376811 0.29595792 0.008956567 0.1716348 0.08776567 0.09384405 0.0077312104 -0.27845356 -0.02871614 -0.13864414 -0.030643173 -0.038822148 0.1255067 -0.12597348 -0.070845895 0.03352643 -0.07680744 0.052619625 0.10176969 -0.1304451 -0.15685682 -0.23977342 0.23228757 0.10786788 0.17542095 -0.074868016 0.39912003 0.11829391 -0.1254555 -0.085298516 0.04800875 -0.16333434 0.051807176 0.22450756 -0.118908755 -0.09780991 -0.1638821 -0.028643584 -0.043951593 -0.13340884 -0.17488362 0.107471384 -0.07589804 -0.050641134 0.024884503
26 -0.15206645 -0.113484904 -0.08165169 -0.14011274 0.06644662 0.074377224 0.10413205 0.060315926 -0.07048062 -0.0115252165 -0.04924232 0.24274258 0.0033286966 -0.16063349 -0.20958243 -0.18346865 -0.21045831 -0.111130245 -0.20999774 0.11071776 0.311203 -0.034871668 0.27450725 0.16269359 -0.09309906 -0.006083154 -0.3831914 -0.10732736 -0.20726882 0.020544568 0.023416093 0.13002086 -0.1463363 -0.13484879 -0.07914722 -0.16951978 0.14258502 0.06169066 -0.038833596 -0.098856166 -0.24906482 0.13205837 0.13225652 0.215353 -0.19574319 0.46283284 0.054715037 -0.037517574 -0.17971542 -0.019344155 0.09298222 0.06284668 0.041874334 -0.12702112 -0.086949475 -0.35281038 0.07675069 -0.092469126 -0.2627222 -0.2409136 0.16140956 0.0276895 -0.1249333 0.043069765
53 -0.07542764 -0.24517407 -0.046916 -0.1378165 -0.03987976 0.0166731 0.16228665 -0.13495351 0.04231029 0.016138261 -0.102753095 0.29036736 -0.030795606 -0.24200141 -0.2503176 -0.27660468 -0.1654932 0.0036840714 -0.13816026 0.06498565 0.34833 0.080202855 0.1699588 0.07434255 -0.049595553 -0.02952424 -0.22809176 -0.11340999 -0.13106316 -0.007734651 -0.023270331 0.025795642 -0.17704664 -0.21184526 -0.022369778 -0.10122856 0.22310187 0.11118741 -0.10369931 -0.18248354 -0.15989298 0.23484285 0.06955703 0.2117585 -0.056268834 0.40514338 0.067412995 -0.10094503 -0.06010073 -0.036710784 -0.1945603 0.054003786 0.23986882 -0.09124946 -0.046215344 -0.19613747 -0.038519565 -0.06992798 -0.10138484 -0.05570027 0.02269526 -0.03610199 0.022402156 0.08955787
30 0.0064705107 -0.2725903 0.014343493 -0.039509445 -0.071030974 -0.08490441 0.13140048 -0.041259676 -0.02283227 0.006244142 -0.014345228 0.20519485 -0.029734248 -0.30682415 0.025449375 -0.22702695 -0.04706566 -0.1252659 0.004156806 0.03766817 0.20971328 0.10775268 0.11908681 0.098352015 -0.11607305 -0.055867434 -0.0370826 -0.053052135 -0.047893897 0.05218218 0.01359724 -0.034985784 -0.19002087 -0.024454642 -0.2005142 -0.20008463 0.35841948 0.07366848 0.05285147 -0.16625433 -0.19325364 -0.06421992 0.26820284 0.39603138 -0.092611365 0.14360827 0.04806362 -0.20473248 -0.16855024 -0.0007576194 -0.14113592 0.10479846 0.060433354 -0.01007311 -0.23261891 -0.15223518 -0.15739202 -0.017008951 -0.12557822 0.08917121 0.09354115 -0.25033966 0.020172972 0.29520294
27 -0.039856844 -0.19476745 -0.12928748 -0.13727589 -0.014240193 0.023498774 0.14051434 -0.0062668244 -0.022543447 0.024348252 -0.08746726 0.24924842 -0.021087322 -0.17738852 -0.19012247 -0.22261405 -0.13963085 -0.08705697 -0.1165187 0.063535064 0.33892706 0.03781904 0.21621037 0.14388704 -0.053440984 -0.09107752 -0.3044847 -0.13651022 -0.182291 0.09256736 0.08678816 0.004756055 -0.15213382 -0.19582012 -0.09002228 -0.13924228 0.19175474 0.067433335 -0.064573534 -0.1557216 -0.17538017 0.17778288 0.12956783 0.22566578 -0.13462453 0.3964781 0.04591574 -0.048880253 -0.08740924 -0.034630667 0.02040541 0.046275675 0.13041174 -0.07152019 -0.08221644 -0.28444853 0.08500785 -0.08360843 -0.14784557 -0.116645046 0.081359476 -0.036991995 -0.009795415 0.086517096
13 0.007877653 -0.2512366 -0.018173322 -0.06776479 -0.08791979 -0.07894239 0.13596675 -0.067816466 0.0248492 0.042389553 -0.059746657 0.22404787 -0.030487314 -0.29023224 0.013191456 -0.18424155 -0.09922618 -0.14022109 0.0079362085 0.024922775 0.26001236 0.118258595 0.12626685 0.11609897 -0.08941743 -0.06311749 -0.040692557 -0.09026043 -0.07009315 0.08531517 0.071617454 -0.041413516 -0.17574665 -0.11107259 -0.18202662 -0.20637588 0.37001246 0.09550244 -0.0024057203 -0.15415704 -0.17793612 0.036461186 0.20699759 0.32587415 -0.091411605 0.19381669 0.054521695 -0.11233689 -0.12404566 -0.006237755 -0.12397452 0.11182359 0.11499652 -0.019047812 -0.16010725 -0.14634535 -0.13481082 -0.063485496 -0.07459259 0.06091977 0.07492549 -0.22867525 0.06331417 0.2703916
38 -0.09926122 -0.15064506 -0.08011998 -0.1495687 0.00024023172 0.058700375 0.13366714 -0.04256322 -0.07478168 -0.03943915 -0.06277993 0.2141352 0.027602285 -0.19423082 -0.2593311 -0.27858236 -0.10094785 -0.0151457675 -0.078956045 0.10676706 0.3136909 0.033687178 0.20504378 0.13661695 -0.117198326 -0.06235172 -0.30456242 -0.13766521 -0.20807563 0.016728519 0.0355242 0.006000493 -0.18245904 -0.19379672 -0.054867893 -0.11193546 0.21270354 0.031701293 -0.025069354 -0.12733707 -0.15808643 0.1026223 0.18041675 0.29866657 -0.11195122 0.36692068 0.05773403 -0.12509519 -0.097010255 -0.05448886 0.0012689036 0.01688547 0.120331 -0.079448126 -0.11270861 -0.3557341 0.09227868 -0.08924199 -0.22862944 -0.11935316 0.04447911 0.06764823 -0.043817412 0.056972817
12 -0.03998631 -0.21841542 -0.06248003 -0.10052477 -0.06670067 -0.064083315 0.1046892 -0.069144376 -0.011504979 0.028709538 -0.048437763 0.25534928 -0.019511223 -0.255486 -0.03436692 -0.19711311 -0.13082641 -0.13503064 0.018878007 0.030383367 0.28370425 0.11153767 0.14302047 0.12145388 -0.11376801 -0.05941668 -0.097733624 -0.111964695 -0.08488136 0.10138372 0.09930681 -0.04013088 -0.17195462 -0.16045599 -0.16888514 -0.19575347 0.3692798 0.09150751 -0.0011716266 -0.1522693 -0.17580467 0.047211856 0.18237549 0.3024811 -0.10574449 0.22765987 0.040725604 -0.06602906 -0.14006168 -0.056966107 -0.07454653 0.090093315 0.07891996 -0.025682382 -0.12754948 -0.19429955 -0.068864584 -0.07432591 -0.099479325 0.03492235 0.08969184 -0.17879756 0.055642713 0.25416693
21 0.026984848 -0.12302447 -0.11119637 -0.12420512 -0.13030845 0.007915013 0.11025732 -0.053524338 0.12995158 0.08346615 -0.05954389 0.30436492 -0.017784342 -0.1982873 -0.04982977 -0.15153125 -0.21286982 -0.21578987 0.027668905 0.05576884 0.29854074 0.040950492 0.20367111 0.16717069 -0.0008366883 -0.021854728 -0.07090001 -0.2819832 -0.10164811 0.1142604 0.10931343 -0.08054744 -0.114189066 -0.2784139 -0.17785591 -0.25230664 0.41896474 0.047581695 -0.04566832 -0.10077718 -0.22533429 0.080152385 0.08487547 0.2808102 -0.09714216 0.26013598 0.09511861 0.012426645 -0.021805698 -0.08034633 0.0043624095 0.043961097 0.11465074 -0.03706745 0.05031403 -0.12949537 -0.04571689 -0.24651086 -0.085652076 0.0038636688 0.068839364 -0.1508736 0.1573033 0.22650035
40 -0.1444657 -0.10558681 -0.11913288 -0.1461934 0.11637135 0.13488863 0.19344205 0.12098105 0.000509891 0.01208041 -0.07527151 0.28803438 -0.023588054 -0.07394481 -0.30301625 -0.20948976 -0.22565342 -0.0780036 -0.38531178 0.1511147 0.33757657 -0.14375298 0.3097131 0.15088445 0.106686525 0.0032761963 -0.49817604 -0.1204843 -0.26027194 -0.073914774 -0.043086473 0.20281476 -0.12235067 -0.07023145 0.04254475 -0.07651584 -0.043448888 0.03610705 -0.09938889 -0.09376393 -0.29639202 0.26802167 0.09052102 0.109957434 -0.18657076 0.5376612 0.12268046 -0.11318114 -0.06118382 0.038636144 0.10984247 0.008832322 0.15324776 -0.18023197 -0.024665961 -0.32451653 0.18594572 -0.11317812 -0.25988442 -0.409222 0.16959006 0.11009858 -0.2062228 -0.10204401
39 -0.16057667 -0.19809572 -0.038315173 -0.12429004 0.13306051 0.043028094 0.3363718 -0.028943943 0.015186601 0.0023540559 -0.11242658 0.27255115 -0.063247405 -0.15965267 -0.3866152 -0.31793094 -0.145173 0.113414675 -0.39178452 0.15450944 0.39419365 -0.05407305 0.22192326 0.0891311 0.18123254 -0.018331055 -0.46181187 -0.030269528 -0.23873077 -0.13917278 -0.112722345 0.18809529 -0.19074856 -0.018838866 0.15354224 0.0338461 -0.060837753 0.06857647 -0.15638009 -0.17175297 -0.19423737 0.39840478 0.09513933 0.088878214 -0.071016125 0.5213578 0.12424343 -0.26386654 0.056640964 0.078263946 -0.13343734 0.013175569 0.38029903 -0.20467648 -0.04650312 -0.23565434 0.1643453 -0.03933745 -0.19633457 -0.3570464 0.05315008 0.15296522 -0.2315728 -0.098194316
15 -0.05364543 -0.16770834 -0.09756475 -0.18379334 -0.17143226 0.04110395 0.026579782 -0.12521039 0.03723579 0.041530356 -0.11628846 0.32155386 0.04372104 -0.22475286 -0.11135291 -0.17996722 -0.260106 -0.2429545 0.08608984 0.043074165 0.3455699 0.09539652 0.23002778 0.15470704 -0.16966808 -0.010950065 -0.11246548 -0.2630862 -0.13430353 0.10398659 0.13365954 -0.089066476 -0.11147114 -0.44149733 -0.20399632 -0.2669021 0.4980934 0.09035223 -0.023670854 -0.11642938 -0.2426818 0.06941562 0.08005579 0.32808045 -0.09701524 0.3141528 0.042260922 0.0896701 -0.15062585 -0.11971308 -0.013454786 0.052960347 0.05297082 -0.029085955 0.03418746 -0.2710543 -0.121169075 -0.2082616 -0.09558494 0.04864646 0.06550711 -0.13646851 0.22165859 0.21220545
56 -0.0892413 -0.19721186 -0.04463132 -0.15822305 0.08559245 0.0506093 0.35502014 -0.06844911 0.07207199 0.049903262 -0.13713253 0.27304083 -0.09111238 -0.14561313 -0.41998446 -0.327685 -0.12161495 0.1320553 -0.37813902 0.14703311 0.3966922 -0.04529804 0.20276487 0.10484416 0.26623377 -0.028511724 -0.45650336 -0.08837654 -0.23527151 -0.082649 -0.09979538 0.16674533 -0.17284131 -0.07145313 0.1593123 0.033539794 -0.08819341 0.06038192 -0.21381533 -0.17210844 -0.18651809 0.42240223 0.059114777 0.108338654 -0.008931778 0.5320098 0.13967443 -0.22659153 0.0853455 0.06804493 -0.17504533 -0.021973122 0.43412185 -0.17948203 -0.012506327 -0.16709113 0.1588261 -0.09718529 -0.16713195 -0.31559217 0.031552788 0.13085513 -0.13494407 -0.1051636
3 0.30686978 -0.26956984 0.03370739 0.01919771 -0.06426753 -0.096697696 0.37304783 0.1526229 0.105243 0.08737297 -0.00037294228 0.13200441 -0.17009643 -0.3022259 0.31244662 -0.1747018 0.20318218 -0.24255645 -0.00983596 0.10869404 0.02554917 0.04093597 0.0014103702 0.2229818 0.35471812 -0.14563961 0.15297635 -0.13738923 -0.015211185 0.036581635 -0.023680395 -0.12586877 -0.20319813 0.23693973 -0.27253613 -0.2338078 0.3630155 -0.107485764 0.071037054 -0.166036 -0.36435467 -0.36185262 0.4856467 0.618781 0.030041618 -0.20294149 0.24857737 -0.4868133 -0.051662933 0.17143267 -0.08033078 0.036470782 0.09525371 0.07866716 -0.29521772 0.10146426 -0.2596743 -0.17247672 -0.106951915 0.15560351 0.10041797 -0.4833497 0.08502118 0.45331588
7 0.42633644 -0.19021483 -0.13151154 -0.02589967 -0.11922946 -0.08340778 0.40316147 0.20795742 0.1837737 0.1647497 -0.057522684 0.17879888 -0.1787482 -0.20666903 0.35026225 -0.13881649 0.19036599 -0.36457214 0.06944075 0.13977131 0.09055452 -0.008088477 0.01950648 0.319291 0.51381254 -0.24617936 0.1253861 -0.32232612 -0.08566946 0.16291568 0.16483389 -0.23323873 -0.15821311 0.043108672 -0.34529904 -0.2449828 0.43008742 -0.18037315 0.045489594 -0.16831438 -0.36155248 -0.3009747 0.45133644 0.59304947 0.04643499 -0.22285533 0.25843838 -0.34012076 0.06537936 0.11745988 0.115358904 -0.028059078 0.12257432 0.137554 -0.1726493 0.13579996 -0.09639442 -0.30848607 -0.04626234 0.13456498 0.10105623 -0.5086568 0.23993605 0.43934765
2 0.22643586 -0.30116135 0.013448255 0.028189927 -0.0031151706 -0.18601905 0.38450816 0.09852215 0.031996004 0.061366834 -0.00031070854 0.13695177 -0.12574233 -0.3013463 0.20719197 -0.2488828 0.21533503 -0.10653871 0.009809437 0.109878905 0.11301213 0.07314665 -0.013015313 0.14737052 0.2531639 -0.18047898 0.08259318 -0.042352498 -0.020424409 0.025738379 -0.012038215 -0.11538798 -0.23986752 0.26590756 -0.22558205 -0.12457362 0.3014171 -0.0719859 0.09162463 -0.21219982 -0.22431298 -0.2086877 0.46651193 0.4921055 0.014352976 -0.16877191 0.15540524 -0.52512354 0.024841748 0.13978955 -0.13079552 0.035686776 0.18311411 0.07201528 -0.35194272 0.042331792 -0.10776993 -0.028834362 -0.109061845 0.125116 0.059605684 -0.38372883 -0.026255077 0.36609018
28 -0.11377449 -0.22807011 -0.069858275 -0.11991353 -0.08135164 -0.014087093 0.07089459 -0.15355064 -0.047516353 -0.016443683 -0.06931195 0.27091742 0.010406943 -0.2731048 -0.17938472 -0.2541343 -0.18087654 -0.07346701 0.049031563 0.049283028 0.34404203 0.14334227 0.19522092 0.110265344 -0.25150803 -0.051398154 -0.20622207 -0.14832234 -0.14054586 0.11363449 0.10597703 -0.04318353 -0.19734202 -0.29207182 -0.13845801 -0.19501655 0.39230478 0.12455898 -0.027914897 -0.1475968 -0.10702988 0.1425472 0.13476035 0.29449746 -0.13514926 0.3619756 -0.019979693 0.0045612534 -0.157722 -0.1131301 -0.09625606 0.09322 0.10933968 -0.059241302 -0.072803386 -0.3170171 -0.025751866 -0.06862139 -0.13142145 0.010281982 0.02292704 -0.05912185 0.07799715 0.20140547
23 -0.07700187 -0.17277488 -0.09367599 -0.15146059 -0.0983467 0.029344454 0.03062962 -0.07558546 0.007390586 0.023560885 -0.0690011 0.27632087 0.00787683 -0.24046668 -0.11080949 -0.18707773 -0.22716779 -0.17288129 0.002184328 0.041673563 0.3143235 0.095062986 0.21021836 0.16275428 -0.19839402 -0.011916183 -0.17046712 -0.17417222 -0.13102455 0.13167964 0.10185151 -0.022337833 -0.14482139 -0.29534724 -0.17973593 -0.26392093 0.38314652 0.10934766 -0.039482445 -0.13493873 -0.20717387 0.0673856 0.11700158 0.31007856 -0.12867405 0.37153086 0.03886183 0.07158255 -0.19420876 -0.10212268 -0.03789345 0.10039436 0.03571902 -0.05279991 -0.0683872 -0.27771628 -0.086072244 -0.14135766 -0.1346239 -0.006606268 0.11053545 -0.12545542 0.106562495 0.21436386
25 -0.09118213 -0.1744485 -0.08569787 -0.14875562 -0.06915955 0.009417524 0.073488355 -0.14438227 -0.0264287 -0.011728066 -0.056704897 0.24292989 0.009163911 -0.24530677 -0.18154815 -0.2905225 -0.16110542 -0.06131421 0.051688455 0.063342385 0.36654568 0.12080634 0.20636103 0.17174911 -0.2004159 -0.061300635 -0.18986343 -0.18892156 -0.16424406 0.12632133 0.109062746 -0.058248565 -0.20360374 -0.3006591 -0.12574264 -0.19338526 0.38413858 0.08852106 -0.03506739 -0.13560638 -0.115691334 0.10659818 0.13422307 0.31864643 -0.07365625 0.37669313 0.013122694 0.00626265 -0.11248274 -0.12215257 -0.08140219 0.06699825 0.12435685 -0.022709949 -0.07993529 -0.27178645 0.009446947 -0.1327471 -0.13788274 0.027089141 0.027570903 -0.017452741 0.08168023 0.18922773
24 -0.07478194 -0.16441318 -0.11732785 -0.118088074 -0.07037986 0.008562349 0.05751689 -0.10400862 0.029674878 0.02082286 -0.022515472 0.28940338 -0.011665923 -0.24127099 -0.13506666 -0.22551236 -0.234748 -0.124255374 0.0016824689 0.03745586 0.3524038 0.095115565 0.21636958 0.1574874 -0.18700004 -0.03296656 -0.18699731 -0.20523652 -0.12511459 0.14610915 0.09722354 -0.039669693 -0.16890411 -0.2849156 -0.15214466 -0.24007592 0.4003486 0.113619864 -0.046992708 -0.14210439 -0.13723367 0.14560193 0.07907851 0.2644054 -0.12733018 0.4058695 7.124996e-06 0.049092077 -0.11074923 -0.13963182 -0.049664356 0.09113173 0.089556254 -0.044728674 -0.02535409 -0.22397783 -0.0013203112 -0.13541992 -0.11230501 -0.0063253646 0.07886483 -0.07401294 0.07193103 0.2081504
22 -0.108746186 -0.23552418 -0.042746138 -0.11790048 -0.11281222 -0.02380843 0.03883154 -0.19653393 -0.008796118 -0.011922642 -0.040767904 0.29048172 0.026677975 -0.31442642 -0.14350447 -0.27086478 -0.22505571 -0.07451742 0.06820354 0.027259436 0.37415925 0.15160917 0.21892565 0.11208067 -0.29871446 0.0039410186 -0.11306939 -0.1617394 -0.10234593 0.099612914 0.056695543 -0.0437063 -0.21216069 -0.27294016 -0.15077116 -0.23823802 0.45662147 0.13717997 -0.019556552 -0.1458653 -0.12763196 0.10739941 0.10982852 0.32686722 -0.100067995 0.375965 -0.015483709 -0.010552561 -0.13520473 -0.12968321 -0.17876394 0.10770529 0.11129427 -0.050651688 -0.070218384 -0.25505263 -0.09774496 -0.097521745 -0.10652332 0.06978321 0.043428782 -0.08215688 0.081921436 0.25556996
8 0.3656943 -0.22929816 -0.06406894 0.0008091953 -0.11912398 -0.08414755 0.38395634 0.13678257 0.14878954 0.14373146 -0.06666734 0.1700707 -0.14173119 -0.19168487 0.27953288 -0.15715677 0.17535952 -0.27193183 0.089415535 0.14368789 0.10398009 0.014557112 0.046572503 0.24052733 0.41067225 -0.19705364 0.11608972 -0.27345532 -0.09167513 0.11619213 0.1005796 -0.20008583 -0.16907366 0.07706321 -0.28802353 -0.2004484 0.38886717 -0.1590731 0.04522236 -0.13208349 -0.30275193 -0.25069922 0.41600516 0.5341993 0.061488368 -0.17746244 0.22194125 -0.36818242 0.07263387 0.11943459 0.04600233 -0.019706246 0.16557145 0.10832679 -0.17397405 0.11038386 -0.1169292 -0.23741297 -0.04749003 0.116918944 0.051696185 -0.44138145 0.19236283 0.3881874
9 0.23802821 -0.08668016 -0.1730536 -0.06327358 -0.09236535 -0.013768095 0.25853875 0.108589806 0.16748998 0.107921936 -0.04973622 0.22056238 -0.09419291 -0.12966952 0.13570873 -0.12146229 -0.0026489513 -0.2609797 0.05486505 0.11660947 0.16381492 -0.0086699445 0.11967569 0.23330513 0.29823625 -0.13842438 0.008233333 -0.34222147 -0.11440241 0.14656729 0.16004765 -0.17671514 -0.11342513 -0.12671763 -0.20738015 -0.21158023 0.39446446 -0.10185941 -0.018738868 -0.08064547 -0.24975468 -0.11822663 0.24266429 0.38165513 -0.025654033 -0.019381087 0.18079785 -0.15579638 0.08899998 0.0050917966 0.13158214 -0.029038757 0.117428206 0.04587957 0.025676768 0.0005632777 0.011859756 -0.3045454 -0.05261686 0.019682376 0.05068865 -0.24673486 0.18073277 0.28966308
55 -0.04931176 -0.2641536 -0.036965974 -0.14687407 0.00019797753 0.0014492178 0.39968044 -0.14719312 0.13678122 0.06723724 -0.17704192 0.31586504 -0.06815086 -0.16175926 -0.4534847 -0.36001828 -0.096183576 0.16411093 -0.3163731 0.15048213 0.42535898 -0.022447838 0.17706878 0.01726206 0.29011807 -0.039299842 -0.41069496 -0.1297184 -0.2066675 -0.09604923 -0.08650901 0.08866864 -0.14498036 -0.121786326 0.1715873 0.08433742 -0.048991866 0.07433025 -0.23317865 -0.20204991 -0.15034015 0.4686196 0.031189272 0.08366317 0.032943416 0.47467196 0.14998536 -0.27204776 0.17022039 0.06700408 -0.25932592 -0.04541539 0.52940315 -0.18249346 0.013750166 -0.13340096 0.14434515 -0.07120205 -0.09332355 -0.25943866 -0.034161013 0.10136518 -0.05359361 -0.09860024
5 0.4131125 -0.18223162 -0.13185884 0.006177397 -0.08206749 -0.120052084 0.42232603 0.17223324 0.22053231 0.1556599 -0.017882233 0.18215303 -0.17297971 -0.19154896 0.31454894 -0.14752308 0.17192565 -0.28220192 0.060657237 0.14493547 0.113544345 0.008264584 0.024778012 0.27204818 0.4933163 -0.21648832 0.12375486 -0.32749382 -0.061307725 0.16962634 0.12325652 -0.22800009 -0.1563466 0.10541185 -0.29801753 -0.2283591 0.39479414 -0.17248054 0.0030119973 -0.15191308 -0.29515064 -0.2568784 0.41003156 0.5159593 0.04715951 -0.20163158 0.24622124 -0.36781144 0.1416661 0.09523175 0.07025173 -0.011589488 0.17747311 0.10110791 -0.14106116 0.16274442 -0.049268354 -0.29534188 -0.02695543 0.107866436 0.08668115 -0.45584014 0.19254541 0.42718226
54 -0.10327739 -0.28089783 -0.020813437 -0.14786308 -0.010440704 0.011135697 0.3424829 -0.16872093 0.09726166 0.046919152 -0.18064886 0.31804672 -0.049633007 -0.18991293 -0.42719612 -0.32685167 -0.15324402 0.11315161 -0.3042651 0.12495167 0.41937134 0.009507879 0.19472155 0.022371491 0.17672528 -0.0357108 -0.39852008 -0.099756934 -0.20155095 -0.1025456 -0.08530905 0.118006 -0.16581315 -0.15245949 0.13011573 0.03619977 0.005743762 0.11650595 -0.20599484 -0.19625981 -0.16226931 0.4537084 0.02184651 0.09200417 -0.011298173 0.505931 0.11712324 -0.22689325 0.08403334 0.054284785 -0.25414452 0.004927655 0.4672248 -0.19531812 0.006449217 -0.17808352 0.07937148 -0.046046358 -0.09573844 -0.2371668 -0.025449801 0.08464372 -0.060977094 -0.07218144
29 -0.08255335 -0.17278689 -0.16514833 -0.15245835 -0.08897739 -0.020847432 0.051065367 -0.09358891 0.0012527845 0.028053422 -0.072890416 0.30849326 0.013118726 -0.22959244 -0.13961251 -0.21245414 -0.23588827 -0.16876228 0.052173402 0.044729833 0.3694607 0.10981055 0.21213418 0.14485262 -0.21118744 -0.07280876 -0.20695345 -0.21463317 -0.13894625 0.18381922 0.18177445 -0.08206603 -0.1479886 -0.365089 -0.18838534 -0.2362533 0.43299136 0.12604195 -0.03576647 -0.15386207 -0.13125867 0.14213951 0.08358275 0.24910735 -0.15530176 0.37816492 -0.0062087923 0.089765266 -0.13453731 -0.1398573 0.0089476295 0.08369506 0.06962299 -0.04456208 -0.03063884 -0.29275727 0.029171892 -0.12024166 -0.106384695 -0.0044880826 0.0736457 -0.10051846 0.10697037 0.20614846
1 0.22939008 -0.33462587 0.010955583 0.06040521 0.031153616 -0.24331118 0.38398865 0.18411216 0.010314294 0.05449487 0.015544874 0.14136164 -0.14147118 -0.33455822 0.32804626 -0.22530478 0.24001338 -0.20612909 0.029236697 0.11831828 0.093711086 0.07364225 -0.011492874 0.18261805 0.25335288 -0.20466964 0.118991 -0.009814205 -0.011555903 0.030445658 0.010900675 -0.10401525 -0.26550618 0.33178142 -0.3093332 -0.17964515 0.34924182 -0.09104093 0.16558346 -0.23383647 -0.2777969 -0.2892322 0.5655072 0.5594341 -0.045401398 -0.25239316 0.14245886 -0.55715066 -0.030980552 0.16987848 -0.06425039 0.07146895 0.097333364 0.098401934 -0.4202901 0.02045723 -0.12212927 0.0033327588 -0.13974617 0.11888569 0.11792529 -0.50122136 -0.05821064 0.44518232
52 -0.05190978 -0.25106564 -0.032388777 -0.1368683 0.014523861 -0.001836016 0.38496068 -0.111633286 0.12656459 0.055420212 -0.145049 0.30558825 -0.074703455 -0.17226726 -0.40307868 -0.34444517 -0.10520403 0.14922298 -0.34319752 0.12148127 0.400592 -0.02657939 0.16379495 0.027764669 0.2659313 -0.035796076 -0.38242924 -0.097994946 -0.1784058 -0.09624 -0.08721411 0.11269867 -0.1533429 -0.06883513 0.16148016 0.06402681 -0.040718667 0.06922399 -0.21370254 -0.19541337 -0.15090796 0.45044345 0.04490723 0.09124873 -0.011717127 0.45999858 0.14511168 -0.25854445 0.13888828 0.056052532 -0.23575892 -0.029161558 0.49166298 -0.17886445 0.0040757 -0.11725131 0.14550443 -0.076880075 -0.11444085 -0.2639177 -0.0068156216 0.082424164 -0.0859927 -0.088911965
11 -0.04708446 -0.18955535 -0.11080784 -0.124434546 -0.10079169 -0.017457835 0.034216546 -0.023638822 0.00318619 0.023795625 -0.07498086 0.29549518 0.022169963 -0.20476396 -0.030915985 -0.19346674 -0.19780988 -0.24328543 0.05506664 0.044781666 0.30772325 0.0780938 0.2182728 0.16699502 -0.15712386 -0.056344975 -0.13269787 -0.18420589 -0.13206753 0.10960456 0.154397 -0.074132755 -0.13471414 -0.3132249 -0.21286884 -0.23707996 0.45038208 0.07516102 0.028957462 -0.12132145 -0.20438816 0.039998885 0.16601314 0.31503135 -0.15160649 0.27284554 0.038241297 0.03894018 -0.1641642 -0.09595152 0.04829894 0.072498225 0.007753884 -0.003913435 -0.07101746 -0.2697549 -0.04193267 -0.107076146 -0.13871105 0.014620519 0.09522214 -0.1871184 0.12858783 0.22724724
51 -0.077452965 -0.22584611 -0.057579484 -0.1545641 0.04587622 0.008367534 0.39813986 -0.14963055 0.11368417 0.051015414 -0.1412972 0.2898287 -0.0839191 -0.18217716 -0.46377602 -0.37482268 -0.103111655 0.2106841 -0.34196153 0.13483833 0.4405217 -0.010034299 0.17619094 0.047516227 0.25774443 -0.047873355 -0.4378669 -0.13628182 -0.21206756 -0.05326812 -0.067754835 0.106193185 -0.16925329 -0.09888307 0.1817616 0.06703296 -0.04137644 0.08142233 -0.25883952 -0.19061834 -0.123151116 0.47231206 0.030202676 0.08622012 0.015108047 0.52590364 0.14843734 -0.24543564 0.16404088 0.04035276 -0.25352138 -0.032147408 0.52694297 -0.19384715 0.0033871774 -0.14972106 0.18305635 -0.105515964 -0.1115861 -0.2679939 -0.014004061 0.15752414 -0.10013258 -0.079825215
60 -0.102322705 -0.052358665 -0.20850319 -0.10853812 0.21759169 0.12482053 0.21656112 0.30062675 -0.06666607 0.0029827473 -0.034515135 0.2538722 -0.062012263 -0.019421523 -0.19234172 -0.1609495 -0.14724499 -0.14209825 -0.41211236 0.16837071 0.26967376 -0.20412397 0.27113777 0.2117431 0.16511953 -0.08325224 -0.5369462 -0.07176202 -0.2739206 -0.023574634 0.030182302 0.20222671 -0.12853894 0.05538896 -0.01721962 -0.06610677 -0.077583596 -0.028355042 -0.011296462 -0.09199142 -0.28621295 0.19555905 0.20725682 0.1122538 -0.28059173 0.4568033 0.11363949 -0.14981154 -0.06486045 0.056023132 0.3248179 -0.0014379609 0.05265648 -0.14566399 -0.103887014 -0.37290692 0.34364998 -0.08543589 -0.33462527 -0.49138635 0.23390055 0.081742086 -0.31213117 -0.08751517
58 -0.054152668 -0.2517636 -0.054992277 -0.1400971 0.016586205 0.007911863 0.35440361 -0.09131627 0.075331 0.061293382 -0.1574387 0.27520096 -0.0585035 -0.1486674 -0.39467114 -0.3272785 -0.08431047 0.12572254 -0.29918876 0.13006473 0.3745966 -0.018862318 0.16591044 0.042892244 0.23208077 -0.082678355 -0.4090896 -0.08578625 -0.20952387 -0.06530738 -0.061001 0.08969387 -0.15171987 -0.10151872 0.12653662 0.061966512 -0.039093398 0.07820973 -0.19396746 -0.18639778 -0.14668414 0.40647984 0.06312997 0.092311755 -0.015124167 0.4566697 0.1271588 -0.24241874 0.098234855 0.056642022 -0.18290778 -0.0211289 0.4549906 -0.15883337 -0.046551257 -0.1686196 0.14198333 -0.04054148 -0.1203154 -0.24437077 -0.0044452464 0.06957392 -0.085810445 -0.095140636
50 -0.05939107 -0.2936063 -0.000750524 -0.104931355 0.02242435 -0.029450884 0.42448455 -0.13178541 0.101172805 0.049297187 -0.15264608 0.28204873 -0.055203352 -0.17733073 -0.42194495 -0.376276 -0.037659276 0.19158387 -0.31011748 0.16598849 0.3790087 -0.010007215 0.15985811 7.257452e-05 0.2661701 -0.046759207 -0.3904162 -0.05886842 -0.19611391 -0.13727407 -0.14249296 0.10281554 -0.18238752 -0.019848231 0.16937998 0.10098334 -0.06857712 0.065507255 -0.19193673 -0.19708167 -0.13371067 0.41679105 0.08675671 0.10345943 0.03212571 0.42266822 0.14502943 -0.37279835 0.1565591 0.09156063 -0.28042477 -0.017002352 0.5214721 -0.17678908 -0.078045554 -0.13725246 0.12515286 0.0020185732 -0.1258668 -0.24800919 -0.038631395 0.085130304 -0.12325132 -0.09306041
49 -0.058542486 -0.3123509 -0.009655071 -0.14061429 -0.014377959 -0.016703675 0.36274618 -0.15765387 0.106639765 0.046886284 -0.17680807 0.31840256 -0.05723785 -0.20875193 -0.4234907 -0.3601465 -0.09992505 0.14308459 -0.30423412 0.12871529 0.41465983 0.016458713 0.169982 -0.014284143 0.19864123 -0.03824054 -0.3912005 -0.09031409 -0.1817154 -0.10394416 -0.092882514 0.08388697 -0.15307806 -0.117346585 0.12921439 0.0637868 -0.0042249113 0.10166286 -0.21171938 -0.20894012 -0.15771075 0.4413566 0.050452746 0.11879122 0.001266031 0.46274465 0.1254061 -0.26931214 0.09009214 0.07319959 -0.28028318 -0.012457851 0.48604518 -0.16866767 -0.04105019 -0.16077612 0.07289451 -0.012150434 -0.09391476 -0.21105987 -0.034540772 0.055585977 -0.04354305 -0.06666551
59 -0.13109921 -0.3339305 0.042619176 -0.16734987 0.02222613 0.01993805 0.40177962 -0.21991313 0.07381009 0.023649186 -0.19640535 0.32769093 -0.04841916 -0.24185187 -0.55135334 -0.44145846 -0.1070169 0.24362683 -0.36418393 0.15584925 0.46871164 0.019614648 0.19217375 -0.026283352 0.17876276 -0.01856935 -0.45663157 -0.054433595 -0.21374267 -0.1746779 -0.17447814 0.1461503 -0.21467052 -0.113053665 0.20741186 0.10504455 -0.038372472 0.12722105 -0.2330453 -0.22652213 -0.1420907 0.5147642 0.038778786 0.123460636 0.03748612 0.55911934 0.1306986 -0.3384824 0.097883515 0.08008219 -0.36905816 -0.015499765 0.56576806 -0.20934954 -0.03261849 -0.17812234 0.07348151 0.0051065735 -0.13247955 -0.24626666 -0.0791783 0.15633194 -0.10371009 -0.113121346
45 -0.097209595 -0.041089315 -0.1552553 -0.10613455 0.23189525 0.13250905 0.202174 0.31847277 -0.05269091 0.011735759 -0.0096296575 0.2242664 -0.065530494 -0.026295604 -0.15036146 -0.14105731 -0.14036295 -0.1480282 -0.40516034 0.18929562 0.22168061 -0.203327 0.27396393 0.22620262 0.16848937 -0.04140527 -0.5029421 -0.06927887 -0.25292602 -0.038861196 -0.024485394 0.2257347 -0.13925728 0.10490815 -0.029748276 -0.095594324 -0.10512446 -0.041255157 -0.0073707127 -0.08265589 -0.3288661 0.111743234 0.22190402 0.15220696 -0.24973314 0.42621168 0.13564824 -0.1507166 -0.10813256 0.0734577 0.2982044 0.011699323 0.0028093674 -0.13465558 -0.12791596 -0.3357132 0.26191804 -0.10166032 -0.35435608 -0.4654306 0.24759458 0.055155702 -0.3076985 -0.06395449
41 -0.11621476 -0.118686095 -0.17671427 -0.08808411 0.18688762 0.064157054 0.20799771 0.2056545 -0.061631083 0.01014596 -0.033030856 0.25176823 -0.08452759 -0.06698937 -0.16440147 -0.16737595 -0.1532293 -0.1142837 -0.34134513 0.14659892 0.2826362 -0.11649343 0.22945367 0.19447356 0.107544705 -0.09729469 -0.49131882 -0.047056884 -0.23700024 0.0134556675 0.03458874 0.17402 -0.16548996 0.023924004 -0.042995244 -0.07546752 -0.032592602 0.013581906 -0.035708543 -0.139599 -0.2177783 0.23116839 0.1752187 0.096143775 -0.23664755 0.46765012 0.06614165 -0.09682069 -0.087936155 0.016993336 0.21950394 0.042709824 0.071618214 -0.12855864 -0.117628835 -0.31701824 0.28025693 -0.03051288 -0.2709477 -0.40518284 0.19554894 0.032426476 -0.25479904 -0.038198438
43 -0.1706805 0.009502879 -0.19730276 -0.14811797 0.23624389 0.16376805 0.15499307 0.3178 -0.06311654 0.014392951 0.0056457333 0.27437863 -0.056067407 -0.017113404 -0.17087273 -0.13879538 -0.26235008 -0.19644852 -0.44510415 0.16444531 0.2880045 -0.22219704 0.3242009 0.25933802 0.10527303 -0.0023150193 -0.54844415 -0.08278579 -0.27903855 -0.018007504 0.008890835 0.26828417 -0.12112045 0.04026414 -0.025160877 -0.14549454 -0.057038955 -0.015511332 -0.013849967 -0.06573287 -0.34904513 0.16900787 0.17702569 0.122371465 -0.31032318 0.5480581 0.129834 -0.055965718 -0.15024318 0.016157372 0.3513533 0.03803435 -0.018421141 -0.1571092 -0.09292744 -0.39467686 0.29879418 -0.14885221 -0.3902377 -0.53611076 0.3127424 0.096635655 -0.33006603 -0.08025763
57 -0.11749225 -0.31040803 0.017893137 -0.1415811 0.016631737 -0.0155159915 0.42113 -0.2301819 0.13480954 0.035816967 -0.17054035 0.34528774 -0.03529786 -0.23451424 -0.53620607 -0.4333092 -0.13455993 0.25212136 -0.35698277 0.15095386 0.47623962 0.005157286 0.19893391 -0.036679324 0.21623148 0.013629395 -0.40991816 -0.07014947 -0.19356027 -0.18703276 -0.18875036 0.1457489 -0.19397102 -0.07673701 0.22080377 0.10903404 -0.03579603 0.11034284 -0.240439 -0.20631729 -0.13087139 0.5419989 0.013533113 0.06965696 0.030348085 0.5384988 0.1431172 -0.37005937 0.1981552 0.077064835 -0.39681098 -0.0105438735 0.60871416 -0.23134759 -0.0023287288 -0.15070051 0.10549778 -0.02272006 -0.112963766 -0.2594483 -0.06959803 0.16090347 -0.13565695 -0.10743581
42 -0.1577521 -0.026654163 -0.1802877 -0.093424134 0.2727681 0.1201338 0.16768864 0.33217403 -0.11794378 -0.016963802 0.045217264 0.21968174 -0.07286905 -0.045695227 -0.12647419 -0.15157746 -0.16708423 -0.16040692 -0.38666672 0.16337335 0.24107374 -0.19800933 0.28388965 0.26887587 0.09229737 -0.07295796 -0.52504325 -0.030976402 -0.259613 -0.019554656 -0.00537376 0.24131137 -0.17046058 0.11971734 -0.04227706 -0.124359034 -0.059185706 -0.037628386 0.026373247 -0.096013784 -0.30500194 0.11837299 0.2457475 0.15602526 -0.30245093 0.4758829 0.09028786 -0.14614129 -0.14267808 0.03712036 0.33074138 0.032702338 -0.033980627 -0.13428073 -0.1775004 -0.39537972 0.32911873 -0.0825248 -0.39796022 -0.4888847 0.28570002 0.08548909 -0.38932228 -0.04289831
31 0.009829979 -0.35957742 0.119063206 0.051042125 0.016858436 -0.19304818 0.21021406 0.021378113 -0.036966015 -0.008926026 0.09587509 0.20294398 -0.060979296 -0.39876723 0.17440914 -0.24753827 0.010895435 -0.113687046 -0.07188078 0.027944878 0.13215142 0.10952556 0.05572898 0.08064029 -0.07921665 -0.03352 0.059099764 0.10092864 0.042984527 -0.05027981 -0.13942541 0.05268515 -0.25314316 0.2907419 -0.21240208 -0.21955815 0.34226713 0.064600155 0.121234216 -0.2330432 -0.25509876 -0.17723143 0.40217873 0.4470227 -0.12438375 0.032287557 0.068408296 -0.46673587 -0.19024868 0.086813234 -0.27053174 0.18513967 0.042445365 -0.02105792 -0.40929314 -0.07124464 -0.24419254 0.090331994 -0.18591933 0.09159423 0.1720386 -0.38480848 -0.17277631 0.3825356
35 0.43891025 -0.27392772 -0.07432862 0.043405056 -0.052517373 -0.1598375 0.53319937 0.18082447 0.090652026 0.12143158 -0.05194507 0.1251995 -0.19420043 -0.25090122 0.32186553 -0.23257346 0.36841577 -0.20369768 0.10527837 0.20357461 0.08621634 0.025597202 -0.03854491 0.2700838 0.54597855 -0.29954058 0.14438015 -0.22521971 -0.09983947 0.09033995 0.085994445 -0.253537 -0.25319046 0.2447349 -0.30310458 -0.13260172 0.37727493 -0.22582869 0.10663596 -0.19476783 -0.29302144 -0.3292935 0.5907025 0.6429542 0.09966553 -0.35653952 0.2463739 -0.6069362 0.13795316 0.18577132 0.038712155 -0.058706574 0.23003499 0.13344933 -0.28553715 0.12042879 -0.054144967 -0.19743335 -0.07901795 0.14361003 0.013534074 -0.48048693 0.12483763 0.44803613
34 0.37853903 -0.30434713 -0.024723433 0.028273653 -0.07200577 -0.17318162 0.5016547 0.107586734 0.074078426 0.10156138 -0.08689444 0.12930691 -0.17128323 -0.28825286 0.27926263 -0.2443157 0.34191653 -0.18204345 0.11601797 0.18042772 0.10589415 0.06544626 -0.042222317 0.21509318 0.4751756 -0.27577993 0.1614204 -0.19913043 -0.08512441 0.05863399 0.08498508 -0.24009468 -0.24418202 0.18637912 -0.27806193 -0.119228266 0.4127541 -0.1673917 0.092057556 -0.195329 -0.2849355 -0.28047085 0.5398479 0.6308998 0.11603299 -0.3376198 0.22711736 -0.57613397 0.10419933 0.18339181 -0.043022 -0.04621403 0.25195098 0.13193612 -0.27658507 0.11145042 -0.13080634 -0.15993705 -0.04775453 0.17914861 -0.012682516 -0.46455488 0.14662609 0.44377202
19 0.40678093 -0.09080567 -0.1323018 -0.07355952 -0.2263277 0.019478353 0.26017198 0.17458187 0.3889091 0.24141666 -0.047175746 0.32296807 -0.114690736 -0.106481776 0.2900469 -0.009059615 -0.11364956 -0.49078676 0.002705226 0.10002219 0.12961267 -0.12054225 0.17411241 0.2812081 0.51307577 -0.030888135 0.17513345 -0.48798105 -0.026481187 0.13486624 0.10602822 -0.17624697 0.011657344 -0.14656691 -0.30796292 -0.36047655 0.4781461 -0.13582946 -0.06925092 -0.071990885 -0.48560512 -0.21594039 0.18673258 0.43761858 0.012261864 -0.03902652 0.32358196 -0.13301547 0.108332425 0.051415473 0.11434237 -0.027915183 0.08446819 0.027940081 0.12509371 0.22455661 -0.18954374 -0.49242014 0.0028146692 0.06386445 0.17396429 -0.49076837 0.33861122 0.3867879
20 0.40870953 -0.10752921 -0.085320465 -0.051064223 -0.19845188 -0.01732646 0.296066 0.21563923 0.3402615 0.23198108 -0.04340821 0.27031428 -0.117210455 -0.119165525 0.33993113 -0.021076057 -0.047691084 -0.47186244 -0.011344804 0.08648258 0.108431906 -0.12712915 0.14136471 0.30096316 0.5721546 -0.051867656 0.21524374 -0.4275298 -0.02608611 0.08570493 0.08061734 -0.15775506 -0.011079451 -0.047814146 -0.29004684 -0.32615077 0.4528067 -0.17211142 -0.039298844 -0.080516726 -0.50322366 -0.25716493 0.2536537 0.47767922 0.03612987 -0.11194518 0.33405384 -0.20293772 0.1048474 0.095924 0.1043633 -0.0405188 0.106841944 0.047051597 0.04869766 0.24818757 -0.1967789 -0.471819 -0.025444208 0.06642726 0.19403833 -0.5150915 0.29433954 0.3833217
44 -0.13729668 -0.16374516 -0.11258568 -0.12130184 0.13912834 0.02659751 0.22892027 0.06526356 -0.006269732 0.023588821 -0.06600078 0.27495122 -0.084783986 -0.15587467 -0.26775712 -0.23391896 -0.17775784 -0.011538224 -0.35853207 0.11524866 0.35129455 -0.05000784 0.20654859 0.13609935 0.11129493 -0.044912137 -0.42801344 -0.020399204 -0.19405968 -0.028599652 -0.022333065 0.17352197 -0.17555125 -0.028373353 0.041353177 -0.050199963 -0.019545216 0.089717366 -0.10327198 -0.17841108 -0.20892583 0.35407853 0.10069571 0.0936823 -0.17247874 0.4946798 0.06447645 -0.12322758 -0.052645378 0.024321634 -0.0071582966 0.04056625 0.22438078 -0.16639368 -0.06809749 -0.25996864 0.1949795 -0.04919442 -0.21523279 -0.3472144 0.1334209 0.042311843 -0.20976645 -0.053177826
4 0.41814408 -0.28829792 -0.052713137 0.0037247885 -0.07482955 -0.17245024 0.47985387 0.1416135 0.089417614 0.118427396 -0.06554382 0.1256106 -0.18566933 -0.2852956 0.31195933 -0.24319005 0.33743194 -0.20862478 0.12064198 0.1495924 0.11472749 0.07641468 -0.06312144 0.2659719 0.48713422 -0.30159962 0.14780957 -0.21268706 -0.07503681 0.116559245 0.12188637 -0.2702465 -0.244547 0.16066168 -0.30627325 -0.1525808 0.4180326 -0.17271039 0.07659355 -0.2146048 -0.27088588 -0.31216267 0.56469566 0.6572826 0.12211865 -0.31496033 0.23209423 -0.52275866 0.08264995 0.15481718 -0.016650494 -0.046535935 0.23156597 0.16158429 -0.3037365 0.13801923 -0.10539685 -0.18775553 -0.040498715 0.20500882 0.026932394 -0.5005092 0.1878742 0.4665775
10 0.31102782 -0.13245414 -0.13186935 -0.023065034 -0.08822072 -0.038572896 0.30450377 0.12229112 0.2061784 0.12172126 0.02052934 0.19812748 -0.1533346 -0.1911333 0.24839228 -0.11888592 0.057562113 -0.26841012 0.038108274 0.10241418 0.14166577 0.005105725 0.067983165 0.2763143 0.3297732 -0.13855387 0.10786555 -0.3316329 -0.057208702 0.16268133 0.09807076 -0.1941688 -0.122314274 0.02390127 -0.27902222 -0.28026775 0.4327144 -0.115872465 -0.016295379 -0.13885275 -0.30471554 -0.22421046 0.3163893 0.48226526 0.020872185 -0.053459477 0.21226005 -0.24499495 0.08000882 0.020865735 0.04620319 0.020459162 0.11359635 0.06376499 -0.077689745 0.12235982 -0.08524462 -0.33193645 -0.05367371 0.107223354 0.114937946 -0.36882293 0.16783577 0.40589774
33 0.1439874 -0.4332949 0.14018068 0.13242717 -0.0031540191 -0.279735 0.28448492 0.1302338 0.07916608 0.05600698 0.11872091 0.2105257 -0.1167993 -0.44339857 0.3789343 -0.1629733 0.06385929 -0.22139797 -0.0977796 0.03720031 0.06810598 0.09692601 0.057407133 0.078706205 0.04750517 -0.04976644 0.19039813 0.07988369 0.1265827 -0.021429243 -0.15347832 0.04116974 -0.24595095 0.45144093 -0.34170857 -0.30980277 0.38394454 0.04380152 0.12391765 -0.24711376 -0.35954309 -0.2923906 0.49562067 0.5144338 -0.13415156 -0.11075447 0.12657076 -0.57549447 -0.17145222 0.15483224 -0.28555402 0.2297669 0.029085586 -0.012002017 -0.47115648 0.08742182 -0.36283043 0.07448629 -0.13589448 0.16399868 0.23792012 -0.6269959 -0.15372607 0.5277797
36 0.45933914 -0.29701418 -0.049604874 0.02214735 -0.048988096 -0.20311004 0.5599838 0.15769859 0.13545568 0.15804757 -0.08866044 0.107380554 -0.22226028 -0.24413128 0.2873843 -0.21173444 0.35126197 -0.16204609 0.042568494 0.15834568 0.10060454 0.05943389 -0.0548349 0.24250321 0.5945676 -0.32370296 0.12136951 -0.21595478 -0.08337245 0.11008156 0.099972114 -0.23059446 -0.23274994 0.23016608 -0.27027744 -0.09901239 0.29641125 -0.18817727 0.016464531 -0.22445756 -0.24642228 -0.22757395 0.52355856 0.568306 0.13575156 -0.31452143 0.24838226 -0.55355686 0.16807505 0.20453033 -0.02805512 -0.05137783 0.30881342 0.11559199 -0.2560225 0.20708175 -0.062023215 -0.17370324 -0.027943276 0.15691869 8.405725e-06 -0.48795968 0.15120369 0.40780136
46 -0.13876233 0.026699588 -0.20093824 -0.12644225 0.30514446 0.23788385 0.15520005 0.46613964 -0.10140968 0.019326754 0.055733725 0.2325073 -0.10443269 0.030494759 -0.12185013 -0.10345263 -0.22088379 -0.2446825 -0.55070513 0.17664243 0.20315924 -0.29638252 0.34383792 0.34938562 0.18106884 -0.044299573 -0.62958354 -0.07355854 -0.29443973 -0.005342067 -0.011617766 0.32997763 -0.124546476 0.14064005 -0.04459272 -0.17500915 -0.16907005 -0.06958136 0.00050967425 -0.05461224 -0.42106882 0.0795321 0.25234044 0.16486685 -0.3588701 0.5973391 0.15634133 -0.05874272 -0.23070216 0.04537891 0.46888986 0.035081413 -0.12484101 -0.14852525 -0.17390078 -0.3980814 0.33783653 -0.17094377 -0.47176683 -0.6066893 0.40340567 0.06666989 -0.41007733 -0.106893115
18 0.36340424 -0.08187958 -0.20000497 -0.09055907 -0.25387564 -0.0070422995 0.1931409 0.17692561 0.45910302 0.31570306 -0.077079006 0.413012 -0.10550477 -0.06713534 0.29802516 0.06715993 -0.27352628 -0.582237 -0.053409964 0.06059965 0.18731935 -0.12635028 0.2272131 0.26753303 0.52186584 -0.008347737 0.14477924 -0.50086373 -0.0003313006 0.18676186 0.16412091 -0.12628728 0.06526955 -0.24702327 -0.32006055 -0.39860368 0.46987733 -0.07116791 -0.12555099 -0.086059555 -0.49522075 -0.029222064 0.028522223 0.27458444 -0.053892475 0.0774865 0.26507682 0.06173658 0.103858896 0.0039288667 0.15330048 -0.00058435457 0.09313002 0.001747844 0.22920656 0.26867926 -0.15568885 -0.5002698 0.056143172 0.0010544598 0.2245962 -0.55054814 0.37031445 0.33370984
47 -0.16973887 -0.07111983 -0.19934593 -0.10893815 0.31259987 0.14181763 0.18261106 0.4417318 -0.14125584 -0.005362574 -0.008639805 0.24658768 -0.07288262 -0.02413491 -0.1326437 -0.11247164 -0.17650235 -0.21878849 -0.5403768 0.19584824 0.23064023 -0.24557711 0.29672337 0.25275 0.147954 -0.08173909 -0.6350177 0.02880454 -0.2925019 -0.06884996 -0.010002233 0.31572303 -0.13308981 0.15286216 -0.057778005 -0.09957923 -0.18136817 -0.02194466 0.015916295 -0.1216895 -0.3808728 0.15573095 0.26632872 0.109114766 -0.36364123 0.523696 0.11532754 -0.149972 -0.22325772 0.097226046 0.41746312 0.0560148 -0.07764137 -0.17665969 -0.21610977 -0.44515222 0.32213932 -0.013428302 -0.4253178 -0.6006409 0.34989175 0.026304055 -0.44323865 -0.11698522
6 0.43945253 -0.11877446 -0.17489669 -0.033833068 -0.17851251 -0.037606556 0.38414878 0.17386115 0.3169497 0.21282312 -0.05596888 0.24713184 -0.14637476 -0.13430724 0.27162844 -0.07191287 0.055716097 -0.3729067 0.068668075 0.13492708 0.1273193 -0.07179708 0.08577419 0.2606109 0.54914683 -0.16417214 0.13484174 -0.4701263 -0.07058271 0.1875924 0.15686354 -0.26062733 -0.04859433 -0.060807925 -0.3010399 -0.27236667 0.44127616 -0.16103135 -0.06103883 -0.11874139 -0.37068778 -0.21019943 0.29669696 0.46056846 0.029550735 -0.13595565 0.3000508 -0.25869 0.19918062 0.07988124 0.12729986 -0.043503452 0.16810623 0.057535056 0.042450145 0.17447574 -0.070138395 -0.43501967 0.0057983925 0.0718864 0.097794674 -0.42669445 0.29363132 0.39212093
48 -0.13773179 0.05001123 -0.2506625 -0.14467567 0.2976336 0.18154883 0.14797391 0.44723883 -0.106588624 0.01071128 0.013544602 0.23157836 -0.076482825 0.023019463 -0.10874839 -0.099888474 -0.20697683 -0.25477377 -0.47704646 0.1882014 0.24418592 -0.26159945 0.30129966 0.32661256 0.1595775 -0.06809677 -0.6145164 -0.08664093 -0.30774578 0.024905441 0.073263876 0.26212385 -0.10176116 0.082178354 -0.087696575 -0.16460447 -0.1091834 -0.060734287 -0.0034281954 -0.07298688 -0.38054374 0.10197589 0.24387014 0.13633423 -0.34048757 0.5310027 0.1324418 -0.03033044 -0.19429539 0.030124256 0.4966064 0.034477115 -0.109129705 -0.12584485 -0.1496703 -0.40468147 0.36133456 -0.142496 -0.42537573 -0.57881266 0.37639776 0.07255083 -0.36627078 -0.08216263
32 0.06939865 -0.497068 0.1424703 0.08959019 0.00095942564 -0.29236156 0.30979073 0.02776398 -0.088753775 -0.014330784 0.048009347 0.16410422 -0.10289562 -0.5002958 0.29102296 -0.27709278 0.18328749 -0.13794728 0.005843983 0.0565656 0.10172171 0.20029157 -0.032928303 0.06440145 -0.06378236 -0.13404946 0.13242307 0.17312805 0.05871428 -0.03763606 -0.10533665 -0.031390466 -0.31349745 0.3758046 -0.32053858 -0.2178116 0.4306987 0.07975579 0.1855593 -0.30600315 -0.27218238 -0.28601933 0.5749908 0.5962792 -0.09304592 -0.15189947 0.07736257 -0.6132396 -0.23662612 0.14658462 -0.3223216 0.20701791 0.05237841 0.041157924 -0.58191526 -0.07131663 -0.3453064 0.1897048 -0.15580852 0.2134502 0.13724323 -0.5492458 -0.13496761 0.5289856
0 0.071116745 -0.4146003 0.07343598 0.06700513 0.030834205 -0.22809948 0.23282942 0.12560913 -0.080045745 -0.009973698 0.11528138 0.17380643 -0.1060288 -0.44196886 0.32559875 -0.23503996 0.11728838 -0.20477857 -0.041631997 0.03485198 0.08424809 0.12466869 0.0121367965 0.1323659 -0.07289657 -0.12810254 0.09816431 0.11965684 0.047793854 0.0023197765 -0.0680799 -0.0011761349 -0.28416568 0.36121273 -0.32678345 -0.27601987 0.41007522 0.04741631 0.19323963 -0.29126614 -0.3019034 -0.30695927 0.5361419 0.5655939 -0.16444336 -0.06681607 0.066197395 -0.5179861 -0.25743374 0.11125659 -0.19699296 0.20293266 -0.048090454 0.029092621 -0.5414135 -0.086360015 -0.25913635 0.1321536 -0.20843174 0.14676605 0.21196848 -0.525657 -0.1731894 0.5002222
17 0.26578516 -0.12761027 -0.16947897 -0.12503637 -0.28350127 -0.00057861325 0.1686786 0.087168254 0.35516635 0.25496835 -0.12678856 0.417573 -0.04050965 -0.07856845 0.143783 -0.0033551631 -0.25979197 -0.5192148 0.0143844895 0.06691792 0.22724 -0.08193377 0.2394128 0.19394664 0.34541962 -0.019632373 0.06234872 -0.46267772 -0.048012808 0.16314264 0.18334745 -0.15264407 0.043905064 -0.36780897 -0.2988919 -0.3443715 0.5030599 -0.023817092 -0.09920756 -0.086399585 -0.42291412 -0.011022709 0.044701632 0.296952 -0.06948287 0.11082948 0.23417778 0.061081376 0.049023237 -0.014989416 0.1189289 -0.012935121 0.09547008 -0.01596315 0.20244703 0.08711929 -0.14965005 -0.39237258 0.03196129 0.009693058 0.1482973 -0.43729264 0.3763103 0.2766857
16 0.20471877 -0.10820454 -0.12651782 -0.11920914 -0.24574809 0.019168414 0.13923843 0.08514835 0.352518 0.23836224 -0.11186278 0.40885186 -0.03977936 -0.06776892 0.15418792 0.021716462 -0.32642674 -0.52157336 -0.046150524 0.053348012 0.21166354 -0.08942757 0.26209953 0.18524002 0.31113973 0.034575287 0.04450513 -0.41601127 -0.03484005 0.10589275 0.10993862 -0.06749666 0.04187894 -0.33231434 -0.26801673 -0.34823665 0.4476919 -0.016023649 -0.11000455 -0.087189265 -0.45056927 0.009511665 0.014783085 0.24055883 -0.074424945 0.16642398 0.22550292 0.08165083 0.008566331 -0.0011804414 0.10417432 0.027783202 0.06495747 -0.038659398 0.20171134 0.092322685 -0.1770276 -0.38287577 0.0142494 -0.034104135 0.19006106 -0.42050433 0.31316775 0.24274457
37 -0.15199383 -0.27478737 -0.06641728 -0.107760824 0.009878878 -0.02436689 0.09721463 -0.10245674 -0.07217332 -0.027690293 -0.059153818 0.27123937 -0.032971658 -0.3038103 -0.18071584 -0.27242166 -0.17460868 -0.032532137 -0.10061119 0.01290143 0.356437 0.13960391 0.18449621 0.13985825 -0.21310902 -0.083082646 -0.251645 -0.027307844 -0.14173716 0.07041081 0.07020807 0.04066056 -0.24673948 -0.18657674 -0.07732712 -0.15628102 0.27618387 0.14563547 -0.03641242 -0.20953023 -0.11455557 0.23438734 0.16858079 0.24068265 -0.17051025 0.439665 -0.019500317 -0.042359132 -0.17876436 -0.07278406 -0.1347896 0.12739798 0.13822621 -0.07301388 -0.16599393 -0.3044585 0.02302002 0.009683013 -0.15069926 -0.05251487 0.06849464 -0.07531984 -0.061523072 0.15820281
